{"learner":{"attributes":{"best_iteration":"15","best_ntree_limit":"16","best_score":"0.11084043848964677"},"feature_names":[],"feature_types":[],"gradient_booster":{"model":{"gbtree_model_param":{"num_parallel_tree":"1","num_trees":"19","size_leaf_vector":"0"},"tree_info":[0,0,0,0,0,0,0,0,0,0,0,0,0,0,0,0,0,0,0],"trees":[{"base_weights":[-7.3137337E-1,-8.859564E-1,-5.68197E-1,1.1666667E-1,-8.874798E-1,-6.389567E-1,-3.4668875E-1,-0E0,-8.8891584E-1,-2.8550723E-1,-6.6391873E-1,1.6875E-1,-3.701031E-1,1.1666667E-1,-1.1666667E-1,-9.4747025E-1,-8.1142354E-1,-3.439394E-1,3.375E-1,1.1666667E-1,-6.659091E-1,-1.8888889E-1,3.9166665E-1,2.7E-1,-3.8706294E-1,-2.35E-1,-8.2436824E-1,1.8888889E-1,-3.983871E-1,-6.111789E-1,-7.3266476E-1,-2.4285714E-1,-0E0,-0E0,4.7E-1,-0E0,3.375E-1,-5.1603776E-1,-3.010811E-1,-3.7222221E-1,2.4285714E-1,-8.75E-2,-8.2704175E-1,2.4285714E-1,-0E0,-4.471698E-1,-5E-2,-6.2723494E-1,4.375E-2,1.1666667E-1,-1.1666667E-1,1.1666667E-1,-1.1666667E-1,1.1666667E-1,-1.1666667E-1,-5.9390247E-1,-1.9655173E-1,-1.9323309E-1,-5.2105266E-1,1.1666667E-1,-4.5294118E-1,-2.4285714E-1,1.1666667E-1,-1.1666667E-1,1.1666667E-1,-5.8148146E-1,-2.483871E-1,1.5454546E-1,-3.375E-1,-6.699519E-1,-3.2428572E-1,-2.4285714E-1,1.9285715E-1,-1.9285715E-1,-6.260274E-1,1.5454546E-1,-3.347826E-1,-5.1944447E-1,-6.568628E-2,8.75E-2,-5.685185E-1,-0E0,-5.133333E-1,-7E-2,-6.6818184E-1,1.5E-1,-5.9444445E-1,-0E0,2.4285714E-1,2.4285714E-1,-3.632353E-1,4.7E-1,-1.8888889E-1,1.8888889E-1,-4.7E-1,-8.75E-2,3.375E-1,-0E0,-5.133333E-1,-7.08E-1,-4.375E-2,2.9375E-1,-1.2857144E-1,-1.1666667E-1,2.4285714E-1,-6.357143E-1,-2.1764706E-1,-1.1666667E-1,1.1666667E-1,-3.375E-1,2.4285714E-1,-3.375E-1,3.8E-1,8.75E-2,-1.1666667E-1,-3.953846E-1,8.75E-2,-3.375E-1,1.1666667E-1,-1.1666667E-1,3.375E-1,-2.4285714E-1,1.1666667E-1,-2.7E-1,3.375E-1,-7.590909E-1,-8.75E-2,5E-2,-2.4285714E-1,-1.8888889E-1,5.5833334E-1,2.4666667E-1,-1.9382717E-1,-0E0,-6.675E-1,3.375E-1,-4.7857141E-1,5.181818E-1,-0E0,-1.1666667E-1,2.4285714E-1,-2.2291666E-1,-6.6818184E-1,2.4285714E-1,-1.1666667E-1,1.1666667E-1,-2.4285714E-1,-8.75E-2,1.5454546E-1,1.1666667E-1,-3.375E-1,4.3846154E-1,-2.4285714E-1,-3.1470588E-1,-9.038462E-2,-1.1666667E-1,1.1666667E-1,-2.4285714E-1,2.4285714E-1,-3.5277778E-1,1E-1,-8.75E-2,-7.2105265E-1,1.1666667E-1,-2.4285714E-1,3.375E-1,-8.75E-2,-1.1666667E-1,5.5833334E-1,-4.0344828E-1,7E-2,5.181818E-1,-2.3260869E-1,-4.8846152E-1,-0E0,3.375E-1,-5E-2,-2.4285714E-1,1.1666667E-1,-0E0,-1.1666667E-1,-1.35E-1,-6.2142855E-1,2.4285714E-1,-8.75E-2,-2.9166667E-2,-3.5925925E-1,-5E-2,-6.882353E-1,-3.3636364E-1,4.1111112E-1,-2.4285714E-1,5.8333334E-2,-1.1666667E-1,1.1666667E-1,-2.611111E-1,2.4285714E-1,-2.4285714E-1,1.1666667E-1,-2.7E-1,8.947369E-2,-5.8333334E-2,-4.35E-1,-3.375E-1,1.5454546E-1,3.375E-1,-1.8888889E-1,-0E0,-3.9166665E-1,1.1666667E-1,-4.1111112E-1,-1.5454546E-1,2.846154E-1,-4.1111112E-1,3.375E-1,-0E0,2.4285714E-1,-3.375E-1,1.1666667E-1,1.8888889E-1,-2.4285714E-1,-4.7E-1,-0E0,-2.7E-1,1.1666667E-1,3.3636364E-1,-0E0,8.75E-2,-1.1666667E-1,2.4285714E-1,-0E0,1.1666667E-1,-1.1666667E-1,-0E0,-3.375E-1,4.1111112E-1,-0E0,-1.1666667E-1,1.1666667E-1],"categories":[],"categories_nodes":[],"categories_segments":[],"categories_sizes":[],"default_left":[1,1,1,1,1,1,1,1,1,1,1,1,1,1,1,1,1,1,1,0,1,1,1,1,1,1,1,1,1,1,0,1,1,1,1,1,1,1,1,1,1,1,1,1,1,1,1,1,1,1,1,1,1,1,1,1,1,1,1,1,1,1,1,1,1,1,1,1,1,1,1,1,1,1,1,1,1,1,1,1,1,1,1,1,1,1,1,1,1,1,1,1,1,1,1,1,1,1,1,1,1,1,1,1,1,1,1,1,1,1,1,1,1,1,1,1,1,1,1,1,1,1,1,1,1,1,1,1,1,1,1,1,1,1,1,1,1,1,1,1,1,1,1,1,1,1,1,1,1,1,1,1,1,1,1,1,1,1,1,1,1,1,1,1,1,1,1,1,1,1,1,0,1,1,1,1,1,1,1,1,1,1,1,1,1,1,1,1,1,1,1,1,1,1,1,1,1,1,1,1,1,1,1,1,1,1,1,1,1,1,1,1,1,1,1,1,1,1,1,1,1,1,1,1,1,1,1,1,1,1,1,1,1,1,1,1,1,1,1],"id":0,"left_children":[1,-1,5,-1,-1,9,11,-1,-1,-1,19,-1,23,-1,-1,-1,-1,-1,-1,-1,29,-1,-1,-1,37,-1,-1,-1,-1,47,-1,-1,-1,-1,-1,-1,-1,-1,57,-1,-1,-1,-1,-1,-1,-1,-1,-1,-1,-1,-1,-1,-1,-1,-1,-1,-1,77,-1,-1,-1,-1,-1,-1,-1,-1,-1,-1,-1,-1,-1,-1,-1,-1,-1,-1,-1,-1,101,-1,-1,-1,-1,-1,-1,-1,-1,-1,-1,-1,-1,-1,-1,-1,-1,-1,-1,-1,-1,-1,-1,-1,131,-1,-1,-1,-1,-1,-1,-1,-1,-1,-1,-1,-1,-1,-1,-1,-1,-1,-1,-1,-1,-1,-1,-1,-1,-1,-1,-1,-1,-1,153,-1,-1,-1,-1,-1,-1,-1,-1,-1,-1,-1,-1,-1,-1,-1,-1,-1,-1,-1,-1,-1,171,-1,-1,-1,-1,-1,-1,-1,-1,-1,-1,-1,-1,-1,-1,-1,-1,-1,-1,-1,-1,-1,-1,-1,-1,-1,-1,-1,-1,-1,-1,-1,-1,-1,-1,-1,-1,-1,-1,-1,-1,-1,-1,-1,-1,-1,-1,-1,-1,-1,-1,-1,-1,-1,-1,-1,-1,-1,-1,-1,-1,-1,-1,-1,-1,-1,-1,-1,-1,-1,-1,-1,-1,-1,-1,-1,-1,-1,-1,-1,-1,-1,-1,-1,-1],"loss_changes":[5.8392212E1,2.6414185E0,1.7373993E1,0E0,1.5778198E0,6.7167664E0,4.017418E0,1.6333333E-1,1.2366333E0,3.094181E0,1.8535767E0,1.7063193E0,3.7167625E0,0E0,0E0,0E0,2.9592285E0,2.353848E0,0E0,0E0,4.1229248E-1,9.174603E-2,3.681668E-1,1.8225002E-1,2.1496162E0,1.8022459E0,4.5516968E-1,9.174603E-2,7.9276276E-1,5.485916E0,0E0,0E0,1.6333333E-1,1.6333333E-1,0E0,1.6333333E-1,0E0,1.8161278E0,3.6711369E0,1.0754249E0,0E0,4.3327376E-1,0E0,0E0,1.6333333E-1,4.4391537E-1,1.1389773E0,4.840088E0,9.029464E-1,0E0,0E0,0E0,0E0,0E0,0E0,2.0711708E-1,1.7202084E0,5.187619E0,2.039505E0,0E0,4.650197E-1,0E0,0E0,0E0,0E0,7.42013E-1,4.852975E0,1.5012985E-1,0E0,0E0,2.0234842E0,0E0,2.009397E0,2.009397E0,0E0,7.097727E-1,1.3748407E0,2.8486137E0,2.4448125E0,4.3327376E-1,3.253479E-1,1.6333333E-1,0E0,1.2751071E0,0E0,2.67225E0,0E0,1.4291666E-1,0E0,0E0,1.2507219E0,0E0,6.7180556E-1,6.7180556E-1,0E0,4.3327376E-1,0E0,1.64025E0,0E0,2.0646858E-1,4.1723213E-1,2.6813195E0,2.4514675E0,0E0,0E0,8.486786E-1,3.3123846E0,0E0,0E0,0E0,0E0,0E0,7.876363E-1,4.3327376E-1,0E0,2.0460958E0,4.3327376E-1,0E0,0E0,0E0,0E0,0E0,0E0,0E0,0E0,0E0,4.3327376E-1,2.8897727E-1,0E0,6.7180556E-1,0E0,1.9994214E0,7.490742E-1,1.6333333E-1,0E0,0E0,0E0,0E0,8.2571423E-1,0E0,0E0,2.2650692E0,1.1739826E-1,0E0,0E0,0E0,0E0,4.3327376E-1,7.097727E-1,0E0,0E0,1.3232691E0,0E0,1.4019918E0,5.017742E0,0E0,0E0,0E0,0E0,1.7231836E0,7.7625E-1,4.3327376E-1,0E0,0E0,0E0,0E0,2.0416666E-2,0E0,0E0,1.0505838E0,4.2510712E-1,0E0,1.0163183E0,1.8838916E0,2.7656565E0,0E0,4.1869044E-1,0E0,0E0,1.6333333E-1,0E0,1.2755792E0,0E0,0E0,4.3327376E-1,8.6068857E-1,3.405187E-1,1.1389773E0,0E0,0E0,0E0,0E0,1.1915277E0,0E0,0E0,6.136111E-1,0E0,0E0,0E0,8.7377775E-1,1.1636989E0,2.391528E0,0E0,0E0,1.5012985E-1,0E0,6.7180556E-1,7.339682E-1,3.681668E-1,0E0,0E0,5.4793936E-1,1.914686E-1,0E0,0E0,1.4291666E-1,0E0,0E0,0E0,9.174603E-2,0E0,0E0,1.6333333E-1,1.8225002E-1,0E0,2.7656555E-1,1.6333333E-1,0E0,0E0,0E0,0E0,0E0,0E0,0E0,0E0,0E0,0E0,0E0,0E0],"parents":[2147483647,0,0,1,1,2,2,4,4,5,5,6,6,7,7,8,8,9,9,10,10,11,11,12,12,16,16,17,17,20,20,21,21,22,22,23,23,24,24,25,25,26,26,27,27,28,28,29,29,32,32,33,33,35,35,37,37,38,38,39,39,41,41,44,44,45,45,46,46,47,47,48,48,55,55,56,56,57,57,58,58,60,60,65,65,66,66,67,67,70,70,72,72,73,73,75,75,76,76,77,77,78,78,79,79,80,80,81,81,83,83,85,85,87,87,90,90,92,92,93,93,95,95,97,97,99,99,100,100,101,101,102,102,105,105,106,106,112,112,113,113,115,115,116,116,126,126,127,127,129,129,131,131,132,132,133,133,138,138,141,141,142,142,147,147,148,148,151,151,153,153,154,154,159,159,160,160,161,161,166,166,169,169,170,170,172,172,173,173,174,174,176,176,179,179,181,181,184,184,185,185,186,186,187,187,192,192,195,195,199,199,200,200,201,201,204,204,206,206,207,207,208,208,211,211,212,212,215,215,219,219,222,222,223,223,225,225,226,226],"right_children":[2,-1,6,-1,-1,10,12,-1,-1,-1,20,-1,24,-1,-1,-1,-1,-1,-1,-1,30,-1,-1,-1,38,-1,-1,-1,-1,48,-1,-1,-1,-1,-1,-1,-1,-1,58,-1,-1,-1,-1,-1,-1,-1,-1,-1,-1,-1,-1,-1,-1,-1,-1,-1,-1,78,-1,-1,-1,-1,-1,-1,-1,-1,-1,-1,-1,-1,-1,-1,-1,-1,-1,-1,-1,-1,102,-1,-1,-1,-1,-1,-1,-1,-1,-1,-1,-1,-1,-1,-1,-1,-1,-1,-1,-1,-1,-1,-1,-1,132,-1,-1,-1,-1,-1,-1,-1,-1,-1,-1,-1,-1,-1,-1,-1,-1,-1,-1,-1,-1,-1,-1,-1,-1,-1,-1,-1,-1,-1,154,-1,-1,-1,-1,-1,-1,-1,-1,-1,-1,-1,-1,-1,-1,-1,-1,-1,-1,-1,-1,-1,172,-1,-1,-1,-1,-1,-1,-1,-1,-1,-1,-1,-1,-1,-1,-1,-1,-1,-1,-1,-1,-1,-1,-1,-1,-1,-1,-1,-1,-1,-1,-1,-1,-1,-1,-1,-1,-1,-1,-1,-1,-1,-1,-1,-1,-1,-1,-1,-1,-1,-1,-1,-1,-1,-1,-1,-1,-1,-1,-1,-1,-1,-1,-1,-1,-1,-1,-1,-1,-1,-1,-1,-1,-1,-1,-1,-1,-1,-1,-1,-1,-1,-1,-1,-1],"split_conditions":[8.027326E-3,-2.6578695E-1,1.515627E-2,3.5E-2,-2.6624393E-1,3.921923E-1,1.5310278E-2,-0E0,-2.6667476E-1,-8.565217E-2,8.041128E-3,5.0625004E-2,3.3099723E-1,3.5E-2,-3.5E-2,-2.8424108E-1,-2.4342707E-1,-1.03181824E-1,1.0125001E-1,3.5E-2,6.241319E-1,-5.666667E-2,1.175E-1,8.100001E-2,1.7377038E-2,-7.05E-2,-2.4731047E-1,5.666667E-2,-1.19516134E-1,6.1983013E-1,-2.1979944E-1,-7.285715E-2,-0E0,-0E0,1.41E-1,-0E0,1.0125001E-1,-1.5481134E-1,7.530738E-1,-1.1166667E-1,7.285715E-2,-2.6250001E-2,-2.4811253E-1,7.285715E-2,-0E0,-1.3415095E-1,-1.5000001E-2,-1.881705E-1,1.31250005E-2,3.5E-2,-3.5E-2,3.5E-2,-3.5E-2,3.5E-2,-3.5E-2,-1.7817074E-1,-5.896552E-2,4.6945763E-1,-1.563158E-1,3.5E-2,-1.3588236E-1,-7.285715E-2,3.5E-2,-3.5E-2,3.5E-2,-1.7444444E-1,-7.451613E-2,4.6363637E-2,-1.0125001E-1,-2.0098558E-1,-9.728572E-2,-7.285715E-2,5.7857145E-2,-5.7857145E-2,-1.8780823E-1,4.6363637E-2,-1.0043479E-1,-1.5583335E-1,1.7977111E-2,2.6250001E-2,-1.7055556E-1,-0E0,-1.54E-1,-2.1000002E-2,-2.0045456E-1,4.5E-2,-1.7833334E-1,-0E0,7.285715E-2,7.285715E-2,-1.0897059E-1,1.41E-1,-5.666667E-2,5.666667E-2,-1.41E-1,-2.6250001E-2,1.0125001E-1,-0E0,-1.54E-1,-2.124E-1,-1.31250005E-2,8.8125E-2,5.026562E-1,-3.5E-2,7.285715E-2,-1.907143E-1,-6.5294124E-2,-3.5E-2,3.5E-2,-1.0125001E-1,7.285715E-2,-1.0125001E-1,1.14E-1,2.6250001E-2,-3.5E-2,-1.1861539E-1,2.6250001E-2,-1.0125001E-1,3.5E-2,-3.5E-2,1.0125001E-1,-7.285715E-2,3.5E-2,-8.100001E-2,1.0125001E-1,-2.2772728E-1,-2.6250001E-2,1.5000001E-2,-7.285715E-2,-5.666667E-2,1.675E-1,7.4E-2,6.0961103E-1,-0E0,-2.0025001E-1,1.0125001E-1,-1.4357144E-1,1.5545455E-1,-0E0,-3.5E-2,7.285715E-2,-6.6875E-2,-2.0045456E-1,7.285715E-2,-3.5E-2,3.5E-2,-7.285715E-2,-2.6250001E-2,4.6363637E-2,3.5E-2,-1.0125001E-1,1.3153847E-1,-7.285715E-2,-9.441177E-2,6.230972E-1,-3.5E-2,3.5E-2,-7.285715E-2,7.285715E-2,-1.0583334E-1,3.0000001E-2,-2.6250001E-2,-2.163158E-1,3.5E-2,-7.285715E-2,1.0125001E-1,-2.6250001E-2,-3.5E-2,1.675E-1,-1.2103449E-1,2.1000002E-2,1.5545455E-1,-6.978261E-2,-1.4653847E-1,-0E0,1.0125001E-1,-1.5000001E-2,-7.285715E-2,3.5E-2,-0E0,-3.5E-2,-4.0500004E-2,-1.8642858E-1,7.285715E-2,-2.6250001E-2,-8.75E-3,-1.0777778E-1,-1.5000001E-2,-2.064706E-1,-1.009091E-1,1.2333334E-1,-7.285715E-2,1.75E-2,-3.5E-2,3.5E-2,-7.833333E-2,7.285715E-2,-7.285715E-2,3.5E-2,-8.100001E-2,2.6842108E-2,-1.75E-2,-1.305E-1,-1.0125001E-1,4.6363637E-2,1.0125001E-1,-5.666667E-2,-0E0,-1.175E-1,3.5E-2,-1.2333334E-1,-4.6363637E-2,8.538462E-2,-1.2333334E-1,1.0125001E-1,-0E0,7.285715E-2,-1.0125001E-1,3.5E-2,5.666667E-2,-7.285715E-2,-1.41E-1,-0E0,-8.100001E-2,3.5E-2,1.009091E-1,-0E0,2.6250001E-2,-3.5E-2,7.285715E-2,-0E0,3.5E-2,-3.5E-2,-0E0,-1.0125001E-1,1.2333334E-1,-0E0,-3.5E-2,3.5E-2],"split_indices":[0,0,0,2147483647,2147483647,1,0,2147483647,2147483647,1,0,1,1,2147483647,2147483647,2147483647,2147483647,2147483647,2147483647,0,1,2147483647,2147483647,0,0,2147483647,2147483647,2147483647,2147483647,1,0,2147483647,2147483647,2147483647,2147483647,2147483647,2147483647,1,1,2147483647,2147483647,2147483647,2147483647,2147483647,2147483647,2147483647,2147483647,0,0,2147483647,2147483647,2147483647,2147483647,2147483647,2147483647,2147483647,2147483647,1,0,2147483647,2147483647,2147483647,2147483647,2147483647,2147483647,2147483647,2147483647,2147483647,2147483647,2147483647,2147483647,2147483647,2147483647,2147483647,2147483647,2147483647,2147483647,0,0,2147483647,2147483647,2147483647,2147483647,2147483647,2147483647,2147483647,2147483647,2147483647,2147483647,2147483647,2147483647,2147483647,2147483647,2147483647,2147483647,2147483647,2147483647,2147483647,2147483647,2147483647,2147483647,0,1,2147483647,2147483647,2147483647,2147483647,2147483647,2147483647,2147483647,2147483647,2147483647,2147483647,2147483647,2147483647,2147483647,2147483647,2147483647,2147483647,2147483647,2147483647,2147483647,2147483647,2147483647,2147483647,2147483647,2147483647,2147483647,2147483647,2147483647,2147483647,0,1,2147483647,2147483647,2147483647,2147483647,2147483647,2147483647,2147483647,2147483647,2147483647,2147483647,2147483647,2147483647,2147483647,2147483647,2147483647,2147483647,2147483647,2147483647,2147483647,2147483647,0,1,2147483647,2147483647,2147483647,2147483647,2147483647,2147483647,2147483647,2147483647,2147483647,2147483647,2147483647,2147483647,2147483647,2147483647,2147483647,2147483647,0,0,2147483647,2147483647,2147483647,2147483647,2147483647,2147483647,2147483647,2147483647,2147483647,2147483647,2147483647,2147483647,2147483647,2147483647,2147483647,2147483647,2147483647,2147483647,2147483647,2147483647,2147483647,2147483647,2147483647,2147483647,2147483647,2147483647,2147483647,2147483647,2147483647,2147483647,2147483647,2147483647,2147483647,2147483647,2147483647,2147483647,2147483647,2147483647,2147483647,2147483647,2147483647,2147483647,2147483647,2147483647,2147483647,2147483647,2147483647,2147483647,2147483647,2147483647,2147483647,2147483647,2147483647,2147483647,2147483647,2147483647,2147483647,2147483647,2147483647,2147483647,2147483647,2147483647,2147483647,2147483647,2147483647,2147483647],"split_type":[0,0,0,0,0,0,0,0,0,0,0,0,0,0,0,0,0,0,0,0,0,0,0,0,0,0,0,0,0,0,0,0,0,0,0,0,0,0,0,0,0,0,0,0,0,0,0,0,0,0,0,0,0,0,0,0,0,0,0,0,0,0,0,0,0,0,0,0,0,0,0,0,0,0,0,0,0,0,0,0,0,0,0,0,0,0,0,0,0,0,0,0,0,0,0,0,0,0,0,0,0,0,0,0,0,0,0,0,0,0,0,0,0,0,0,0,0,0,0,0,0,0,0,0,0,0,0,0,0,0,0,0,0,0,0,0,0,0,0,0,0,0,0,0,0,0,0,0,0,0,0,0,0,0,0,0,0,0,0,0,0,0,0,0,0,0,0,0,0,0,0,0,0,0,0,0,0,0,0,0,0,0,0,0,0,0,0,0,0,0,0,0,0,0,0,0,0,0,0,0,0,0,0,0,0,0,0,0,0,0,0,0,0,0,0,0,0,0,0,0,0,0,0,0,0,0,0,0,0,0,0,0,0,0,0,0,0,0,0],"sum_hessian":[2.427E3,1.234E3,1.193E3,1E0,1.233E3,8.96E2,2.97E2,2E0,1.231E3,6.4E1,8.32E2,1.1E1,2.86E2,1E0,1E0,6.67E2,5.64E2,6.1E1,3E0,1E0,8.31E2,4E0,7E0,5E0,2.81E2,1.5E1,5.49E2,4E0,5.7E1,4.87E2,3.44E2,2E0,2E0,2E0,5E0,2E0,3E0,1.01E2,1.8E2,1.3E1,2E0,3E0,5.46E2,2E0,2E0,4.8E1,9E0,4.76E2,1.1E1,1E0,1E0,1E0,1E0,1E0,1E0,7.7E1,2.4E1,1.28E2,5.2E1,1E0,1.2E1,2E0,1E0,1E0,1E0,2.2E1,2.6E1,6E0,3E0,4.11E2,6.5E1,2E0,9E0,9E0,6.8E1,6E0,1.8E1,3.1E1,9.7E1,3E0,4.9E1,2E0,1E1,5E0,1.7E1,1.3E1,1.3E1,4E0,2E0,2E0,6.3E1,5E0,4E0,4E0,5E0,3E0,3E0,8E0,1E1,2E1,1.1E1,1.1E1,8.6E1,1E0,2E0,3.7E1,1.2E1,1E0,1E0,3E0,2E0,3E0,1E1,3E0,1E0,6E1,3E0,3E0,1E0,1E0,3E0,2E0,1E0,5E0,3E0,1.7E1,3E0,9E0,2E0,4E0,7E0,1E1,7.6E1,2E0,3.5E1,3E0,9E0,6E0,4E0,1E0,2E0,4.3E1,1.7E1,2E0,1E0,1E0,2E0,3E0,6E0,1E0,3E0,8E0,2E0,2.9E1,4.7E1,1E0,1E0,2E0,2E0,3.1E1,1.2E1,3E0,1.4E1,1E0,2E0,3E0,3E0,1E0,7E0,2.4E1,5E0,6E0,4.1E1,2.1E1,1E1,3E0,9E0,2E0,1E0,2E0,1E0,1.5E1,9E0,2E0,3E0,1.9E1,2.2E1,9E0,1.2E1,6E0,4E0,2E0,7E0,1E0,1E0,1.3E1,2E0,2E0,1E0,5E0,1.4E1,7E0,1.5E1,3E0,6E0,3E0,4E0,6E0,7E0,1E0,4E0,6E0,8E0,4E0,3E0,4E0,2E0,3E0,1E0,4E0,2E0,5E0,2E0,5E0,1E0,6E0,2E0,3E0,1E0,2E0,2E0,1E0,1E0,2E0,3E0,4E0,2E0,1E0,1E0],"tree_param":{"num_deleted":"208","num_feature":"2","num_nodes":"239","size_leaf_vector":"0"}},{"base_weights":[-7.269979E-1,-7.89257E-1,-2.8566775E-1,-8.860152E-1,-6.613319E-1,-2.1566264E-1,-5.3492063E-1,1.1666667E-1,-8.8760537E-1,-2.3518519E-1,-6.8333334E-1,-3.6639345E-1,-6.590909E-2,-6.675E-1,-2.3928571E-1,1.1666667E-1,-8.891983E-1,-3.34E-1,4.1111112E-1,1.1666667E-1,-6.85244E-1,5.8333334E-2,-3.973913E-1,-3.3414635E-1,4.895833E-2,2.4285714E-1,-3.3461538E-1,-9.380544E-1,-8.099796E-1,-0E0,-3.7954545E-1,1.8888889E-1,-8.75E-2,-4.4368932E-1,-0E0,-5.772727E-1,-2.9166667E-2,5.923077E-1,-3.0681819E-2,-0E0,-4.35E-1,1.1666667E-1,-8.136735E-1,-3.375E-1,3.375E-1,-5.5714285E-1,-1.6785714E-1,-1.1666667E-1,3.375E-1,1.1666667E-1,-2.4285714E-1,-1.22727275E-1,-4.9651164E-1,-3.375E-1,1.9285715E-1,-0E0,-7.0555556E-1,3.375E-1,-1.7619048E-1,3.3529413E-1,-1.14473686E-1,-2.4285714E-1,1.8888889E-1,-2.9375E-1,-8.219207E-1,8.75E-2,-7.0555556E-1,2.4285714E-1,-2.576923E-1,-3.8E-1,2.25E-1,-5.852459E-1,-2.2333333E-1,4.1111112E-1,-7E-2,-2.4285714E-1,2.4285714E-1,-2.611111E-1,8.75E-2,4.1875E-1,-1.1666667E-1,-2.3333333E-1,-1.4583333E-2,-1.1666667E-1,3.375E-1,-4.7857141E-1,2.4285714E-1,-0E0,-8.2536685E-1,-1.1666667E-1,2.4285714E-1,1.1666667E-1,-3.08E-1,-4.3846154E-1,-0E0,3.375E-1,-0E0,-5.8333334E-2,-6.425926E-1,3.375E-1,-3.5925925E-1,-2.4285714E-1,8.75E-2,-3.3529413E-1,1.1666667E-1,2.4285714E-1,-1.1666667E-1,-1.1666667E-1,5.133333E-1,-2.71875E-1,1.1666667E-1,3.9166665E-1,-1.3902439E-1,-1.1666667E-1,1.1666667E-1,-3.6666667E-1,-0E0,-5.181818E-1,-0E0,1.1666667E-1,-1.1666667E-1,2.4285714E-1,-2.4285714E-1,-3.375E-1,1.8888889E-1,-6.607843E-1,-8.75E-2,-3.88E-1,-0E0,2.4285714E-1,-1.1666667E-1,-0E0,-3.625E-1,-1.1666667E-1,5.181818E-1,-5.181818E-1,-0E0,-4.5294118E-1,-0E0,2.4285714E-1,-2.4285714E-1,1.1666667E-1,-1.1666667E-1,2.4285714E-1,-0E0,1.1666667E-1,-2.4285714E-1,-1.1666667E-1,1.1666667E-1,-2.4285714E-1,1.5454546E-1,-4.7857141E-1,-1.1333333E-1,2.9375E-1,-1.9583333E-1,-2.4285714E-1,2.4285714E-1,-1.1666667E-1,1.1666667E-1,2.7E-1,-1.1666667E-1,-5.5833334E-1,-0E0,1.8888889E-1,-3.3636364E-1,3.9166665E-1,-0E0,-4.1111112E-1,-3.5E-2,-0E0,3.375E-1,1.1666667E-1,-1.1666667E-1,3.375E-1,-1.1666667E-1,-4.1111112E-1,-0E0,-8.75E-2,1.1666667E-1,1.9285715E-1,-3.3636364E-1,1.1666667E-1,-1.1666667E-1,1.1666667E-1,-1.1666667E-1,1.1666667E-1,-2.4285714E-1,-8.75E-2,3.3636364E-1,-0E0,-4.1111112E-1,1.1666667E-1,-2.4285714E-1,4.1111112E-1,-0E0,1.1666667E-1,-1.1666667E-1,-1.1666667E-1,1.1666667E-1],"categories":[],"categories_nodes":[],"categories_segments":[],"categories_sizes":[],"default_left":[1,1,1,1,1,1,1,1,1,1,1,1,1,1,1,1,1,1,1,1,1,1,1,1,1,1,1,1,1,1,1,1,1,1,1,1,1,1,1,1,1,1,1,1,1,1,1,1,1,1,1,1,1,1,1,1,1,1,1,1,1,1,1,1,1,1,1,1,1,1,1,1,1,1,1,1,1,1,1,1,1,1,1,1,1,1,1,1,1,1,1,1,1,1,1,1,1,1,1,1,1,1,1,1,1,1,1,1,1,1,1,1,1,1,1,1,1,1,1,1,1,1,1,1,1,1,1,1,1,1,1,1,1,1,1,1,1,1,1,1,1,1,1,1,1,1,1,1,1,1,1,1,1,1,1,1,1,1,1,1,1,1,1,1,1,1,1,1,1,1,1,1,1,1,1,1,1,1,1,1,1,1,1,1,1,1,1,1,1,1,1,1,1,1,1,1,1,1,1],"id":1,"left_children":[1,3,5,-1,9,11,-1,-1,-1,-1,-1,-1,-1,-1,-1,-1,-1,-1,-1,-1,-1,-1,-1,-1,-1,-1,-1,-1,-1,-1,-1,-1,-1,-1,-1,-1,-1,-1,-1,-1,-1,-1,-1,-1,-1,-1,-1,-1,-1,-1,-1,-1,-1,-1,-1,-1,-1,-1,-1,-1,-1,-1,-1,-1,-1,-1,-1,-1,-1,-1,-1,-1,-1,-1,-1,-1,-1,-1,-1,-1,-1,-1,-1,-1,-1,-1,-1,-1,-1,-1,-1,-1,-1,-1,-1,-1,-1,-1,-1,-1,-1,-1,-1,-1,-1,-1,-1,-1,-1,-1,-1,-1,-1,-1,-1,-1,-1,-1,-1,-1,-1,-1,-1,-1,-1,-1,-1,-1,-1,-1,-1,-1,-1,-1,-1,-1,-1,-1,-1,-1,-1,-1,-1,-1,-1,-1,-1,-1,-1,-1,-1,-1,-1,-1,-1,-1,-1,-1,-1,-1,-1,-1,-1,-1,-1,-1,-1,-1,-1,-1,-1,-1,-1,-1,-1,-1,-1,-1,-1,-1,-1,-1,-1,-1,-1,-1,-1,-1,-1,-1,-1,-1,-1,-1,-1,-1,-1,-1,-1],"loss_changes":[6.490674E1,2.2760254E1,4.5548477E0,2.6416626E0,7.6497803E0,5.3701105E0,1.3986397E0,0E0,2.6478271E0,4.1120596E0,1.9184875E0,1.8238277E0,4.2345E0,0E0,1.7207968E0,0E0,2.6287842E-1,7.6060915E-1,0E0,0E0,0E0,3.4152776E-1,2.11582E0,2.773975E0,4.413506E0,0E0,8.733461E-1,0E0,2.36438E0,1.8225E0,9.6909046E-1,6.7180556E-1,4.3327376E-1,1.2558098E0,1.4319643E0,1.6291919E0,1.5427381E0,0E0,2.8242567E0,7.339682E-1,0E0,0E0,5.5914307E-1,0E0,0E0,2.5032334E0,1.350467E0,0E0,0E0,0E0,0E0,2.4421365E0,1.1885643E0,0E0,1.0493968E0,8.2571423E-1,0E0,0E0,6.365674E-1,9.761151E-1,8.1095403E-1,0E0,6.7180556E-1,2.2386606E0,1.356781E0,4.3327376E-1,0E0,0E0,7.2672844E-1,3.3323073E-1,3.0374998E-1,1.4455166E0,2.8997314E0,0E0,4.2510712E-1,0E0,0E0,7.6562107E-1,4.3327376E-1,1.2287083E0,0E0,6.5031254E-1,2.623064E0,0E0,0E0,0E0,0E0,1.6333333E-1,0E0,0E0,0E0,0E0,4.517331E-1,4.5440555E-1,1.6333333E-1,0E0,8.2571423E-1,1.1915277E0,3.1719208E-2,0E0,2.7878523E-1,0E0,4.3327376E-1,0E0,0E0,0E0,0E0,0E0,0E0,7.884376E-1,0E0,1.1944698E0,2.1611974E0,0E0,0E0,6.643138E-1,8.2571423E-1,0E0,1.6333333E-1,0E0,0E0,0E0,0E0,0E0,9.174603E-2,0E0,4.3327376E-1,0E0,1.6333333E-1,0E0,0E0,6.755844E-1,2.4534512E-1,0E0,0E0,0E0,2.3010416E0,0E0,8.2571423E-1,0E0,0E0,0E0,0E0,0E0,1.6333333E-1,0E0,0E0,0E0,0E0,0E0,5.4793936E-1,5.3440475E-1,1.3729899E0,4.602083E-1,6.251944E-1,0E0,0E0,0E0,0E0,1.8225002E-1,0E0,0E0,1.6333333E-1,6.7180556E-1,2.7656555E-1,0E0,1.4291666E-1,0E0,1.7407597E0,1.6333333E-1,0E0,0E0,0E0,0E0,0E0,0E0,1.6333333E-1,4.3327376E-1,0E0,7.8508115E-1,2.7656555E-1,0E0,0E0,0E0,0E0,0E0,0E0,4.3327376E-1,2.7656555E-1,1.6333333E-1,0E0,0E0,0E0,0E0,1.6333333E-1,0E0,0E0,0E0,0E0],"parents":[2147483647,0,0,1,1,2,2,3,3,4,4,5,5,6,6,8,8,9,9,10,10,11,11,12,12,14,14,16,16,17,17,21,21,22,22,23,23,24,24,26,26,28,28,29,29,30,30,31,31,32,32,33,33,34,34,35,35,36,36,38,38,39,39,42,42,45,45,46,46,51,51,52,52,54,54,55,55,58,58,59,59,60,60,62,62,63,63,64,64,65,65,68,68,69,69,70,70,71,71,72,72,74,74,77,77,78,78,79,79,81,81,82,82,87,87,92,92,93,93,94,94,96,96,97,97,98,98,100,100,102,102,109,109,111,111,112,112,115,115,116,116,118,118,124,124,126,126,128,128,131,131,132,132,136,136,138,138,144,144,150,150,151,151,152,152,153,153,154,154,159,159,162,162,163,163,164,164,166,166,168,168,169,169,176,176,177,177,179,179,180,180,187,187,188,188,189,189,194,194],"right_children":[2,4,6,-1,10,12,-1,-1,-1,-1,-1,-1,-1,-1,-1,-1,-1,-1,-1,-1,-1,-1,-1,-1,-1,-1,-1,-1,-1,-1,-1,-1,-1,-1,-1,-1,-1,-1,-1,-1,-1,-1,-1,-1,-1,-1,-1,-1,-1,-1,-1,-1,-1,-1,-1,-1,-1,-1,-1,-1,-1,-1,-1,-1,-1,-1,-1,-1,-1,-1,-1,-1,-1,-1,-1,-1,-1,-1,-1,-1,-1,-1,-1,-1,-1,-1,-1,-1,-1,-1,-1,-1,-1,-1,-1,-1,-1,-1,-1,-1,-1,-1,-1,-1,-1,-1,-1,-1,-1,-1,-1,-1,-1,-1,-1,-1,-1,-1,-1,-1,-1,-1,-1,-1,-1,-1,-1,-1,-1,-1,-1,-1,-1,-1,-1,-1,-1,-1,-1,-1,-1,-1,-1,-1,-1,-1,-1,-1,-1,-1,-1,-1,-1,-1,-1,-1,-1,-1,-1,-1,-1,-1,-1,-1,-1,-1,-1,-1,-1,-1,-1,-1,-1,-1,-1,-1,-1,-1,-1,-1,-1,-1,-1,-1,-1,-1,-1,-1,-1,-1,-1,-1,-1,-1,-1,-1,-1,-1,-1],"split_conditions":[1.4820694E-2,7.7372496E-3,7.833352E-1,-2.6580456E-1,3.6912578E-1,1.7449394E-2,-1.604762E-1,3.5E-2,-2.6628163E-1,-7.055556E-2,-2.0500001E-1,-1.09918036E-1,-1.9772727E-2,-2.0025001E-1,-7.178572E-2,3.5E-2,-2.667595E-1,-1.00200005E-1,1.2333334E-1,3.5E-2,-2.0557322E-1,1.75E-2,-1.1921739E-1,-1.0024391E-1,1.46875E-2,7.285715E-2,-1.00384615E-1,-2.8141633E-1,-2.4299389E-1,-0E0,-1.1386364E-1,5.666667E-2,-2.6250001E-2,-1.331068E-1,-0E0,-1.7318182E-1,-8.75E-3,1.7769231E-1,-9.204546E-3,-0E0,-1.305E-1,3.5E-2,-2.4410206E-1,-1.0125001E-1,1.0125001E-1,-1.6714287E-1,-5.0357144E-2,-3.5E-2,1.0125001E-1,3.5E-2,-7.285715E-2,-3.6818184E-2,-1.489535E-1,-1.0125001E-1,5.7857145E-2,-0E0,-2.1166667E-1,1.0125001E-1,-5.2857146E-2,1.0058824E-1,-3.4342106E-2,-7.285715E-2,5.666667E-2,-8.8125E-2,-2.4657622E-1,2.6250001E-2,-2.1166667E-1,7.285715E-2,-7.730769E-2,-1.14E-1,6.75E-2,-1.7557378E-1,-6.7E-2,1.2333334E-1,-2.1000002E-2,-7.285715E-2,7.285715E-2,-7.833333E-2,2.6250001E-2,1.25625E-1,-3.5E-2,-7E-2,-4.375E-3,-3.5E-2,1.0125001E-1,-1.4357144E-1,7.285715E-2,-0E0,-2.4761006E-1,-3.5E-2,7.285715E-2,3.5E-2,-9.24E-2,-1.3153847E-1,-0E0,1.0125001E-1,-0E0,-1.75E-2,-1.927778E-1,1.0125001E-1,-1.0777778E-1,-7.285715E-2,2.6250001E-2,-1.0058824E-1,3.5E-2,7.285715E-2,-3.5E-2,-3.5E-2,1.54E-1,-8.1562504E-2,3.5E-2,1.175E-1,-4.170732E-2,-3.5E-2,3.5E-2,-1.1000001E-1,-0E0,-1.5545455E-1,-0E0,3.5E-2,-3.5E-2,7.285715E-2,-7.285715E-2,-1.0125001E-1,5.666667E-2,-1.982353E-1,-2.6250001E-2,-1.1640001E-1,-0E0,7.285715E-2,-3.5E-2,-0E0,-1.0875001E-1,-3.5E-2,1.5545455E-1,-1.5545455E-1,-0E0,-1.3588236E-1,-0E0,7.285715E-2,-7.285715E-2,3.5E-2,-3.5E-2,7.285715E-2,-0E0,3.5E-2,-7.285715E-2,-3.5E-2,3.5E-2,-7.285715E-2,4.6363637E-2,-1.4357144E-1,-3.4E-2,8.8125E-2,-5.875E-2,-7.285715E-2,7.285715E-2,-3.5E-2,3.5E-2,8.100001E-2,-3.5E-2,-1.675E-1,-0E0,5.666667E-2,-1.009091E-1,1.175E-1,-0E0,-1.2333334E-1,-1.0500001E-2,-0E0,1.0125001E-1,3.5E-2,-3.5E-2,1.0125001E-1,-3.5E-2,-1.2333334E-1,-0E0,-2.6250001E-2,3.5E-2,5.7857145E-2,-1.009091E-1,3.5E-2,-3.5E-2,3.5E-2,-3.5E-2,3.5E-2,-7.285715E-2,-2.6250001E-2,1.009091E-1,-0E0,-1.2333334E-1,3.5E-2,-7.285715E-2,1.2333334E-1,-0E0,3.5E-2,-3.5E-2,-3.5E-2,3.5E-2],"split_indices":[0,0,1,0,1,0,0,2147483647,2147483647,1,0,0,1,2147483647,2147483647,2147483647,2147483647,2147483647,2147483647,2147483647,2147483647,2147483647,2147483647,2147483647,2147483647,2147483647,2147483647,2147483647,2147483647,2147483647,2147483647,2147483647,2147483647,2147483647,2147483647,2147483647,2147483647,2147483647,2147483647,2147483647,2147483647,2147483647,2147483647,2147483647,2147483647,2147483647,2147483647,2147483647,2147483647,2147483647,2147483647,2147483647,2147483647,2147483647,2147483647,2147483647,2147483647,2147483647,2147483647,2147483647,2147483647,2147483647,2147483647,2147483647,2147483647,2147483647,2147483647,2147483647,2147483647,2147483647,2147483647,2147483647,2147483647,2147483647,2147483647,2147483647,2147483647,2147483647,2147483647,2147483647,2147483647,2147483647,2147483647,2147483647,2147483647,2147483647,2147483647,2147483647,2147483647,2147483647,2147483647,2147483647,2147483647,2147483647,2147483647,2147483647,2147483647,2147483647,2147483647,2147483647,2147483647,2147483647,2147483647,2147483647,2147483647,2147483647,2147483647,2147483647,2147483647,2147483647,2147483647,2147483647,2147483647,2147483647,2147483647,2147483647,2147483647,2147483647,2147483647,2147483647,2147483647,2147483647,2147483647,2147483647,2147483647,2147483647,2147483647,2147483647,2147483647,2147483647,2147483647,2147483647,2147483647,2147483647,2147483647,2147483647,2147483647,2147483647,2147483647,2147483647,2147483647,2147483647,2147483647,2147483647,2147483647,2147483647,2147483647,2147483647,2147483647,2147483647,2147483647,2147483647,2147483647,2147483647,2147483647,2147483647,2147483647,2147483647,2147483647,2147483647,2147483647,2147483647,2147483647,2147483647,2147483647,2147483647,2147483647,2147483647,2147483647,2147483647,2147483647,2147483647,2147483647,2147483647,2147483647,2147483647,2147483647,2147483647,2147483647,2147483647,2147483647,2147483647,2147483647,2147483647,2147483647,2147483647,2147483647,2147483647,2147483647,2147483647,2147483647,2147483647,2147483647,2147483647,2147483647,2147483647,2147483647,2147483647,2147483647],"split_type":[0,0,0,0,0,0,0,0,0,0,0,0,0,0,0,0,0,0,0,0,0,0,0,0,0,0,0,0,0,0,0,0,0,0,0,0,0,0,0,0,0,0,0,0,0,0,0,0,0,0,0,0,0,0,0,0,0,0,0,0,0,0,0,0,0,0,0,0,0,0,0,0,0,0,0,0,0,0,0,0,0,0,0,0,0,0,0,0,0,0,0,0,0,0,0,0,0,0,0,0,0,0,0,0,0,0,0,0,0,0,0,0,0,0,0,0,0,0,0,0,0,0,0,0,0,0,0,0,0,0,0,0,0,0,0,0,0,0,0,0,0,0,0,0,0,0,0,0,0,0,0,0,0,0,0,0,0,0,0,0,0,0,0,0,0,0,0,0,0,0,0,0,0,0,0,0,0,0,0,0,0,0,0,0,0,0,0,0,0,0,0,0,0,0,0,0,0,0,0],"sum_hessian":[2.41E3,2.108E3,3.02E2,1.182E3,9.26E2,2.44E2,5.8E1,1E0,1.181E3,4.9E1,8.77E2,1.17E2,1.27E2,3.5E1,2.3E1,1E0,1.18E3,4.5E1,4E0,1E0,8.76E2,7E0,1.1E2,3.6E1,9.1E1,2E0,2.1E1,6.94E2,4.86E2,6E0,3.9E1,4E0,3E0,9.8E1,1.2E1,1.7E1,1.9E1,8E0,8.3E1,6E0,1.5E1,1E0,4.85E2,3E0,3E0,1.6E1,2.3E1,1E0,3E0,1E0,2E0,1.7E1,8.1E1,3E0,9E0,4E0,1.3E1,3E0,1.6E1,1.2E1,7.1E1,2E0,4E0,1.1E1,4.74E2,3E0,1.3E1,2E0,2.1E1,1E1,7E0,5.6E1,2.5E1,4E0,5E0,2E0,2E0,1.3E1,3E0,1.1E1,1E0,2.8E1,4.3E1,1E0,3E0,9E0,2E0,2E0,4.72E2,1E0,2E0,1E0,2E1,8E0,2E0,3E0,4E0,7E0,4.9E1,3E0,2.2E1,2E0,3E0,1.2E1,1E0,2E0,1E0,1E0,1E1,2.7E1,1E0,7E0,3.6E1,1E0,1E0,1.6E1,4E0,6E0,2E0,1E0,1E0,2E0,2E0,3E0,4E0,4.6E1,3E0,2E1,2E0,2E0,1E0,8E0,1.9E1,1E0,6E0,6E0,3E1,1.2E1,4E0,2E0,2E0,1E0,1E0,2E0,2E0,1E0,2E0,1E0,1E0,2E0,6E0,9E0,1E1,1.1E1,1.9E1,2E0,2E0,1E0,1E0,5E0,1E0,7E0,2E0,4E0,6E0,7E0,4E0,4E0,1.5E1,2E0,3E0,1E0,1E0,3E0,1E0,4E0,2E0,3E0,1E0,9E0,6E0,1E0,1E0,1E0,1E0,1E0,2E0,3E0,6E0,2E0,4E0,1E0,2E0,4E0,2E0,1E0,1E0,1E0,1E0],"tree_param":{"num_deleted":"188","num_feature":"2","num_nodes":"199","size_leaf_vector":"0"}},{"base_weights":[-7.3194164E-1,-8.224294E-1,-4.3983194E-1,-8.935118E-1,-6.805855E-1,-4.7958413E-1,-1.084507E-1,1.1666667E-1,-8.950487E-1,-4.5945946E-2,-7.1264184E-1,1E-1,-4.9458414E-1,1.0217391E-1,-4.2333335E-1,1.1666667E-1,-8.9658815E-1,1.03846155E-1,-2.9375E-1,1.1666667E-1,-7.154221E-1,-5E-2,3.375E-1,2.4285714E-1,-5.003883E-1,2.2E-1,-1.6875E-1,7E-2,-5.48E-1,-8.095238E-2,4.7E-1,-4.3846154E-1,8.75E-2,2.4285714E-1,-2.25E-1,-4.3069908E-1,-6.0575914E-1,3.6666667E-1,-0E0,1.8888889E-1,-3.9166665E-1,-8.75E-2,2.4285714E-1,-1.9473684E-1,2.4285714E-1,2.4285714E-1,-1.1666667E-1,-3.375E-1,-0E0,-4.842623E-1,1.9655173E-1,-7.336842E-1,-4.5247525E-1,-0E0,5.133333E-1,-1.6875E-1,3.375E-1,-1.1666667E-1,3.375E-1,-4.7E-1,-0E0,1.1666667E-1,-2.4285714E-1,7E-2,-3.3571428E-1,-2.4285714E-1,2.4285714E-1,-2.6E-1,-5.120755E-1,3.7222221E-1,-4.375E-2,-8.75E-2,-7.4673915E-1,1.1333333E-1,-5.241758E-1,3.375E-1,-3.375E-1,-4.1111112E-1,5.8333334E-2,-1.1666667E-1,1.1666667E-1,-8.75E-2,2.4285714E-1,-3.9166665E-1,-0E0,-4.3235293E-1,1.6875E-1,-7.202898E-1,-4.2636815E-1,7E-2,4.3846154E-1,-3.3636364E-1,2.7E-1,-2.4285714E-1,1.1666667E-1,-1.5454546E-1,4.1111112E-1,1.8888889E-1,-8.75E-2,1.1666667E-1,-2.4285714E-1,-0E0,-4.7E-1,-1.1666667E-1,1.1666667E-1,-0E0,-4.59375E-1,4.1111112E-1,-5.8333334E-2,-7.854839E-1,-5.8333334E-2,-2.940678E-1,-5.7613635E-1,2.4285714E-1,-8.75E-2,-4.1111112E-1,-0E0,-0E0,3.375E-1,2.4285714E-1,-4.1111112E-1,-1.1666667E-1,3.375E-1,1.1666667E-1,-2.4285714E-1,1.1666667E-1,-1.1666667E-1,1.1666667E-1,-1.1666667E-1,-5.074074E-1,-7E-2,-2.4285714E-1,7E-2,1.1666667E-1,-8.1475407E-1,2.4285714E-1,-2.7E-1,-5.976744E-1,-1.0875E-1,-5.942529E-1,1.1666667E-1,-2.4285714E-1,1.1666667E-1,1.1666667E-1,-1.1666667E-1,1.1666667E-1,-1.1666667E-1,2.4285714E-1,-3.375E-1,2.4285714E-1,-8.75E-2,1.1666667E-1,-4.1111112E-1,1.1666667E-1,-6.357143E-1,2.7E-1,-1.56E-1,-6.135802E-1,-1.5454546E-1,-2.4285714E-1,1.1666667E-1,4.1111112E-1,-1.1666667E-1,-2.2459017E-1,8.947369E-2,2.4285714E-1,-4.1111112E-1,-5.105263E-1,-7.87234E-2,2.846154E-1,-1.5454546E-1,1.1666667E-1,-5.9444445E-1,1.1935484E-1,-3.6666667E-1,4.1111112E-1,-0E0,-4.1111112E-1,2.4285714E-1,-6.882353E-1,1.1666667E-1,-5.8333334E-2,1.9583333E-1,-5.923077E-1,-0E0,-2.4285714E-1,2.4285714E-1,7E-2,-2.4285714E-1,4.1111112E-1,3.5E-2,2.7E-1,-3.375E-1],"categories":[],"categories_nodes":[],"categories_segments":[],"categories_sizes":[],"default_left":[1,1,1,1,1,1,1,1,1,1,1,1,1,1,1,1,1,1,1,1,1,1,1,0,1,1,1,1,1,1,1,1,1,1,1,1,1,1,1,1,1,1,1,1,1,1,1,1,1,1,1,1,1,1,1,1,1,1,1,1,1,1,1,1,1,1,1,1,1,1,1,1,1,1,1,1,1,1,1,1,1,1,1,1,1,1,1,1,1,1,1,1,1,1,1,1,1,1,1,1,1,1,1,1,1,1,1,1,1,1,1,1,1,1,1,1,1,1,1,1,1,1,1,1,1,1,1,1,1,1,1,1,1,1,1,1,1,1,1,1,1,1,1,1,1,1,1,1,1,1,1,1,1,1,1,1,1,1,1,1,1,1,1,1,1,1,1,1,1,1,1,1,1,1,1,1,1,1,1,1,1,1,1,1,1,1,1,1,1,1,1,1,1],"id":2,"left_children":[1,3,5,-1,9,11,13,-1,-1,-1,-1,-1,23,-1,-1,-1,-1,-1,-1,-1,-1,-1,-1,-1,35,-1,-1,-1,-1,-1,-1,-1,-1,-1,-1,49,-1,-1,-1,-1,-1,-1,-1,-1,-1,-1,-1,-1,-1,67,-1,-1,-1,-1,-1,-1,-1,-1,-1,-1,-1,-1,-1,-1,-1,-1,-1,-1,87,-1,-1,-1,-1,-1,-1,-1,-1,-1,-1,-1,-1,-1,-1,-1,-1,-1,-1,-1,111,-1,-1,-1,-1,-1,-1,-1,-1,-1,-1,-1,-1,-1,-1,-1,-1,-1,-1,-1,-1,-1,-1,137,-1,-1,-1,-1,-1,-1,-1,-1,-1,-1,-1,-1,-1,-1,-1,-1,-1,-1,-1,-1,-1,-1,-1,-1,-1,-1,-1,-1,-1,-1,-1,-1,-1,-1,-1,-1,-1,-1,-1,-1,-1,-1,-1,-1,-1,-1,-1,-1,-1,-1,-1,-1,-1,-1,-1,-1,-1,-1,-1,-1,-1,-1,-1,-1,-1,-1,-1,-1,-1,-1,-1,-1,-1,-1,-1,-1,-1,-1,-1,-1,-1],"loss_changes":[6.3021362E1,1.5412231E1,7.4015427E0,2.6699219E0,1.2812073E1,4.9646683E0,5.02148E0,0E0,2.6759033E0,1.5829015E0,2.0195618E0,7.7625E-1,2.897766E0,1.6694076E0,2.1802669E0,0E0,0E0,2.0662346E0,1.1798558E0,0E0,0E0,9.853571E-1,0E0,0E0,2.1663208E0,1.1293333E0,1.7063193E0,4.2510712E-1,0E0,9.957644E-1,0E0,0E0,4.3327376E-1,0E0,3.0374998E-1,1.1615818E1,1.7295685E0,1.1293335E0,1.3668749E0,6.7180556E-1,3.681668E-1,4.3327376E-1,0E0,9.063309E-1,0E0,0E0,0E0,0E0,8.2571423E-1,1.0051041E0,1.4041691E0,2.2443771E-1,4.5177345E0,1.8225E0,0E0,1.1063194E0,0E0,0E0,0E0,0E0,1.6333333E-1,0E0,0E0,4.2510712E-1,2.6297617E-1,0E0,0E0,3.769213E0,2.8495255E0,5.434203E-2,1.9429204E0,4.3327376E-1,0E0,1.5911716E0,0E0,0E0,0E0,0E0,3.4152776E-1,0E0,0E0,4.3327376E-1,0E0,3.681668E-1,1.6333333E-1,3.9722443E-1,1.1063194E0,2.4954872E0,2.8745117E0,4.2510712E-1,0E0,2.7656555E-1,1.8225002E-1,0E0,0E0,1.6712408E0,0E0,6.7180556E-1,4.3327376E-1,0E0,0E0,1.6333333E-1,0E0,0E0,0E0,1.6333333E-1,2.4766874E-1,0E0,4.210238E-1,2.3218803E0,1.1010238E0,6.102206E0,1.5944252E0,0E0,4.3327376E-1,0E0,1.6333333E-1,1.6333333E-1,0E0,0E0,0E0,0E0,0E0,0E0,0E0,0E0,0E0,0E0,0E0,0E0,1.2751071E0,0E0,4.2510712E-1,0E0,0E0,0E0,8.7377775E-1,1.6950064E0,1.6080749E0,3.479576E-2,0E0,0E0,0E0,0E0,0E0,0E0,0E0,0E0,0E0,0E0,4.3327376E-1,0E0,0E0,0E0,0E0,8.7377775E-1,1.4037906E0,0E0,1.6712408E0,0E0,0E0,0E0,0E0,2.1664963E0,1.1636989E0,0E0,0E0,1.4901171E0,2.9736695E0,4.6803415E-1,1.6712408E0,0E0,1.7734642E0,5.196371E-1,1.7374358E0,0E0,8.2571423E-1,0E0,0E0,0E0,0E0,4.210238E-1,6.251944E-1,0E0,1.64025E0,0E0,0E0,0E0,0E0,0E0,0E0,0E0,0E0],"parents":[2147483647,0,0,1,1,2,2,3,3,4,4,5,5,6,6,8,8,9,9,10,10,11,11,12,12,13,13,14,14,17,17,18,18,21,21,24,24,25,25,26,26,27,27,29,29,32,32,34,34,35,35,36,36,37,37,38,38,39,39,40,40,41,41,43,43,48,48,49,49,50,50,51,51,52,52,53,53,55,55,60,60,63,63,64,64,67,67,68,68,69,69,70,70,71,71,73,73,78,78,81,81,83,83,84,84,85,85,86,86,87,87,88,88,89,89,91,91,92,92,95,95,97,97,98,98,101,101,105,105,106,106,108,108,109,109,110,110,111,111,112,112,114,114,116,116,117,117,130,130,132,132,136,136,137,137,138,138,139,139,150,150,155,155,156,156,158,158,163,163,164,164,167,167,168,168,169,169,170,170,172,172,173,173,174,174,176,176,181,181,182,182,184,184],"right_children":[2,4,6,-1,10,12,14,-1,-1,-1,-1,-1,24,-1,-1,-1,-1,-1,-1,-1,-1,-1,-1,-1,36,-1,-1,-1,-1,-1,-1,-1,-1,-1,-1,50,-1,-1,-1,-1,-1,-1,-1,-1,-1,-1,-1,-1,-1,68,-1,-1,-1,-1,-1,-1,-1,-1,-1,-1,-1,-1,-1,-1,-1,-1,-1,-1,88,-1,-1,-1,-1,-1,-1,-1,-1,-1,-1,-1,-1,-1,-1,-1,-1,-1,-1,-1,112,-1,-1,-1,-1,-1,-1,-1,-1,-1,-1,-1,-1,-1,-1,-1,-1,-1,-1,-1,-1,-1,-1,138,-1,-1,-1,-1,-1,-1,-1,-1,-1,-1,-1,-1,-1,-1,-1,-1,-1,-1,-1,-1,-1,-1,-1,-1,-1,-1,-1,-1,-1,-1,-1,-1,-1,-1,-1,-1,-1,-1,-1,-1,-1,-1,-1,-1,-1,-1,-1,-1,-1,-1,-1,-1,-1,-1,-1,-1,-1,-1,-1,-1,-1,-1,-1,-1,-1,-1,-1,-1,-1,-1,-1,-1,-1,-1,-1,-1,-1,-1,-1,-1,-1],"split_conditions":[1.215958E-2,7.913892E-3,2.2593506E-2,-2.6805353E-1,3.7280676E-1,3.4897426E-1,6.221074E-1,3.5E-2,-2.685146E-1,-1.3783785E-2,-2.1379256E-1,3.0000001E-2,1.2171743E-2,3.0652175E-2,-1.27E-1,3.5E-2,-2.6897645E-1,3.1153848E-2,-8.8125E-2,3.5E-2,-2.1462664E-1,-1.5000001E-2,1.0125001E-1,7.285715E-2,6.713214E-1,6.6E-2,-5.0625004E-2,2.1000002E-2,-1.644E-1,-2.4285717E-2,1.41E-1,-1.3153847E-1,2.6250001E-2,7.285715E-2,-6.75E-2,6.539583E-1,-1.8172775E-1,1.1000001E-1,-0E0,5.666667E-2,-1.175E-1,-2.6250001E-2,7.285715E-2,-5.8421053E-2,7.285715E-2,7.285715E-2,-3.5E-2,-1.0125001E-1,-0E0,1.263927E-2,5.896552E-2,-2.2010526E-1,-1.3574257E-1,-0E0,1.54E-1,-5.0625004E-2,1.0125001E-1,-3.5E-2,1.0125001E-1,-1.41E-1,-0E0,3.5E-2,-7.285715E-2,2.1000002E-2,-1.0071429E-1,-7.285715E-2,7.285715E-2,-7.8E-2,1.3546588E-2,1.1166667E-1,-1.31250005E-2,-2.6250001E-2,-2.2402175E-1,3.4E-2,-1.5725276E-1,1.0125001E-1,-1.0125001E-1,-1.2333334E-1,1.75E-2,-3.5E-2,3.5E-2,-2.6250001E-2,7.285715E-2,-1.175E-1,-0E0,-1.2970589E-1,5.0625004E-2,-2.1608695E-1,5.7229805E-1,2.1000002E-2,1.3153847E-1,-1.009091E-1,8.100001E-2,-7.285715E-2,3.5E-2,-4.6363637E-2,1.2333334E-1,5.666667E-2,-2.6250001E-2,3.5E-2,-7.285715E-2,-0E0,-1.41E-1,-3.5E-2,3.5E-2,-0E0,-1.3781251E-1,1.2333334E-1,-1.75E-2,-2.3564517E-1,-1.75E-2,4.5912248E-1,-1.7284091E-1,7.285715E-2,-2.6250001E-2,-1.2333334E-1,-0E0,-0E0,1.0125001E-1,7.285715E-2,-1.2333334E-1,-3.5E-2,1.0125001E-1,3.5E-2,-7.285715E-2,3.5E-2,-3.5E-2,3.5E-2,-3.5E-2,-1.5222223E-1,-2.1000002E-2,-7.285715E-2,2.1000002E-2,3.5E-2,-2.4442624E-1,7.285715E-2,-8.100001E-2,-1.7930233E-1,-3.2625E-2,-1.7827587E-1,3.5E-2,-7.285715E-2,3.5E-2,3.5E-2,-3.5E-2,3.5E-2,-3.5E-2,7.285715E-2,-1.0125001E-1,7.285715E-2,-2.6250001E-2,3.5E-2,-1.2333334E-1,3.5E-2,-1.907143E-1,8.100001E-2,-4.6800002E-2,-1.8407407E-1,-4.6363637E-2,-7.285715E-2,3.5E-2,1.2333334E-1,-3.5E-2,-6.737705E-2,2.6842108E-2,7.285715E-2,-1.2333334E-1,-1.5315789E-1,-2.3617022E-2,8.538462E-2,-4.6363637E-2,3.5E-2,-1.7833334E-1,3.580645E-2,-1.1000001E-1,1.2333334E-1,-0E0,-1.2333334E-1,7.285715E-2,-2.064706E-1,3.5E-2,-1.75E-2,5.875E-2,-1.7769231E-1,-0E0,-7.285715E-2,7.285715E-2,2.1000002E-2,-7.285715E-2,1.2333334E-1,1.0500001E-2,8.100001E-2,-1.0125001E-1],"split_indices":[0,0,0,0,1,1,1,2147483647,2147483647,0,0,1,0,0,0,2147483647,2147483647,2147483647,2147483647,2147483647,2147483647,2147483647,2147483647,0,1,2147483647,2147483647,2147483647,2147483647,2147483647,2147483647,2147483647,2147483647,2147483647,2147483647,1,0,2147483647,2147483647,2147483647,2147483647,2147483647,2147483647,2147483647,2147483647,2147483647,2147483647,2147483647,2147483647,0,1,2147483647,2147483647,2147483647,2147483647,2147483647,2147483647,2147483647,2147483647,2147483647,2147483647,2147483647,2147483647,2147483647,2147483647,2147483647,2147483647,0,0,2147483647,2147483647,2147483647,2147483647,2147483647,2147483647,2147483647,2147483647,2147483647,2147483647,2147483647,2147483647,2147483647,2147483647,2147483647,2147483647,2147483647,2147483647,1,1,2147483647,2147483647,2147483647,2147483647,2147483647,2147483647,2147483647,2147483647,2147483647,2147483647,2147483647,2147483647,2147483647,2147483647,2147483647,2147483647,2147483647,2147483647,2147483647,2147483647,2147483647,2147483647,1,0,2147483647,2147483647,2147483647,2147483647,2147483647,2147483647,2147483647,2147483647,2147483647,2147483647,2147483647,2147483647,2147483647,2147483647,2147483647,2147483647,2147483647,2147483647,2147483647,2147483647,2147483647,2147483647,2147483647,2147483647,0,1,2147483647,2147483647,2147483647,2147483647,2147483647,2147483647,2147483647,2147483647,2147483647,2147483647,2147483647,2147483647,2147483647,2147483647,2147483647,2147483647,2147483647,2147483647,2147483647,2147483647,2147483647,2147483647,2147483647,2147483647,2147483647,2147483647,2147483647,2147483647,2147483647,2147483647,2147483647,2147483647,2147483647,2147483647,2147483647,2147483647,2147483647,2147483647,2147483647,2147483647,2147483647,2147483647,2147483647,2147483647,2147483647,2147483647,2147483647,2147483647,2147483647,2147483647,2147483647,2147483647,2147483647,2147483647],"split_type":[0,0,0,0,0,0,0,0,0,0,0,0,0,0,0,0,0,0,0,0,0,0,0,0,0,0,0,0,0,0,0,0,0,0,0,0,0,0,0,0,0,0,0,0,0,0,0,0,0,0,0,0,0,0,0,0,0,0,0,0,0,0,0,0,0,0,0,0,0,0,0,0,0,0,0,0,0,0,0,0,0,0,0,0,0,0,0,0,0,0,0,0,0,0,0,0,0,0,0,0,0,0,0,0,0,0,0,0,0,0,0,0,0,0,0,0,0,0,0,0,0,0,0,0,0,0,0,0,0,0,0,0,0,0,0,0,0,0,0,0,0,0,0,0,0,0,0,0,0,0,0,0,0,0,0,0,0,0,0,0,0,0,0,0,0,0,0,0,0,0,0,0,0,0,0,0,0,0,0,0,0,0,0,0,0,0,0,0,0,0,0,0,0],"sum_hessian":[2.462E3,1.872E3,5.9E2,1.228E3,6.44E2,5.24E2,6.6E1,1E0,1.227E3,3.2E1,6.12E2,1.2E1,5.12E2,4.1E1,2.5E1,1E0,1.226E3,2.1E1,1.1E1,1E0,6.11E2,9E0,3E0,2E0,5.1E2,3E1,1.1E1,5E0,2E1,1.6E1,5E0,8E0,3E0,2E0,7E0,3.24E2,1.86E2,1.6E1,1.4E1,4E0,7E0,3E0,2E0,1.4E1,2E0,2E0,1E0,3E0,4E0,3E2,2.4E1,9E1,9.6E1,6E0,1E1,1.1E1,3E0,1E0,3E0,5E0,2E0,1E0,2E0,5E0,9E0,2E0,2E0,4E1,2.6E2,1.3E1,1.1E1,3E0,8.7E1,1E1,8.6E1,3E0,3E0,4E0,7E0,1E0,1E0,3E0,2E0,7E0,2E0,2.9E1,1.1E1,6.4E1,1.96E2,5E0,8E0,6E0,5E0,2E0,1E0,6E0,4E0,4E0,3E0,1E0,2E0,2E0,5E0,1E0,1E0,2E0,2.7E1,4E0,7E0,5.7E1,7E0,1.13E2,8.3E1,2E0,3E0,4E0,2E0,2E0,3E0,2E0,4E0,1E0,3E0,1E0,2E0,1E0,1E0,1E0,1E0,2.2E1,5E0,2E0,5E0,1E0,5.6E1,2E0,5E0,3.8E1,7.5E1,8.2E1,1E0,2E0,1E0,1E0,1E0,1E0,1E0,2E0,3E0,2E0,3E0,1E0,4E0,1E0,3.7E1,5E0,7E1,7.6E1,6E0,2E0,1E0,4E0,1E0,5.6E1,1.4E1,2E0,4E0,1.4E1,4.2E1,8E0,6E0,1E0,1.3E1,2.6E1,1.6E1,4E0,4E0,4E0,2E0,1.2E1,1E0,7E0,1.9E1,8E0,8E0,2E0,2E0,5E0,2E0,4E0,1.5E1,5E0,3E0],"tree_param":{"num_deleted":"166","num_feature":"2","num_nodes":"193","size_leaf_vector":"0"}},{"base_weights":[-7.326923E-1,-7.978612E-1,-3.237681E-1,-8.8873357E-1,-6.693169E-1,-3.9318997E-1,-2.3943663E-2,1.1666667E-1,-8.9028805E-1,-4.0684932E-1,-6.881212E-1,1.8888889E-1,-4.061818E-1,1.9795918E-1,-4.3333334E-1,-9.457182E-1,-7.9979837E-1,-4.6714285E-1,3.375E-1,1.1666667E-1,-6.9016993E-1,3.375E-1,-1.1666667E-1,-2.6395348E-1,-4.572165E-1,3.3421052E-1,-1.6875E-1,-7E-2,-4.8636365E-1,-1.5E-1,-8.1511384E-1,-6.2333333E-1,-3.0444443E-1,-5.5641025E-1,-1.3461539E-2,1.1666667E-1,-4.6476683E-1,-0E0,3.96875E-1,2.4285714E-1,-3.3571428E-1,-3.375E-1,2.4285714E-1,-3.3571428E-1,1.8888889E-1,-8.75E-2,-8.18125E-1,-2.6923077E-2,-5.2916664E-1,-2.1764706E-1,-6.5555555E-1,-1.3902439E-1,2.9375E-1,-5.5588233E-1,-3.40625E-1,3.375E-1,-3.375E-1,3.8888887E-2,6.157895E-1,-0E0,-3.9166665E-1,1.1666667E-1,-4.3846154E-1,2.4285714E-1,-0E0,-2.4285714E-1,1.1666667E-1,-2.1363637E-1,4.1111112E-1,-5.772727E-1,-0E0,-5.181818E-1,1.5454546E-1,-6.958333E-1,-8.75E-2,1E-1,-2.6551723E-1,4.3846154E-1,-8.75E-2,-4.4487178E-1,-7.482759E-1,2.9166667E-2,-4.3766233E-1,2.25E-1,-1.5454546E-1,6.6875E-1,8.75E-2,-1.1666667E-1,1.1666667E-1,-4.7E-1,-0E0,-1.1666667E-1,1.1666667E-1,7E-2,-3.3529413E-1,1.1666667E-1,-1.1666667E-1,3.375E-1,-8.75E-2,1.1666667E-1,-2.4285714E-1,-2.25E-1,4.7E-1,-4.5294118E-1,-0E0,-2.4285714E-1,1.1666667E-1,-4.6363637E-1,1.1666667E-1,-1.9473684E-1,4.7E-1,-2.255814E-1,-6.076923E-1,-8.75E-2,4.1111112E-1,-0E0,-2.4285714E-1,2.4285714E-1,-1.1666667E-1,-1.1666667E-1,1.1666667E-1,2.4285714E-1,-8.75E-2,-3.8E-1,-0E0,-2.4285714E-1,1.1666667E-1,-0E0,-3.375E-1,-0E0,-5.133333E-1,2.4285714E-1,-1.1333333E-1,-6.103448E-1,-3.3396226E-1,-0E0,-4.1111112E-1,-5.181818E-1,-1E-1,-6.9E-1,-1.9285715E-1,-2.4285714E-1,1.1666667E-1,-2.4285714E-1,2.4285714E-1,-2.4285714E-1,1.1666667E-1,-1.1666667E-1,1.1666667E-1,-8.75E-2,1.1666667E-1,-1.1666667E-1,1.1666667E-1,-1.9285715E-1,1.1666667E-1,-0E0,-6.5555555E-1,1.3076922E-1,-4.377778E-1,-1.3076922E-1,2.4285714E-1,4.1111112E-1,-2.3333333E-1,2.4285714E-1,-3.9166665E-1,-0E0,-1.1666667E-1,-0E0,-3.375E-1,1.1666667E-1,-1.1666667E-1,2.25E-1,-1.1666667E-1,-5.964286E-1,-1.22727275E-1,8.75E-2,-2.7E-1,-3.6666667E-1,-0E0,-0E0,-4.7E-1,-1.1666667E-1,1.1666667E-1,-1.8888889E-1,2.4285714E-1,2.7E-1,-0E0,-6.826087E-1,-7E-2,3.375E-1,-3E-1,-0E0,1.1666667E-1,-3.375E-1,-0E0,-0E0,-4.5294118E-1,1.9285715E-1,-3.375E-1,-1.1666667E-1,1.1666667E-1,-2.4285714E-1,-0E0,-0E0,3.375E-1,-1.1666667E-1,1.1666667E-1,8.75E-2,-2.4285714E-1,-3.9166665E-1,-5.8333334E-2,1.1666667E-1,-1.1666667E-1,1.1666667E-1,-1.1666667E-1,-8.75E-2,1.1666667E-1,-5.133333E-1,-0E0,3.3636364E-1,-8.75E-2,1.1666667E-1,-1.1666667E-1,1.1666667E-1,-1.1666667E-1,-0E0,1.1666667E-1,1.8888889E-1,-3.375E-1,-0E0,-1.1666667E-1,1.1666667E-1,-1.1666667E-1,-2.4285714E-1,1.1666667E-1,1.1666667E-1,-1.1666667E-1,3.375E-1,-1.1666667E-1,-1.1666667E-1,1.1666667E-1],"categories":[],"categories_nodes":[],"categories_segments":[],"categories_sizes":[],"default_left":[1,1,1,1,1,1,1,1,1,1,1,1,1,1,1,1,1,1,1,1,1,1,1,1,1,1,1,1,1,1,1,1,1,1,1,1,1,1,1,1,1,1,1,1,1,1,1,1,1,1,1,1,1,1,1,1,1,1,1,1,1,1,1,1,1,1,1,1,1,1,1,1,1,1,1,1,1,1,1,1,1,1,1,1,1,1,1,1,1,1,1,1,1,1,1,1,1,1,1,1,1,1,1,1,1,1,1,1,1,1,1,1,1,1,1,1,1,1,1,1,1,1,1,1,1,1,1,1,1,1,1,1,1,1,1,1,1,1,1,1,1,1,1,1,1,1,1,1,1,1,1,1,1,1,1,1,1,1,1,1,1,1,1,1,1,1,1,1,1,1,1,1,1,1,1,1,1,1,1,1,1,1,1,1,1,1,1,1,1,1,1,1,1,1,1,1,1,1,1,1,1,1,1,1,1,1,1,1,1,1,1,1,1,1,1,1,1,1,1,1,1,1,1,1,1,1,1,1,1,1,1,1,1,1,1,1,1,1,1,1,1],"id":3,"left_children":[1,3,5,-1,-1,11,13,-1,-1,-1,-1,-1,23,-1,-1,-1,-1,-1,-1,-1,-1,-1,-1,33,-1,-1,-1,-1,-1,-1,-1,-1,-1,-1,-1,-1,-1,-1,-1,-1,-1,-1,-1,-1,-1,-1,-1,-1,-1,-1,-1,-1,-1,-1,-1,-1,-1,-1,-1,-1,-1,-1,-1,-1,-1,-1,-1,-1,-1,-1,-1,-1,-1,-1,-1,-1,-1,-1,-1,-1,-1,-1,-1,-1,-1,-1,-1,-1,-1,-1,-1,-1,-1,-1,-1,-1,-1,-1,-1,-1,-1,-1,-1,-1,-1,-1,-1,-1,-1,-1,-1,-1,-1,-1,-1,-1,-1,-1,-1,-1,-1,-1,-1,-1,-1,-1,-1,-1,-1,-1,-1,-1,-1,-1,-1,-1,-1,-1,-1,-1,-1,-1,-1,-1,-1,-1,-1,-1,-1,-1,-1,-1,-1,-1,-1,-1,-1,-1,-1,-1,-1,-1,-1,-1,-1,-1,-1,-1,-1,-1,-1,-1,-1,-1,-1,-1,-1,-1,-1,-1,-1,-1,-1,-1,-1,-1,-1,-1,-1,-1,-1,-1,-1,-1,-1,-1,-1,-1,-1,-1,-1,-1,-1,-1,-1,-1,-1,-1,-1,-1,-1,-1,-1,-1,-1,-1,-1,-1,-1,-1,-1,-1,-1,-1,-1,-1,-1,-1,-1,-1,-1,-1,-1,-1,-1,-1,-1,-1,-1,-1,-1],"loss_changes":[6.350244E1,2.1135498E1,7.0087433E0,2.6519165E0,2.6791077E0,2.5586777E0,6.9495E0,0E0,1.7886963E0,4.1033964E0,1.934906E0,6.7180556E-1,1.176342E0,2.7798944E0,1.8309021E-1,0E0,4.035309E0,5.5165005E-1,0E0,0E0,0E0,0E0,0E0,6.0917826E0,1.2161446E0,7.9583883E-1,1.5350893E0,1.2751071E0,0E0,1.4939682E0,4.2861938E-1,0E0,2.5683737E0,3.3452415E-1,2.163641E0,0E0,9.6738434E-1,1.8225E0,2.1916466E0,0E0,2.6297617E-1,0E0,0E0,1.0030404E0,9.174603E-2,4.3327376E-1,0E0,2.5063558E0,6.1094666E-1,2.4110696E0,7.8333855E-2,1.4220438E0,1.1798558E0,1.5610886E-1,3.631198E0,0E0,0E0,8.4300506E-1,1.2138367E-2,1.6333333E-1,3.681668E-1,0E0,0E0,0E0,1.6333333E-1,0E0,0E0,9.560857E-1,0E0,0E0,1.6333333E-1,0E0,7.097727E-1,0E0,4.3327376E-1,2.6465E0,1.4431643E0,0E0,4.3327376E-1,1.196435E0,0E0,2.9091096E0,1.8412266E0,9.7486097E-1,1.5012985E-1,0E0,4.3327376E-1,0E0,0E0,0E0,1.6333333E-1,0E0,0E0,4.2510712E-1,2.5482357E-1,0E0,0E0,0E0,4.3327376E-1,0E0,0E0,3.0374998E-1,0E0,4.650197E-1,6.0552377E-1,0E0,0E0,1.6241646E-1,0E0,8.0058473E-1,0E0,1.1354969E0,4.0140724E-1,4.3327376E-1,0E0,8.2571423E-1,0E0,0E0,0E0,0E0,0E0,0E0,4.3327376E-1,0E0,1.6333333E-1,0E0,0E0,1.4291666E-1,0E0,1.6333333E-1,0E0,0E0,4.0971428E-1,8.0023E-1,2.9353967E0,6.351648E-1,0E0,0E0,2.9477777E0,0E0,1.7329762E0,0E0,0E0,0E0,0E0,0E0,0E0,0E0,0E0,2.0416666E-2,0E0,0E0,0E0,3.905357E-1,0E0,1.6333333E-1,0E0,4.6685898E-1,1.6674995E0,5.6794226E-1,0E0,0E0,1.0266665E0,0E0,3.681668E-1,1.6333333E-1,0E0,7.339682E-1,0E0,0E0,0E0,1.21499956E-1,0E0,8.055992E-1,2.2898865E0,2.0416666E-2,1.8225002E-1,6.643138E-1,1.4319643E0,1.6333333E-1,0E0,0E0,0E0,9.174603E-2,0E0,1.8225002E-1,1.6333333E-1,0E0,4.2510712E-1,0E0,1.7166662E-1,1.6333333E-1,0E0,0E0,1.6333333E-1,1.4291666E-1,4.650197E-1,7.8508115E-1,0E0,0E0,0E0,0E0,1.6333333E-1,1.6333333E-1,0E0,0E0,0E0,2.0416666E-2,0E0,0E0,1.1915277E0,0E0,0E0,0E0,0E0,2.0416666E-2,0E0,0E0,1.6333333E-1,0E0,4.3327376E-1,0E0,0E0,0E0,0E0,1.6333333E-1,0E0,6.7180556E-1,0E0,1.6333333E-1,0E0,0E0,0E0,0E0,0E0,0E0,0E0,0E0,0E0,0E0,0E0],"parents":[2147483647,0,0,1,1,2,2,3,3,4,4,5,5,6,6,8,8,9,9,10,10,11,11,12,12,13,13,14,14,16,16,17,17,23,23,24,24,25,25,26,26,27,27,29,29,30,30,32,32,33,33,34,34,36,36,37,37,38,38,40,40,43,43,44,44,45,45,47,47,48,48,49,49,50,50,51,51,52,52,53,53,54,54,57,57,58,58,59,59,60,60,64,64,67,67,70,70,72,72,74,74,75,75,76,76,78,78,79,79,81,81,82,82,83,83,84,84,86,86,90,90,93,93,94,94,98,98,101,101,103,103,104,104,107,107,109,109,111,111,112,112,113,113,115,115,122,122,124,124,127,127,129,129,132,132,133,133,134,134,135,135,138,138,140,140,149,149,153,153,155,155,157,157,158,158,159,159,162,162,164,164,165,165,167,167,171,171,173,173,174,174,175,175,176,176,177,177,178,178,179,179,183,183,185,185,186,186,188,188,190,190,191,191,194,194,195,195,196,196,197,197,202,202,203,203,207,207,210,210,215,215,218,218,220,220,225,225,227,227,229,229],"right_children":[2,4,6,-1,-1,12,14,-1,-1,-1,-1,-1,24,-1,-1,-1,-1,-1,-1,-1,-1,-1,-1,34,-1,-1,-1,-1,-1,-1,-1,-1,-1,-1,-1,-1,-1,-1,-1,-1,-1,-1,-1,-1,-1,-1,-1,-1,-1,-1,-1,-1,-1,-1,-1,-1,-1,-1,-1,-1,-1,-1,-1,-1,-1,-1,-1,-1,-1,-1,-1,-1,-1,-1,-1,-1,-1,-1,-1,-1,-1,-1,-1,-1,-1,-1,-1,-1,-1,-1,-1,-1,-1,-1,-1,-1,-1,-1,-1,-1,-1,-1,-1,-1,-1,-1,-1,-1,-1,-1,-1,-1,-1,-1,-1,-1,-1,-1,-1,-1,-1,-1,-1,-1,-1,-1,-1,-1,-1,-1,-1,-1,-1,-1,-1,-1,-1,-1,-1,-1,-1,-1,-1,-1,-1,-1,-1,-1,-1,-1,-1,-1,-1,-1,-1,-1,-1,-1,-1,-1,-1,-1,-1,-1,-1,-1,-1,-1,-1,-1,-1,-1,-1,-1,-1,-1,-1,-1,-1,-1,-1,-1,-1,-1,-1,-1,-1,-1,-1,-1,-1,-1,-1,-1,-1,-1,-1,-1,-1,-1,-1,-1,-1,-1,-1,-1,-1,-1,-1,-1,-1,-1,-1,-1,-1,-1,-1,-1,-1,-1,-1,-1,-1,-1,-1,-1,-1,-1,-1,-1,-1,-1,-1,-1,-1,-1,-1,-1,-1,-1,-1],"split_conditions":[1.4621904E-2,7.7372496E-3,2.2601714E-2,-2.6662007E-1,-2.0079507E-1,3.4897426E-1,6.822241E-1,3.5E-2,-2.6708642E-1,-1.220548E-1,-2.0643637E-1,5.666667E-2,5.712627E-1,5.938776E-2,-1.3000001E-1,-2.837155E-1,-2.3993953E-1,-1.4014286E-1,1.0125001E-1,3.5E-2,-2.07051E-1,1.0125001E-1,-3.5E-2,4.7173208E-1,-1.3716495E-1,1.00263156E-1,-5.0625004E-2,-2.1000002E-2,-1.459091E-1,-4.5E-2,-2.4453416E-1,-1.87E-1,-9.133333E-2,-1.6692308E-1,-4.038462E-3,3.5E-2,-1.3943006E-1,-0E0,1.19062506E-1,7.285715E-2,-1.0071429E-1,-1.0125001E-1,7.285715E-2,-1.0071429E-1,5.666667E-2,-2.6250001E-2,-2.4543752E-1,-8.076924E-3,-1.5875E-1,-6.5294124E-2,-1.9666667E-1,-4.170732E-2,8.8125E-2,-1.667647E-1,-1.021875E-1,1.0125001E-1,-1.0125001E-1,1.1666667E-2,1.8473685E-1,-0E0,-1.175E-1,3.5E-2,-1.3153847E-1,7.285715E-2,-0E0,-7.285715E-2,3.5E-2,-6.4090915E-2,1.2333334E-1,-1.7318182E-1,-0E0,-1.5545455E-1,4.6363637E-2,-2.0875001E-1,-2.6250001E-2,3.0000001E-2,-7.965517E-2,1.3153847E-1,-2.6250001E-2,-1.3346153E-1,-2.2448277E-1,8.75E-3,-1.312987E-1,6.75E-2,-4.6363637E-2,2.00625E-1,2.6250001E-2,-3.5E-2,3.5E-2,-1.41E-1,-0E0,-3.5E-2,3.5E-2,2.1000002E-2,-1.0058824E-1,3.5E-2,-3.5E-2,1.0125001E-1,-2.6250001E-2,3.5E-2,-7.285715E-2,-6.75E-2,1.41E-1,-1.3588236E-1,-0E0,-7.285715E-2,3.5E-2,-1.3909091E-1,3.5E-2,-5.8421053E-2,1.41E-1,-6.767442E-2,-1.8230769E-1,-2.6250001E-2,1.2333334E-1,-0E0,-7.285715E-2,7.285715E-2,-3.5E-2,-3.5E-2,3.5E-2,7.285715E-2,-2.6250001E-2,-1.14E-1,-0E0,-7.285715E-2,3.5E-2,-0E0,-1.0125001E-1,-0E0,-1.54E-1,7.285715E-2,-3.4E-2,-1.8310346E-1,-1.0018868E-1,-0E0,-1.2333334E-1,-1.5545455E-1,-3.0000001E-2,-2.07E-1,-5.7857145E-2,-7.285715E-2,3.5E-2,-7.285715E-2,7.285715E-2,-7.285715E-2,3.5E-2,-3.5E-2,3.5E-2,-2.6250001E-2,3.5E-2,-3.5E-2,3.5E-2,-5.7857145E-2,3.5E-2,-0E0,-1.9666667E-1,3.9230768E-2,-1.3133334E-1,-3.9230768E-2,7.285715E-2,1.2333334E-1,-7E-2,7.285715E-2,-1.175E-1,-0E0,-3.5E-2,-0E0,-1.0125001E-1,3.5E-2,-3.5E-2,6.75E-2,-3.5E-2,-1.7892858E-1,-3.6818184E-2,2.6250001E-2,-8.100001E-2,-1.1000001E-1,-0E0,-0E0,-1.41E-1,-3.5E-2,3.5E-2,-5.666667E-2,7.285715E-2,8.100001E-2,-0E0,-2.0478262E-1,-2.1000002E-2,1.0125001E-1,-9E-2,-0E0,3.5E-2,-1.0125001E-1,-0E0,-0E0,-1.3588236E-1,5.7857145E-2,-1.0125001E-1,-3.5E-2,3.5E-2,-7.285715E-2,-0E0,-0E0,1.0125001E-1,-3.5E-2,3.5E-2,2.6250001E-2,-7.285715E-2,-1.175E-1,-1.75E-2,3.5E-2,-3.5E-2,3.5E-2,-3.5E-2,-2.6250001E-2,3.5E-2,-1.54E-1,-0E0,1.009091E-1,-2.6250001E-2,3.5E-2,-3.5E-2,3.5E-2,-3.5E-2,-0E0,3.5E-2,5.666667E-2,-1.0125001E-1,-0E0,-3.5E-2,3.5E-2,-3.5E-2,-7.285715E-2,3.5E-2,3.5E-2,-3.5E-2,1.0125001E-1,-3.5E-2,-3.5E-2,3.5E-2],"split_indices":[0,0,0,0,1,1,1,2147483647,2147483647,2147483647,2147483647,0,1,0,0,2147483647,2147483647,2147483647,2147483647,2147483647,2147483647,2147483647,2147483647,1,0,2147483647,2147483647,2147483647,2147483647,2147483647,2147483647,2147483647,2147483647,0,0,2147483647,2147483647,2147483647,2147483647,2147483647,2147483647,2147483647,2147483647,2147483647,2147483647,2147483647,2147483647,2147483647,2147483647,2147483647,2147483647,2147483647,2147483647,2147483647,2147483647,2147483647,2147483647,2147483647,2147483647,2147483647,2147483647,2147483647,2147483647,2147483647,2147483647,2147483647,2147483647,2147483647,2147483647,2147483647,2147483647,2147483647,2147483647,2147483647,2147483647,2147483647,2147483647,2147483647,2147483647,2147483647,2147483647,2147483647,2147483647,2147483647,2147483647,2147483647,2147483647,2147483647,2147483647,2147483647,2147483647,2147483647,2147483647,2147483647,2147483647,2147483647,2147483647,2147483647,2147483647,2147483647,2147483647,2147483647,2147483647,2147483647,2147483647,2147483647,2147483647,2147483647,2147483647,2147483647,2147483647,2147483647,2147483647,2147483647,2147483647,2147483647,2147483647,2147483647,2147483647,2147483647,2147483647,2147483647,2147483647,2147483647,2147483647,2147483647,2147483647,2147483647,2147483647,2147483647,2147483647,2147483647,2147483647,2147483647,2147483647,2147483647,2147483647,2147483647,2147483647,2147483647,2147483647,2147483647,2147483647,2147483647,2147483647,2147483647,2147483647,2147483647,2147483647,2147483647,2147483647,2147483647,2147483647,2147483647,2147483647,2147483647,2147483647,2147483647,2147483647,2147483647,2147483647,2147483647,2147483647,2147483647,2147483647,2147483647,2147483647,2147483647,2147483647,2147483647,2147483647,2147483647,2147483647,2147483647,2147483647,2147483647,2147483647,2147483647,2147483647,2147483647,2147483647,2147483647,2147483647,2147483647,2147483647,2147483647,2147483647,2147483647,2147483647,2147483647,2147483647,2147483647,2147483647,2147483647,2147483647,2147483647,2147483647,2147483647,2147483647,2147483647,2147483647,2147483647,2147483647,2147483647,2147483647,2147483647,2147483647,2147483647,2147483647,2147483647,2147483647,2147483647,2147483647,2147483647,2147483647,2147483647,2147483647,2147483647,2147483647,2147483647,2147483647,2147483647,2147483647,2147483647,2147483647,2147483647,2147483647,2147483647,2147483647,2147483647,2147483647,2147483647,2147483647,2147483647,2147483647,2147483647,2147483647,2147483647,2147483647,2147483647,2147483647],"split_type":[0,0,0,0,0,0,0,0,0,0,0,0,0,0,0,0,0,0,0,0,0,0,0,0,0,0,0,0,0,0,0,0,0,0,0,0,0,0,0,0,0,0,0,0,0,0,0,0,0,0,0,0,0,0,0,0,0,0,0,0,0,0,0,0,0,0,0,0,0,0,0,0,0,0,0,0,0,0,0,0,0,0,0,0,0,0,0,0,0,0,0,0,0,0,0,0,0,0,0,0,0,0,0,0,0,0,0,0,0,0,0,0,0,0,0,0,0,0,0,0,0,0,0,0,0,0,0,0,0,0,0,0,0,0,0,0,0,0,0,0,0,0,0,0,0,0,0,0,0,0,0,0,0,0,0,0,0,0,0,0,0,0,0,0,0,0,0,0,0,0,0,0,0,0,0,0,0,0,0,0,0,0,0,0,0,0,0,0,0,0,0,0,0,0,0,0,0,0,0,0,0,0,0,0,0,0,0,0,0,0,0,0,0,0,0,0,0,0,0,0,0,0,0,0,0,0,0,0,0,0,0,0,0,0,0,0,0,0,0,0,0],"sum_hessian":[2.439E3,2.099E3,3.4E2,1.211E3,8.88E2,2.74E2,6.6E1,1E0,1.21E3,6.8E1,8.2E2,4E0,2.7E2,4.4E1,2.2E1,7.19E2,4.91E2,6.5E1,3E0,1E0,8.19E2,3E0,1E0,8.1E1,1.89E2,3.3E1,1.1E1,5E0,1.7E1,1.3E1,4.78E2,2.5E1,4E1,3.4E1,4.7E1,1E0,1.88E2,6E0,2.7E1,2E0,9E0,3E0,2E0,9E0,4E0,3E0,4.75E2,2.1E1,1.9E1,1.2E1,2.2E1,3.6E1,1.1E1,9.7E1,9.1E1,3E0,3E0,1.3E1,1.4E1,2E0,7E0,1E0,8E0,2E0,2E0,2E0,1E0,1.7E1,4E0,1.7E1,2E0,6E0,6E0,1.9E1,3E0,1.2E1,2.4E1,8E0,3E0,7.3E1,2.4E1,1.9E1,7.2E1,7E0,6E0,1.1E1,3E0,1E0,1E0,5E0,2E0,1E0,1E0,5E0,1.2E1,1E0,1E0,3E0,3E0,1E0,2E0,7E0,5E0,1.2E1,1.2E1,2E0,1E0,7.2E1,1E0,1.4E1,5E0,3.8E1,3.4E1,3E0,4E0,4E0,2E0,2E0,1E0,1E0,1E0,2E0,3E0,1E1,2E0,2E0,1E0,4E0,3E0,2E0,1E1,2E0,1E1,2.4E1,4.8E1,1E1,4E0,6E0,3.2E1,2.5E1,9E0,2E0,1E0,2E0,2E0,2E0,1E0,1E0,1E0,3E0,1E0,1E0,1E0,9E0,1E0,2E0,2.2E1,8E0,4E1,8E0,2E0,4E0,2.8E1,2E0,7E0,2E0,1E0,6E0,3E0,1E0,1E0,7E0,1E0,2.3E1,1.7E1,3E0,5E0,1.6E1,1.2E1,2E0,5E0,1E0,1E0,4E0,2E0,5E0,2E0,1.8E1,5E0,3E0,1.4E1,2E0,1E0,3E0,2E0,4E0,1.2E1,9E0,3E0,1E0,1E0,2E0,2E0,2E0,3E0,1E0,1E0,3E0,2E0,7E0,7E0,1E0,1E0,1E0,1E0,3E0,1E0,1E1,2E0,6E0,3E0,1E0,1E0,1E0,1E0,2E0,1E0,4E0,3E0,2E0,1E0,1E0,1E0,2E0,1E0,1E0,1E0,3E0,1E0,1E0,1E0],"tree_param":{"num_deleted":"226","num_feature":"2","num_nodes":"241","size_leaf_vector":"0"}},{"base_weights":[-7.352799E-1,-8.842898E-1,-5.417733E-1,1.1666667E-1,-8.8564247E-1,-6.092325E-1,-2.235E-1,-9.390012E-1,-7.965889E-1,-1.5714286E-1,-6.312281E-1,-1.1438356E-1,-4.694915E-1,8.75E-2,-8.0270755E-1,-3.96875E-1,2.1363637E-1,7E-2,-6.3611764E-1,-3.5E-1,-1.559633E-2,-0E0,-4.8596492E-1,2.4285714E-1,-1.1666667E-1,-0E0,-8.0561596E-1,7E-2,-5.074074E-1,4.7E-1,-0E0,-8.75E-2,2.4285714E-1,-6.789474E-1,-5.030702E-1,-5.566667E-1,1E-1,2.6470589E-2,-3.9166665E-1,-1.1666667E-1,1.1666667E-1,-2.576923E-1,-5.75E-1,1.1666667E-1,-1.1666667E-1,-3.9545456E-1,-8.143925E-1,-2.4285714E-1,3.375E-1,1.1666667E-1,-5.653846E-1,4.1111112E-1,-2.846154E-1,1.1666667E-1,-2.4285714E-1,-2.4942529E-1,-6.349315E-1,8.75E-2,-6.5555555E-1,2.7E-1,-5.8333334E-2,4.7857141E-1,-3.9784946E-2,-4.2173913E-1,3.375E-1,-7.4761903E-1,-2.35E-1,-5.9444445E-1,1.8888889E-1,-6.35E-1,-1.5454546E-1,-0E0,-4.1111112E-1,-2.7882352E-1,2.4285714E-1,-7.019048E-1,-4.0652174E-1,-1.1666667E-1,2.4285714E-1,-7.08E-1,-0E0,-1.1666667E-1,4.1111112E-1,1.8888889E-1,-3.375E-1,-7.444444E-2,3.375E-1,-4.8636365E-1,1.1666667E-1,4.1111112E-1,-5.4375E-1,1.1666667E-1,-6.882353E-1,2.4285714E-1,-0E0,-7.0555556E-1,-0E0,2.4285714E-1,-4.1111112E-1,-8.75E-2,1.1666667E-1,-1.8E-1,-4.68E-1,2.7E-1,-5.2926826E-1,1.1666667E-1,-1.1666667E-1,-1.1666667E-1,3.375E-1,-1.1149425E-1,3.375E-1,-1.1666667E-1,1.1666667E-1,1.1666667E-1,-1.1666667E-1,1.1666667E-1,-2.4285714E-1,-2.7222222E-1,1.6875E-1,-5.7058823E-1,-1.3076922E-1,-0E0,3.375E-1,-6.3548386E-1,-1.1333333E-1,-4.9333334E-2,-3.3529413E-1,-6.2962964E-2,-3.96875E-1,3.3571428E-1,-2.4285714E-1,2.4285714E-1,-3.3636364E-1,1.1666667E-1,-1.1666667E-1,-8.75E-2,-6.6785717E-1,3.375E-1,-3.9166665E-1,-1.7636363E-1,2.28E-1,-1.9583333E-1,3.375E-1,-4.68E-1,-5.8333334E-2,3.9166665E-1,-0E0,-4.1111112E-1,-0E0,-2.4285714E-1,1.1666667E-1,-0E0,-3.3448276E-1,2.7916667E-1,-1.1666667E-1,5E-2,-3.8E-1,-0E0,-5.0869566E-1,-4.1111112E-1,3.375E-1,-1.1666667E-1,1.1666667E-1,-1.1666667E-1,1.1666667E-1,-2.35E-1,2.9375E-1,-4.35E-1,-5E-2,-0E0,3.7222221E-1,-1.5454546E-1,3.375E-1,1.1666667E-1,-4.7857141E-1,-1.1666667E-1,1.1666667E-1,5.8333334E-2,-4.3846154E-1,-2.4285714E-1,4.7857141E-1,1.5454546E-1,-3.375E-1,2.4285714E-1,-1.8888889E-1,8.75E-2,-3.375E-1,-5.923077E-1,1.1666667E-1,-7E-2,2.4285714E-1,3.375E-1,-8.75E-2,-2.4285714E-1,-0E0,2.4285714E-1,-1.1666667E-1,8.75E-2,-2.4285714E-1,1.1666667E-1,-2.4285714E-1,1.1666667E-1,-1.1666667E-1,-1.1666667E-1,2.4285714E-1],"categories":[],"categories_nodes":[],"categories_segments":[],"categories_sizes":[],"default_left":[1,1,1,1,1,1,1,1,1,1,1,1,1,1,1,1,1,1,1,1,1,1,1,1,1,1,1,1,1,1,1,1,1,0,1,1,1,1,1,1,1,1,1,1,1,1,1,1,1,1,1,1,1,1,1,1,1,1,1,1,1,1,1,1,1,0,1,1,1,1,1,1,1,1,1,1,1,1,1,1,1,1,1,1,1,1,1,1,1,0,0,1,1,1,1,1,1,1,1,1,1,1,1,1,1,1,1,1,1,1,1,1,1,1,1,1,1,1,1,1,1,1,1,1,1,1,1,1,1,1,1,1,1,1,1,1,1,1,1,1,1,1,1,1,1,1,1,1,1,1,1,1,1,1,1,1,1,1,1,1,1,1,1,1,1,1,1,1,1,1,1,1,1,1,1,1,1,1,1,1,1,1,1,1,1,1,1,1,1,1,1,1,1,1,1,1,1,1,1,1,1,1,1,1,1],"id":4,"left_children":[1,-1,5,-1,-1,9,11,-1,-1,-1,17,-1,21,-1,-1,-1,-1,-1,33,-1,-1,-1,41,-1,-1,-1,-1,-1,-1,-1,-1,-1,-1,-1,55,-1,-1,-1,-1,-1,-1,-1,65,-1,-1,-1,-1,-1,-1,-1,-1,-1,-1,-1,-1,-1,-1,-1,-1,-1,-1,-1,-1,-1,-1,-1,89,-1,-1,-1,-1,-1,-1,-1,-1,-1,-1,-1,-1,-1,-1,-1,-1,-1,-1,-1,-1,-1,-1,-1,-1,-1,-1,-1,-1,-1,-1,-1,-1,-1,-1,-1,-1,-1,-1,-1,-1,-1,-1,-1,-1,-1,-1,-1,-1,-1,-1,-1,-1,-1,-1,-1,-1,-1,-1,-1,-1,-1,-1,-1,-1,-1,-1,-1,-1,-1,-1,-1,-1,-1,-1,-1,-1,-1,-1,-1,-1,-1,-1,-1,-1,-1,-1,-1,-1,-1,-1,-1,-1,-1,-1,-1,-1,-1,-1,-1,-1,-1,-1,-1,-1,-1,-1,-1,-1,-1,-1,-1,-1,-1,-1,-1,-1,-1,-1,-1,-1,-1,-1,-1,-1,-1,-1,-1,-1,-1,-1,-1,-1,-1,-1,-1,-1,-1,-1],"loss_changes":[6.877246E1,2.6348877E0,2.2558014E1,0E0,2.3585205E0,8.207184E0,4.924671E0,0E0,3.5788574E0,4.834403E0,3.3240356E0,3.261308E0,4.5631218E-1,4.3327376E-1,1.293335E0,1.9601688E0,1.2049092E0,4.2510712E-1,2.7812195E0,4.3213344E0,1.8857901E0,1.6333333E-1,1.678114E-1,0E0,0E0,1.6333333E-1,1.38549805E-2,1.2751071E0,1.441339E0,0E0,2.5741878E0,4.3327376E-1,0E0,0E0,6.568527E0,2.368249E0,5.9983337E-1,3.2821624E0,0E0,0E0,0E0,3.2755811E0,9.3961906E-1,0E0,0E0,3.2412121E0,0E0,0E0,0E0,0E0,1.6073227E-2,0E0,4.6803415E-1,0E0,0E0,1.6084456E0,4.7418594E-1,4.3327376E-1,9.282665E-1,8.7377775E-1,1.1915277E0,0E0,1.2628235E0,1.1948876E0,0E0,0E0,5.147236E0,1.7734642E0,9.174603E-2,8.960552E-1,1.6712408E0,1.4291666E-1,0E0,9.7348213E-1,0E0,0E0,4.6121664E0,0E0,0E0,0E0,1.6333333E-1,0E0,0E0,6.7180556E-1,0E0,1.4939665E0,0E0,0E0,0E0,0E0,0E0,0E0,0E0,0E0,1.6333333E-1,0E0,1.6333333E-1,0E0,0E0,4.3327376E-1,0E0,2.3512917E0,2.8141356E-1,1.8225002E-1,1.2265768E0,0E0,0E0,0E0,0E0,1.0122157E0,0E0,0E0,0E0,0E0,0E0,0E0,0E0,1.1456828E0,1.5350893E0,0E0,1.4350948E0,1.6333333E-1,0E0,3.114605E-2,2.5594165E0,2.827794E0,0E0,1.7246296E0,4.7612095E-1,2.6297617E-1,0E0,0E0,2.7656555E-1,0E0,0E0,4.3327376E-1,0E0,0E0,0E0,1.5337553E0,6.524832E-1,1.2805836E0,0E0,4.7613955E-1,2.391528E0,0E0,1.6333333E-1,0E0,1.6333333E-1,0E0,0E0,2.485125E0,5.750177E-1,6.234722E-1,0E0,1.1389773E0,1.1220951E0,1.6333333E-1,0E0,0E0,0E0,0E0,0E0,0E0,0E0,1.435564E0,2.2386606E0,0E0,1.1389773E0,7.339682E-1,0E0,7.097727E-1,0E0,0E0,1.436007E0,0E0,0E0,4.210238E-1,0E0,0E0,0E0,7.097727E-1,0E0,0E0,9.174603E-2,4.3327376E-1,0E0,0E0,0E0,4.2510712E-1,0E0,0E0,4.3327376E-1,0E0,1.6333333E-1,0E0,0E0,4.3327376E-1,0E0,0E0,0E0,0E0,0E0,0E0,0E0],"parents":[2147483647,0,0,1,1,2,2,4,4,5,5,6,6,8,8,9,9,10,10,11,11,12,12,13,13,14,14,15,15,16,16,17,17,18,18,19,19,20,20,21,21,22,22,25,25,26,26,27,27,28,28,30,30,31,31,34,34,35,35,36,36,37,37,41,41,42,42,45,45,50,50,52,52,55,55,56,56,57,57,58,58,59,59,60,60,62,62,63,63,66,66,67,67,68,68,69,69,70,70,71,71,73,73,76,76,80,80,83,83,85,85,94,94,96,96,99,99,101,101,102,102,103,103,104,104,109,109,117,117,118,118,120,120,121,121,123,123,124,124,125,125,127,127,128,128,129,129,132,132,135,135,139,139,140,140,141,141,143,143,144,144,146,146,148,148,151,151,152,152,153,153,155,155,156,156,157,157,165,165,166,166,168,168,169,169,171,171,174,174,177,177,181,181,184,184,185,185,189,189,192,192,194,194,197,197],"right_children":[2,-1,6,-1,-1,10,12,-1,-1,-1,18,-1,22,-1,-1,-1,-1,-1,34,-1,-1,-1,42,-1,-1,-1,-1,-1,-1,-1,-1,-1,-1,-1,56,-1,-1,-1,-1,-1,-1,-1,66,-1,-1,-1,-1,-1,-1,-1,-1,-1,-1,-1,-1,-1,-1,-1,-1,-1,-1,-1,-1,-1,-1,-1,90,-1,-1,-1,-1,-1,-1,-1,-1,-1,-1,-1,-1,-1,-1,-1,-1,-1,-1,-1,-1,-1,-1,-1,-1,-1,-1,-1,-1,-1,-1,-1,-1,-1,-1,-1,-1,-1,-1,-1,-1,-1,-1,-1,-1,-1,-1,-1,-1,-1,-1,-1,-1,-1,-1,-1,-1,-1,-1,-1,-1,-1,-1,-1,-1,-1,-1,-1,-1,-1,-1,-1,-1,-1,-1,-1,-1,-1,-1,-1,-1,-1,-1,-1,-1,-1,-1,-1,-1,-1,-1,-1,-1,-1,-1,-1,-1,-1,-1,-1,-1,-1,-1,-1,-1,-1,-1,-1,-1,-1,-1,-1,-1,-1,-1,-1,-1,-1,-1,-1,-1,-1,-1,-1,-1,-1,-1,-1,-1,-1,-1,-1,-1,-1,-1,-1,-1,-1,-1],"split_conditions":[8.653671E-3,-2.6528695E-1,1.7209275E-2,3.5E-2,-2.6569274E-1,3.7328374E-1,7.538653E-1,-2.8170037E-1,-2.3897667E-1,-4.714286E-2,8.681268E-3,-3.4315072E-2,1.752164E-2,2.6250001E-2,-2.4081227E-1,-1.19062506E-1,6.4090915E-2,2.1000002E-2,1.3546588E-2,-1.05000004E-1,-4.6788994E-3,-0E0,8.080453E-1,7.285715E-2,-3.5E-2,-0E0,-2.416848E-1,2.1000002E-2,-1.5222223E-1,1.41E-1,-0E0,-2.6250001E-2,7.285715E-2,-2.0368423E-1,5.733974E-1,-1.6700001E-1,3.0000001E-2,7.941177E-3,-1.175E-1,-3.5E-2,3.5E-2,-7.730769E-2,8.6115676E-1,3.5E-2,-3.5E-2,-1.1863637E-1,-2.4431776E-1,-7.285715E-2,1.0125001E-1,3.5E-2,-1.6961539E-1,1.2333334E-1,-8.538462E-2,3.5E-2,-7.285715E-2,-7.482759E-2,-1.9047946E-1,2.6250001E-2,-1.9666667E-1,8.100001E-2,-1.75E-2,1.4357144E-1,-1.1935485E-2,-1.2652175E-1,1.0125001E-1,-2.2428572E-1,8.68195E-1,-1.7833334E-1,5.666667E-2,-1.905E-1,-4.6363637E-2,-0E0,-1.2333334E-1,-8.364706E-2,7.285715E-2,-2.1057144E-1,-1.2195653E-1,-3.5E-2,7.285715E-2,-2.124E-1,-0E0,-3.5E-2,1.2333334E-1,5.666667E-2,-1.0125001E-1,-2.2333333E-2,1.0125001E-1,-1.459091E-1,3.5E-2,1.2333334E-1,-1.6312501E-1,3.5E-2,-2.064706E-1,7.285715E-2,-0E0,-2.1166667E-1,-0E0,7.285715E-2,-1.2333334E-1,-2.6250001E-2,3.5E-2,-5.4000005E-2,-1.404E-1,8.100001E-2,-1.5878049E-1,3.5E-2,-3.5E-2,-3.5E-2,1.0125001E-1,-3.3448275E-2,1.0125001E-1,-3.5E-2,3.5E-2,3.5E-2,-3.5E-2,3.5E-2,-7.285715E-2,-8.166667E-2,5.0625004E-2,-1.7117648E-1,-3.9230768E-2,-0E0,1.0125001E-1,-1.9064517E-1,-3.4E-2,-1.4800001E-2,-1.0058824E-1,-1.888889E-2,-1.19062506E-1,1.0071429E-1,-7.285715E-2,7.285715E-2,-1.009091E-1,3.5E-2,-3.5E-2,-2.6250001E-2,-2.0035715E-1,1.0125001E-1,-1.175E-1,-5.290909E-2,6.84E-2,-5.875E-2,1.0125001E-1,-1.404E-1,-1.75E-2,1.175E-1,-0E0,-1.2333334E-1,-0E0,-7.285715E-2,3.5E-2,-0E0,-1.0034483E-1,8.375E-2,-3.5E-2,1.5000001E-2,-1.14E-1,-0E0,-1.5260871E-1,-1.2333334E-1,1.0125001E-1,-3.5E-2,3.5E-2,-3.5E-2,3.5E-2,-7.05E-2,8.8125E-2,-1.305E-1,-1.5000001E-2,-0E0,1.1166667E-1,-4.6363637E-2,1.0125001E-1,3.5E-2,-1.4357144E-1,-3.5E-2,3.5E-2,1.75E-2,-1.3153847E-1,-7.285715E-2,1.4357144E-1,4.6363637E-2,-1.0125001E-1,7.285715E-2,-5.666667E-2,2.6250001E-2,-1.0125001E-1,-1.7769231E-1,3.5E-2,-2.1000002E-2,7.285715E-2,1.0125001E-1,-2.6250001E-2,-7.285715E-2,-0E0,7.285715E-2,-3.5E-2,2.6250001E-2,-7.285715E-2,3.5E-2,-7.285715E-2,3.5E-2,-3.5E-2,-3.5E-2,7.285715E-2],"split_indices":[0,0,0,2147483647,2147483647,1,1,2147483647,2147483647,1,0,1,0,2147483647,2147483647,2147483647,2147483647,0,0,2147483647,2147483647,0,1,2147483647,2147483647,2147483647,2147483647,2147483647,2147483647,2147483647,2147483647,2147483647,2147483647,0,1,2147483647,2147483647,2147483647,2147483647,2147483647,2147483647,1,1,2147483647,2147483647,2147483647,2147483647,2147483647,2147483647,2147483647,2147483647,2147483647,2147483647,2147483647,2147483647,1,1,2147483647,2147483647,2147483647,2147483647,2147483647,2147483647,2147483647,2147483647,0,1,2147483647,2147483647,2147483647,2147483647,2147483647,2147483647,2147483647,2147483647,2147483647,2147483647,2147483647,2147483647,2147483647,2147483647,2147483647,2147483647,2147483647,2147483647,2147483647,2147483647,2147483647,2147483647,0,0,2147483647,2147483647,2147483647,2147483647,2147483647,2147483647,2147483647,2147483647,2147483647,2147483647,2147483647,2147483647,2147483647,2147483647,2147483647,2147483647,2147483647,2147483647,2147483647,2147483647,2147483647,2147483647,2147483647,2147483647,2147483647,2147483647,2147483647,2147483647,2147483647,2147483647,2147483647,2147483647,2147483647,2147483647,2147483647,2147483647,2147483647,2147483647,2147483647,2147483647,2147483647,2147483647,2147483647,2147483647,2147483647,2147483647,2147483647,2147483647,2147483647,2147483647,2147483647,2147483647,2147483647,2147483647,2147483647,2147483647,2147483647,2147483647,2147483647,2147483647,2147483647,2147483647,2147483647,2147483647,2147483647,2147483647,2147483647,2147483647,2147483647,2147483647,2147483647,2147483647,2147483647,2147483647,2147483647,2147483647,2147483647,2147483647,2147483647,2147483647,2147483647,2147483647,2147483647,2147483647,2147483647,2147483647,2147483647,2147483647,2147483647,2147483647,2147483647,2147483647,2147483647,2147483647,2147483647,2147483647,2147483647,2147483647,2147483647,2147483647,2147483647,2147483647,2147483647,2147483647,2147483647,2147483647,2147483647,2147483647,2147483647,2147483647,2147483647,2147483647,2147483647,2147483647],"split_type":[0,0,0,0,0,0,0,0,0,0,0,0,0,0,0,0,0,0,0,0,0,0,0,0,0,0,0,0,0,0,0,0,0,0,0,0,0,0,0,0,0,0,0,0,0,0,0,0,0,0,0,0,0,0,0,0,0,0,0,0,0,0,0,0,0,0,0,0,0,0,0,0,0,0,0,0,0,0,0,0,0,0,0,0,0,0,0,0,0,0,0,0,0,0,0,0,0,0,0,0,0,0,0,0,0,0,0,0,0,0,0,0,0,0,0,0,0,0,0,0,0,0,0,0,0,0,0,0,0,0,0,0,0,0,0,0,0,0,0,0,0,0,0,0,0,0,0,0,0,0,0,0,0,0,0,0,0,0,0,0,0,0,0,0,0,0,0,0,0,0,0,0,0,0,0,0,0,0,0,0,0,0,0,0,0,0,0,0,0,0,0,0,0,0,0,0,0,0,0,0,0,0,0,0,0],"sum_hessian":[2.478E3,1.389E3,1.089E3,1E0,1.388E3,8.94E2,1.95E2,8.36E2,5.52E2,4.4E1,8.5E2,1.41E2,5.4E1,3E0,5.49E2,2.7E1,1.7E1,5E0,8.45E2,3.7E1,1.04E2,2E0,5.2E1,2E0,1E0,2E0,5.47E2,5E0,2.2E1,5E0,1.2E1,3E0,2E0,6.22E2,2.23E2,2.5E1,1.2E1,9.7E1,7E0,1E0,1E0,2.1E1,3.1E1,1E0,1E0,1.7E1,5.3E2,2E0,3E0,1E0,2.1E1,4E0,8E0,1E0,2E0,8.2E1,1.41E2,3E0,2.2E1,5E0,7E0,9E0,8.8E1,1.8E1,3E0,1.6E1,1.5E1,1.3E1,4E0,1.5E1,6E0,4E0,4E0,8E1,2E0,1E2,4.1E1,1E0,2E0,2E1,2E0,1E0,4E0,4E0,3E0,8.5E1,3E0,1.7E1,1E0,4E0,1.1E1,1E0,1.2E1,2E0,2E0,1.3E1,2E0,2E0,4E0,3E0,1E0,6E1,2E1,5E0,3.6E1,1E0,1E0,1E0,3E0,8.2E1,3E0,1E0,1E0,1E0,1E0,1E0,2E0,4.9E1,1.1E1,1.2E1,8E0,2E0,3E0,2.6E1,1E1,7E1,1.2E1,2.2E1,2.7E1,9E0,2E0,2E0,6E0,1E0,1E0,3E0,2.3E1,3E0,7E0,5E1,2E1,1.9E1,3E0,2E1,7E0,7E0,2E0,4E0,2E0,2E0,1E0,2.6E1,2.4E1,1.9E1,1E0,9E0,1E1,2E0,1.8E1,4E0,3E0,1E0,1E0,1E0,1E0,1.5E1,1.1E1,1.5E1,9E0,6E0,1.3E1,6E0,3E0,1E0,9E0,1E0,1E0,7E0,8E0,2E0,9E0,6E0,3E0,2E0,4E0,3E0,3E0,8E0,1E0,5E0,2E0,3E0,3E0,2E0,2E0,2E0,1E0,3E0,2E0,1E0,2E0,1E0,1E0,1E0,2E0],"tree_param":{"num_deleted":"182","num_feature":"2","num_nodes":"205","size_leaf_vector":"0"}},{"base_weights":[-7.451665E-1,-9E-1,-5.526222E-1,1.1666667E-1,-9.0138483E-1,-6.0910994E-1,-2.2685714E-1,-0E0,-9.027007E-1,-1.3255814E-1,-6.278081E-1,-9.224138E-2,-4.484375E-1,1.1666667E-1,-1.1666667E-1,-4.0344828E-1,3E-1,1.1666667E-1,-6.2958515E-1,-3.1470588E-1,-0E0,8.75E-2,-4.8688525E-1,7E-2,-5.2916664E-1,-1.1666667E-1,3.7222221E-1,-6.928261E-1,-5.5900216E-1,-0E0,-5.9444445E-1,3.7222221E-1,-9.054054E-2,-1.1666667E-1,2.4285714E-1,-5.1166666E-1,1.1666667E-1,-2.4285714E-1,3.375E-1,-6.157895E-1,-7E-2,-0E0,-6.958515E-1,1.3076922E-1,-5.7328916E-1,-2.7E-1,1.6875E-1,-2.4285714E-1,5.4375E-1,-2.9393938E-1,5.869565E-2,-6.882353E-1,-0E0,2.4285714E-1,-3.375E-1,1.1666667E-1,-1.1666667E-1,-7.0066375E-1,-1.5454546E-1,2.7E-1,-8.75E-2,-4.39823E-1,-6.078261E-1,1.1666667E-1,-4.1111112E-1,-7E-2,3.3636364E-1,6.4666665E-1,-1.1666667E-1,2.4285714E-1,-3.7741935E-1,3.8E-1,-7.5E-2,1.1666667E-1,-1.1666667E-1,-3E-1,-7.093607E-1,2.4285714E-1,-4.1111112E-1,-1.1666667E-1,4.1111112E-1,-2.4285714E-1,1.1666667E-1,-5.395062E-1,-1.5405406E-1,-7E-2,-6.1382353E-1,2.4285714E-1,-3.375E-1,-0E0,4.1111112E-1,-5.8333334E-2,-4.4583333E-1,-1.1666667E-1,4.7857141E-1,-4.7E-1,5.483871E-2,-4.1875E-1,8.75E-2,-6.5897435E-1,-3.7659574E-1,6.2962964E-2,-5.133333E-1,-2.4285714E-1,8.75E-2,-6.188623E-1,-1.5454546E-1,1.1666667E-1,-1.1666667E-1,-2.4285714E-1,7E-2,1.6785714E-1,-3.375E-1,-0E0,-4.7857141E-1,2.4285714E-1,-1.1666667E-1,-0E0,-5.057143E-1,-8.095238E-2,3.3636364E-1,-5.923077E-1,-0E0,-0E0,1.1666667E-1,8.75E-2,-3.375E-1,1.8888889E-1,-1.1666667E-1,-1.9285715E-1,4.0526316E-1,-1.1666667E-1,1.1666667E-1,2.846154E-1,-4.1111112E-1,-5.3636366E-1,-0E0,-3.3571428E-1,2.25E-1,4.1111112E-1,-0E0,-1.1666667E-1,1.1666667E-1,1.1666667E-1,-1.1666667E-1,-0E0,1.1666667E-1,-1.1666667E-1,3.375E-1,7E-2,-4.1111112E-1,-0E0,4.5294118E-1,-8.75E-2,4.7E-1,1.1666667E-1,-1.1666667E-1,1.1666667E-1,-4.3846154E-1,-8.75E-2,4.1111112E-1,-1.1666667E-1,1.1666667E-1,1.1666667E-1,-1.1666667E-1,1.8888889E-1,-1.1666667E-1,-1.1666667E-1,1.1666667E-1,1.1666667E-1,-2.4285714E-1,-2.4285714E-1,1.1666667E-1,2.4285714E-1,-0E0,-1.1666667E-1,1.1666667E-1],"categories":[],"categories_nodes":[],"categories_segments":[],"categories_sizes":[],"default_left":[1,1,1,1,1,1,1,1,1,1,1,1,1,1,1,1,1,0,1,1,1,1,1,1,1,1,1,1,1,1,1,1,1,1,1,1,1,1,1,1,1,1,1,1,1,1,1,1,1,1,1,1,1,1,1,1,1,1,1,1,1,1,1,1,1,1,1,1,1,1,1,1,1,1,1,1,1,1,1,1,1,1,1,1,1,1,1,1,1,1,1,1,1,1,1,1,1,1,1,1,1,1,1,1,1,1,1,1,1,1,1,1,1,1,1,1,1,1,1,1,1,1,1,1,1,1,1,1,1,1,1,1,1,1,1,1,1,1,1,1,1,1,1,1,1,1,1,1,1,1,1,1,1,1,1,1,1,1,1,1,1,1,1,1,1,1,1,1,1,1,1,1,1,1,1,1,1],"id":5,"left_children":[1,-1,5,-1,-1,9,-1,-1,-1,15,17,-1,-1,-1,-1,-1,-1,-1,27,-1,-1,-1,-1,-1,-1,-1,-1,-1,43,-1,-1,-1,-1,-1,-1,-1,-1,-1,-1,-1,-1,-1,-1,-1,-1,-1,-1,-1,-1,-1,-1,-1,-1,-1,-1,-1,-1,-1,-1,-1,-1,-1,-1,-1,-1,-1,-1,-1,-1,-1,-1,-1,-1,-1,-1,-1,-1,-1,-1,-1,-1,-1,-1,-1,-1,-1,-1,-1,-1,-1,-1,-1,-1,-1,-1,-1,-1,-1,-1,-1,-1,-1,-1,-1,-1,-1,-1,-1,-1,-1,-1,-1,-1,-1,-1,-1,-1,-1,-1,-1,-1,-1,-1,-1,-1,-1,-1,-1,-1,-1,-1,-1,-1,-1,-1,-1,-1,-1,-1,-1,-1,-1,-1,-1,-1,-1,-1,-1,-1,-1,-1,-1,-1,-1,-1,-1,-1,-1,-1,-1,-1,-1,-1,-1,-1,-1,-1,-1,-1,-1,-1,-1,-1,-1,-1,-1,-1],"loss_changes":[7.1399414E1,2.694336E0,1.9760254E1,0E0,1.6273193E0,7.865448E0,4.85091E0,1.6333333E-1,0E0,5.6747637E0,1.7342834E0,2.3803701E0,1.6515856E0,0E0,0E0,2.0490713E0,8.655555E-1,0E0,1.7767944E0,2.9932027E0,3.1005106E0,4.3327376E-1,1.3293409E0,1.2751071E0,5.3331995E-1,0E0,0E0,9.6421814E-1,5.050659E0,1.1846249E0,0E0,2.6495934E0,2.4030685E0,0E0,0E0,0E0,0E0,0E0,0E0,8.476162E-1,1.2751071E0,1.6333333E-1,3.9505005E-1,5.6794226E-1,4.3711853E-1,8.7377775E-1,8.379205E-1,0E0,1.6237078E0,1.9774513E0,2.210022E0,0E0,1.6333333E-1,0E0,0E0,0E0,0E0,2.0817566E-1,1.6712408E0,8.7377775E-1,4.3327376E-1,2.5953236E0,6.928482E-1,0E0,0E0,1.2751071E0,2.7656555E-1,0E0,0E0,0E0,3.9544392E-1,1.1220951E0,2.0997257E0,0E0,0E0,1.1568749E0,0E0,0E0,0E0,0E0,0E0,0E0,0E0,2.4965286E-2,3.1815958E0,4.2510712E-1,7.658386E-2,0E0,0E0,1.6333333E-1,0E0,4.210238E-1,0E0,0E0,0E0,0E0,1.6069528E0,4.0080357E-1,4.3327376E-1,0E0,2.2853985E0,1.2751274E0,6.081023E-1,0E0,2.0416666E-2,0E0,7.097727E-1,0E0,0E0,0E0,3.5377774E-1,2.852312E0,0E0,1.6333333E-1,0E0,0E0,0E0,2.5741878E0,5.424938E-1,2.047738E0,2.7656555E-1,0E0,1.6333333E-1,1.6333333E-1,0E0,2.0416666E-2,0E0,6.7180556E-1,0E0,1.0493968E0,3.6712074E-1,0E0,0E0,1.2171732E0,0E0,0E0,1.6333333E-1,1.0030404E0,9.7486097E-1,0E0,1.6333333E-1,0E0,0E0,0E0,0E0,1.6333333E-1,0E0,0E0,0E0,3.5377774E-1,0E0,1.6333333E-1,0E0,4.3327376E-1,0E0,0E0,0E0,0E0,0E0,4.3327376E-1,0E0,0E0,0E0,0E0,0E0,9.174603E-2,0E0,0E0,0E0,0E0,0E0,0E0,0E0,0E0,1.6333333E-1,0E0,0E0],"parents":[2147483647,0,0,1,1,2,2,4,4,5,5,6,6,7,7,9,9,10,10,11,11,12,12,15,15,16,16,18,18,19,19,20,20,21,21,22,22,23,23,24,24,27,27,28,28,29,29,31,31,32,32,39,39,40,40,41,41,42,42,43,43,44,44,45,45,46,46,48,48,49,49,50,50,52,52,57,57,58,58,59,59,60,60,61,61,62,62,65,65,66,66,70,70,71,71,72,72,75,75,83,83,84,84,85,85,86,86,89,89,91,91,96,96,97,97,98,98,100,100,101,101,102,102,104,104,106,106,110,110,111,111,113,113,117,117,118,118,119,119,120,120,122,122,123,123,125,125,127,127,129,129,130,130,133,133,136,136,137,137,138,138,140,140,145,145,149,149,151,151,153,153,159,159,165,165,174,174],"right_children":[2,-1,6,-1,-1,10,-1,-1,-1,16,18,-1,-1,-1,-1,-1,-1,-1,28,-1,-1,-1,-1,-1,-1,-1,-1,-1,44,-1,-1,-1,-1,-1,-1,-1,-1,-1,-1,-1,-1,-1,-1,-1,-1,-1,-1,-1,-1,-1,-1,-1,-1,-1,-1,-1,-1,-1,-1,-1,-1,-1,-1,-1,-1,-1,-1,-1,-1,-1,-1,-1,-1,-1,-1,-1,-1,-1,-1,-1,-1,-1,-1,-1,-1,-1,-1,-1,-1,-1,-1,-1,-1,-1,-1,-1,-1,-1,-1,-1,-1,-1,-1,-1,-1,-1,-1,-1,-1,-1,-1,-1,-1,-1,-1,-1,-1,-1,-1,-1,-1,-1,-1,-1,-1,-1,-1,-1,-1,-1,-1,-1,-1,-1,-1,-1,-1,-1,-1,-1,-1,-1,-1,-1,-1,-1,-1,-1,-1,-1,-1,-1,-1,-1,-1,-1,-1,-1,-1,-1,-1,-1,-1,-1,-1,-1,-1,-1,-1,-1,-1,-1,-1,-1,-1,-1,-1],"split_conditions":[8.503523E-3,-2.7E-1,1.7689168E-2,3.5E-2,-2.7041546E-1,3.6912578E-1,-6.805714E-2,-0E0,-2.7081022E-1,3.4413987E-1,8.505089E-3,-2.7672414E-2,-1.3453126E-1,3.5E-2,-3.5E-2,-1.2103449E-1,9E-2,3.5E-2,1.1583315E-2,-9.441177E-2,-0E0,2.6250001E-2,-1.4606558E-1,2.1000002E-2,-1.5875E-1,-3.5E-2,1.1166667E-1,-2.0784783E-1,1.1661617E-2,-0E0,-1.7833334E-1,1.1166667E-1,-2.7162164E-2,-3.5E-2,7.285715E-2,-1.535E-1,3.5E-2,-7.285715E-2,1.0125001E-1,-1.8473685E-1,-2.1000002E-2,-0E0,-2.0875546E-1,3.9230768E-2,-1.7198676E-1,-8.100001E-2,5.0625004E-2,-7.285715E-2,1.6312501E-1,-8.8181816E-2,1.7608697E-2,-2.064706E-1,-0E0,7.285715E-2,-1.0125001E-1,3.5E-2,-3.5E-2,-2.1019913E-1,-4.6363637E-2,8.100001E-2,-2.6250001E-2,-1.319469E-1,-1.8234783E-1,3.5E-2,-1.2333334E-1,-2.1000002E-2,1.009091E-1,1.94E-1,-3.5E-2,7.285715E-2,-1.1322581E-1,1.14E-1,-2.25E-2,3.5E-2,-3.5E-2,-9E-2,-2.1280822E-1,7.285715E-2,-1.2333334E-1,-3.5E-2,1.2333334E-1,-7.285715E-2,3.5E-2,-1.6185187E-1,-4.621622E-2,-2.1000002E-2,-1.8414706E-1,7.285715E-2,-1.0125001E-1,-0E0,1.2333334E-1,-1.75E-2,-1.3375E-1,-3.5E-2,1.4357144E-1,-1.41E-1,1.6451614E-2,-1.25625E-1,2.6250001E-2,-1.9769232E-1,-1.1297873E-1,1.888889E-2,-1.54E-1,-7.285715E-2,2.6250001E-2,-1.856587E-1,-4.6363637E-2,3.5E-2,-3.5E-2,-7.285715E-2,2.1000002E-2,5.0357144E-2,-1.0125001E-1,-0E0,-1.4357144E-1,7.285715E-2,-3.5E-2,-0E0,-1.517143E-1,-2.4285717E-2,1.009091E-1,-1.7769231E-1,-0E0,-0E0,3.5E-2,2.6250001E-2,-1.0125001E-1,5.666667E-2,-3.5E-2,-5.7857145E-2,1.21578954E-1,-3.5E-2,3.5E-2,8.538462E-2,-1.2333334E-1,-1.609091E-1,-0E0,-1.0071429E-1,6.75E-2,1.2333334E-1,-0E0,-3.5E-2,3.5E-2,3.5E-2,-3.5E-2,-0E0,3.5E-2,-3.5E-2,1.0125001E-1,2.1000002E-2,-1.2333334E-1,-0E0,1.3588236E-1,-2.6250001E-2,1.41E-1,3.5E-2,-3.5E-2,3.5E-2,-1.3153847E-1,-2.6250001E-2,1.2333334E-1,-3.5E-2,3.5E-2,3.5E-2,-3.5E-2,5.666667E-2,-3.5E-2,-3.5E-2,3.5E-2,3.5E-2,-7.285715E-2,-7.285715E-2,3.5E-2,7.285715E-2,-0E0,-3.5E-2,3.5E-2],"split_indices":[0,0,0,2147483647,2147483647,1,1,2147483647,2147483647,1,0,2147483647,2147483647,2147483647,2147483647,1,0,0,0,2147483647,2147483647,2147483647,2147483647,2147483647,2147483647,2147483647,2147483647,1,0,2147483647,2147483647,2147483647,2147483647,2147483647,2147483647,2147483647,2147483647,2147483647,2147483647,2147483647,2147483647,2147483647,2147483647,1,1,2147483647,2147483647,2147483647,2147483647,2147483647,2147483647,2147483647,2147483647,2147483647,2147483647,2147483647,2147483647,2147483647,2147483647,2147483647,2147483647,2147483647,2147483647,2147483647,2147483647,2147483647,2147483647,2147483647,2147483647,2147483647,2147483647,2147483647,2147483647,2147483647,2147483647,2147483647,2147483647,2147483647,2147483647,2147483647,2147483647,2147483647,2147483647,2147483647,2147483647,2147483647,2147483647,2147483647,2147483647,2147483647,2147483647,2147483647,2147483647,2147483647,2147483647,2147483647,2147483647,2147483647,2147483647,2147483647,2147483647,2147483647,2147483647,2147483647,2147483647,2147483647,2147483647,2147483647,2147483647,2147483647,2147483647,2147483647,2147483647,2147483647,2147483647,2147483647,2147483647,2147483647,2147483647,2147483647,2147483647,2147483647,2147483647,2147483647,2147483647,2147483647,2147483647,2147483647,2147483647,2147483647,2147483647,2147483647,2147483647,2147483647,2147483647,2147483647,2147483647,2147483647,2147483647,2147483647,2147483647,2147483647,2147483647,2147483647,2147483647,2147483647,2147483647,2147483647,2147483647,2147483647,2147483647,2147483647,2147483647,2147483647,2147483647,2147483647,2147483647,2147483647,2147483647,2147483647,2147483647,2147483647,2147483647,2147483647,2147483647,2147483647,2147483647,2147483647,2147483647,2147483647,2147483647,2147483647,2147483647,2147483647,2147483647,2147483647,2147483647],"split_type":[0,0,0,0,0,0,0,0,0,0,0,0,0,0,0,0,0,0,0,0,0,0,0,0,0,0,0,0,0,0,0,0,0,0,0,0,0,0,0,0,0,0,0,0,0,0,0,0,0,0,0,0,0,0,0,0,0,0,0,0,0,0,0,0,0,0,0,0,0,0,0,0,0,0,0,0,0,0,0,0,0,0,0,0,0,0,0,0,0,0,0,0,0,0,0,0,0,0,0,0,0,0,0,0,0,0,0,0,0,0,0,0,0,0,0,0,0,0,0,0,0,0,0,0,0,0,0,0,0,0,0,0,0,0,0,0,0,0,0,0,0,0,0,0,0,0,0,0,0,0,0,0,0,0,0,0,0,0,0,0,0,0,0,0,0,0,0,0,0,0,0,0,0,0,0,0,0],"sum_hessian":[2.488E3,1.368E3,1.12E3,1E0,1.367E3,9.5E2,1.7E2,2E0,1.365E3,3.8E1,9.12E2,1.11E2,5.9E1,1E0,1E0,2.4E1,1.4E1,1E0,9.11E2,2.9E1,8.2E1,3E0,5.6E1,5E0,1.9E1,1E0,1.3E1,4.55E2,4.56E2,1.6E1,1.3E1,1.3E1,6.9E1,1E0,2E0,5.5E1,1E0,2E0,3E0,1.4E1,5E0,2E0,4.53E2,8E0,4.48E2,5E0,1.1E1,2E0,1.1E1,2.8E1,4.1E1,1.2E1,2E0,2E0,3E0,1E0,1E0,4.47E2,6E0,5E0,3E0,1.08E2,3.4E2,1E0,4E0,5E0,6E0,1E1,1E0,2E0,2.6E1,1E1,3.1E1,1E0,1E0,1.4E1,4.33E2,2E0,4E0,1E0,4E0,2E0,1E0,7.6E1,3.2E1,5E0,3.35E2,2E0,3E0,2E0,4E0,7E0,1.9E1,1E0,9E0,5E0,2.6E1,1.1E1,3E0,3.4E1,4.2E1,2.2E1,1E1,2E0,3E0,3.29E2,6E0,1E0,1E0,2E0,5E0,2.3E1,3E0,2E0,9E0,2E0,1E0,1.2E1,3E1,1.6E1,6E0,8E0,2E0,2E0,1E0,3E0,3E0,4E0,1E0,9E0,1.4E1,1E0,1E0,8E0,4E0,2.8E1,2E0,9E0,7E0,4E0,2E0,1E0,1E0,1E0,1E0,2E0,1E0,1E0,3E0,5E0,4E0,2E0,1.2E1,3E0,5E0,1E0,1E0,1E0,8E0,3E0,4E0,1E0,1E0,1E0,1E0,4E0,1E0,1E0,1E0,1E0,2E0,2E0,1E0,2E0,2E0,1E0,1E0],"tree_param":{"num_deleted":"162","num_feature":"2","num_nodes":"177","size_leaf_vector":"0"}},{"base_weights":[-5.120214E-1,9.2638886E-1,-5.937853E-1,-6.5125483E-1,-2.9182693E-1,-2.322034E-1,-6.728106E-1,-1.0300752E-1,-5.8375E-1,-3.34E-1,1.9285715E-1,-7.2534484E-1,-5.889435E-1,-3.8292682E-1,1.7525773E-2,1.1666667E-1,-6.037975E-1,-4.1162792E-1,5.8333334E-2,-2.4285714E-1,3.9166665E-1,-6.632275E-1,-8.1980675E-1,-0E0,-6.0377836E-1,-7.192308E-1,1.35E-1,7.282609E-2,-4.7E-1,7E-2,-4.9210528E-1,2.7E-1,-2.4285714E-1,5.181818E-1,-1.1666667E-1,-6.6763926E-1,1.1666667E-1,-8.269608E-1,-8.75E-2,3.3636364E-1,-4.1111112E-1,-3.7439024E-1,-6.521875E-1,-0E0,-7.7916664E-1,2.9375E-1,-1.8888889E-1,-7.5806454E-2,3.342857E-1,-2.4285714E-1,3.375E-1,7E-2,-5.969697E-1,-1.1666667E-1,4.1111112E-1,-7.0357144E-1,-4.6891892E-1,1.1666667E-1,-2.4285714E-1,-1.1666667E-1,4.7E-1,-5.973684E-1,-1.5714286E-1,-0E0,-6.562893E-1,1.1666667E-1,-1.1666667E-1,4.1111112E-1,5.8333334E-2,-3.375E-1,1.1666667E-1,1.8076923E-1,-2.3658536E-1,5.4375E-1,1.125E-1,-2.4285714E-1,3.375E-1,7E-2,-5.173913E-1,-6.575758E-1,-7E-2,1.3076922E-1,-2.3658536E-1,-1.1666667E-1,1.1666667E-1,-2.4285714E-1,2.7E-1,-0E0,4.7E-1,-0E0,-3.3448276E-1,-1.1666667E-1,6.4666665E-1,-1.9285715E-1,3.8E-1,2.4285714E-1,-8.75E-2,-5.852459E-1,-0E0,-1.5454546E-1,-7.2962964E-1,8.75E-2,-2.4285714E-1,3.375E-1,-7E-2,-3.1290323E-1,-0E0,-1.1666667E-1,4.1111112E-1,3.375E-1,-1.5E-1,-2.7E-1,2.25E-1,-3.8214284E-1,1.1666667E-1,1.1666667E-1,-2.846154E-1,1.1666667E-1,-2.4285714E-1,-0E0,-6.050847E-1,3.375E-1,-2.7E-1,-3.375E-1,8.75E-2,2.4285714E-1,-1.1666667E-1,-3.375E-1,2.4285714E-1,-0E0,-5.7058823E-1,2.25E-1,-3.375E-1,-2.9375E-1,2.4285714E-1,1.1666667E-1,-4.1111112E-1,2.7E-1,-0E0,-0E0,-4.8636365E-1,-1.1666667E-1,1.1666667E-1,-0E0,-3.375E-1,-0E0,1.1666667E-1,-1E-1,2.4285714E-1,-6.4666665E-1,-0E0,-8.75E-2,4.1111112E-1,-3.3571428E-1,-0E0,-0E0,3.375E-1,-1.1666667E-1,1.1666667E-1,-1.8888889E-1,2.4285714E-1,-1.1666667E-1,1.1666667E-1,1.1666667E-1,-1.1666667E-1,5.8333334E-2,-2.7E-1,1.1666667E-1,-1.1666667E-1,-2.4285714E-1,1.1666667E-1,-0E0,-3.9166665E-1,1.1666667E-1,-1.1666667E-1,1.1666667E-1,-1.1666667E-1,-2.4285714E-1,-0E0,-1.8888889E-1,3.375E-1,-3.375E-1,-0E0,-1.1666667E-1,1.1666667E-1,1.1666667E-1,-1.1666667E-1,-0E0,-2.4285714E-1,1.1666667E-1,-1.1666667E-1,-1.1666667E-1,1.1666667E-1],"categories":[],"categories_nodes":[],"categories_segments":[],"categories_sizes":[],"default_left":[1,0,1,1,1,1,1,1,1,1,1,1,1,1,1,1,1,1,1,1,1,1,1,1,1,1,1,1,1,1,1,1,1,1,1,1,1,1,1,1,1,1,1,1,1,1,1,1,1,1,1,1,1,1,1,1,1,1,1,1,1,1,1,1,1,1,1,1,1,1,1,1,1,1,1,1,1,1,1,1,1,1,1,1,1,1,1,1,1,1,1,1,1,1,1,1,1,1,1,1,1,1,1,1,1,1,1,1,1,1,1,1,1,1,1,1,1,1,1,1,1,1,1,1,1,1,1,1,1,1,1,1,1,1,1,1,1,1,1,1,1,1,1,1,1,1,1,1,1,1,1,1,1,1,1,1,1,1,1,1,1,1,1,1,1,1,1,1,1,1,1,1,1,1,1,1,1,1,1,1,1,1,1,1,1,1,1,1,1,1,1,1,1],"id":6,"left_children":[1,-1,3,5,7,-1,-1,13,-1,-1,-1,-1,-1,25,-1,-1,-1,-1,-1,-1,-1,-1,-1,-1,-1,-1,-1,-1,-1,-1,-1,-1,-1,-1,-1,-1,-1,-1,-1,-1,-1,-1,-1,-1,-1,-1,-1,-1,-1,-1,-1,-1,-1,-1,-1,-1,-1,-1,-1,-1,-1,-1,-1,-1,-1,-1,-1,-1,-1,-1,-1,-1,-1,-1,-1,-1,-1,-1,-1,-1,-1,-1,-1,-1,-1,-1,-1,-1,-1,-1,-1,-1,-1,-1,-1,-1,-1,-1,-1,-1,-1,-1,-1,-1,-1,-1,-1,-1,-1,-1,-1,-1,-1,-1,-1,-1,-1,-1,-1,-1,-1,-1,-1,-1,-1,-1,-1,-1,-1,-1,-1,-1,-1,-1,-1,-1,-1,-1,-1,-1,-1,-1,-1,-1,-1,-1,-1,-1,-1,-1,-1,-1,-1,-1,-1,-1,-1,-1,-1,-1,-1,-1,-1,-1,-1,-1,-1,-1,-1,-1,-1,-1,-1,-1,-1,-1,-1,-1,-1,-1,-1,-1,-1,-1,-1,-1,-1,-1,-1,-1,-1,-1,-1],"loss_changes":[1.5624927E2,0E0,2.026767E1,8.305511E0,1.0958433E1,2.9173281E0,1.7963562E0,4.6305423E0,1.6216831E0,1.7488475E0,1.7329762E0,2.3977661E-1,3.5559082E0,7.802164E0,2.6671412E0,0E0,0E0,1.9655542E0,1.1010238E0,0E0,1.1944698E0,1.8553314E0,4.4833374E-1,2.7656565E0,2.879654E0,1.120801E0,1.3372362E0,3.7794983E0,0E0,1.2751071E0,2.6069336E0,8.7377775E-1,0E0,0E0,0E0,6.906128E-1,0E0,0E0,4.3327376E-1,1.0461214E0,0E0,3.2764826E0,8.560486E-1,1.6333333E-1,0E0,1.8131936E-1,6.7180556E-1,2.788203E0,1.1232324E0,0E0,0E0,1.2751071E0,0E0,0E0,0E0,0E0,2.2483826E0,0E0,0E0,0E0,0E0,7.58131E-1,1.3071856E0,1.6333333E-1,0E0,0E0,0E0,0E0,1.1010238E0,0E0,0E0,1.3593848E0,9.496045E-1,1.6237078E0,2.3829644E0,0E0,0E0,4.2510712E-1,2.422409E0,3.6703682E-1,4.2510712E-1,7.3794234E-1,7.4028325E-1,0E0,0E0,0E0,8.7377775E-1,1.31625E0,0E0,1.3364999E0,9.2611265E-1,0E0,0E0,6.140293E-1,0E0,0E0,4.3327376E-1,7.0824623E-1,1.64025E0,7.097727E-1,0E0,4.3327376E-1,0E0,0E0,1.2751071E0,2.4995444E0,1.51875E0,0E0,0E0,0E0,1.3884821E0,8.7377775E-1,1.21499956E-1,1.1151619E0,0E0,0E0,0E0,0E0,0E0,1.6333333E-1,0E0,0E0,1.8225002E-1,0E0,2.0416666E-2,0E0,0E0,0E0,0E0,5.8285713E-1,7.379608E-1,9.7486097E-1,0E0,1.9723213E-1,0E0,0E0,0E0,1.8225002E-1,1.6333333E-1,7.339682E-1,0E0,0E0,0E0,1.6333333E-1,0E0,1.6333333E-1,0E0,5.9983337E-1,0E0,0E0,1.6333333E-1,4.3327376E-1,0E0,2.6297617E-1,1.6333333E-1,1.6333333E-1,0E0,0E0,0E0,9.174603E-2,0E0,0E0,0E0,0E0,0E0,1.1915277E0,1.8225002E-1,0E0,0E0,0E0,0E0,1.6333333E-1,0E0,0E0,0E0,0E0,0E0,0E0,1.6333333E-1,9.174603E-2,0E0,0E0,1.6333333E-1,0E0,0E0,0E0,0E0,1.6333333E-1,0E0,0E0,0E0,0E0,0E0],"parents":[2147483647,0,0,2,2,3,3,4,4,5,5,6,6,7,7,8,8,9,9,10,10,11,11,12,12,13,13,14,14,17,17,18,18,20,20,21,21,22,22,23,23,24,24,25,25,26,26,27,27,29,29,30,30,31,31,35,35,38,38,39,39,41,41,42,42,43,43,45,45,46,46,47,47,48,48,51,51,56,56,61,61,62,62,63,63,68,68,71,71,72,72,73,73,74,74,77,77,78,78,79,79,80,80,81,81,82,82,86,86,87,87,89,89,90,90,93,93,96,96,97,97,98,98,99,99,101,101,104,104,105,105,106,106,110,110,111,111,112,112,113,113,119,119,122,122,124,124,129,129,130,130,131,131,133,133,137,137,138,138,139,139,143,143,145,145,147,147,150,150,151,151,153,153,154,154,155,155,159,159,165,165,166,166,171,171,178,178,179,179,182,182,187,187],"right_children":[2,-1,4,6,8,-1,-1,14,-1,-1,-1,-1,-1,26,-1,-1,-1,-1,-1,-1,-1,-1,-1,-1,-1,-1,-1,-1,-1,-1,-1,-1,-1,-1,-1,-1,-1,-1,-1,-1,-1,-1,-1,-1,-1,-1,-1,-1,-1,-1,-1,-1,-1,-1,-1,-1,-1,-1,-1,-1,-1,-1,-1,-1,-1,-1,-1,-1,-1,-1,-1,-1,-1,-1,-1,-1,-1,-1,-1,-1,-1,-1,-1,-1,-1,-1,-1,-1,-1,-1,-1,-1,-1,-1,-1,-1,-1,-1,-1,-1,-1,-1,-1,-1,-1,-1,-1,-1,-1,-1,-1,-1,-1,-1,-1,-1,-1,-1,-1,-1,-1,-1,-1,-1,-1,-1,-1,-1,-1,-1,-1,-1,-1,-1,-1,-1,-1,-1,-1,-1,-1,-1,-1,-1,-1,-1,-1,-1,-1,-1,-1,-1,-1,-1,-1,-1,-1,-1,-1,-1,-1,-1,-1,-1,-1,-1,-1,-1,-1,-1,-1,-1,-1,-1,-1,-1,-1,-1,-1,-1,-1,-1,-1,-1,-1,-1,-1,-1,-1,-1,-1,-1,-1],"split_conditions":[7.734969E-3,2.7791667E-1,1.6695905E-2,3.7287742E-1,6.871134E-1,-6.966102E-2,-2.0184319E-1,4.5940492E-1,-1.75125E-1,-1.00200005E-1,5.7857145E-2,-2.1760346E-1,-1.7668305E-1,2.2601714E-2,5.2577322E-3,3.5E-2,-1.8113926E-1,-1.2348838E-1,1.75E-2,-7.285715E-2,1.175E-1,-1.9896826E-1,-2.4594204E-1,-0E0,-1.8113351E-1,-2.1576925E-1,4.0500004E-2,2.1847827E-2,-1.41E-1,2.1000002E-2,-1.4763159E-1,8.100001E-2,-7.285715E-2,1.5545455E-1,-3.5E-2,-2.0029178E-1,3.5E-2,-2.4808826E-1,-2.6250001E-2,1.009091E-1,-1.2333334E-1,-1.1231708E-1,-1.9565627E-1,-0E0,-2.3375E-1,8.8125E-2,-5.666667E-2,-2.2741936E-2,1.0028572E-1,-7.285715E-2,1.0125001E-1,2.1000002E-2,-1.7909092E-1,-3.5E-2,1.2333334E-1,-2.1107145E-1,-1.4067568E-1,3.5E-2,-7.285715E-2,-3.5E-2,1.41E-1,-1.7921053E-1,-4.714286E-2,-0E0,-1.968868E-1,3.5E-2,-3.5E-2,1.2333334E-1,1.75E-2,-1.0125001E-1,3.5E-2,5.4230772E-2,-7.097561E-2,1.6312501E-1,3.375E-2,-7.285715E-2,1.0125001E-1,2.1000002E-2,-1.5521741E-1,-1.9727275E-1,-2.1000002E-2,3.9230768E-2,-7.097561E-2,-3.5E-2,3.5E-2,-7.285715E-2,8.100001E-2,-0E0,1.41E-1,-0E0,-1.0034483E-1,-3.5E-2,1.94E-1,-5.7857145E-2,1.14E-1,7.285715E-2,-2.6250001E-2,-1.7557378E-1,-0E0,-4.6363637E-2,-2.188889E-1,2.6250001E-2,-7.285715E-2,1.0125001E-1,-2.1000002E-2,-9.3870975E-2,-0E0,-3.5E-2,1.2333334E-1,1.0125001E-1,-4.5E-2,-8.100001E-2,6.75E-2,-1.1464286E-1,3.5E-2,3.5E-2,-8.538462E-2,3.5E-2,-7.285715E-2,-0E0,-1.8152542E-1,1.0125001E-1,-8.100001E-2,-1.0125001E-1,2.6250001E-2,7.285715E-2,-3.5E-2,-1.0125001E-1,7.285715E-2,-0E0,-1.7117648E-1,6.75E-2,-1.0125001E-1,-8.8125E-2,7.285715E-2,3.5E-2,-1.2333334E-1,8.100001E-2,-0E0,-0E0,-1.459091E-1,-3.5E-2,3.5E-2,-0E0,-1.0125001E-1,-0E0,3.5E-2,-3.0000001E-2,7.285715E-2,-1.94E-1,-0E0,-2.6250001E-2,1.2333334E-1,-1.0071429E-1,-0E0,-0E0,1.0125001E-1,-3.5E-2,3.5E-2,-5.666667E-2,7.285715E-2,-3.5E-2,3.5E-2,3.5E-2,-3.5E-2,1.75E-2,-8.100001E-2,3.5E-2,-3.5E-2,-7.285715E-2,3.5E-2,-0E0,-1.175E-1,3.5E-2,-3.5E-2,3.5E-2,-3.5E-2,-7.285715E-2,-0E0,-5.666667E-2,1.0125001E-1,-1.0125001E-1,-0E0,-3.5E-2,3.5E-2,3.5E-2,-3.5E-2,-0E0,-7.285715E-2,3.5E-2,-3.5E-2,-3.5E-2,3.5E-2],"split_indices":[0,0,0,1,1,1,0,1,0,2147483647,2147483647,2147483647,2147483647,0,0,2147483647,2147483647,2147483647,2147483647,2147483647,2147483647,2147483647,2147483647,2147483647,2147483647,1,1,2147483647,2147483647,2147483647,2147483647,2147483647,2147483647,2147483647,2147483647,2147483647,2147483647,2147483647,2147483647,2147483647,2147483647,2147483647,2147483647,2147483647,2147483647,2147483647,2147483647,2147483647,2147483647,2147483647,2147483647,2147483647,2147483647,2147483647,2147483647,2147483647,2147483647,2147483647,2147483647,2147483647,2147483647,2147483647,2147483647,2147483647,2147483647,2147483647,2147483647,2147483647,2147483647,2147483647,2147483647,2147483647,2147483647,2147483647,2147483647,2147483647,2147483647,2147483647,2147483647,2147483647,2147483647,2147483647,2147483647,2147483647,2147483647,2147483647,2147483647,2147483647,2147483647,2147483647,2147483647,2147483647,2147483647,2147483647,2147483647,2147483647,2147483647,2147483647,2147483647,2147483647,2147483647,2147483647,2147483647,2147483647,2147483647,2147483647,2147483647,2147483647,2147483647,2147483647,2147483647,2147483647,2147483647,2147483647,2147483647,2147483647,2147483647,2147483647,2147483647,2147483647,2147483647,2147483647,2147483647,2147483647,2147483647,2147483647,2147483647,2147483647,2147483647,2147483647,2147483647,2147483647,2147483647,2147483647,2147483647,2147483647,2147483647,2147483647,2147483647,2147483647,2147483647,2147483647,2147483647,2147483647,2147483647,2147483647,2147483647,2147483647,2147483647,2147483647,2147483647,2147483647,2147483647,2147483647,2147483647,2147483647,2147483647,2147483647,2147483647,2147483647,2147483647,2147483647,2147483647,2147483647,2147483647,2147483647,2147483647,2147483647,2147483647,2147483647,2147483647,2147483647,2147483647,2147483647,2147483647,2147483647,2147483647,2147483647,2147483647,2147483647,2147483647,2147483647,2147483647,2147483647,2147483647,2147483647,2147483647,2147483647,2147483647,2147483647,2147483647,2147483647,2147483647],"split_type":[0,0,0,0,0,0,0,0,0,0,0,0,0,0,0,0,0,0,0,0,0,0,0,0,0,0,0,0,0,0,0,0,0,0,0,0,0,0,0,0,0,0,0,0,0,0,0,0,0,0,0,0,0,0,0,0,0,0,0,0,0,0,0,0,0,0,0,0,0,0,0,0,0,0,0,0,0,0,0,0,0,0,0,0,0,0,0,0,0,0,0,0,0,0,0,0,0,0,0,0,0,0,0,0,0,0,0,0,0,0,0,0,0,0,0,0,0,0,0,0,0,0,0,0,0,0,0,0,0,0,0,0,0,0,0,0,0,0,0,0,0,0,0,0,0,0,0,0,0,0,0,0,0,0,0,0,0,0,0,0,0,0,0,0,0,0,0,0,0,0,0,0,0,0,0,0,0,0,0,0,0,0,0,0,0,0,0,0,0,0,0,0,0],"sum_hessian":[1.301E3,6.7E1,1.234E3,1.031E3,2.03E2,5.4E1,9.77E2,1.28E2,7.5E1,4.5E1,9E0,5.75E2,4.02E2,3.6E1,9.2E1,1E0,7.4E1,3.8E1,7E0,2E0,7E0,3.73E2,2.02E2,1E1,3.92E2,2.1E1,1.5E1,8.7E1,5E0,5E0,3.3E1,5E0,2E0,6E0,1E0,3.72E2,1E0,1.99E2,3E0,6E0,4E0,7.7E1,3.15E2,2E0,1.9E1,1.1E1,4E0,5.7E1,3E1,2E0,3E0,5E0,2.8E1,1E0,4E0,3.03E2,6.9E1,1E0,2E0,1E0,5E0,3.3E1,4.4E1,2E0,3.13E2,1E0,1E0,4E0,7E0,3E0,1E0,2.1E1,3.6E1,1.1E1,1.9E1,2E0,3E0,5E0,6.4E1,2.8E1,5E0,8E0,3.6E1,1E0,1E0,2E0,5E0,1.6E1,5E0,1.2E1,2.4E1,1E0,1E1,9E0,1E1,2E0,3E0,5.6E1,8E0,6E0,2.2E1,3E0,2E0,3E0,5E0,2.6E1,1E1,1E0,4E0,3E0,1.3E1,5E0,7E0,2.3E1,1E0,1E0,8E0,1E0,2E0,2E0,5.4E1,3E0,5E0,3E0,3E0,2E0,1E0,3E0,2E0,1.4E1,1.2E1,7E0,3E0,1.1E1,2E0,1E0,4E0,5E0,2E0,6E0,1.7E1,1E0,1E0,2E0,3E0,2E0,1E0,1.2E1,2E0,1E1,2E0,3E0,4E0,9E0,2E0,2E0,3E0,1E0,1E0,4E0,2E0,1E0,1E0,1E0,1E0,7E0,5E0,1E0,1E0,2E0,1E0,2E0,7E0,1E0,1E0,1E0,1E0,2E0,2E0,4E0,3E0,3E0,2E0,1E0,1E0,1E0,1E0,2E0,2E0,1E0,1E0,1E0,1E0],"tree_param":{"num_deleted":"180","num_feature":"2","num_nodes":"193","size_leaf_vector":"0"}},{"base_weights":[-7.326133E-1,-9.015422E-1,-5.455908E-1,2.9722223E-1,-5.708976E-1,-2.9375E-1,6.28E-1,-6.627941E-1,-4.1752335E-1,1.1666667E-1,-3.8E-1,6.6818184E-1,8.75E-2,1.8888889E-1,-6.696746E-1,-2.329609E-1,-5.38189E-1,-0E0,-5.181818E-1,-1.1666667E-1,2.4285714E-1,-1.1666667E-1,3.375E-1,-5.429487E-1,-7.00381E-1,-3.0437955E-1,-0E0,1.1666667E-1,-5.442688E-1,-2.4285714E-1,2.4285714E-1,-6.612069E-1,-1.711111E-1,3.3636364E-1,-3.4885496E-1,1.2368421E-1,-3.3571428E-1,-7.28169E-1,-4.5828876E-1,-0E0,-6.7280704E-1,-2.3658536E-1,1.8888889E-1,-5.34E-1,-2.1744186E-1,-1.35E-1,3.347826E-1,8.75E-2,-5.181818E-1,-3.3359376E-1,-6.671875E-1,-1.1666667E-1,1.1666667E-1,-3.9142856E-1,-7.4642855E-1,2.4285714E-1,-3E-1,3.375E-1,-1.1666667E-1,8.75E-2,-5.893617E-1,-2.957143E-1,8.095238E-2,-2.846154E-1,5.8333334E-2,6.4666665E-1,-1.3076922E-1,-1.1666667E-1,2.4285714E-1,-6.5238094E-1,-2.5625E-1,-6.887097E-1,-0E0,-6.423077E-1,1.9285715E-1,-8.072464E-1,-3.35E-1,-3.3421052E-1,1.1666667E-1,2.4285714E-1,-1.1666667E-1,-1.2666667E-1,-4.9E-1,4.3846154E-1,-2.846154E-1,8.75E-2,-4.7E-1,-3.375E-1,4.1111112E-1,-4.1111112E-1,1.8888889E-1,3.375E-1,-2.908257E-1,1.1666667E-1,-1.1666667E-1,-0E0,-6.958333E-1,4.7E-1,-1.8888889E-1,-5.923077E-1,5.8333334E-2,-8.947369E-2,-4.4583333E-1,-2.3658536E-1,4.1111112E-1,-0E0,-5.25E-1,-0E0,5.181818E-1,-0E0,-3.3636364E-1,-1.1666667E-1,2.4285714E-1,-0E0,2.4285714E-1,-3.1495327E-1,2.4285714E-1,-1.1666667E-1,1.1666667E-1,-7.4761903E-1,-8.75E-2,1.1666667E-1,-3.375E-1,2.7E-1,-2.4285714E-1,-2.9375E-1,3.375E-1,2.4285714E-1,-3E-1,-1.1666667E-1,1.1666667E-1,-1.1666667E-1,1.1666667E-1,-1.1666667E-1,1.1666667E-1,1.1666667E-1,-1.1666667E-1,7E-2,-3.4019607E-1,1.1666667E-1,-2.4285714E-1,-0E0,3.375E-1,-0E0,-4.7E-1,-3.96875E-1,5.8333334E-2,-8.75E-2,2.4285714E-1,-2.0526315E-1,-4.54E-1,1.1666667E-1,-1.1666667E-1,-1.8888889E-1,2.4285714E-1,-5.5714285E-1,-4.375E-2,4.1111112E-1,-3.375E-1,1.1666667E-1,-2.4285714E-1,-3.96875E-1,2.3333333E-2,-0E0,-5.159091E-1,-2.4285714E-1,-0E0,-6.157895E-1,-0E0,-3.375E-1,1.3076922E-1,-4.8846152E-1,-0E0,3.375E-1,-6.2962964E-2,-3.375E-1,3.375E-1,1.1666667E-1,-1.1666667E-1,1.1666667E-1,-1.1666667E-1,2.7E-1,-8.75E-2,1.8888889E-1,-2.4285714E-1,4.375E-2,-1.6875E-1,-0E0,3.375E-1,1.1666667E-1,-2.4285714E-1,3.375E-1,-1.1666667E-1,-2.4285714E-1,1.9285715E-1,-4.1111112E-1,5.8333334E-2],"categories":[],"categories_nodes":[],"categories_segments":[],"categories_sizes":[],"default_left":[1,0,1,1,1,1,1,1,1,1,1,1,1,1,1,1,1,1,1,1,1,1,1,1,0,1,1,1,1,1,1,1,1,1,1,1,1,1,1,1,1,1,1,1,1,1,1,1,1,1,1,1,1,1,1,1,1,1,1,1,1,1,1,1,1,1,1,1,1,1,1,1,1,1,1,1,1,1,1,1,1,1,1,1,1,1,1,1,1,1,1,1,1,1,1,1,1,1,1,1,1,1,1,1,1,1,1,1,1,1,1,1,1,1,1,1,1,1,1,1,1,1,1,1,1,1,1,1,1,1,1,1,1,1,1,1,1,1,1,1,1,1,1,1,1,1,1,1,1,1,1,1,1,1,1,1,1,1,1,1,1,1,1,1,1,1,1,1,1,1,1,1,1,1,1,1,1,1,1,1,1,1,1,1,1,1,1,1,1,1,1,1,1,1,1,1,1],"id":7,"left_children":[1,-1,3,5,7,-1,-1,13,15,-1,-1,-1,-1,-1,23,-1,-1,-1,-1,-1,-1,-1,-1,31,-1,-1,-1,-1,-1,-1,-1,39,-1,-1,-1,-1,-1,-1,-1,-1,53,-1,-1,-1,-1,-1,-1,-1,-1,-1,-1,-1,-1,73,-1,-1,-1,-1,-1,-1,-1,-1,-1,-1,-1,-1,-1,-1,-1,-1,-1,-1,-1,-1,-1,-1,-1,-1,-1,-1,-1,-1,-1,-1,-1,-1,-1,-1,-1,-1,-1,-1,-1,-1,-1,-1,-1,-1,-1,-1,-1,-1,-1,-1,-1,-1,-1,-1,-1,-1,-1,-1,-1,-1,-1,-1,-1,-1,-1,-1,-1,-1,-1,-1,-1,-1,-1,-1,-1,-1,-1,-1,-1,-1,-1,-1,-1,-1,-1,-1,-1,-1,-1,-1,-1,-1,-1,-1,-1,-1,-1,-1,-1,-1,-1,-1,-1,-1,-1,-1,-1,-1,-1,-1,-1,-1,-1,-1,-1,-1,-1,-1,-1,-1,-1,-1,-1,-1,-1,-1,-1,-1,-1,-1,-1,-1,-1,-1,-1,-1,-1,-1,-1,-1,-1,-1,-1],"loss_changes":[7.169885E1,0E0,2.5117432E1,8.059947E0,1.38385315E1,8.670418E-1,2.3921967E-2,4.7614746E0,8.673477E0,0E0,7.876363E-1,0E0,4.3327376E-1,6.7180556E-1,3.5617065E-1,2.978159E0,1.4570389E0,8.2571423E-1,0E0,0E0,0E0,0E0,0E0,6.0443687E0,0E0,4.49459E0,2.159173E0,0E0,1.9758759E0,0E0,0E0,8.8972855E-1,1.2984337E0,0E0,2.3812914E0,2.3610103E0,1.4370292E0,0E0,3.4580116E0,1.6333333E-1,5.5934525E-1,1.627979E0,6.7180556E-1,2.1287699E0,2.1927419E0,7.2941023E-1,3.917148E0,4.3327376E-1,0E0,2.0475407E0,9.189968E-1,0E0,0E0,5.8846817E0,4.070511E-1,0E0,8.1613994E-1,0E0,0E0,4.3327376E-1,0E0,1.8037148E0,3.4146886E0,1.2171732E0,2.391528E0,0E0,1.6199144E0,0E0,0E0,0E0,2.7760496E0,0E0,1.6333333E-1,8.9387894E-1,2.009397E0,0E0,2.3571026E0,6.780486E-1,0E0,0E0,0E0,3.093989E0,5.1449966E-1,4.5440555E-1,1.914686E-1,4.3327376E-1,0E0,0E0,0E0,0E0,9.174603E-2,0E0,1.8076077E0,0E0,0E0,1.6333333E-1,1.7845154E-1,0E0,6.7180556E-1,0E0,1.1010238E0,2.1397696E0,0E0,1.627979E0,0E0,1.6333333E-1,0E0,1.6333333E-1,0E0,1.6333333E-1,0E0,0E0,0E0,1.6333333E-1,0E0,1.2398787E0,0E0,0E0,0E0,0E0,4.3327376E-1,0E0,0E0,1.8225002E-1,0E0,8.283751E-1,0E0,0E0,1.5711458E0,0E0,0E0,0E0,0E0,0E0,0E0,0E0,0E0,4.2510712E-1,9.0257454E-1,0E0,0E0,1.6333333E-1,0E0,7.339682E-1,0E0,1.508884E0,2.391528E0,4.3327376E-1,0E0,2.6550665E0,1.4053364E0,0E0,0E0,9.174603E-2,0E0,6.8616533E-1,1.1029327E0,0E0,0E0,0E0,0E0,1.1631489E0,1.0019537E0,1.8225E0,0E0,0E0,1.6333333E-1,0E0,1.6333333E-1,0E0,5.6794226E-1,0E0,7.339682E-1,0E0,3.7921295E-1,0E0,0E0,0E0,0E0,0E0,0E0,1.8225002E-1,4.3327376E-1,6.7180556E-1,0E0,9.029464E-1,1.1063194E0,0E0,0E0,0E0,0E0,0E0,0E0,0E0,0E0,0E0,0E0],"parents":[2147483647,0,0,2,2,3,3,4,4,5,5,6,6,7,7,8,8,10,10,12,12,13,13,14,14,15,15,16,16,17,17,23,23,25,25,26,26,28,28,31,31,32,32,34,34,35,35,36,36,38,38,39,39,40,40,41,41,42,42,43,43,44,44,45,45,46,46,47,47,49,49,50,50,53,53,54,54,56,56,59,59,61,61,62,62,63,63,64,64,66,66,70,70,72,72,73,73,74,74,76,76,77,77,81,81,82,82,83,83,84,84,85,85,90,90,92,92,95,95,96,96,98,98,100,100,101,101,103,103,105,105,107,107,109,109,113,113,115,115,120,120,123,123,125,125,128,128,137,137,138,138,141,141,143,143,145,145,146,146,147,147,149,149,150,150,153,153,155,155,156,156,161,161,162,162,163,163,166,166,168,168,170,170,172,172,174,174,181,181,182,182,183,183,185,185,186,186],"right_children":[2,-1,4,6,8,-1,-1,14,16,-1,-1,-1,-1,-1,24,-1,-1,-1,-1,-1,-1,-1,-1,32,-1,-1,-1,-1,-1,-1,-1,40,-1,-1,-1,-1,-1,-1,-1,-1,54,-1,-1,-1,-1,-1,-1,-1,-1,-1,-1,-1,-1,74,-1,-1,-1,-1,-1,-1,-1,-1,-1,-1,-1,-1,-1,-1,-1,-1,-1,-1,-1,-1,-1,-1,-1,-1,-1,-1,-1,-1,-1,-1,-1,-1,-1,-1,-1,-1,-1,-1,-1,-1,-1,-1,-1,-1,-1,-1,-1,-1,-1,-1,-1,-1,-1,-1,-1,-1,-1,-1,-1,-1,-1,-1,-1,-1,-1,-1,-1,-1,-1,-1,-1,-1,-1,-1,-1,-1,-1,-1,-1,-1,-1,-1,-1,-1,-1,-1,-1,-1,-1,-1,-1,-1,-1,-1,-1,-1,-1,-1,-1,-1,-1,-1,-1,-1,-1,-1,-1,-1,-1,-1,-1,-1,-1,-1,-1,-1,-1,-1,-1,-1,-1,-1,-1,-1,-1,-1,-1,-1,-1,-1,-1,-1,-1,-1,-1,-1,-1,-1,-1,-1,-1,-1,-1],"split_conditions":[7.7372496E-3,-2.7046266E-1,8.523876E-3,4.379462E-1,1.360517E-2,-8.8125E-2,1.8840002E-1,2.8451234E-1,5.778819E-1,3.5E-2,-1.14E-1,2.0045456E-1,2.6250001E-2,5.666667E-2,4.8454598E-1,-6.988827E-2,-1.614567E-1,-0E0,-1.5545455E-1,-3.5E-2,7.285715E-2,-3.5E-2,1.0125001E-1,4.52873E-1,-2.101143E-1,-9.131387E-2,-0E0,3.5E-2,-1.6328064E-1,-7.285715E-2,7.285715E-2,8.581574E-3,-5.1333334E-2,1.009091E-1,-1.04656495E-1,3.7105266E-2,-1.0071429E-1,-2.1845071E-1,-1.3748664E-1,-0E0,3.7250566E-1,-7.097561E-2,5.666667E-2,-1.602E-1,-6.523256E-2,-4.0500004E-2,1.0043479E-1,2.6250001E-2,-1.5545455E-1,-1.0007813E-1,-2.0015626E-1,-3.5E-2,3.5E-2,3.4780657E-1,-2.2392857E-1,7.285715E-2,-9E-2,1.0125001E-1,-3.5E-2,2.6250001E-2,-1.7680852E-1,-8.871429E-2,2.4285717E-2,-8.538462E-2,1.75E-2,1.94E-1,-3.9230768E-2,-3.5E-2,7.285715E-2,-1.957143E-1,-7.6875E-2,-2.0661291E-1,-0E0,-1.9269232E-1,5.7857145E-2,-2.4217393E-1,-1.0050001E-1,-1.00263156E-1,3.5E-2,7.285715E-2,-3.5E-2,-3.8000003E-2,-1.4700001E-1,1.3153847E-1,-8.538462E-2,2.6250001E-2,-1.41E-1,-1.0125001E-1,1.2333334E-1,-1.2333334E-1,5.666667E-2,1.0125001E-1,-8.7247714E-2,3.5E-2,-3.5E-2,-0E0,-2.0875001E-1,1.41E-1,-5.666667E-2,-1.7769231E-1,1.75E-2,-2.6842108E-2,-1.3375E-1,-7.097561E-2,1.2333334E-1,-0E0,-1.575E-1,-0E0,1.5545455E-1,-0E0,-1.009091E-1,-3.5E-2,7.285715E-2,-0E0,7.285715E-2,-9.448598E-2,7.285715E-2,-3.5E-2,3.5E-2,-2.2428572E-1,-2.6250001E-2,3.5E-2,-1.0125001E-1,8.100001E-2,-7.285715E-2,-8.8125E-2,1.0125001E-1,7.285715E-2,-9E-2,-3.5E-2,3.5E-2,-3.5E-2,3.5E-2,-3.5E-2,3.5E-2,3.5E-2,-3.5E-2,2.1000002E-2,-1.0205883E-1,3.5E-2,-7.285715E-2,-0E0,1.0125001E-1,-0E0,-1.41E-1,-1.19062506E-1,1.75E-2,-2.6250001E-2,7.285715E-2,-6.1578948E-2,-1.3620001E-1,3.5E-2,-3.5E-2,-5.666667E-2,7.285715E-2,-1.6714287E-1,-1.31250005E-2,1.2333334E-1,-1.0125001E-1,3.5E-2,-7.285715E-2,-1.19062506E-1,7E-3,-0E0,-1.5477273E-1,-7.285715E-2,-0E0,-1.8473685E-1,-0E0,-1.0125001E-1,3.9230768E-2,-1.4653847E-1,-0E0,1.0125001E-1,-1.888889E-2,-1.0125001E-1,1.0125001E-1,3.5E-2,-3.5E-2,3.5E-2,-3.5E-2,8.100001E-2,-2.6250001E-2,5.666667E-2,-7.285715E-2,1.31250005E-2,-5.0625004E-2,-0E0,1.0125001E-1,3.5E-2,-7.285715E-2,1.0125001E-1,-3.5E-2,-7.285715E-2,5.7857145E-2,-1.2333334E-1,1.75E-2],"split_indices":[0,0,0,1,0,0,0,1,1,2147483647,2147483647,2147483647,2147483647,0,1,0,0,2147483647,2147483647,2147483647,2147483647,2147483647,2147483647,1,0,2147483647,2147483647,2147483647,2147483647,2147483647,2147483647,0,0,2147483647,2147483647,2147483647,2147483647,2147483647,2147483647,0,1,2147483647,2147483647,2147483647,2147483647,2147483647,2147483647,2147483647,2147483647,2147483647,2147483647,2147483647,2147483647,1,1,2147483647,2147483647,2147483647,2147483647,2147483647,2147483647,2147483647,2147483647,2147483647,2147483647,2147483647,2147483647,2147483647,2147483647,2147483647,2147483647,2147483647,2147483647,0,0,2147483647,2147483647,2147483647,2147483647,2147483647,2147483647,2147483647,2147483647,2147483647,2147483647,2147483647,2147483647,2147483647,2147483647,2147483647,2147483647,2147483647,2147483647,2147483647,2147483647,2147483647,2147483647,2147483647,2147483647,2147483647,2147483647,2147483647,2147483647,2147483647,2147483647,2147483647,2147483647,2147483647,2147483647,2147483647,2147483647,2147483647,2147483647,2147483647,2147483647,2147483647,2147483647,2147483647,2147483647,2147483647,2147483647,2147483647,2147483647,2147483647,2147483647,2147483647,2147483647,2147483647,2147483647,2147483647,2147483647,2147483647,2147483647,2147483647,2147483647,2147483647,2147483647,2147483647,2147483647,2147483647,2147483647,2147483647,2147483647,2147483647,2147483647,2147483647,2147483647,2147483647,2147483647,2147483647,2147483647,2147483647,2147483647,2147483647,2147483647,2147483647,2147483647,2147483647,2147483647,2147483647,2147483647,2147483647,2147483647,2147483647,2147483647,2147483647,2147483647,2147483647,2147483647,2147483647,2147483647,2147483647,2147483647,2147483647,2147483647,2147483647,2147483647,2147483647,2147483647,2147483647,2147483647,2147483647,2147483647,2147483647,2147483647,2147483647,2147483647,2147483647,2147483647,2147483647,2147483647,2147483647,2147483647,2147483647,2147483647,2147483647,2147483647],"split_type":[0,0,0,0,0,0,0,0,0,0,0,0,0,0,0,0,0,0,0,0,0,0,0,0,0,0,0,0,0,0,0,0,0,0,0,0,0,0,0,0,0,0,0,0,0,0,0,0,0,0,0,0,0,0,0,0,0,0,0,0,0,0,0,0,0,0,0,0,0,0,0,0,0,0,0,0,0,0,0,0,0,0,0,0,0,0,0,0,0,0,0,0,0,0,0,0,0,0,0,0,0,0,0,0,0,0,0,0,0,0,0,0,0,0,0,0,0,0,0,0,0,0,0,0,0,0,0,0,0,0,0,0,0,0,0,0,0,0,0,0,0,0,0,0,0,0,0,0,0,0,0,0,0,0,0,0,0,0,0,0,0,0,0,0,0,0,0,0,0,0,0,0,0,0,0,0,0,0,0,0,0,0,0,0,0,0,0,0,0,0,0,0,0,0,0,0,0],"sum_hessian":[2.356E3,1.227E3,1.129E3,3.1E1,1.098E3,1.1E1,2E1,6.75E2,4.23E2,1E0,1E1,1.7E1,3E0,4E0,6.71E2,1.74E2,2.49E2,4E0,6E0,1E0,2E0,1E0,3E0,1.51E2,5.2E2,1.32E2,4.2E1,1E0,2.48E2,2E0,2E0,1.11E2,4E1,6E0,1.26E2,3.3E1,9E0,6.6E1,1.82E2,2E0,1.09E2,3.6E1,4E0,4.5E1,8.1E1,1.5E1,1.8E1,3E0,6E0,1.23E2,5.9E1,1E0,1E0,3E1,7.9E1,2E0,3.4E1,3E0,1E0,3E0,4.2E1,6.5E1,1.6E1,8E0,7E0,1E1,8E0,1E0,2E0,1.6E1,1.07E2,5.7E1,2E0,2.1E1,9E0,6.4E1,1.5E1,3.3E1,1E0,2E0,1E0,4E1,2.5E1,8E0,8E0,3E0,5E0,3E0,4E0,4E0,4E0,3E0,1.04E2,1E0,1E0,2E0,1.9E1,5E0,4E0,8E0,7E0,1.4E1,1.9E1,3.6E1,4E0,2E0,2.3E1,2E0,6E0,2E0,6E0,1E0,2E0,2E0,2E0,1.02E2,2E0,1E0,1E0,1.6E1,3E0,1E0,3E0,5E0,2E0,1.1E1,3E0,2E0,3.4E1,1E0,1E0,1E0,1E0,1E0,1E0,1E0,1E0,5E0,9.7E1,1E0,2E0,2E0,3E0,6E0,5E0,2.7E1,7E0,3E0,2E0,5.2E1,4.5E1,1E0,1E0,4E0,2E0,1.6E1,1.1E1,4E0,3E0,1E0,2E0,2.7E1,2.5E1,6E0,3.9E1,2E0,2E0,1.4E1,2E0,3E0,8E0,2.1E1,6E0,3E0,2.2E1,3E0,3E0,1E0,1E0,1E0,1E0,5E0,3E0,4E0,2E0,1.1E1,1.1E1,2E0,3E0,