{"learner":{"attributes":{"best_iteration":"8","best_ntree_limit":"9","best_score":"0.0438489646772229"},"feature_names":[],"feature_types":[],"gradient_booster":{"model":{"gbtree_model_param":{"num_parallel_tree":"1","num_trees":"12","size_leaf_vector":"0"},"tree_info":[0,0,0,0,0,0,0,0,0,0,0,0],"trees":[{"base_weights":[-7.3137337E-1,-9.084455E-1,6.33688E-1,-9.516318E-1,-3.457944E-2,-7.105263E-2,7.2971886E-1,1.9583333E-1,-9.629794E-1,3.0441177E-1,-5.6136364E-1,-3.5666665E-1,5.923077E-1,3.8888887E-2,7.65678E-1,4.35E-1,-4.1111112E-1,-9.6683097E-1,2.7E-1,5.7804877E-1,-8.4375E-2,3.375E-1,-6.7560977E-1,3.375E-1,-5.074074E-1,5.181818E-1,-3.9166665E-1,-1.8888889E-1,7.875E-1,-8.75E-2,5.7058823E-1,-9.815183E-1,-6.9919354E-1,4.1111112E-1,-1.1666667E-1,-0E0,6.7714286E-1,2.611111E-1,-4.0526316E-1,-0E0,-7.4864864E-1,8.75E-2,-6.125E-1,-5.181818E-1,1.1666667E-1,1.1666667E-1,-3.375E-1,8.5854924E-1,3.7954545E-1,-2.4285714E-1,1.1666667E-1,6.6875E-1,-1.1666667E-1,2.9166667E-2,-8.352381E-1,3.375E-1,-3.375E-1,7.71875E-1,-8.75E-2,-2.7E-1,5.923077E-1,7E-2,-6.2142855E-1,-2.4285714E-1,2.4285714E-1,-8.2903224E-1,-1.5454546E-1,-1.1666667E-1,2.4285714E-1,-7E-2,-7.2105265E-1,-1.1666667E-1,8.6822915E-1,-5.923077E-1,6.861111E-1,5.181818E-1,-2.611111E-1,-8.881188E-1,1.8888889E-1,8.233333E-1,-0E0,1.1666667E-1,-2.4285714E-1,-4.1111112E-1,1.1666667E-1,-8.75E-2,2.4285714E-1,-3.375E-1,8.75E-2,2.4285714E-1,-3.375E-1,8.9395607E-1,2.4666667E-1,-3.375E-1,8.393939E-1,-4.1875E-1,2.4285714E-1,-1.5454546E-1,-9.231579E-1,-1.1666667E-1,3.375E-1,-1.1666667E-1,1.1666667E-1,1.1666667E-1,-2.4285714E-1,-1.1666667E-1,2.4285714E-1,-0E0,9.038889E-1,-3.375E-1,5.5833334E-1,-0E0,-5.5833334E-1,-4.1111112E-1,2.4285714E-1,-1.1666667E-1,1.1666667E-1,2.4285714E-1,-2.4285714E-1],"categories":[],"categories_nodes":[],"categories_segments":[],"categories_sizes":[],"default_left":[1,1,1,1,1,1,1,1,1,1,1,1,0,1,1,1,1,1,1,1,1,0,1,1,1,1,1,1,1,1,1,0,1,1,1,1,1,1,1,1,1,1,1,1,1,1,1,1,1,1,1,1,1,1,1,1,1,1,1,1,1,1,1,1,1,1,1,1,1,1,1,1,1,0,1,1,1,1,1,1,1,1,1,1,1,1,1,1,1,1,1,1,1,0,0,1,1,1,1,1,1,1,1,1,1,1,1,1,1,1,1,1,1,1,1,1,1,1,1],"id":0,"left_children":[1,3,5,7,9,11,13,-1,17,19,21,-1,-1,-1,27,-1,-1,31,-1,-1,-1,-1,-1,-1,-1,-1,-1,-1,47,-1,-1,-1,53,-1,-1,-1,-1,-1,-1,-1,-1,-1,-1,-1,-1,-1,-1,-1,73,-1,-1,-1,-1,-1,77,-1,-1,-1,-1,-1,-1,-1,-1,-1,-1,-1,-1,-1,-1,-1,-1,-1,-1,-1,93,-1,-1,-1,-1,-1,-1,-1,-1,-1,-1,-1,-1,-1,-1,-1,-1,-1,-1,-1,-1,-1,-1,-1,-1,-1,-1,-1,-1,-1,-1,-1,-1,-1,-1,-1,-1,-1,-1,-1,-1,-1,-1,-1,-1],"loss_changes":[5.9080994E2,8.086719E1,1.9541733E1,2.7905151E1,2.0039062E1,8.18526E0,5.7953186E0,4.3851943E0,1.1173584E1,7.626246E0,5.7599564E0,4.046398E0,0E0,4.7672477E0,5.83934E0,1.8114557E0,0E0,4.040161E0,8.7377775E-1,2.3485298E0,4.1199365E0,0E0,2.023178E0,0E0,2.1135182E0,0E0,1.1944698E0,6.7180556E-1,4.72377E0,4.3327376E-1,1.7025857E0,0E0,1.2650715E1,0E0,0E0,1.8225E0,3.0782776E0,4.0625467E0,2.3349023E0,8.2571423E-1,8.312893E-1,4.3327376E-1,9.2367077E-1,0E0,0E0,0E0,0E0,2.5538635E0,1.5169304E1,0E0,0E0,0E0,0E0,4.160442E0,6.7349854E0,0E0,0E0,1.2710209E0,4.3327376E-1,8.7377775E-1,0E0,4.2510712E-1,0E0,0E0,0E0,0E0,7.097727E-1,0E0,0E0,1.2751071E0,0E0,0E0,1.6255035E0,0E0,7.215515E0,0E0,1.9912598E0,1.5594177E0,6.7180556E-1,0E0,1.6333333E-1,0E0,0E0,0E0,0E0,4.3327376E-1,0E0,0E0,4.3327376E-1,0E0,0E0,1.6160736E0,3.7394168E0,0E0,0E0,9.352083E-1,0E0,1.6712408E0,0E0,0E0,0E0,0E0,0E0,0E0,0E0,0E0,0E0,1.6333333E-1,0E0,0E0,0E0,8.2571423E-1,0E0,0E0,0E0,0E0,0E0,0E0,0E0],"parents":[2147483647,0,0,1,1,2,2,3,3,4,4,5,5,6,6,7,7,8,8,9,9,10,10,11,11,13,13,14,14,15,15,17,17,18,18,19,19,20,20,22,22,24,24,26,26,27,27,28,28,29,29,30,30,32,32,35,35,36,36,37,37,38,38,39,39,40,40,41,41,42,42,47,47,48,48,53,53,54,54,57,57,58,58,59,59,61,61,66,66,69,69,72,72,74,74,76,76,77,77,78,78,80,80,85,85,88,88,91,91,92,92,95,95,97,97,107,107,111,111],"right_children":[2,4,6,8,10,12,14,-1,18,20,22,-1,-1,-1,28,-1,-1,32,-1,-1,-1,-1,-1,-1,-1,-1,-1,-1,48,-1,-1,-1,54,-1,-1,-1,-1,-1,-1,-1,-1,-1,-1,-1,-1,-1,-1,-1,74,-1,-1,-1,-1,-1,78,-1,-1,-1,-1,-1,-1,-1,-1,-1,-1,-1,-1,-1,-1,-1,-1,-1,-1,-1,94,-1,-1,-1,-1,-1,-1,-1,-1,-1,-1,-1,-1,-1,-1,-1,-1,-1,-1,-1,-1,-1,-1,-1,-1,-1,-1,-1,-1,-1,-1,-1,-1,-1,-1,-1,-1,-1,-1,-1,-1,-1,-1,-1,-1],"split_conditions":[4.2982456E-1,2.4418604E-1,4.473684E-1,1.5004262E-1,8.681171E-2,3.604651E-1,1.862339E-1,5.875E-2,3.3290708E-1,4.3860644E-1,1.707161E-1,-1.07E-1,1.7769231E-1,1.1666667E-2,1.5028987E-2,1.305E-1,-1.2333334E-1,1.744186E-1,8.100001E-2,1.7341463E-1,-2.5312502E-2,1.0125001E-1,-2.0268294E-1,1.0125001E-1,-1.5222223E-1,1.5545455E-1,-1.175E-1,-5.666667E-2,1.9906223E-1,-2.6250001E-2,1.7117648E-1,-2.944555E-1,9.661825E-3,1.2333334E-1,-3.5E-2,-0E0,2.0314287E-1,7.833333E-2,-1.21578954E-1,-0E0,-2.2459461E-1,2.6250001E-2,-1.8375E-1,-1.5545455E-1,3.5E-2,3.5E-2,-1.0125001E-1,2.5756478E-1,7.750861E-2,-7.285715E-2,3.5E-2,2.00625E-1,-3.5E-2,8.75E-3,6.35477E-1,1.0125001E-1,-1.0125001E-1,2.3156251E-1,-2.6250001E-2,-8.100001E-2,1.7769231E-1,2.1000002E-2,-1.8642858E-1,-7.285715E-2,7.285715E-2,-2.4870968E-1,-4.6363637E-2,-3.5E-2,7.285715E-2,-2.1000002E-2,-2.163158E-1,-3.5E-2,2.6046875E-1,-1.7769231E-1,3.1217474E-2,1.5545455E-1,-7.833333E-2,-2.6643565E-1,5.666667E-2,2.4700001E-1,-0E0,3.5E-2,-7.285715E-2,-1.2333334E-1,3.5E-2,-2.6250001E-2,7.285715E-2,-1.0125001E-1,2.6250001E-2,7.285715E-2,-1.0125001E-1,2.6818684E-1,7.4E-2,-1.0125001E-1,2.5181818E-1,-1.25625E-1,7.285715E-2,-4.6363637E-2,-2.7694738E-1,-3.5E-2,1.0125001E-1,-3.5E-2,3.5E-2,3.5E-2,-7.285715E-2,-3.5E-2,7.285715E-2,-0E0,2.7116668E-1,-1.0125001E-1,1.675E-1,-0E0,-1.675E-1,-1.2333334E-1,7.285715E-2,-3.5E-2,3.5E-2,7.285715E-2,-7.285715E-2],"split_indices":[12,13,12,6,4,13,2,14,6,2,6,0,0,6,4,2147483647,2147483647,13,0,13,4,0,9,2147483647,2147483647,2147483647,2147483647,1,6,2147483647,2147483647,0,5,2147483647,2147483647,2147483647,2147483647,2147483647,2147483647,2147483647,2147483647,2147483647,2147483647,2147483647,2147483647,2147483647,2147483647,13,8,2147483647,2147483647,2147483647,2147483647,4,2,2147483647,2147483647,2147483647,2147483647,2147483647,2147483647,2147483647,2147483647,2147483647,2147483647,2147483647,2147483647,2147483647,2147483647,2147483647,2147483647,2147483647,2147483647,0,9,2147483647,2147483647,4,3,2147483647,2147483647,2147483647,2147483647,2147483647,2147483647,2147483647,2147483647,2147483647,2147483647,2147483647,2147483647,2147483647,2147483647,0,0,2147483647,2147483647,2147483647,2147483647,2147483647,2147483647,2147483647,2147483647,2147483647,2147483647,2147483647,2147483647,2147483647,2147483647,2147483647,2147483647,2147483647,2147483647,2147483647,2147483647,2147483647,2147483647,2147483647,2147483647],"split_type":[0,0,0,0,0,0,0,0,0,0,0,0,0,0,0,0,0,0,0,0,0,0,0,0,0,0,0,0,0,0,0,0,0,0,0,0,0,0,0,0,0,0,0,0,0,0,0,0,0,0,0,0,0,0,0,0,0,0,0,0,0,0,0,0,0,0,0,0,0,0,0,0,0,0,0,0,0,0,0,0,0,0,0,0,0,0,0,0,0,0,0,0,0,0,0,0,0,0,0,0,0,0,0,0,0,0,0,0,0,0,0,0,0,0,0,0,0,0,0],"sum_hessian":[2.427E3,2.15E3,2.77E2,2.048E3,1.02E2,3.3E1,2.44E2,1.9E1,2.029E3,6.3E1,3.9E1,2.5E1,8E0,1.3E1,2.31E2,1.5E1,4E0,2.024E3,5E0,3.6E1,2.7E1,3E0,3.6E1,3E0,2.2E1,6E0,7E0,4E0,2.27E2,3E0,1.2E1,1.905E3,1.19E2,4E0,1E0,6E0,3E1,1.3E1,1.4E1,4E0,3.2E1,3E0,1.9E1,6E0,1E0,1E0,3E0,1.88E2,3.9E1,2E0,1E0,1.1E1,1E0,1.9E1,1E2,3E0,3E0,2.7E1,3E0,5E0,8E0,5E0,9E0,2E0,2E0,2.6E1,6E0,1E0,2E0,5E0,1.4E1,1E0,1.87E2,8E0,3.1E1,6E0,1.3E1,9.6E1,4E0,2.5E1,2E0,1E0,2E0,4E0,1E0,3E0,2E0,3E0,3E0,2E0,3E0,1.77E2,1E1,3E0,2.8E1,1.1E1,2E0,6E0,9E1,1E0,3E0,1E0,1E0,1E0,2E0,1E0,2E0,2E0,1.75E2,3E0,7E0,4E0,7E0,4E0,2E0,1E0,1E0,2E0,2E0],"tree_param":{"num_deleted":"84","num_feature":"16","num_nodes":"119","size_leaf_vector":"0"}},{"base_weights":[-7.269979E-1,-9.4607794E-1,4.114504E-1,-9.641528E-1,-0E0,-1.3776223E-1,7.1254903E-1,3.5E-2,-9.719858E-1,5.105263E-1,-3.3448276E-1,-4.2972973E-1,7.4864864E-1,8.695946E-1,4.7053573E-1,-2.4666667E-1,4.7E-1,-9.806435E-1,-5.519231E-1,6.6875E-1,-8.75E-2,3.375E-1,-4.8846152E-1,2.71875E-1,-6.75E-1,8.485714E-1,-2.4285714E-1,-1.1666667E-1,8.8231295E-1,-1.175E-1,7.4935067E-1,-3.9166665E-1,8.75E-2,-9.8167187E-1,1.1666667E-1,-0E0,-8.4411764E-1,1.1666667E-1,-2.4285714E-1,-6.125E-1,2.4285714E-1,-1.5E-1,6.157895E-1,5.8333334E-2,-7.4935067E-1,9.181159E-1,1.9285715E-1,1.275862E-1,-5.4375E-1,-2.4285714E-1,7.96E-1,1.1666667E-1,-5.181818E-1,2.4285714E-1,-1.1666667E-1,-2.611111E-1,4.7E-1,-6.826087E-1,1.1666667E-1,4.1111112E-1,-4.7857141E-1,6.882353E-1,-0E0,-3.375E-1,4.1111112E-1,-7.6933336E-1,-0E0,9.30597E-1,1.8888889E-1,-1.8888889E-1,4.7E-1,4.8636365E-1,-5.5833334E-1,-0E0,-6.2142855E-1,8.4305555E-1,-8.75E-2,-4.1875E-1,2.4285714E-1,-7.590909E-1,1.1666667E-1,-5.923077E-1,1.1666667E-1,-1.1666667E-1,1.1666667E-1,-7.9041094E-1,-0E0,-1.1666667E-1,1.1666667E-1,3.375E-1,-1.1666667E-1,-3.375E-1,1.1666667E-1,-2.4285714E-1,6.35E-1,-1.1666667E-1,1.1666667E-1,8.893939E-1,1.5454546E-1,-2.4285714E-1,1.1666667E-1,8.75E-2,-5.923077E-1,-8.126761E-1,-0E0,-1.1666667E-1,1.1666667E-1,-0E0,7.0555556E-1,-2.4285714E-1,4.1111112E-1,2.4285714E-1,-1.1666667E-1,-8.75E-2,-8.338235E-1,1.1666667E-1,-1.1666667E-1,1.1666667E-1,-1.1666667E-1,-2.4285714E-1,1.1666667E-1],"categories":[],"categories_nodes":[],"categories_segments":[],"categories_sizes":[],"default_left":[1,1,1,1,1,1,1,1,1,1,1,1,1,1,1,1,1,1,1,1,1,1,1,1,1,1,1,1,1,1,1,1,1,1,1,1,0,1,1,1,1,1,1,1,1,1,1,1,1,1,1,1,1,1,1,1,1,1,1,1,1,1,1,1,1,1,1,1,1,1,1,1,0,1,1,1,1,1,1,1,1,1,1,1,1,1,1,1,1,1,1,1,1,1,1,1,1,1,1,1,1,1,1,1,1,1,1,1,1,1,1,1,1,1,1,1,1,1,1,1,1],"id":1,"left_children":[1,3,5,7,9,11,13,-1,17,-1,-1,23,-1,-1,29,-1,-1,-1,35,-1,-1,-1,-1,41,43,-1,-1,-1,-1,47,-1,-1,-1,-1,-1,-1,-1,-1,-1,-1,-1,-1,-1,-1,-1,-1,-1,71,-1,-1,-1,-1,-1,-1,-1,-1,-1,-1,-1,-1,-1,-1,-1,-1,-1,-1,-1,-1,-1,-1,-1,-1,-1,-1,-1,-1,-1,-1,-1,-1,-1,-1,-1,-1,-1,-1,-1,-1,-1,-1,-1,-1,-1,-1,-1,-1,-1,-1,-1,-1,-1,-1,-1,-1,-1,-1,-1,-1,-1,-1,-1,-1,-1,-1,-1,-1,-1,-1,-1,-1,-1],"loss_changes":[6.0443494E2,3.466223E1,6.565254E1,1.6017822E1,8.196588E0,3.852176E1,7.2438965E0,3.0971668E0,4.0129395E0,2.26477E0,3.8702288E0,2.0139702E1,4.877861E0,2.6008224E0,1.8992552E1,9.8941666E-1,0E0,3.0067139E0,8.385984E0,0E0,4.3327376E-1,0E0,3.2131457E0,5.2444243E0,5.005867E0,0E0,0E0,0E0,2.410019E0,4.650444E0,4.6965256E0,1.1944698E0,4.3327376E-1,0E0,0E0,3.4362223E0,0E0,0E0,0E0,1.7948742E0,0E0,4.3225393E0,8.476162E-1,2.391528E0,1.1529999E0,4.1275024E-2,2.009397E0,8.472855E0,6.7580366E-1,0E0,3.71352E0,0E0,0E0,0E0,0E0,1.9912598E0,0E0,2.0415287E0,0E0,0E0,1.436007E0,0E0,1.6333333E-1,0E0,0E0,1.2161789E0,1.6333333E-1,0E0,6.7180556E-1,6.7180556E-1,0E0,3.2732663E0,0E0,1.6333333E-1,0E0,1.2966766E0,4.3327376E-1,1.8163943E0,0E0,0E0,0E0,0E0,0E0,0E0,0E0,1.2846985E0,1.6333333E-1,0E0,0E0,0E0,0E0,0E0,0E0,0E0,8.960552E-1,0E0,0E0,0E0,1.6712408E0,0E0,0E0,4.3327376E-1,0E0,4.4763184E-1,1.6333333E-1,0E0,0E0,1.6333333E-1,0E0,0E0,0E0,0E0,0E0,4.3327376E-1,0E0,0E0,0E0,0E0,0E0,0E0,0E0],"parents":[2147483647,0,0,1,1,2,2,3,3,4,4,5,5,6,6,7,7,8,8,9,9,10,10,11,11,12,12,13,13,14,14,15,15,17,17,18,18,20,20,22,22,23,23,24,24,28,28,29,29,30,30,31,31,32,32,35,35,39,39,41,41,42,42,43,43,44,44,45,45,46,46,47,47,48,48,50,50,55,55,57,57,60,60,62,62,65,65,66,66,68,68,69,69,71,71,73,73,75,75,76,76,77,77,85,85,86,86,94,94,98,98,101,101,103,103,104,104,107,107,113,113],"right_children":[2,4,6,8,10,12,14,-1,18,-1,-1,24,-1,-1,30,-1,-1,-1,36,-1,-1,-1,-1,42,44,-1,-1,-1,-1,48,-1,-1,-1,-1,-1,-1,-1,-1,-1,-1,-1,-1,-1,-1,-1,-1,-1,72,-1,-1,-1,-1,-1,-1,-1,-1,-1,-1,-1,-1,-1,-1,-1,-1,-1,-1,-1,-1,-1,-1,-1,-1,-1,-1,-1,-1,-1,-1,-1,-1,-1,-1,-1,-1,-1,-1,-1,-1,-1,-1,-1,-1,-1,-1,-1,-1,-1,-1,-1,-1,-1,-1,-1,-1,-1,-1,-1,-1,-1,-1,-1,-1,-1,-1,-1,-1,-1,-1,-1,-1,-1],"split_conditions":[3.7719297E-1,3.7884438E-1,4.473684E-1,1.4876387E-1,4.1058116E-2,4.6944445E-1,1.6858482E-1,1.0500001E-2,2.2093023E-1,1.5315789E-1,-1.0034483E-1,1.6943735E-1,2.2459461E-1,2.6087838E-1,7.467949E-1,-7.4E-2,1.41E-1,-2.9419306E-1,1.3704802E-2,2.00625E-1,-2.6250001E-2,1.0125001E-1,-1.4653847E-1,1.2916666E-1,2.5527626E-2,2.5457144E-1,-7.285715E-2,-3.5E-2,2.646939E-1,4.5604396E-1,2.248052E-1,-1.175E-1,2.6250001E-2,-2.9450157E-1,3.5E-2,-0E0,-2.532353E-1,3.5E-2,-7.285715E-2,-1.8375E-1,7.285715E-2,-4.5E-2,1.8473685E-1,1.75E-2,-2.248052E-1,2.754348E-1,5.7857145E-2,1.9820972E-1,-1.6312501E-1,-7.285715E-2,2.388E-1,3.5E-2,-1.5545455E-1,7.285715E-2,-3.5E-2,-7.833333E-2,1.41E-1,-2.0478262E-1,3.5E-2,1.2333334E-1,-1.4357144E-1,2.064706E-1,-0E0,-1.0125001E-1,1.2333334E-1,-2.3080002E-1,-0E0,2.7917913E-1,5.666667E-2,-5.666667E-2,1.41E-1,1.459091E-1,-1.675E-1,-0E0,-1.8642858E-1,2.5291666E-1,-2.6250001E-2,-1.25625E-1,7.285715E-2,-2.2772728E-1,3.5E-2,-1.7769231E-1,3.5E-2,-3.5E-2,3.5E-2,-2.371233E-1,-0E0,-3.5E-2,3.5E-2,1.0125001E-1,-3.5E-2,-1.0125001E-1,3.5E-2,-7.285715E-2,1.905E-1,-3.5E-2,3.5E-2,2.668182E-1,4.6363637E-2,-7.285715E-2,3.5E-2,2.6250001E-2,-1.7769231E-1,-2.4380283E-1,-0E0,-3.5E-2,3.5E-2,-0E0,2.1166667E-1,-7.285715E-2,1.2333334E-1,7.285715E-2,-3.5E-2,-2.6250001E-2,-2.5014707E-1,3.5E-2,-3.5E-2,3.5E-2,-3.5E-2,-7.285715E-2,3.5E-2],"split_indices":[12,15,12,6,4,15,6,8,13,1,15,6,4,0,14,2147483647,2147483647,6,5,2147483647,2147483647,2147483647,2147483647,15,4,2147483647,2147483647,2147483647,2147483647,7,13,2147483647,2147483647,2147483647,2147483647,15,0,2147483647,2147483647,2147483647,2147483647,6,7,0,1,2147483647,2147483647,6,12,2147483647,2147483647,2147483647,2147483647,2147483647,2147483647,2147483647,2147483647,2147483647,2147483647,2147483647,2147483647,2147483647,2147483647,2147483647,2147483647,2147483647,2147483647,2147483647,2147483647,2147483647,2147483647,14,0,2147483647,2147483647,2147483647,2147483647,2147483647,2147483647,2147483647,2147483647,2147483647,2147483647,2147483647,2147483647,2147483647,2147483647,2147483647,2147483647,2147483647,2147483647,2147483647,2147483647,2147483647,2147483647,2147483647,2147483647,2147483647,2147483647,2147483647,2147483647,2147483647,2147483647,2147483647,2147483647,2147483647,2147483647,2147483647,2147483647,2147483647,2147483647,2147483647,2147483647,2147483647,2147483647,2147483647,2147483647,2147483647,2147483647,2147483647,2147483647],"split_type":[0,0,0,0,0,0,0,0,0,0,0,0,0,0,0,0,0,0,0,0,0,0,0,0,0,0,0,0,0,0,0,0,0,0,0,0,0,0,0,0,0,0,0,0,0,0,0,0,0,0,0,0,0,0,0,0,0,0,0,0,0,0,0,0,0,0,0,0,0,0,0,0,0,0,0,0,0,0,0,0,0,0,0,0,0,0,0,0,0,0,0,0,0,0,0,0,0,0,0,0,0,0,0,0,0,0,0,0,0,0,0,0,0,0,0,0,0,0,0,0,0],"sum_hessian":[2.41E3,2.022E3,3.88E2,1.984E3,3.8E1,1.38E2,2.5E2,1.5E1,1.969E3,1.4E1,2.4E1,1.06E2,3.2E1,1.43E2,1.07E2,1E1,5E0,1.922E3,4.7E1,1.1E1,3E0,3E0,2.1E1,2.7E1,7.9E1,3E1,2E0,1E0,1.42E2,3.5E1,7.2E1,7E0,3E0,1.921E3,1E0,1.8E1,2.9E1,1E0,2E0,1.9E1,2E0,1.3E1,1.4E1,7E0,7.2E1,1.33E2,9E0,2.4E1,1.1E1,2E0,7E1,1E0,6E0,2E0,1E0,1.3E1,5E0,1.8E1,1E0,4E0,9E0,1.2E1,2E0,3E0,4E0,7E1,2E0,1.29E2,4E0,4E0,5E0,1.7E1,7E0,2E0,9E0,6.7E1,3E0,1.1E1,2E0,1.7E1,1E0,8E0,1E0,1E0,1E0,6.8E1,2E0,1E0,1E0,3E0,1E0,3E0,1E0,2E0,1.5E1,1E0,1E0,6.1E1,6E0,2E0,1E0,3E0,8E0,6.6E1,2E0,1E0,1E0,2E0,1.3E1,2E0,4E0,2E0,1E0,3E0,6.3E1,1E0,1E0,1E0,1E0,2E0,1E0],"tree_param":{"num_deleted":"90","num_feature":"16","num_nodes":"121","size_leaf_vector":"0"}},{"base_weights":[-8.236022E-1,-9.3538964E-1,4.515625E-1,3.8214284E-1,-9.506329E-1,2.0481927E-2,7.4298245E-1,-1.9285715E-1,7.2105265E-1,-9.5966905E-1,7.3913045E-2,5.6136364E-1,-5.159091E-1,-4.1111112E-1,8.0636364E-1,-4.7E-1,1.8888889E-1,-9.81999E-1,-6.5220124E-1,3.3529413E-1,-3.3636364E-1,6.357143E-1,-2.4285714E-1,-6.3055557E-1,-0E0,-2.4285714E-1,8.3981484E-1,-1.1666667E-1,3.375E-1,5.151515E-2,-8.068702E-1,5.133333E-1,-2.4285714E-1,-4.7E-1,1.1666667E-1,7.175E-1,-2.4285714E-1,-7E-1,-7E-2,4.1111112E-1,-4.1111112E-1,-0E0,8.556604E-1,5.5833334E-1,-1.8076923E-1,-7.3913045E-2,-9.176991E-1,6.2142855E-1,-1.1666667E-1,2.4666667E-1,8.233333E-1,-7.482759E-1,-0E0,2.4285714E-1,-3.375E-1,-1.1666667E-1,1.1666667E-1,-0E0,8.721154E-1,2.25E-1,-4.0526316E-1,-4.1875E-1,3.9166665E-1,-9.3423426E-1,-0E0,4.7E-1,-7E-2,1.1666667E-1,-1.1666667E-1,1.1666667E-1,-1.1666667E-1,9.05102E-1,1.5454546E-1,4.7E-1,-2.4285714E-1,-4.8333332E-1,1.1666667E-1,-6.2142855E-1,2.4285714E-1,5.181818E-1,-1.1666667E-1,-1.1666667E-1,1.1666667E-1,-2.4285714E-1,8.75E-2,1.8888889E-1,9.2234045E-1,-2.4285714E-1,4.1111112E-1,-5.7058823E-1,1.1666667E-1,2.4285714E-1,-1.1666667E-1,-1.1666667E-1,3.375E-1,-0E0,-6.4666665E-1,-1.1666667E-1,1.1666667E-1],"categories":[],"categories_nodes":[],"categories_segments":[],"categories_sizes":[],"default_left":[1,1,1,1,1,1,1,1,0,1,1,1,1,0,1,1,1,0,1,1,1,1,1,1,1,0,1,1,1,1,1,1,1,1,1,1,1,1,1,1,1,1,1,1,1,1,1,1,1,1,1,1,1,1,1,1,1,1,1,1,1,1,1,1,1,1,1,1,1,1,1,1,1,1,1,1,1,1,1,1,1,1,1,1,1,1,1,1,1,1,1,1,1,1,1,1,1,1,1],"id":2,"left_children":[1,3,5,7,9,11,13,-1,-1,17,-1,-1,-1,-1,25,-1,-1,-1,29,-1,-1,-1,-1,-1,-1,-1,-1,-1,-1,-1,45,-1,-1,-1,-1,-1,-1,-1,-1,-1,-1,-1,-1,-1,-1,-1,-1,-1,-1,-1,-1,-1,-1,-1,-1,-1,-1,-1,-1,-1,-1,-1,-1,-1,-1,-1,-1,-1,-1,-1,-1,-1,-1,-1,-1,-1,-1,-1,-1,-1,-1,-1,-1,-1,-1,-1,-1,-1,-1,-1,-1,-1,-1,-1,-1,-1,-1,-1,-1],"loss_changes":[3.362456E2,4.528711E1,2.3814964E1,6.310207E0,2.0367432E1,2.5542E1,1.0114948E1,2.009397E0,0E0,1.0828491E1,3.03007E0,3.5207462E0,2.6024742E0,0E0,5.0596085E0,0E0,6.7180556E-1,0E0,1.7740494E1,2.4543471E0,1.0461214E0,4.031536E0,0E0,9.2539024E-1,3.042222E0,0E0,1.4371948E0,0E0,0E0,4.502873E0,1.0004868E1,1.5354285E0,0E0,0E0,0E0,6.567497E-1,0E0,1.0475864E0,1.2751071E0,0E0,0E0,1.6333333E-1,1.4924698E0,0E0,2.878411E0,4.520806E0,1.7146912E0,0E0,0E0,1.3453336E0,0E0,0E0,1.6333333E-1,0E0,0E0,0E0,0E0,1.6333333E-1,1.4444046E0,2.014357E0,1.1661401E0,3.013661E0,1.1944698E0,0E0,1.6333333E-1,0E0,4.2510712E-1,0E0,0E0,0E0,0E0,5.4855347E-3,1.6712408E0,0E0,0E0,1.4113722E0,0E0,0E0,0E0,0E0,0E0,0E0,0E0,0E0,4.3327376E-1,6.7180556E-1,0E0,0E0,0E0,7.379608E-1,0E0,0E0,0E0,0E0,0E0,1.6333333E-1,0E0,0E0,0E0],"parents":[2147483647,0,0,1,1,2,2,3,3,4,4,5,5,6,6,7,7,9,9,10,10,11,11,12,12,14,14,16,16,18,18,19,19,20,20,21,21,23,23,24,24,26,26,29,29,30,30,31,31,35,35,37,37,38,38,41,41,42,42,44,44,45,45,46,46,49,49,52,52,57,57,58,58,59,59,60,60,61,61,62,62,64,64,66,66,71,71,72,72,75,75,84,84,85,85,89,89,95,95],"right_children":[2,4,6,8,10,12,14,-1,-1,18,-1,-1,-1,-1,26,-1,-1,-1,30,-1,-1,-1,-1,-1,-1,-1,-1,-1,-1,-1,46,-1,-1,-1,-1,-1,-1,-1,-1,-1,-1,-1,-1,-1,-1,-1,-1,-1,-1,-1,-1,-1,-1,-1,-1,-1,-1,-1,-1,-1,-1,-1,-1,-1,-1,-1,-1,-1,-1,-1,-1,-1,-1,-1,-1,-1,-1,-1,-1,-1,-1,-1,-1,-1,-1,-1,-1,-1,-1,-1,-1,-1,-1,-1,-1,-1,-1,-1,-1],"split_conditions":[2.906977E-1,1.4876387E-1,4.767316E-1,2.7192983E-1,3.7715518E-1,1.4340922E-2,1.6901109E-1,-5.7857145E-2,2.163158E-1,1.744186E-1,2.2173915E-2,1.684091E-1,-1.5477273E-1,-1.2333334E-1,2.2527473E-1,-1.41E-1,5.666667E-2,-2.945997E-1,9.748191E-3,1.0058824E-1,-1.009091E-1,1.907143E-1,-7.285715E-2,-1.8916668E-1,-0E0,-7.285715E-2,2.5194445E-1,-3.5E-2,1.0125001E-1,1.5454546E-2,3.233518E-2,1.54E-1,-7.285715E-2,-1.41E-1,3.5E-2,2.1525E-1,-7.285715E-2,-2.1000001E-1,-2.1000002E-2,1.2333334E-1,-1.2333334E-1,-0E0,2.5669813E-1,1.675E-1,-5.4230772E-2,-2.2173915E-2,-2.7530974E-1,1.8642858E-1,-3.5E-2,7.4E-2,2.4700001E-1,-2.2448277E-1,-0E0,7.285715E-2,-1.0125001E-1,-3.5E-2,3.5E-2,-0E0,2.6163462E-1,6.75E-2,-1.21578954E-1,-1.25625E-1,1.175E-1,-2.8027028E-1,-0E0,1.41E-1,-2.1000002E-2,3.5E-2,-3.5E-2,3.5E-2,-3.5E-2,2.7153063E-1,4.6363637E-2,1.41E-1,-7.285715E-2,-1.45E-1,3.5E-2,-1.8642858E-1,7.285715E-2,1.5545455E-1,-3.5E-2,-3.5E-2,3.5E-2,-7.285715E-2,2.6250001E-2,5.666667E-2,2.7670214E-1,-7.285715E-2,1.2333334E-1,-1.7117648E-1,3.5E-2,7.285715E-2,-3.5E-2,-3.5E-2,1.0125001E-1,-0E0,-1.94E-1,-3.5E-2,3.5E-2],"split_indices":[13,6,15,12,15,5,6,3,0,13,4,6,15,0,7,2147483647,2147483647,0,5,2147483647,2147483647,2147483647,2147483647,2147483647,2147483647,0,8,2147483647,2147483647,4,4,2147483647,2147483647,2147483647,2147483647,2147483647,2147483647,2147483647,2147483647,2147483647,2147483647,2147483647,2147483647,2147483647,2147483647,0,12,2147483647,2147483647,2147483647,2147483647,2147483647,2147483647,2147483647,2147483647,2147483647,2147483647,2147483647,2147483647,2147483647,2147483647,2147483647,2147483647,2147483647,2147483647,2147483647,2147483647,2147483647,2147483647,2147483647,2147483647,2147483647,2147483647,2147483647,2147483647,2147483647,2147483647,2147483647,2147483647,2147483647,2147483647,2147483647,2147483647,2147483647,2147483647,2147483647,2147483647,2147483647,2147483647,2147483647,2147483647,2147483647,2147483647,2147483647,2147483647,2147483647,2147483647,2147483647,2147483647],"split_type":[0,0,0,0,0,0,0,0,0,0,0,0,0,0,0,0,0,0,0,0,0,0,0,0,0,0,0,0,0,0,0,0,0,0,0,0,0,0,0,0,0,0,0,0,0,0,0,0,0,0,0,0,0,0,0,0,0,0,0,0,0,0,0,0,0,0,0,0,0,0,0,0,0,0,0,0,0,0,0,0,0,0,0,0,0,0,0,0,0,0,0,0,0,0,0,0,0,0,0],"sum_hessian":[2.338E3,2.151E3,1.87E2,2.3E1,2.128E3,7.8E1,1.09E2,9E0,1.4E1,2.11E3,1.8E1,3.9E1,3.9E1,4E0,1.05E2,5E0,4E0,1.956E3,1.54E2,1.2E1,6E0,3.7E1,2E0,3.1E1,8E0,2E0,1.03E2,1E0,3E0,2.8E1,1.26E2,1E1,2E0,5E0,1E0,3.5E1,2E0,2.6E1,5E0,4E0,4E0,2E0,1.01E2,7E0,2.1E1,1.8E1,1.08E2,9E0,1E0,1E1,2.5E1,2.4E1,2E0,2E0,3E0,1E0,1E0,2E0,9.9E1,7E0,1.4E1,1.1E1,7E0,1.06E2,2E0,5E0,5E0,1E0,1E0,1E0,1E0,9.3E1,6E0,5E0,2E0,1.3E1,1E0,9E0,2E0,6E0,1E0,1E0,1E0,2E0,3E0,4E0,8.9E1,2E0,4E0,1.2E1,1E0,2E0,1E0,1E0,3E0,2E0,1E1,1E0,1E0],"tree_param":{"num_deleted":"76","num_feature":"16","num_nodes":"99","size_leaf_vector":"0"}},{"base_weights":[-8.888046E-1,-9.5932615E-1,-1.3919598E-1,-9.679431E-1,4.1875E-1,5.274193E-1,-4.2746478E-1,-9.708313E-1,1.8888889E-1,-2.4285714E-1,6.2142855E-1,6.6140354E-1,-4.7E-1,-1.0606061E-2,-7.3703706E-1,1.1666667E-1,-9.7180116E-1,3.375E-1,-1.1666667E-1,-5E-2,8.0625E-1,4.2333335E-1,-3.3414635E-1,-8.1527776E-1,-5E-2,-9.7277206E-1,1.1666667E-1,-3.375E-1,1.5454546E-1,8.738095E-1,1.5454546E-1,-2.4285714E-1,5.25E-1,-4.6388888E-1,2.7E-1,-8.75E-2,-8.362319E-1,2.7E-1,-4.1111112E-1,-9.7465414E-1,-2.25E-1,-8.75E-2,3.375E-1,-2.4285714E-1,4.1111112E-1,-1.1666667E-1,5.8148146E-1,1.8888889E-1,-5.84375E-1,4.1111112E-1,-1.1666667E-1,-2.4285714E-1,1.1666667E-1,-1.1666667E-1,4.1111112E-1,-9.838826E-1,-7.091954E-1,8.75E-2,-4.1111112E-1,1.1666667E-1,-2.4285714E-1,6.28E-1,-0E0,3.375E-1,-1.1666667E-1,-6.9E-1,2.4285714E-1,2.25E-1,-8.0875E-1,-1.1666667E-1,2.4285714E-1,-0E0,6.826087E-1,-1.1666667E-1,1.1666667E-1,-7E-2,-7.88E-1,4.7E-1,-2.4285714E-1,8.75E-2,-8.5324675E-1,1.1666667E-1,-1.1666667E-1,8.75E-2,7.35E-1,-3.375E-1,2.4285714E-1,2.4285714E-1,-1.1666667E-1,-1.1666667E-1,2.4285714E-1],"categories":[],"categories_nodes":[],"categories_segments":[],"categories_sizes":[],"default_left":[1,1,1,1,1,1,1,1,1,1,1,1,0,1,1,0,1,1,1,1,1,1,1,1,1,1,0,1,1,1,1,1,1,1,1,1,1,1,1,1,1,1,1,1,1,1,1,1,1,1,1,1,1,1,1,0,1,1,1,1,1,1,1,1,1,1,1,1,1,1,1,1,1,1,1,1,1,1,1,1,1,1,1,1,1,1,1,1,1,1,1],"id":3,"left_children":[1,3,5,7,-1,11,13,15,-1,-1,-1,19,-1,21,-1,-1,25,-1,-1,-1,-1,-1,-1,-1,-1,39,-1,-1,-1,-1,-1,-1,-1,-1,-1,-1,-1,-1,-1,55,-1,-1,-1,-1,-1,-1,-1,-1,-1,-1,-1,-1,-1,-1,-1,-1,67,-1,-1,-1,-1,-1,-1,-1,-1,-1,-1,-1,-1,-1,-1,-1,-1,-1,-1,-1,-1,-1,-1,-1,-1,-1,-1,-1,-1,-1,-1,-1,-1,-1,-1],"loss_changes":[1.1752283E2,2.6510986E1,3.9337997E1,7.9575195E0,3.013661E0,9.897299E0,1.8061424E1,2.9676514E0,6.7180556E-1,0E0,0E0,6.30196E0,0E0,9.946713E0,3.8906898E0,0E0,2.9716797E0,0E0,0E0,1.1389773E0,1.1296616E0,2.7540236E0,3.8981395E0,4.5502472E-1,2.215111E0,1.4019775E0,0E0,0E0,7.097727E-1,0E0,1.6712408E0,0E0,1.4934263E0,3.5019784E0,8.7377775E-1,4.3327376E-1,0E0,8.7377775E-1,0E0,9.6154785E-1,9.7486097E-1,4.3327376E-1,0E0,0E0,0E0,0E0,7.3034096E-1,6.7180556E-1,3.7680445E0,0E0,0E0,0E0,0E0,0E0,0E0,0E0,9.176266E0,4.3327376E-1,0E0,0E0,0E0,8.57357E-1,1.6333333E-1,0E0,0E0,1.2895994E0,0E0,2.014357E0,3.7934418E0,0E0,0E0,1.6333333E-1,1.4879227E-1,0E0,0E0,1.2751071E0,0E0,0E0,0E0,4.3327376E-1,0E0,0E0,0E0,4.3327376E-1,0E0,0E0,0E0,0E0,0E0,0E0,0E0],"parents":[2147483647,0,0,1,1,2,2,3,3,4,4,5,5,6,6,7,7,8,8,11,11,13,13,14,14,16,16,19,19,20,20,21,21,22,22,23,23,24,24,25,25,28,28,30,30,32,32,33,33,34,34,35,35,37,37,39,39,40,40,41,41,46,46,47,47,48,48,56,56,57,57,61,61,62,62,65,65,67,67,68,68,71,71,72,72,75,75,79,79,83,83],"right_children":[2,4,6,8,-1,12,14,16,-1,-1,-1,20,-1,22,-1,-1,26,-1,-1,-1,-1,-1,-1,-1,-1,40,-1,-1,-1,-1,-1,-1,-1,-1,-1,-1,-1,-1,-1,56,-1,-1,-1,-1,-1,-1,-1,-1,-1,-1,-1,-1,-1,-1,-1,-1,68,-1,-1,-1,-1,-1,-1,-1,-1,-1,-1,-1,-1,-1,-1,-1,-1,-1,-1,-1,-1,-1,-1,-1,-1,-1,-1,-1,-1,-1,-1,-1,-1,-1,-1],"split_conditions":[2.2093023E-1,5.7692313E-1,1.7519182E-1,3.3141518E-1,1.25625E-1,3.1759E-1,6.616363E-2,6.8394444E-4,5.666667E-2,-7.285715E-2,1.8642858E-1,3.7719297E-1,-1.41E-1,1.3073705E-1,-2.2111113E-1,3.5E-2,6.052632E-1,1.0125001E-1,-3.5E-2,-1.5000001E-2,2.4187501E-1,1.27E-1,-1.0024391E-1,-2.4458334E-1,-1.5000001E-2,8.589244E-2,3.5E-2,-1.0125001E-1,4.6363637E-2,2.6214287E-1,4.6363637E-2,-7.285715E-2,1.575E-1,-1.3916667E-1,8.100001E-2,-2.6250001E-2,-2.5086957E-1,8.100001E-2,-1.2333334E-1,1.744186E-1,-6.75E-2,-2.6250001E-2,1.0125001E-1,-7.285715E-2,1.2333334E-1,-3.5E-2,1.7444444E-1,5.666667E-2,-1.7531252E-1,1.2333334E-1,-3.5E-2,-7.285715E-2,3.5E-2,-3.5E-2,1.2333334E-1,-2.951648E-1,2.438371E-2,2.6250001E-2,-1.2333334E-1,3.5E-2,-7.285715E-2,1.8840002E-1,-0E0,1.0125001E-1,-3.5E-2,-2.07E-1,7.285715E-2,6.75E-2,-2.42625E-1,-3.5E-2,7.285715E-2,-0E0,2.0478262E-1,-3.5E-2,3.5E-2,-2.1000002E-2,-2.3640001E-1,1.41E-1,-7.285715E-2,2.6250001E-2,-2.5597402E-1,3.5E-2,-3.5E-2,2.6250001E-2,2.205E-1,-1.0125001E-1,7.285715E-2,7.285715E-2,-3.5E-2,-3.5E-2,7.285715E-2],"split_indices":[13,7,6,6,5,1,4,5,0,2147483647,2147483647,12,0,1,14,0,12,2147483647,2147483647,8,5,5,4,2147483647,2147483647,9,0,2147483647,2147483647,2147483647,2147483647,2147483647,2147483647,2147483647,2147483647,2147483647,2147483647,2147483647,2147483647,13,0,2147483647,2147483647,2147483647,2147483647,2147483647,2147483647,2147483647,2147483647,2147483647,2147483647,2147483647,2147483647,2147483647,2147483647,0,4,2147483647,2147483647,2147483647,2147483647,2147483647,2147483647,2147483647,2147483647,2147483647,2147483647,5,5,2147483647,2147483647,2147483647,2147483647,2147483647,2147483647,2147483647,2147483647,2147483647,2147483647,2147483647,2147483647,2147483647,2147483647,2147483647,2147483647,2147483647,2147483647,2147483647,2147483647,2147483647,2147483647],"split_type":[0,0,0,0,0,0,0,0,0,0,0,0,0,0,0,0,0,0,0,0,0,0,0,0,0,0,0,0,0,0,0,0,0,0,0,0,0,0,0,0,0,0,0,0,0,0,0,0,0,0,0,0,0,0,0,0,0,0,0,0,0,0,0,0,0,0,0,0,0,0,0,0,0,0,0,0,0,0,0,0,0,0,0,0,0,0,0,0,0,0,0],"sum_hessian":[2.237E3,2.043E3,1.94E2,2.032E3,1.1E1,5.7E1,1.37E2,2.028E3,4E0,2E0,9E0,5.2E1,5E0,6.1E1,7.6E1,1E0,2.027E3,3E0,1E0,9E0,4.3E1,2.5E1,3.6E1,6.7E1,9E0,2.026E3,1E0,3E0,6E0,3.7E1,6E0,2E0,2.3E1,3.1E1,5E0,3E0,6.4E1,5E0,4E0,2.019E3,7E0,3E0,3E0,2E0,4E0,1E0,2.2E1,4E0,2.7E1,4E0,1E0,2E0,1E0,1E0,4E0,1.937E3,8.2E1,3E0,4E0,1E0,2E0,2E1,2E0,3E0,1E0,2.5E1,2E0,7E0,7.5E1,1E0,2E0,2E0,1.8E1,1E0,1E0,5E0,2E1,5E0,2E0,3E0,7.2E1,1E0,1E0,3E0,1.5E1,3E0,2E0,2E0,1E0,1E0,2E0],"tree_param":{"num_deleted":"64","num_feature":"16","num_nodes":"91","size_leaf_vector":"0"}},{"base_weights":[-9.056612E-1,-9.642786E-1,-4.5444444E-1,9.642857E-2,-9.7704005E-1,1.06818184E-1,-5.528138E-1,-3.3529413E-1,5.4375E-1,-9.800406E-1,1.8888889E-1,2.9393938E-1,-2.9375E-1,-7.795775E-1,-1.7765957E-1,-4.7857141E-1,8.75E-2,6.4666665E-1,-1.1666667E-1,-9.8104674E-1,1.1666667E-1,3.375E-1,-1.1666667E-1,4.0344828E-1,-1.8888889E-1,2.4285714E-1,-4.7857141E-1,3.375E-1,-8.179856E-1,3.1290323E-1,-3.9264706E-1,1.1666667E-1,-5.923077E-1,2.4285714E-1,-1.1666667E-1,-9.8202646E-1,-1.8888889E-1,5.772727E-1,-5.8333334E-2,-3.375E-1,1.1666667E-1,-5.923077E-1,1.1666667E-1,-1.9473684E-1,-8.776E-1,5.2916664E-1,-2.25E-1,-6.2391305E-1,6.2962964E-2,1.1666667E-1,-3.375E-1,-1.1666667E-1,6.5238094E-1,3.375E-1,-4.1111112E-1,-5.133333E-1,4.1111112E-1,1.1666667E-1,-8.927419E-1,-7E-2,7.2105265E-1,-4.7E-1,2.4285714E-1,-6.9772726E-1,2.4285714E-1,2.4782608E-1,-4.1111112E-1,1.1666667E-1,-6.2142855E-1,-9.0661156E-1,-8.75E-2,-2.4285714E-1,8.75E-2,1.1666667E-1,-7.372093E-1,-2.7E-1,4.8333332E-1,-1.8888889E-1,-9.205128E-1,-2.4285714E-1,1.1666667E-1,2.4285714E-1,-1.1666667E-1,-4.1111112E-1,1.1666667E-1,-1.1666667E-1,5.7058823E-1,-3.375E-1,1.1666667E-1,-0E0,6.4666665E-1,1.1666667E-1,-1.1666667E-1],"categories":[],"categories_nodes":[],"categories_segments":[],"categories_sizes":[],"default_left":[1,1,1,1,1,1,1,1,1,1,1,1,1,1,1,1,1,1,1,1,1,1,1,1,1,1,1,0,1,1,1,1,1,1,1,1,1,1,1,1,1,1,1,1,1,1,1,1,1,1,1,1,1,1,1,1,1,1,1,1,1,1,1,1,1,1,1,1,1,1,1,1,1,1,1,1,1,1,1,1,1,1,1,1,1,1,1,1,1,1,1,1,1],"id":4,"left_children":[1,3,5,7,9,-1,13,-1,-1,-1,-1,-1,-1,27,29,-1,-1,-1,-1,-1,-1,-1,-1,-1,-1,-1,-1,-1,-1,-1,47,-1,-1,-1,-1,-1,-1,-1,-1,-1,-1,-1,-1,-1,-1,-1,-1,-1,-1,-1,-1,-1,-1,-1,-1,-1,-1,-1,-1,-1,-1,-1,-1,-1,-1,-1,-1,-1,-1,-1,-1,-1,-1,-1,-1,-1,-1,-1,-1,-1,-1,-1,-1,-1,-1,-1,-1,-1,-1,-1,-1,-1,-1],"loss_changes":[5.7184814E1,2.775354E1,1.53360405E1,6.381445E0,8.06543E0,3.7297919E0,1.8671814E1,1.3565019E0,1.6237078E0,3.0042725E0,6.7180556E-1,2.1902442E0,2.2386606E0,7.616989E0,1.0551923E1,1.436007E0,4.3327376E-1,0E0,0E0,2.487793E-1,0E0,0E0,0E0,2.6518517E0,6.7180556E-1,0E0,1.436007E0,0E0,3.9882812E0,4.292755E0,7.529665E0,0E0,0E0,0E0,0E0,0E0,6.7180556E-1,1.687923E0,2.391528E0,0E0,0E0,0E0,0E0,4.7532516E0,2.6354752E0,3.207004E0,2.014357E0,3.9267788E0,2.8266826E0,0E0,0E0,0E0,0E0,0E0,0E0,1.5354285E0,0E0,0E0,6.900101E-1,4.2510712E-1,0E0,0E0,0E0,2.0309753E0,0E0,3.5213914E0,0E0,0E0,0E0,5.050659E-3,4.3327376E-1,0E0,4.3327376E-1,0E0,0E0,8.7377775E-1,1.4113722E0,6.7180556E-1,0E0,0E0,0E0,0E0,0E0,0E0,0E0,0E0,7.379608E-1,0E0,0E0,1.6333333E-1,0E0,0E0,0E0],"parents":[2147483647,0,0,1,1,2,2,3,3,4,4,5,5,6,6,7,7,8,8,9,9,10,10,11,11,12,12,13,13,14,14,15,15,16,16,19,19,23,23,24,24,26,26,28,28,29,29,30,30,36,36,37,37,38,38,43,43,44,44,45,45,46,46,47,47,48,48,55,55,58,58,59,59,63,63,65,65,69,69,70,70,72,72,75,75,76,76,77,77,86,86,89,89],"right_children":[2,4,6,8,10,-1,14,-1,-1,-1,-1,-1,-1,28,30,-1,-1,-1,-1,-1,-1,-1,-1,-1,-1,-1,-1,-1,-1,-1,48,-1,-1,-1,-1,-1,-1,-1,-1,-1,-1,-1,-1,-1,-1,-1,-1,-1,-1,-1,-1,-1,-1,-1,-1,-1,-1,-1,-1,-1,-1,-1,-1,-1,-1,-1,-1,-1,-1,-1,-1,-1,-1,-1,-1,-1,-1,-1,-1,-1,-1,-1,-1,-1,-1,-1,-1,-1,-1,-1,-1,-1,-1],"split_conditions":[1.744186E-1,1.5004262E-1,9.805262E-3,2.8070176E-1,3.3141518E-1,3.2045458E-2,3.7119818E-1,-1.0058824E-1,1.6312501E-1,-2.940122E-1,5.666667E-2,8.8181816E-2,-8.8125E-2,1.5558398E-1,1.5934918E-2,-1.4357144E-1,2.6250001E-2,1.94E-1,-3.5E-2,-2.9431403E-1,3.5E-2,1.0125001E-1,-3.5E-2,1.2103449E-1,-5.666667E-2,7.285715E-2,-1.4357144E-1,1.0125001E-1,-2.4539569E-1,9.3870975E-2,1.9738872E-2,3.5E-2,-1.7769231E-1,7.285715E-2,-3.5E-2,-2.9460794E-1,-5.666667E-2,1.7318182E-1,-1.75E-2,-1.0125001E-1,3.5E-2,-1.7769231E-1,3.5E-2,-5.8421053E-2,-2.6328E-1,1.5875E-1,-6.75E-2,-1.8717392E-1,1.888889E-2,3.5E-2,-1.0125001E-1,-3.5E-2,1.957143E-1,1.0125001E-1,-1.2333334E-1,-1.54E-1,1.2333334E-1,3.5E-2,-2.678226E-1,-2.1000002E-2,2.163158E-1,-1.41E-1,7.285715E-2,-2.0931819E-1,7.285715E-2,7.434783E-2,-1.2333334E-1,3.5E-2,-1.8642858E-1,-2.7198347E-1,-2.6250001E-2,-7.285715E-2,2.6250001E-2,3.5E-2,-2.2116281E-1,-8.100001E-2,1.45E-1,-5.666667E-2,-2.7615386E-1,-7.285715E-2,3.5E-2,7.285715E-2,-3.5E-2,-1.2333334E-1,3.5E-2,-3.5E-2,1.7117648E-1,-1.0125001E-1,3.5E-2,-0E0,1.94E-1,3.5E-2,-3.5E-2],"split_indices":[13,6,5,12,6,3,15,2,4,12,0,2147483647,2147483647,6,5,2147483647,2147483647,2147483647,2147483647,2147483647,2147483647,2147483647,2147483647,2147483647,2147483647,2147483647,2147483647,0,4,1,10,2147483647,2147483647,2147483647,2147483647,2147483647,2147483647,2147483647,2147483647,2147483647,2147483647,2147483647,2147483647,2147483647,2147483647,2147483647,2147483647,1,15,2147483647,2147483647,2147483647,2147483647,2147483647,2147483647,2147483647,2147483647,2147483647,2147483647,2147483647,2147483647,2147483647,2147483647,2147483647,2147483647,2147483647,2147483647,2147483647,2147483647,2147483647,2147483647,2147483647,2147483647,2147483647,2147483647,2147483647,2147483647,2147483647,2147483647,2147483647,2147483647,2147483647,2147483647,2147483647,2147483647,2147483647,2147483647,2147483647,2147483647,2147483647,2147483647,2147483647,2147483647],"split_type":[0,0,0,0,0,0,0,0,0,0,0,0,0,0,0,0,0,0,0,0,0,0,0,0,0,0,0,0,0,0,0,0,0,0,0,0,0,0,0,0,0,0,0,0,0,0,0,0,0,0,0,0,0,0,0,0,0,0,0,0,0,0,0,0,0,0,0,0,0,0,0,0,0,0,0,0,0,0,0,0,0,0,0,0,0,0,0,0,0,0,0,0,0],"sum_hessian":[2.256E3,1.991E3,2.65E2,2.3E1,1.968E3,3.9E1,2.26E2,1.2E1,1.1E1,1.964E3,4E0,2.8E1,1.1E1,1.37E2,8.9E1,9E0,3E0,1E1,1E0,1.963E3,1E0,3E0,1E0,2.4E1,4E0,2E0,9E0,3E0,1.34E2,2.6E1,6.3E1,1E0,8E0,2E0,1E0,1.959E3,4E0,1.7E1,7E0,3E0,1E0,8E0,1E0,1.4E1,1.2E2,1.9E1,7E0,4.1E1,2.2E1,1E0,3E0,1E0,1.6E1,3E0,4E0,1E1,4E0,1E0,1.19E2,5E0,1.4E1,5E0,2E0,3.9E1,2E0,1.8E1,4E0,1E0,9E0,1.16E2,3E0,2E0,3E0,1E0,3.8E1,5E0,1.3E1,4E0,1.12E2,2E0,1E0,2E0,1E0,4E0,1E0,1E0,1.2E1,3E0,1E0,2E0,1E1,1E0,1E0],"tree_param":{"num_deleted":"74","num_feature":"16","num_nodes":"93","size_leaf_vector":"0"}},{"base_weights":[-9.073652E-1,-9.525276E-1,2.4545455E-2,-9.793809E-1,-6.219101E-1,-2.3432836E-1,3.8958332E-1,-1.1333333E-1,-9.832915E-1,-1.75E-2,-7.671329E-1,1.8076923E-1,-4.5E-1,-8.095238E-2,6.46875E-1,-3.3636364E-1,1.8888889E-1,-9.8428714E-1,1.1666667E-1,3.08E-1,-4.35E-1,-3.9333335E-1,-8.902913E-1,-3.3636364E-1,4.35E-1,-6.6764706E-1,1E-1,2.846154E-1,-4.3846154E-1,-8.75E-2,7.482759E-1,1.1666667E-1,-4.7E-1,3.375E-1,-1.1666667E-1,-9.852838E-1,1.1666667E-1,6.2142855E-1,-4.375E-2,-6.4666665E-1,7E-2,-6.5E-1,5.5833334E-1,1.1666667E-1,-9.0882355E-1,1.1666667E-1,-4.7E-1,-0E0,5.4375E-1,-7.181818E-1,1.1666667E-1,3.3571428E-1,-3.375E-1,4.7E-1,-8.75E-2,1.1666667E-1,-5.5833334E-1,-2.4285714E-1,1.1666667E-1,-1.1666667E-1,8.107143E-1,-4.1111112E-1,2.25E-1,3.375E-1,-2.4285714E-1,8.75E-2,-7.342857E-1,-9.27E-1,-0E0,-2.4285714E-1,2.4285714E-1,6.2142855E-1,-0E0,-7.71875E-1,1.1666667E-1,-8.75E-2,5.181818E-1,1.1666667E-1,-2.4285714E-1,-8.75E-2,4.1111112E-1,-1.1666667E-1,2.4285714E-1,-7.852941E-1,1.1666667E-1,-1.1666667E-1,1.1666667E-1,1.1666667E-1,-1.1666667E-1,-0E0,-8.233333E-1,1.1666667E-1,-2.4285714E-1,1.1666667E-1,-2.4285714E-1,-8.393939E-1,1.1666667E-1,-1.1666667E-1,1.1666667E-1],"categories":[],"categories_nodes":[],"categories_segments":[],"categories_sizes":[],"default_left":[1,1,1,1,1,1,1,1,1,1,1,1,1,1,1,1,1,1,1,1,1,1,1,1,1,1,1,1,1,1,1,1,1,1,1,1,1,1,1,1,1,1,0,1,1,1,1,1,1,1,1,1,1,1,1,1,1,1,1,1,1,1,1,1,1,1,1,1,1,1,1,1,1,1,1,1,1,1,1,1,1,1,1,1,1,1,1,1,1,1,1,1,1,1,1,1,1,1,1],"id":5,"left_children":[1,3,5,7,9,11,13,-1,-1,19,21,-1,25,-1,-1,-1,-1,-1,-1,-1,-1,41,-1,-1,-1,-1,-1,-1,-1,-1,-1,-1,-1,-1,-1,-1,-1,-1,-1,-1,-1,-1,-1,-1,-1,-1,-1,-1,-1,-1,-1,-1,-1,-1,-1,-1,-1,-1,-1,-1,-1,-1,-1,-1,-1,-1,-1,-1,-1,-1,-1,-1,-1,-1,-1,-1,-1,-1,-1,-1,-1,-1,-1,-1,-1,-1,-1,-1,-1,-1,-1,-1,-1,-1,-1,-1,-1,-1,-1],"loss_changes":[9.6396484E1,1.5793091E1,1.0897891E1,5.897339E0,1.5321274E1,6.4856596E0,6.242723E0,1.3729899E0,3.017212E0,6.1438503E0,4.4472275E0,4.17943E0,6.0105877E0,3.4146886E0,2.9085255E0,1.0461214E0,6.7180556E-1,3.0211182E0,0E0,3.0654535E0,2.537166E0,1.2833834E1,2.6899033E0,1.0461214E0,9.4612503E-1,1.9469881E0,2.319107E0,1.2171732E0,1.3232691E0,4.3327376E-1,2.2472935E0,0E0,0E0,0E0,0E0,0E0,0E0,0E0,2.097986E0,0E0,1.2751071E0,2.8773937E0,0E0,0E0,1.6849594E0,0E0,0E0,8.2571423E-1,6.7580366E-1,2.126072E0,0E0,1.4370292E0,0E0,0E0,4.3327376E-1,0E0,0E0,0E0,0E0,0E0,0E0,0E0,9.7486097E-1,0E0,0E0,4.3327376E-1,2.1778774E0,0E0,1.6333333E-1,0E0,0E0,0E0,1.6333333E-1,1.2710209E0,0E0,4.3327376E-1,0E0,0E0,0E0,4.3327376E-1,0E0,0E0,0E0,2.3655243E0,0E0,0E0,0E0,0E0,0E0,1.6333333E-1,0E0,0E0,0E0,0E0,0E0,0E0,0E0,0E0,0E0],"parents":[2147483647,0,0,1,1,2,2,3,3,4,4,5,5,6,6,7,7,8,8,9,9,10,10,11,11,12,12,13,13,14,14,15,15,16,16,17,17,19,19,20,20,21,21,22,22,23,23,24,24,25,25,26,26,27,27,28,28,29,29,30,30,38,38,40,40,41,41,44,44,47,47,48,48,49,49,51,51,54,54,62,62,65,65,66,66,68,68,72,72,73,73,75,75,79,79,83,83,89,89],"right_children":[2,4,6,8,10,12,14,-1,-1,20,22,-1,26,-1,-1,-1,-1,-1,-1,-1,-1,42,-1,-1,-1,-1,-1,-1,-1,-1,-1,-1,-1,-1,-1,-1,-1,-1,-1,-1,-1,-1,-1,-1,-1,-1,-1,-1,-1,-1,-1,-1,-1,-1,-1,-1,-1,-1,-1,-1,-1,-1,-1,-1,-1,-1,-1,-1,-1,-1,-1,-1,-1,-1,-1,-1,-1,-1,-1,-1,-1,-1,-1,-1,-1,-1,-1,-1,-1,-1,-1,-1,-1,-1,-1,-1,-1,-1,-1],"split_conditions":[3.7089947E-1,1.744186E-1,5.125078E-1,1.4876387E-1,9.761468E-3,1.5906293E-2,4.122807E-1,-3.4E-2,-2.9498747E-1,6.818182E-2,5.562464E-2,5.4230772E-2,5.3436406E-2,-2.4285717E-2,1.9406252E-1,-1.009091E-1,5.666667E-2,-2.9528615E-1,3.5E-2,9.24E-2,-1.305E-1,6.241464E-1,-2.670874E-1,-1.009091E-1,1.305E-1,-2.0029412E-1,3.0000001E-2,8.538462E-2,-1.3153847E-1,-2.6250001E-2,2.2448277E-1,3.5E-2,-1.41E-1,1.0125001E-1,-3.5E-2,-2.9558516E-1,3.5E-2,1.8642858E-1,-1.31250005E-2,-1.94E-1,2.1000002E-2,-1.9500001E-1,1.675E-1,3.5E-2,-2.7264708E-1,3.5E-2,-1.41E-1,-0E0,1.6312501E-1,-2.1545455E-1,3.5E-2,1.0071429E-1,-1.0125001E-1,1.41E-1,-2.6250001E-2,3.5E-2,-1.675E-1,-7.285715E-2,3.5E-2,-3.5E-2,2.432143E-1,-1.2333334E-1,6.75E-2,1.0125001E-1,-7.285715E-2,2.6250001E-2,-2.2028573E-1,-2.781E-1,-0E0,-7.285715E-2,7.285715E-2,1.8642858E-1,-0E0,-2.3156251E-1,3.5E-2,-2.6250001E-2,1.5545455E-1,3.5E-2,-7.285715E-2,-2.6250001E-2,1.2333334E-1,-3.5E-2,7.285715E-2,-2.3558824E-1,3.5E-2,-3.5E-2,3.5E-2,3.5E-2,-3.5E-2,-0E0,-2.4700001E-1,3.5E-2,-7.285715E-2,3.5E-2,-7.285715E-2,-2.5181818E-1,3.5E-2,-3.5E-2,3.5E-2],"split_indices":[15,13,15,6,5,5,12,2,6,3,4,6,9,4,1,2147483647,2147483647,2147483647,2147483647,14,1,0,6,2147483647,2147483647,1,10,2147483647,2147483647,2147483647,2147483647,2147483647,2147483647,2147483647,2147483647,2147483647,2147483647,2147483647,2147483647,2147483647,2147483647,1,0,2147483647,2147483647,2147483647,2147483647,2147483647,2147483647,2147483647,2147483647,2147483647,2147483647,2147483647,2147483647,2147483647,2147483647,2147483647,2147483647,2147483647,2147483647,2147483647,2147483647,2147483647,2147483647,2147483647,2147483647,2147483647,2147483647,2147483647,2147483647,2147483647,2147483647,2147483647,2147483647,2147483647,2147483647,2147483647,2147483647,2147483647,2147483647,2147483647,2147483647,2147483647,2147483647,2147483647,2147483647,2147483647,2147483647,2147483647,2147483647,2147483647,2147483647,2147483647,2147483647,2147483647,2147483647,2147483647,2147483647],"split_type":[0,0,0,0,0,0,0,0,0,0,0,0,0,0,0,0,0,0,0,0,0,0,0,0,0,0,0,0,0,0,0,0,0,0,0,0,0,0,0,0,0,0,0,0,0,0,0,0,0,0,0,0,0,0,0,0,0,0,0,0,0,0,0,0,0,0,0,0,0,0,0,0,0,0,0,0,0,0,0,0,0,0,0,0,0,0,0,0,0,0,0,0,0,0,0,0,0,0,0],"sum_hessian":[2.276E3,2.171E3,1.05E2,1.998E3,1.73E2,6.2E1,4.3E1,1E1,1.988E3,3.5E1,1.38E2,2.1E1,4.1E1,1.6E1,2.7E1,6E0,4E0,1.987E3,1E0,2E1,1.5E1,4E1,9.8E1,6E0,1.5E1,2.9E1,1.2E1,8E0,8E0,3E0,2.4E1,1E0,5E0,3E0,1E0,1.986E3,1E0,9E0,1.1E1,1E1,5E0,3.3E1,7E0,1E0,9.7E1,1E0,5E0,4E0,1.1E1,2.8E1,1E0,9E0,3E0,5E0,3E0,1E0,7E0,2E0,1E0,1E0,2.3E1,4E0,7E0,3E0,2E0,3E0,3E1,9.5E1,2E0,2E0,2E0,9E0,2E0,2.7E1,1E0,3E0,6E0,1E0,2E0,3E0,4E0,1E0,2E0,2.9E1,1E0,1E0,1E0,1E0,1E0,2E0,2.5E1,1E0,2E0,1E0,2E0,2.8E1,1E0,1E0,1E0],"tree_param":{"num_deleted":"76","num_feature":"16","num_nodes":"99","size_leaf_vector":"0"}},{"base_weights":[-1.3643725E-1,5.6069363E-2,-5.5316454E-1,3.983871E-1,-1.2672414E-1,-6.310811E-1,2.7E-1,5.8648646E-1,8.9999996E-2,3.88E-1,-2.5729167E-1,-2.2333333E-1,-8.102041E-1,-1.1666667E-1,4.1111112E-1,-1.1666667E-1,6.3055557E-1,3.7222221E-1,-2.1764706E-1,-2.4285714E-1,5.0869566E-1,-5.7804877E-1,-1.1666667E-2,-5.105263E-1,1.6875E-1,-8.4791666E-1,1.1666667E-1,2.4666667E-1,7.192308E-1,4.5294118E-1,-1.1666667E-1,-4.7857141E-1,3.375E-1,6.5238094E-1,-2.4285714E-1,-1.1333333E-1,-7E-1,-2.547619E-1,4.2173913E-1,-5.9444445E-1,1.1666667E-1,-1.8888889E-1,3.9166665E-1,3.9166665E-1,-8.75E-2,-1.1666667E-1,5.4375E-1,-5.923077E-1,1.1666667E-1,7.2105265E-1,-0E0,-3.9166665E-1,3.375E-1,-8.037037E-1,-0E0,2.4666667E-1,-4.59375E-1,7.0555556E-1,-2.7E-1,1.1666667E-1,-6.882353E-1,1.1666667E-1,-3.375E-1,5.181818E-1,-1.1666667E-1,4.7E-1,-0E0,-2.4285714E-1,1.1666667E-1,-1.1666667E-1,6.4666665E-1,-1.1666667E-1,1.1666667E-1,-0E0,-4.7E-1,-2.4285714E-1,2.4285714E-1,5.5833334E-1,-3.375E-1,2.846154E-1,-7.7916664E-1,1.1666667E-1,-4.1111112E-1,-1.1666667E-1,1.1666667E-1,-1.1666667E-1,1.1666667E-1,5.181818E-1,-2.4285714E-1],"categories":[],"categories_nodes":[],"categories_segments":[],"categories_sizes":[],"default_left":[1,1,1,1,1,1,1,1,1,1,1,1,1,1,1,1,1,1,1,1,1,1,1,1,1,1,1,1,1,1,1,1,1,1,1,1,1,1,1,1,1,1,1,1,1,1,1,1,1,1,1,1,1,1,1,1,1,0,1,1,1,1,1,1,1,1,1,1,1,1,1,1,1,1,1,1,1,1,1,1,0,1,1,1,1,1,1,1,1],"id":6,"left_children":[1,3,5,-1,9,-1,-1,-1,-1,-1,21,-1,-1,-1,-1,-1,-1,-1,-1,-1,-1,-1,37,-1,-1,-1,-1,-1,-1,-1,-1,-1,-1,-1,-1,-1,-1,55,57,-1,-1,-1,-1,-1,-1,-1,-1,-1,-1,-1,-1,-1,-1,-1,-1,-1,79,-1,-1,-1,-1,-1,-1,-1,-1,-1,-1,-1,-1,-1,-1,-1,-1,-1,-1,-1,-1,-1,-1,-1,-1,-1,-1,-1,-1,-1,-1,-1,-1],"loss_changes":[2.0119228E1,1.1159133E1,6.027195E0,3.1295958E0,8.255859E0,4.189949E0,8.7377775E-1,1.66852E0,3.0561829E0,2.6009965E0,7.3528185E0,3.9113967E0,2.426773E0,0E0,0E0,0E0,4.8671722E-2,1.0754249E0,3.3123846E0,0E0,3.398737E0,1.6829109E0,6.8086553E0,1.4901171E0,1.7063193E0,0E0,0E0,9.8941666E-1,0E0,1.3246446E0,0E0,1.436007E0,0E0,9.408016E-1,0E0,2.5594165E0,2.25037E0,4.9395266E0,5.5986857E0,1.7734642E0,0E0,6.7180556E-1,1.1944698E0,3.681668E-1,4.3327376E-1,0E0,1.6237078E0,0E0,0E0,0E0,1.6333333E-1,3.681668E-1,0E0,0E0,8.2571423E-1,3.7394168E0,8.870681E0,0E0,8.7377775E-1,0E0,0E0,0E0,0E0,0E0,0E0,0E0,1.6333333E-1,0E0,0E0,0E0,0E0,0E0,0E0,1.6333333E-1,0E0,0E0,0E0,0E0,0E0,2.3134165E0,0E0,0E0,0E0,0E0,0E0,0E0,0E0,0E0,0E0],"parents":[2147483647,0,0,1,1,2,2,3,3,4,4,5,5,6,6,7,7,8,8,9,9,10,10,11,11,12,12,16,16,17,17,18,18,20,20,21,21,22,22,23,23,24,24,27,27,29,29,31,31,33,33,35,35,36,36,37,37,38,38,39,39,41,41,42,42,43,43,44,44,46,46,50,50,51,51,54,54,55,55,56,56,58,58,66,66,73,73,79,79],"right_children":[2,4,6,-1,10,-1,-1,-1,-1,-1,22,-1,-1,-1,-1,-1,-1,-1,-1,-1,-1,-1,38,-1,-1,-1,-1,-1,-1,-1,-1,-1,-1,-1,-1,-1,-1,56,58,-1,-1,-1,-1,-1,-1,-1,-1,-1,-1,-1,-1,-1,-1,-1,-1,-1,80,-1,-1,-1,-1,-1,-1,-1,-1,-1,-1,-1,-1,-1,-1,-1,-1,-1,-1,-1,-1,-1,-1,-1,-1,-1,-1,-1,-1,-1,-1,-1,-1],"split_conditions":[9.286247E-2,9.891551E-3,5.329671E-1,1.19516134E-1,7.63277E-2,-1.8932433E-1,8.100001E-2,1.7594594E-1,2.7E-2,1.1640001E-1,7.781955E-2,-6.7E-2,-2.4306123E-1,-3.5E-2,1.2333334E-1,-3.5E-2,1.8916668E-1,1.1166667E-1,-6.5294124E-2,-7.285715E-2,1.5260871E-1,-1.7341463E-1,6.1916995E-1,-1.5315789E-1,5.0625004E-2,-2.54375E-1,3.5E-2,7.4E-2,2.1576925E-1,1.3588236E-1,-3.5E-2,-1.4357144E-1,1.0125001E-1,1.957143E-1,-7.285715E-2,-3.4E-2,-2.1000001E-1,2.1184996E-1,2.5021312E-1,-1.7833334E-1,3.5E-2,-5.666667E-2,1.175E-1,1.175E-1,-2.6250001E-2,-3.5E-2,1.6312501E-1,-1.7769231E-1,3.5E-2,2.163158E-1,-0E0,-1.175E-1,1.0125001E-1,-2.4111113E-1,-0E0,7.4E-2,3.021978E-1,2.1166667E-1,-8.100001E-2,3.5E-2,-2.064706E-1,3.5E-2,-1.0125001E-1,1.5545455E-1,-3.5E-2,1.41E-1,-0E0,-7.285715E-2,3.5E-2,-3.5E-2,1.94E-1,-3.5E-2,3.5E-2,-0E0,-1.41E-1,-7.285715E-2,7.285715E-2,1.675E-1,-1.0125001E-1,8.538462E-2,-2.3375E-1,3.5E-2,-1.2333334E-1,-3.5E-2,3.5E-2,-3.5E-2,3.5E-2,1.5545455E-1,-7.285715E-2],"split_indices":[4,5,7,4,1,5,3,2147483647,2147483647,9,8,2147483647,2147483647,2147483647,2147483647,2147483647,2147483647,2147483647,2147483647,2147483647,2147483647,6,0,2147483647,2147483647,2147483647,2147483647,2147483647,2147483647,2147483647,2147483647,2147483647,2147483647,2147483647,2147483647,2147483647,2147483647,6,6,2147483647,2147483647,2147483647,2147483647,2147483647,2147483647,2147483647,2147483647,2147483647,2147483647,2147483647,2147483647,2147483647,2147483647,2147483647,2147483647,1,7,0,12,2147483647,2147483647,2147483647,2147483647,2147483647,2147483647,2147483647,2147483647,2147483647,2147483647,2147483647,2147483647,2147483647,2147483647,2147483647,2147483647,2147483647,2147483647,2147483647,2147483647,1,0,2147483647,2147483647,2147483647,2147483647,2147483647,2147483647,2147483647,2147483647],"split_type":[0,0,0,0,0,0,0,0,0,0,0,0,0,0,0,0,0,0,0,0,0,0,0,0,0,0,0,0,0,0,0,0,0,0,0,0,0,0,0,0,0,0,0,0,0,0,0,0,0,0,0,0,0,0,0,0,0,0,0,0,0,0,0,0,0,0,0,0,0,0,0,0,0,0,0,0,0,0,0,0,0,0,0,0,0,0,0,0,0],"sum_hessian":[2.42E2,1.68E2,7.4E1,5.7E1,1.11E2,6.9E1,5E0,3.2E1,2.5E1,2E1,9.1E1,2.5E1,4.4E1,1E0,4E0,1E0,3.1E1,1.3E1,1.2E1,2E0,1.8E1,3.6E1,5.5E1,1.4E1,1.1E1,4.3E1,1E0,1E1,2.1E1,1.2E1,1E0,9E0,3E0,1.6E1,2E0,1E1,2.6E1,3.7E1,1.8E1,1.3E1,1E0,4E0,7E0,7E0,3E0,1E0,1.1E1,8E0,1E0,1.4E1,2E0,7E0,3E0,2.2E1,4E0,1E1,2.7E1,1.3E1,5E0,1E0,1.2E1,1E0,3E0,6E0,1E0,5E0,2E0,2E0,1E0,1E0,1E1,1E0,1E0,2E0,5E0,2E0,2E0,7E0,3E0,8E0,1.9E1,1E0,4E0,1E0,1E0,1E0,1E0,6E0,2E0],"tree_param":{"num_deleted":"70","num_feature":"16","num_nodes":"89","size_leaf_vector":"0"}},{"base_weights":[-1.7692308E-1,-4.7945203E-3,-4.0283018E-1,-1.1322314E-1,4.2333335E-1,-2.3375E-1,-7.645161E-1,5.4651164E-2,-4.675E-1,5.653846E-1,-1.8888889E-1,-4.2586207E-1,2.1111111E-1,-0E0,-8.172414E-1,3.96875E-1,-1.3050847E-1,1.8888889E-1,-5.75E-1,7.35E-1,-0E0,1.1666667E-1,-3.375E-1,-6.175E-1,-0E0,-2.846154E-1,5.105263E-1,1.1666667E-1,-1.1666667E-1,5.9565216E-1,-5E-2,-6.5555555E-1,2.6216215E-1,3.375E-1,-1.1666667E-1,-6.575758E-1,8.75E-2,1.8888889E-1,-2.4285714E-1,-0E0,-6.5E-1,-1.9473684E-1,4.1111112E-1,-4.7E-1,8.75E-2,-1.1666667E-1,5.9444445E-1,-0E0,6.5238094E-1,2.7E-1,-4.1111112E-1,-1.5454546E-1,-7.4761903E-1,5.0869566E-1,-8.947369E-2,-7.09375E-1,1.1666667E-1,-1.1666667E-1,2.4285714E-1,3.375E-1,-1.1666667E-1,-1.1666667E-1,1.1666667E-1,-6.7714286E-1,-8.75E-2,1.5454546E-1,-4.3846154E-1,-1.1666667E-1,2.4285714E-1,6.882353E-1,-1.1666667E-1,1.1666667E-1,-1.1666667E-1,-0E0,7.2105265E-1,4.1111112E-1,-1.1666667E-1,-4.1111112E-1,2.4285714E-1,-2.4285714E-1,6.5238094E-1,-4.7E-1,1.9285715E-1,-7.645161E-1,1.1666667E-1,-7.09375E-1,-8.75E-2,-2.4285714E-1,1.1666667E-1,-2.4285714E-1,4.1111112E-1,-5.5833334E-1,1.1666667E-1,1.1666667E-1,-1.1666667E-1,-1.1666667E-1,7.35E-1,-1.8888889E-1,4.7E-1,-8.172414E-1,-0E0,-8.75E-2,-7.482759E-1,-2.4285714E-1,1.1666667E-1,-3.375E-1,1.1666667E-1,1.1666667E-1,-1.1666667E-1,-2.4285714E-1,1.1666667E-1,-7.9615384E-1,-8.75E-2,-2.4285714E-1,1.1666667E-1],"categories":[],"categories_nodes":[],"categories_segments":[],"categories_sizes":[],"default_left":[1,1,1,1,1,1,1,1,1,1,1,1,1,1,1,1,1,1,1,1,1,1,1,1,1,1,1,1,1,1,1,1,1,1,1,1,1,1,1,1,1,1,1,1,1,1,1,1,1,1,1,1,1,1,1,1,1,1,1,1,1,1,1,1,1,1,1,1,1,1,1,1,1,1,1,1,1,1,1,1,1,1,1,1,1,1,1,1,1,1,1,1,1,1,1,1,1,1,1,1,1,1,1,1,1,1,1,1,1,1,1,1,1,1,1],"id":7,"left_children":[1,3,5,7,-1,11,-1,15,-1,-1,-1,-1,-1,-1,-1,-1,31,-1,-1,-1,-1,-1,-1,-1,-1,-1,-1,-1,-1,-1,-1,-1,-1,-1,-1,-1,-1,-1,-1,-1,-1,-1,-1,-1,-1,-1,-1,-1,-1,-1,-1,-1,-1,-1,-1,-1,-1,-1,-1,-1,-1,-1,-1,-1,-1,-1,-1,-1,-1,-1,-1,-1,-1,-1,-1,-1,-1,-1,-1,-1,-1,-1,-1,-1,-1,-1,-1,-1,-1,-1,-1,-1,-1,-1,-1,-1,-1,-1,-1,-1,-1,-1,-1,-1,-1,-1,-1,-1,-1,-1,-1,-1,-1,-1,-1],"loss_changes":[9.472668E0,6.9241343E0,5.2893085E0,7.447954E0,3.255931E0,7.351001E0,1.249588E0,5.7883673E0,3.4813604E0,2.4933462E0,6.7180556E-1,4.7334576E0,4.8018484E0,1.6333333E-1,0E0,3.1551223E0,1.3141391E1,6.7180556E-1,2.4281435E0,0E0,7.339682E-1,0E0,0E0,8.0274963E-1,2.2416372E0,1.2171732E0,1.4901171E0,0E0,0E0,7.771845E-1,2.215111E0,3.9701366E-1,3.5608718E0,0E0,0E0,1.9150848E0,4.3327376E-1,6.7180556E-1,0E0,1.6333333E-1,5.453682E-2,2.041432E0,0E0,0E0,4.3327376E-1,0E0,1.7734642E0,1.6333333E-1,9.408016E-1,8.7377775E-1,0E0,1.6712408E0,0E0,3.398737E0,2.577609E0,2.097887E0,0E0,0E0,0E0,0E0,0E0,0E0,0E0,1.1577606E-1,4.3327376E-1,1.6712408E0,1.3232691E0,0E0,0E0,0E0,0E0,0E0,0E0,1.6333333E-1,0E0,0E0,0E0,0E0,0E0,0E0,1.9485474E0,0E0,2.009397E0,1.249588E0,0E0,1.9602585E-1,4.3327376E-1,0E0,0E0,0E0,0E0,0E0,0E0,0E0,0E0,0E0,0E0,6.7180556E-1,0E0,0E0,1.6333333E-1,4.3327376E-1,3.0404854E-1,0E0,0E0,0E0,0E0,0E0,0E0,0E0,0E0,0E0,4.3327376E-1,0E0,0E0],"parents":[2147483647,0,0,1,1,2,2,3,3,4,4,5,5,6,6,7,7,8,8,9,9,10,10,11,11,12,12,13,13,15,15,16,16,17,17,18,18,20,20,23,23,24,24,25,25,26,26,29,29,30,30,31,31,32,32,35,35,36,36,37,37,39,39,40,40,41,41,44,44,46,46,47,47,48,48,49,49,51,51,53,53,54,54,55,55,63,63,64,64,65,65,66,66,73,73,80,80,82,82,83,83,85,85,86,86,97,97,100,100,101,101,102,102,112,112],"right_children":[2,4,6,8,-1,12,-1,16,-1,-1,-1,-1,-1,-1,-1,-1,32,-1,-1,-1,-1,-1,-1,-1,-1,-1,-1,-1,-1,-1,-1,-1,-1,-1,-1,-1,-1,-1,-1,-1,-1,-1,-1,-1,-1,-1,-1,-1,-1,-1,-1,-1,-1,-1,-1,-1,-1,-1,-1,-1,-1,-1,-1,-1,-1,-1,-1,-1,-1,-1,-1,-1,-1,-1,-1,-1,-1,-1,-1,-1,-1,-1,-1,-1,-1,-1,-1,-1,-1,-1,-1,-1,-1,-1,-1,-1,-1,-1,-1,-1,-1,-1,-1,-1,-1,-1,-1,-1,-1,-1,-1,-1,-1,-1,-1],"split_conditions":[6.510396E-2,6.299119E-1,2.3678602E-1,1.9854164E-1,1.27E-1,6.9139194E-1,-2.2935484E-1,9.888416E-3,-1.4025001E-1,1.6961539E-1,-5.666667E-2,-1.2775862E-1,6.333334E-2,-0E0,-2.4517243E-1,1.19062506E-1,3.1414473E-1,5.666667E-2,-1.725E-1,2.205E-1,-0E0,3.5E-2,-1.0125001E-1,-1.8525001E-1,-0E0,-8.538462E-2,1.5315789E-1,3.5E-2,-3.5E-2,1.7869565E-1,-1.5000001E-2,-1.9666667E-1,7.864865E-2,1.0125001E-1,-3.5E-2,-1.9727275E-1,2.6250001E-2,5.666667E-2,-7.285715E-2,-0E0,-1.9500001E-1,-5.8421053E-2,1.2333334E-1,-1.41E-1,2.6250001E-2,-3.5E-2,1.7833334E-1,-0E0,1.957143E-1,8.100001E-2,-1.2333334E-1,-4.6363637E-2,-2.2428572E-1,1.5260871E-1,-2.6842108E-2,-2.1281251E-1,3.5E-2,-3.5E-2,7.285715E-2,1.0125001E-1,-3.5E-2,-3.5E-2,3.5E-2,-2.0314287E-1,-2.6250001E-2,4.6363637E-2,-1.3153847E-1,-3.5E-2,7.285715E-2,2.064706E-1,-3.5E-2,3.5E-2,-3.5E-2,-0E0,2.163158E-1,1.2333334E-1,-3.5E-2,-1.2333334E-1,7.285715E-2,-7.285715E-2,1.957143E-1,-1.41E-1,5.7857145E-2,-2.2935484E-1,3.5E-2,-2.1281251E-1,-2.6250001E-2,-7.285715E-2,3.5E-2,-7.285715E-2,1.2333334E-1,-1.675E-1,3.5E-2,3.5E-2,-3.5E-2,-3.5E-2,2.205E-1,-5.666667E-2,1.41E-1,-2.4517243E-1,-0E0,-2.6250001E-2,-2.2448277E-1,-7.285715E-2,3.5E-2,-1.0125001E-1,3.5E-2,3.5E-2,-3.5E-2,-7.285715E-2,3.5E-2,-2.3884617E-1,-2.6250001E-2,-7.285715E-2,3.5E-2],"split_indices":[4,0,6,1,0,14,1,5,0,2147483647,2147483647,2,1,2147483647,2147483647,12,15,2147483647,2147483647,2147483647,2147483647,2147483647,2147483647,2147483647,2147483647,2147483647,2147483647,2147483647,2147483647,2147483647,2147483647,4,4,2147483647,2147483647,2147483647,2147483647,2147483647,2147483647,2147483647,2147483647,2147483647,2147483647,2147483647,2147483647,2147483647,2147483647,2147483647,2147483647,2147483647,2147483647,2147483647,2147483647,2147483647,2147483647,2147483647,2147483647,2147483647,2147483647,2147483647,2147483647,2147483647,2147483647,2147483647,2147483647,2147483647,2147483647,2147483647,2147483647,2147483647,2147483647,2147483647,2147483647,2147483647,2147483647,2147483647,2147483647,2147483647,2147483647,2147483647,2147483647,2147483647,2147483647,2147483647,2147483647,2147483647,2147483647,2147483647,2147483647,2147483647,2147483647,2147483647,2147483647,2147483647,2147483647,2147483647,2147483647,2147483647,2147483647,2147483647,2147483647,2147483647,2147483647,2147483647,2147483647,2147483647,2147483647,2147483647,2147483647,2147483647,2147483647,2147483647,2147483647,2147483647,2147483647],"split_type":[0,0,0,0,0,0,0,0,0,0,0,0,0,0,0,0,0,0,0,0,0,0,0,0,0,0,0,0,0,0,0,0,0,0,0,0,0,0,0,0,0,0,0,0,0,0,0,0,0,0,0,0,0,0,0,0,0,0,0,0,0,0,0,0,0,0,0,0,0,0,0,0,0,0,0,0,0,0,0,0,0,0,0,0,0,0,0,0,0,0,0,0,0,0,0,0,0,0,0,0,0,0,0,0,0,0,0,0,0,0,0,0,0,0,0],"sum_hessian":[2.42E2,1.41E2,1.01E2,1.16E2,2.5E1,7.5E1,2.6E1,8.1E1,3.5E1,2.1E1,4E0,5.3E1,2.2E1,2E0,2.4E1,2.7E1,5.4E1,4E0,3.1E1,1.5E1,6E0,1E0,3E0,3.5E1,1.8E1,8E0,1.4E1,1E0,1E0,1.8E1,9E0,2.2E1,3.2E1,3E0,1E0,2.8E1,3E0,4E0,2E0,2E0,3.3E1,1.4E1,4E0,5E0,3E0,1E0,1.3E1,2E0,1.6E1,5E0,4E0,6E0,1.6E1,1.8E1,1.4E1,2.7E1,1E0,1E0,2E0,3E0,1E0,1E0,1E0,3E1,3E0,6E0,8E0,1E0,2E0,1.2E1,1E0,1E0,1E0,2E0,1.4E1,4E0,1E0,4E0,2E0,2E0,1.6E1,5E0,9E0,2.6E1,1E0,2.7E1,3E0,2E0,1E0,2E0,4E0,7E0,1E0,1E0,1E0,1E0,1.5E1,4E0,5E0,2.4E1,2E0,3E0,2.4E1,2E0,1E0,3E0,1E0,1E0,1E0,2E0,1E0,2.1E1,3E0,2E0,1E0],"tree_param":{"num_deleted":"100","num_feature":"16","num_nodes":"115","size_leaf_vector":"0"}},{"base_weights":[-1.2161017E-1,-5.051282E-1,-4.3069307E-2,5.8333334E-2,-6.46875E-1,-9.1709845E-2,6.2142855E-1,3.375E-1,-1.8888889E-1,-7.482759E-1,8.75E-2,7.333333E-2,-2.763441E-1,-3.375E-1,1.1666667E-1,1.1666667E-1,-8.107143E-1,2.4285714E-1,-1.1666667E-1,2.1851853E-1,-3.3448276E-1,-3.96E-1,1.6086957E-1,4.4107142E-1,-2.2333333E-1,-5.772727E-1,2.25E-1,1.9285715E-1,-4.9545455E-1,4.7857141E-1,-1.9285715E-1,-0E0,5.6136364E-1,-4.8636365E-1,2.846154E-1,-0E0,-6.35E-1,-2.4285714E-1,4.7E-1,-2.4285714E-1,3.9166665E-1,-5.52459E-1,7E-2,5.5833334E-1,-0E0,1.8888889E-1,-4.7E-1,4.7E-1,-3.9166665E-1,7.5666666E-1,8.947369E-2,-6.6875E-1,-0E0,-8.75E-2,4.7E-1,1.1666667E-1,-1.1666667E-1,-8.75E-2,-6.882353E-1,-1.1666667E-1,5.181818E-1,-0E0,-6.127273E-1,3.375E-1,-2.4285714E-1,-1.1666667E-1,1.1666667E-1,-1.1666667E-1,3.375E-1,-5.181818E-1,1.1666667E-1,-1.1666667E-1,8.172414E-1,4.1111112E-1,-1.1333333E-1,2.4285714E-1,-1.8888889E-1,1.1666667E-1,-2.4285714E-1,-2.4285714E-1,1.1666667E-1,-1.8888889E-1,2.4285714E-1,-6.877551E-1,-0E0,-3.9166665E-1,3.375E-1,-3.375E-1,1.1666667E-1,1.1666667E-1,-3.375E-1,-7E-2,-7.431818E-1,-3.375E-1,3.375E-1,1.1666667E-1,-5.181818E-1,-2.4285714E-1,8.75E-2,-8.75E-2,-7.731707E-1,2.4285714E-1,-1.1666667E-1,1.1666667E-1,-2.4285714E-1,-8.078947E-1,-8.75E-2,-2.4285714E-1,1.1666667E-1],"categories":[],"categories_nodes":[],"categories_segments":[],"categories_sizes":[],"default_left":[1,1,1,1,1,1,0,1,1,1,1,1,1,1,1,1,1,1,1,1,1,1,1,1,1,1,1,1,1,1,1,1,1,1,1,1,1,1,1,1,1,1,1,1,1,1,1,1,1,1,1,1,1,1,1,1,1,1,1,1,1,1,1,1,1,1,1,1,1,1,1,1,1,1,1,1,1,1,1,1,1,1,1,1,1,1,1,1,1,1,1,1,1,1,1,1,1,1,1,1,1,1,1,1,1,1,1,1,1],"id":8,"left_children":[1,-1,5,-1,-1,11,-1,-1,-1,-1,-1,19,21,-1,-1,-1,-1,-1,-1,23,-1,-1,-1,-1,-1,-1,-1,-1,-1,-1,-1,-1,-1,-1,-1,-1,-1,-1,-1,-1,-1,-1,-1,-1,-1,-1,-1,-1,-1,-1,-1,-1,-1,-1,-1,-1,-1,-1,-1,-1,-1,-1,-1,-1,-1,-1,-1,-1,-1,-1,-1,-1,-1,-1,-1,-1,-1,-1,-1,-1,-1,-1,-1,-1,-1,-1,-1,-1,-1,-1,-1,-1,-1,-1,-1,-1,-1,-1,-1,-1,-1,-1,-1,-1,-1,-1,-1,-1,-1],"loss_changes":[6.8355174E0,3.4801197E0,6.65499E0,1.1915277E0,2.9085255E0,6.043445E0,0E0,0E0,6.7180556E-1,2.2472935E0,4.3327376E-1,6.5475936E0,5.254375E0,0E0,0E0,0E0,0E0,0E0,0E0,8.52302E0,4.6943808E0,4.9608784E0,3.1319256E0,2.971218E0,4.7608337E0,7.3313665E-1,2.014357E0,1.7329762E0,2.4655037E0,5.3440475E-1,2.009397E0,4.0498333E0,3.4627552E0,1.9515343E0,1.2171732E0,1.6333333E-1,4.9102783E-2,0E0,0E0,0E0,1.1944698E0,2.0310402E0,1.2751071E0,0E0,1.6333333E-1,6.7180556E-1,0E0,0E0,1.1944698E0,2.2739544E0,1.5616724E0,0E0,7.339682E-1,4.3327376E-1,0E0,0E0,0E0,4.3327376E-1,0E0,0E0,0E0,7.339682E-1,2.5284367E0,0E0,0E0,0E0,0E0,0E0,0E0,0E0,0E0,0E0,0E0,0E0,2.5594165E0,0E0,6.7180556E-1,0E0,0E0,0E0,0E0,6.7180556E-1,0E0,1.1737003E0,1.8225E0,1.1944698E0,0E0,0E0,0E0,0E0,0E0,4.2510712E-1,2.687168E-1,0E0,0E0,0E0,0E0,0E0,4.3327376E-1,4.3327376E-1,3.541069E-1,0E0,0E0,0E0,0E0,0E0,4.3327376E-1,0E0,0E0],"parents":[2147483647,0,0,1,1,2,2,3,3,4,4,5,5,8,8,9,9,10,10,11,11,12,12,19,19,20,20,21,21,22,22,23,23,24,24,25,25,26,26,27,27,28,28,29,29,30,30,31,31,32,32,33,33,34,34,35,35,36,36,40,40,41,41,42,42,44,44,45,45,48,48,49,49,50,50,52,52,53,53,57,57,61,61,62,62,74,74,76,76,81,81,83,83,84,84,85,85,91,91,92,92,98,98,99,99,100,100,106,106],"right_children":[2,-1,6,-1,-1,12,-1,-1,-1,-1,-1,20,22,-1,-1,-1,-1,-1,-1,24,-1,-1,-1,-1,-1,-1,-1,-1,-1,-1,-1,-1,-1,-1,-1,-1,-1,-1,-1,-1,-1,-1,-1,-1,-1,-1,-1,-1,-1,-1,-1,-1,-1,-1,-1,-1,-1,-1,-1,-1,-1,-1,-1,-1,-1,-1,-1,-1,-1,-1,-1,-1,-1,-1,-1,-1,-1,-1,-1,-1,-1,-1,-1,-1,-1,-1,-1,-1,-1,-1,-1,-1,-1,-1,-1,-1,-1,-1,-1,-1,-1,-1,-1,-1,-1,-1,-1,-1,-1],"split_conditions":[1.0465117E-1,-1.5153846E-1,5.7692313E-1,1.75E-2,-1.9406252E-1,4.3861943E-1,1.8642858E-1,1.0125001E-1,-5.666667E-2,-2.2448277E-1,2.6250001E-2,8.038273E-1,6.3506186E-1,-1.0125001E-1,3.5E-2,3.5E-2,-2.432143E-1,7.285715E-2,-3.5E-2,1.798265E-2,-1.0034483E-1,-1.1880001E-1,4.826087E-2,1.3232143E-1,-6.7E-2,-1.7318182E-1,6.75E-2,5.7857145E-2,-1.4863637E-1,1.4357144E-1,-5.7857145E-2,-0E0,1.684091E-1,-1.459091E-1,8.538462E-2,-0E0,-1.905E-1,-7.285715E-2,1.41E-1,-7.285715E-2,1.175E-1,-1.657377E-1,2.1000002E-2,1.675E-1,-0E0,5.666667E-2,-1.41E-1,1.41E-1,-1.175E-1,2.2700001E-1,2.6842108E-2,-2.00625E-1,-0E0,-2.6250001E-2,1.41E-1,3.5E-2,-3.5E-2,-2.6250001E-2,-2.064706E-1,-3.5E-2,1.5545455E-1,-0E0,-1.8381819E-1,1.0125001E-1,-7.285715E-2,-3.5E-2,3.5E-2,-3.5E-2,1.0125001E-1,-1.5545455E-1,3.5E-2,-3.5E-2,2.4517243E-1,1.2333334E-1,-3.4E-2,7.285715E-2,-5.666667E-2,3.5E-2,-7.285715E-2,-7.285715E-2,3.5E-2,-5.666667E-2,7.285715E-2,-2.0632654E-1,-0E0,-1.175E-1,1.0125001E-1,-1.0125001E-1,3.5E-2,3.5E-2,-1.0125001E-1,-2.1000002E-2,-2.2295456E-1,-1.0125001E-1,1.0125001E-1,3.5E-2,-1.5545455E-1,-7.285715E-2,2.6250001E-2,-2.6250001E-2,-2.3195122E-1,7.285715E-2,-3.5E-2,3.5E-2,-7.285715E-2,-2.4236841E-1,-2.6250001E-2,-7.285715E-2,3.5E-2],"split_indices":[13,1,7,2147483647,2147483647,2,0,2147483647,2147483647,2147483647,2147483647,0,2,2147483647,2147483647,2147483647,2147483647,2147483647,2147483647,5,14,9,12,15,9,2147483647,2147483647,2147483647,2147483647,2147483647,2147483647,2147483647,2147483647,2147483647,2147483647,2147483647,2147483647,2147483647,2147483647,2147483647,2147483647,2147483647,2147483647,2147483647,2147483647,2147483647,2147483647,2147483647,2147483647,2147483647,2147483647,2147483647,2147483647,2147483647,2147483647,2147483647,2147483647,2147483647,2147483647,2147483647,2147483647,2147483647,2147483647,2147483647,2147483647,2147483647,2147483647,2147483647,2147483647,2147483647,2147483647,2147483647,2147483647,2147483647,2147483647,2147483647,2147483647,2147483647,2147483647,2147483647,2147483647,2147483647,2147483647,2147483647,2147483647,2147483647,2147483647,2147483647,2147483647,2147483647,2147483647,2147483647,2147483647,2147483647,2147483647,2147483647,2147483647,2147483647,2147483647,2147483647,2147483647,2147483647,2147483647,2147483647,2147483647,2147483647,2147483647,2147483647,2147483647],"split_type":[0,0,0,0,0,0,0,0,0,0,0,0,0,0,0,0,0,0,0,0,0,0,0,0,0,0,0,0,0,0,0,0,0,0,0,0,0,0,0,0,0,0,0,0,0,0,0,0,0,0,0,0,0,0,0,0,0,0,0,0,0,0,0,0,0,0,0,0,0,0,0,0,0,0,0,0,0,0,0,0,0,0,0,0,0,0,0,0,0,0,0,0,0,0,0,0,0,0,0,0,0,0,0,0,0,0,0,0,0],"sum_hessian":[2.31E2,3.4E1,1.97E2,7E0,2.7E1,1.88E2,9E0,3E0,4E0,2.4E1,3E0,1E2,8.8E1,3E0,1E0,1E0,2.3E1,2E0,1E0,7.6E1,2.4E1,7E1,1.8E1,5.1E1,2.5E1,1.7E1,7E0,9E0,6.1E1,9E0,9E0,1.2E1,3.9E1,1.7E1,8E0,2E0,1.5E1,2E0,5E0,2E0,7E0,5.6E1,5E0,7E0,2E0,4E0,5E0,5E0,7E0,2.5E1,1.4E1,1.1E1,6E0,3E0,5E0,1E0,1E0,3E0,1.2E1,1E0,6E0,6E0,5E1,3E0,2E0,1E0,1E0,1E0,3E0,6E0,1E0,1E0,2.4E1,4E0,1E1,2E0,4E0,1E0,2E0,2E0,1E0,4E0,2E0,4.4E1,6E0,7E0,3E0,3E0,1E0,1E0,3E0,5E0,3.9E1,3E0,3E0,1E0,6E0,2E0,3E0,3E0,3.6E1,2E0,1E0,1E0,2E0,3.3E1,3E0,2E0,1E0],"tree_param":{"num_deleted":"96","num_feature":"16","num_nodes":"109","size_leaf_vector":"0"}},{"base_weights":[-1.482906E-1,1.2580645E-1,-3.1986302E-1,3.96875E-1,-1.0606061E-2,-4.27193E-1,4.5945946E-2,4.9E-1,-2.4285714E-1,1.0363636E-1,-4.1875E-1,1.3076922E-1,-4.7830188E-1,-5.181818E-1,2.483871E-1,-0E0,5.653846E-1,-1.5217391E-2,4.7857141E-1,-5.133333E-1,1.1666667E-1,4.7E-1,-3.375E-1,-5.222222E-1,5.8333334E-2,4.8636365E-1,-1.9285715E-1,2.4285714E-1,-2.4285714E-1,-0E0,6.125E-1,1.8387097E-1,-3.35E-1,-1.1666667E-1,5.923077E-1,-6.2142855E-1,1.1666667E-1,5.8333334E-2,-5.728261E-1,-2.4285714E-1,2.7E-1,6.35E-1,-2.4285714E-1,-3.9166665E-1,2.4285714E-1,-1.1666667E-1,1.1666667E-1,7.35E-1,-0E0,4.6190476E-1,-2.4666667E-1,-4.8333332E-1,2.4285714E-1,4.1111112E-1,-3.375E-1,-7.1166664E-1,-2.6216215E-1,4.1111112E-1,-1.1666667E-1,8.75E-2,6.882353E-1,-5.181818E-1,1.1666667E-1,2.4285714E-1,-2.4285714E-1,-1.1666667E-1,5.35E-1,1.8888889E-1,-5.181818E-1,8.75E-2,-6.4666665E-1,-0E0,-7.362069E-1,3.8E-1,-5.8148146E-1,2.4285714E-1,-1.1666667E-1,6.157895E-1,-1.1666667E-1,-1.1666667E-1,3.375E-1,-1.1666667E-1,2.4285714E-1,1.1666667E-1,-1.1666667E-1,-7.625E-1,-0E0,-8.75E-2,5.5833334E-1,-7.590909E-1,7E-2,6.882353E-1,-0E0,-8.75E-2,-7.8679246E-1,1.1666667E-1,-1.1666667E-1,-2.4285714E-1,1.1666667E-1,3.375E-1,-2.4285714E-1,-1.1666667E-1,1.1666667E-1,-2.4285714E-1,1.1666667E-1],"categories":[],"categories_nodes":[],"categories_segments":[],"categories_sizes":[],"default_left":[1,1,1,1,1,1,1,1,1,1,1,1,1,1,1,1,1,1,1,1,1,1,1,1,1,1,1,1,1,1,1,1,1,1,1,1,1,1,1,1,1,1,1,1,1,1,1,1,1,1,1,1,1,1,1,1,1,1,1,1,1,1,1,1,1,1,1,1,1,1,1,1,1,1,1,1,1,1,1,1,1,1,1,1,1,1,1,1,1,1,1,1,1,1,1,1,1,1,1,1,1,1,1,1,1],"id":9,"left_children":[1,-1,5,-1,-1,11,-1,-1,-1,-1,-1,-1,23,-1,-1,-1,-1,-1,-1,-1,-1,-1,-1,37,-1,-1,-1,-1,-1,-1,-1,-1,-1,-1,-1,-1,-1,-1,55,-1,-1,-1,-1,-1,-1,-1,-1,-1,-1,-1,-1,-1,-1,-1,-1,-1,73,-1,-1,-1,-1,-1,-1,-1,-1,-1,-1,-1,-1,-1,-1,-1,-1,-1,-1,-1,-1,-1,-1,-1,-1,-1,-1,-1,-1,-1,-1,-1,-1,-1,-1,-1,-1,-1,-1,-1,-1,-1,-1,-1,-1,-1,-1,-1,-1],"loss_changes":[1.1263855E1,3.5758011E0,5.944804E0,2.5755448E0,3.388928E0,3.6679134E0,4.788109E0,1.1081533E0,0E0,2.6263533E0,1.2287083E0,2.8979425E0,2.789816E0,0E0,3.8122241E0,8.2571423E-1,6.9259644E-1,3.2819123E0,1.436007E0,1.5354285E0,0E0,0E0,0E0,3.2298794E0,1.1010238E0,3.2732663E0,1.7329762E0,0E0,0E0,1.6333333E-1,1.8007498E0,4.345078E0,2.373357E0,0E0,0E0,0E0,0E0,2.391528E0,2.743206E0,0E0,8.7377775E-1,4.9102783E-2,0E0,1.1944698E0,0E0,0E0,0E0,0E0,8.2571423E-1,1.3256903E0,2.3620808E0,2.1289167E0,0E0,0E0,0E0,1.0478687E0,8.752287E0,0E0,0E0,4.3327376E-1,0E0,0E0,0E0,0E0,0E0,0E0,1.5619035E0,6.7180556E-1,0E0,4.3327376E-1,0E0,1.6333333E-1,1.122715E0,1.6360831E0,3.5965595E0,0E0,0E0,8.476162E-1,0E0,0E0,0E0,0E0,0E0,0E0,0E0,3.117447E-1,1.6333333E-1,4.3327376E-1,0E0,0E0,1.2751071E0,0E0,1.6333333E-1,4.3327376E-1,0E0,0E0,0E0,0E0,0E0,0E0,0E0,0E0,0E0,0E0,0E0],"parents":[2147483647,0,0,1,1,2,2,3,3,4,4,5,5,6,6,7,7,9,9,10,10,11,11,12,12,14,14,15,15,16,16,17,17,18,18,19,19,23,23,24,24,25,25,26,26,29,29,30,30,31,31,32,32,37,37,38,38,40,40,41,41,43,43,48,48,49,49,50,50,51,51,55,55,56,56,59,59,66,66,67,67,69,69,71,71,72,72,73,73,74,74,77,77,85,85,86,86,87,87,90,90,92,92,93,93],"right_children":[2,-1,6,-1,-1,12,-1,-1,-1,-1,-1,-1,24,-1,-1,-1,-1,-1,-1,-1,-1,-1,-1,38,-1,-1,-1,-1,-1,-1,-1,-1,-1,-1,-1,-1,-1,-1,56,-1,-1,-1,-1,-1,-1,-1,-1,-1,-1,-1,-1,-1,-1,-1,-1,-1,74,-1,-1,-1,-1,-1,-1,-1,-1,-1,-1,-1,-1,-1,-1,-1,-1,-1,-1,-1,-1,-1,-1,-1,-1,-1,-1,-1,-1,-1,-1,-1,-1,-1,-1,-1,-1,-1,-1,-1,-1,-1,-1,-1,-1,-1,-1,-1,-1],"split_conditions":[5.1283014E-1,3.7741937E-2,1.5097458E-2,1.19062506E-1,-3.1818184E-3,2.4555214E-2,1.3783785E-2,1.4700001E-1,-7.285715E-2,3.109091E-2,-1.25625E-1,3.9230768E-2,3.279567E-1,-1.5545455E-1,7.451613E-2,-0E0,1.6961539E-1,-4.5652175E-3,1.4357144E-1,-1.54E-1,3.5E-2,1.41E-1,-1.0125001E-1,5.8970596E-3,1.75E-2,1.459091E-1,-5.7857145E-2,7.285715E-2,-7.285715E-2,-0E0,1.8375E-1,5.5161294E-2,-1.0050001E-1,-3.5E-2,1.7769231E-1,-1.8642858E-1,3.5E-2,1.75E-2,2.906977E-1,-7.285715E-2,8.100001E-2,1.905E-1,-7.285715E-2,-1.175E-1,7.285715E-2,-3.5E-2,3.5E-2,2.205E-1,-0E0,1.3857144E-1,-7.4E-2,-1.45E-1,7.285715E-2,1.2333334E-1,-1.0125001E-1,-2.1350001E-1,1.44301215E-2,1.2333334E-1,-3.5E-2,2.6250001E-2,2.064706E-1,-1.5545455E-1,3.5E-2,7.285715E-2,-7.285715E-2,-3.5E-2,1.6050002E-1,5.666667E-2,-1.5545455E-1,2.6250001E-2,-1.94E-1,-0E0,-2.2086208E-1,1.14E-1,-1.7444444E-1,7.285715E-2,-3.5E-2,1.8473685E-1,-3.5E-2,-3.5E-2,1.0125001E-1,-3.5E-2,7.285715E-2,3.5E-2,-3.5E-2,-2.2875E-1,-0E0,-2.6250001E-2,1.675E-1,-2.2772728E-1,2.1000002E-2,2.064706E-1,-0E0,-2.6250001E-2,-2.3603775E-1,3.5E-2,-3.5E-2,-7.285715E-2,3.5E-2,1.0125001E-1,-7.285715E-2,-3.5E-2,3.5E-2,-7.285715E-2,3.5E-2],"split_indices":[0,1,10,2147483647,2147483647,4,14,2147483647,2147483647,2147483647,2147483647,15,1,2147483647,2147483647,2147483647,2147483647,2147483647,2147483647,2147483647,2147483647,2147483647,2147483647,5,0,2147483647,2147483647,2147483647,2147483647,2147483647,2147483647,2147483647,2147483647,2147483647,2147483647,2147483647,2147483647,3,13,2147483647,2147483647,2147483647,2147483647,2147483647,2147483647,2147483647,2147483647,2147483647,2147483647,2147483647,2147483647,2147483647,2147483647,2147483647,2147483647,1,5,2147483647,2147483647,2147483647,2147483647,2147483647,2147483647,2147483647,2147483647,2147483647,2147483647,2147483647,2147483647,2147483647,2147483647,2147483647,2147483647,5,5,2147483647,2147483647,2147483647,2147483647,2147483647,2147483647,2147483647,2147483647,2147483647,2147483647,2147483647,2147483647,2147483647,2147483647,2147483647,2147483647,2147483647,2147483647,2147483647,2147483647,2147483647,2147483647,2147483647,2147483647,2147483647,2147483647,2147483647,2147483647,2147483647,2147483647],"split_type":[0,0,0,0,0,0,0,0,0,0,0,0,0,0,0,0,0,0,0,0,0,0,0,0,0,0,0,0,0,0,0,0,0,0,0,0,0,0,0,0,0,0,0,0,0,0,0,0,0,0,0,0,0,0,0,0,0,0,0,0,0,0,0,0,0,0,0,0,0,0,0,0,0,0,0,0,0,0,0,0,0,0,0,0,0,0,0,0,0,0,0,0,0,0,0,0,0,0,0,0,0,0,0,0,0],"sum_hessian":[2.29E2,8.8E1,1.41E2,2.7E1,6.1E1,1.09E2,3.2E1,2.5E1,2E0,5E1,1.1E1,8E0,1.01E2,6E0,2.6E1,4E0,2.1E1,4.1E1,9E0,1E1,1E0,5E0,3E0,9.4E1,7E0,1.7E1,9E0,2E0,2E0,2E0,1.9E1,2.6E1,1.5E1,1E0,8E0,9E0,1E0,7E0,8.7E1,2E0,5E0,1.5E1,2E0,7E0,2E0,1E0,1E0,1.5E1,4E0,1.6E1,1E1,1.3E1,2E0,4E0,3E0,5.5E1,3.2E1,4E0,1E0,3E0,1.2E1,6E0,1E0,2E0,2E0,1E0,1.5E1,4E0,6E0,3E0,1E1,2E0,5.3E1,1E1,2.2E1,2E0,1E0,1.4E1,1E0,1E0,3E0,1E0,2E0,1E0,1E0,5.1E1,2E0,3E0,7E0,1.7E1,5E0,1.2E1,2E0,3E0,4.8E1,1E0,1E0,2E0,1E0,3E0,2E0,1E0,1E0,2E0,1E0],"tree_param":{"num_deleted":"90","num_feature":"16","num_nodes":"105","size_leaf_vector":"0"}},{"base_weights":[-8.374385E-3,2.4929577E-1,-1.4379562E-1,-3.953488E-2,5.969697E-1,-6.5238094E-1,-4.710744E-2,1.5666667E-1,-3.7222221E-1,-8.75E-2,6.9E-1,-7.2105265E-1,-0E0,-1.0173913E-1,5.181818E-1,4.8333332E-1,-2.1764706E-1,1.1666667E-1,-4.5294118E-1,1.1666667E-1,-2.4285714E-1,7.482759E-1,-1.1666667E-1,1.1666667E-1,-1.1666667E-1,3.814433E-2,-6.826087E-1,5.7058823E-1,-1.1666667E-1,-4.7857141E-1,3.375E-1,1.1666667E-1,-5.4375E-1,3.9545456E-1,-5.875E-2,-7.590909E-1,1.1666667E-1,6.6875E-1,-1.1666667E-1,-0E0,-5.5833334E-1,-6.4666665E-1,1.1666667E-1,-0E0,6.2142855E-1,-2.7959183E-1,2.4166666E-1,1.1666667E-1,-1.1666667E-1,-4.1111112E-1,4.1111112E-1,-0E0,-5.074074E-1,-3.9166665E-1,4.7241378E-1,2.35E-1,-3.9166665E-1,-5.653846E-1,1.1666667E-1,-5.181818E-1,1.1666667E-1,-2.4285714E-1,5.8148146E-1,5.133333E-1,-2.7E-1,-4.7E-1,-0E0,-6.125E-1,-0E0,7.08E-1,-2.4285714E-1,6.2142855E-1,-1.1666667E-1,-4.1111112E-1,1.1666667E-1,-1.1666667E-1,1.1666667E-1,-7E-2,-7.2105265E-1,1.1666667E-1,-1.1666667E-1,7.7916664E-1,-1.1666667E-1,-2.4285714E-1,8.75E-2,2.4285714E-1,-1.1666667E-1],"categories":[],"categories_nodes":[],"categories_segments":[],"categories_sizes":[],"default_left":[1,1,1,1,1,1,1,1,1,1,1,1,1,1,0,1,1,1,1,1,1,1,1,1,1,1,1,1,1,1,1,1,1,1,1,1,1,1,1,1,1,1,1,1,1,1,1,1,1,1,1,1,1,1,1,1,1,1,1,1,1,1,1,1,1,1,1,1,1,1,1,1,1,1,1,1,1,1,1,1,1,1,1,1,1,1,1],"id":10,"left_children":[1,3,5,-1,-1,-1,13,-1,-1,-1,-1,-1,-1,25,-1,-1,-1,-1,-1,-1,-1,-1,-1,-1,-1,33,-1,-1,-1,-1,-1,-1,-1,-1,45,-1,-1,-1,-1,-1,-1,-1,-1,-1,-1,-1,53,-1,-1,-1,-1,-1,-1,-1,-1,-1,-1,-1,-1,-1,-1,-1,-1,-1,-1,-1,-1,-1,-1,-1,-1,-1,-1,-1,-1,-1,-1,-1,-1,-1,-1,-1,-1,-1,-1,-1,-1],"loss_changes":[7.2310724E0,7.4149766E0,6.3733582E0,3.163013E0,2.5839472E0,9.408016E-1,3.8754718E0,4.2739606E0,1.0754249E0,4.3327376E-1,2.036254E0,0E0,1.6333333E-1,9.667744E0,0E0,1.4113722E0,3.3123846E0,0E0,1.3246446E0,0E0,0E0,0E0,0E0,0E0,0E0,3.5754457E0,2.0415287E0,1.7025857E0,0E0,5.3440475E-1,0E0,0E0,1.6237078E0,1.9659741E0,5.656783E0,0E0,0E0,0E0,0E0,1.6333333E-1,0E0,0E0,0E0,3.042222E0,0E0,3.1210732E0,6.2104025E0,0E0,0E0,0E0,0E0,2.9453335E0,1.441339E0,1.1944698E0,3.070047E0,3.5771668E0,3.681668E-1,6.9259644E-1,0E0,0E0,0E0,0E0,3.815198E0,1.5354285E0,8.7377775E-1,0E0,1.6333333E-1,9.2367077E-1,1.6333333E-1,2.1204834E0,0E0,0E0,0E0,0E0,0E0,0E0,0E0,4.2510712E-1,0E0,0E0,0E0,0E0,0E0,0E0,4.3327376E-1,0E0,0E0],"parents":[2147483647,0,0,1,1,2,2,3,3,4,4,5,5,6,6,7,7,8,8,9,9,10,10,12,12,13,13,15,15,16,16,18,18,25,25,26,26,27,27,29,29,32,32,33,33,34,34,39,39,43,43,45,45,46,46,51,51,52,52,53,53,54,54,55,55,56,56,57,57,62,62,63,63,64,64,66,66,67,67,68,68,69,69,77,77,84,84],"right_children":[2,4,6,-1,-1,-1,14,-1,-1,-1,-1,-1,-1,26,-1,-1,-1,-1,-1,-1,-1,-1,-1,-1,-1,34,-1,-1,-1,-1,-1,-1,-1,-1,46,-1,-1,-1,-1,-1,-1,-1,-1,-1,-1,-1,54,-1,-1,-1,-1,-1,-1,-1,-1,-1,-1,-1,-1,-1,-1,-1,-1,-1,-1,-1,-1,-1,-1,-1,-1,-1,-1,-1,-1,-1,-1,-1,-1,-1,-1,-1,-1,-1,-1,-1,-1],"split_conditions":[1.7710997E-1,6.625678E-2,7.1808554E-2,-1.1860465E-2,1.7909092E-1,-1.957143E-1,2.981671E-1,4.7000002E-2,-1.1166667E-1,-2.6250001E-2,2.07E-1,-2.163158E-1,-0E0,2.529838E-1,1.5545455E-1,1.45E-1,-6.5294124E-2,3.5E-2,-1.3588236E-1,3.5E-2,-7.285715E-2,2.2448277E-1,-3.5E-2,3.5E-2,-3.5E-2,5.0641024E-1,-2.0478262E-1,1.7117648E-1,-3.5E-2,-1.4357144E-1,1.0125001E-1,3.5E-2,-1.6312501E-1,1.1863637E-1,3.9141417E-1,-2.2772728E-1,3.5E-2,2.00625E-1,-3.5E-2,-0E0,-1.675E-1,-1.94E-1,3.5E-2,-0E0,1.8642858E-1,-8.387755E-2,5.4443106E-2,3.5E-2,-3.5E-2,-1.2333334E-1,1.2333334E-1,-0E0,-1.5222223E-1,-1.175E-1,1.4172414E-1,7.05E-2,-1.175E-1,-1.6961539E-1,3.5E-2,-1.5545455E-1,3.5E-2,-7.285715E-2,1.7444444E-1,1.54E-1,-8.100001E-2,-1.41E-1,-0E0,-1.8375E-1,-0E0,2.124E-1,-7.285715E-2,1.8642858E-1,-3.5E-2,-1.2333334E-1,3.5E-2,-3.5E-2,3.5E-2,-2.1000002E-2,-2.163158E-1,3.5E-2,-3.5E-2,2.3375E-1,-3.5E-2,-7.285715E-2,2.6250001E-2,7.285715E-2,-3.5E-2],"split_indices":[6,8,8,15,9,1,6,2147483647,2147483647,2147483647,2147483647,2147483647,2147483647,6,0,2147483647,2147483647,2147483647,2147483647,2147483647,2147483647,2147483647,2147483647,2147483647,2147483647,14,13,2147483647,2147483647,2147483647,2147483647,2147483647,2147483647,8,15,2147483647,2147483647,2147483647,2147483647,2147483647,2147483647,2147483647,2147483647,2147483647,2147483647,8,1,2147483647,2147483647,2147483647,2147483647,2147483647,2147483647,3,5,2147483647,2147483647,2147483647,2147483647,2147483647,2147483647,2147483647,2147483647,2147483647,2147483647,2147483647,2147483647,2147483647,2147483647,2147483647,2147483647,2147483647,2147483647,2147483647,2147483647,2147483647,2147483647,2147483647,2147483647,2147483647,2147483647,2147483647,2147483647,2147483647,2147483647,2147483647,2147483647],"split_type":[0,0,0,0,0,0,0,0,0,0,0,0,0,0,0,0,0,0,0,0,0,0,0,0,0,0,0,0,0,0,0,0,0,0,0,0,0,0,0,0,0,0,0,0,0,0,0,0,0,0,0,0,0,0,0,0,0,0,0,0,0,0,0,0,0,0,0,0,0,0,0,0,0,0,0,0,0,0,0,0,0,0,0,0,0,0,0],"sum_hessian":[1.98E2,6.6E1,1.32E2,3.8E1,2.8E1,1.6E1,1.16E2,2.5E1,1.3E1,3E0,2.5E1,1.4E1,2E0,1.1E2,6E0,1.3E1,1.2E1,1E0,1.2E1,1E0,2E0,2.4E1,1E0,1E0,1E0,9.2E1,1.8E1,1.2E1,1E0,9E0,3E0,1E0,1.1E1,1.7E1,7.5E1,1.7E1,1E0,1.1E1,1E0,2E0,7E0,1E1,1E0,8E0,9E0,4.4E1,3.1E1,1E0,1E0,4E0,4E0,2.2E1,2.2E1,7E0,2.4E1,1.5E1,7E0,2.1E1,1E0,6E0,1E0,2E0,2.2E1,1E1,5E0,5E0,2E0,1.9E1,2E0,2E1,2E0,9E0,1E0,4E0,1E0,1E0,1E0,5E0,1.4E1,1E0,1E0,1.9E1,1E0,2E0,3E0,2E0,1E0],"tree_param":{"num_deleted":"70","num_feature":"16","num_nodes":"87","size_leaf_vector":"0"}},{"base_weights":[-1.6944444E-1,-7.45E-1,8.629441E-3,-0E0,-8.277778E-1,7.828572E-2,-4.3333334E-1,3.375E-1,-3.375E-1,1.1666667E-1,-8.6226416E-1,1.2321428E-1,-5.5833334E-1,-6.125E-1,3.375E-1,-1.8387097E-1,1.8802817E-1,-6.826087E-1,1.1666667E-1,1.9285715E-1,-3.9545456E-1,3.6666667E-1,-4.090909E-2,-0E0,-7.4761903E-1,3.9166665E-1,-2.4285714E-1,2.4285714E-1,-5.35E-1,4.8688525E-1,-0E0,-3.5666665E-1,1.8780488E-1,1.1666667E-1,-1.1666667E-1,5.181818E-1,-1.1666667E-1,-0E0,-5.9444445E-1,5.2931035E-1,-8.75E-2,4.7E-1,-2.35E-1,3.375E-1,-5.074074E-1,-2.1764706E-1,4.0344828E-1,-1.1666667E-1,1.1666667E-1,-6.6875E-1,-0E0,-1.1666667E-1,5.5614036E-1,-2.4285714E-1,1.1666667E-1,3.375E-1,-4.5294118E-1,2.4285714E-1,-6.28E-1,3.375E-1,-4.7857141E-1,-0E0,5.5714285E-1,-1.1666667E-1,1.1666667E-1,5.839286E-1,-1.1666667E-1,1.1666667E-1,-5.4375E-1,-0E0,-6.826087E-1,-5.923077E-1,1.1666667E-1,3.375E-1,-2.7E-1,-1.1666667E-1,6.35E-1,6.0555553E-1,-0E0,-6.4666665E-1,1.1666667E-1,-1.1666667E-1,1.1666667E-1,-7.35E-1,-8.75E-2,-4.1111112E-1,1.1666667E-1,7.0555556E-1,-0E0,-1.1666667E-1,1.1666667E-1,1.1666667E-1,-2.4285714E-1,-1.1666667E-1,1.1666667E-1],"categories":[],"categories_nodes":[],"categories_segments":[],"categories_sizes":[],"default_left":[1,1,1,1,1,1,1,1,1,1,1,1,0,1,1,1,1,1,1,1,1,1,1,1,1,1,1,1,1,1,1,1,1,1,1,1,1,1,1,1,1,1,1,1,1,1,1,1,1,1,1,1,1,1,1,1,1,1,1,1,1,1,1,1,1,1,1,1,1,1,1,1,1,1,1,1,1,1,1,1,1,1,1,1,1,1,1,1,1,1,1,1,1,1,1],"id":11,"left_children":[1,-1,5,-1,-1,11,-1,-1,-1,-1,-1,15,-1,-1,-1,-1,21,-1,-1,-1,-1,-1,31,-1,-1,-1,-1,-1,-1,-1,-1,-1,-1,-1,-1,-1,-1,-1,-1,-1,-1,-1,-1,-1,-1,-1,-1,-1,-1,-1,-1,-1,-1,-1,-1,-1,-1,-1,-1,-1,-1,-1,-1,-1,-1,-1,-1,-1,-1,-1,-1,-1,-1,-1,-1,-1,-1,-1,-1,-1,-1,-1,-1,-1,-1,-1,-1,-1,-1,-1,-1,-1,-1,-1,-1],"loss_changes":[2.608089E1,3.7001686E0,6.1278443E0,1.8225E0,2.4854698E0,5.218855E0,4.845E0,0E0,0E0,0E0,0E0,3.5178814E0,0E0,1.7948742E0,0E0,2.9131045E0,5.9801025E0,1.0206623E0,0E0,1.7329762E0,2.696902E0,3.5704918E0,5.1519766E0,1.6333333E-1,0E0,1.1944698E0,0E0,0E0,6.3605595E-1,1.8505869E0,3.3135002E0,4.046398E0,4.079541E0,0E0,0E0,0E0,0E0,1.6333333E-1,7.950692E-1,1.4614887E0,4.3327376E-1,0E0,3.294397E0,0E0,3.3209758E0,3.3123846E0,1.7982264E0,0E0,0E0,0E0,1.6333333E-1,0E0,1.5464821E0,0E0,0E0,0E0,1.3246446E0,0E0,8.57357E-1,0E0,1.436007E0,1.64025E0,1.6275954E0,0E0,0E0,7.072029E-1,0E0,0E0,1.6237078E0,1.6333333E-1,1.4879227E-1,0E0,0E0,0E0,8.7377775E-1,0E0,8.960552E-1,0E0,1.6333333E-1,0E0,0E0,0E0,0E0,0E0,4.3327376E-1,0E0,0E0,0E0,1.6333333E-1,0E0,0E0,0E0,0E0,0E0,0E0],"parents":[2147483647,0,0,1,1,2,2,3,3,4,4,5,5,6,6,11,11,13,13,15,15,16,16,17,17,19,19,20,20,21,21,22,22,23,23,25,25,28,28,29,29,30,30,31,31,32,32,37,37,38,38,39,39,40,40,42,42,44,44,45,45,46,46,50,50,52,52,56,56,58,58,60,60,61,61,62,62,65,65,68,68,69,69,70,70,74,74,76,76,78,78,84,84,88,88],"right_children":[2,-1,6,-1,-1,12,-1,-1,-1,-1,-1,16,-1,-1,-1,-1,22,-1,-1,-1,-1,-1,32,-1,-1,-1,-1,-1,-1,-1,-1,-1,-1,-1,-1,-1,-1,-1,-1,-1,-1,-1,-1,-1,-1,-1,-1,-1,-1,-1,-1,-1,-1,-1,-1,-1,-1,-1,-1,-1,-1,-1,-1,-1,-1,-1,-1,-1,-1,-1,-1,-1,-1,-1,-1,-1,-1,-1,-1,-1,-1,-1,-1,-1,-1,-1,-1,-1,-1,-1,-1,-1,-1,-1,-1],"split_conditions":[1.4100971E-2,-2.2350001E-1,7.979661E-1,-0E0,-2.4833335E-1,4.5999828E-1,-1.3000001E-1,1.0125001E-1,-1.0125001E-1,3.5E-2,-2.5867927E-1,4.64701E-1,-1.675E-1,-1.8375E-1,1.0125001E-1,-5.5161294E-2,3.9767444E-1,-2.0478262E-1,3.5E-2,5.7857145E-2,-1.1863637E-1,1.1000001E-1,4.221564E-2,-0E0,-2.2428572E-1,1.175E-1,-7.285715E-2,7.285715E-2,-1.6050002E-1,1.4606558E-1,-0E0,-1.07E-1,5.6341466E-2,3.5E-2,-3.5E-2,1.5545455E-1,-3.5E-2,-0E0,-1.7833334E-1,1.587931E-1,-2.6250001E-2,1.41E-1,-7.05E-2,1.0125001E-1,-1.5222223E-1,-6.5294124E-2,1.2103449E-1,-3.5E-2,3.5E-2,-2.00625E-1,-0E0,-3.5E-2,1.6684212E-1,-7.285715E-2,3.5E-2,1.0125001E-1,-1.3588236E-1,7.285715E-2,-1.8840002E-1,1.0125001E-1,-1.4357144E-1,-0E0,1.6714287E-1,-3.5E-2,3.5E-2,1.7517859E-1,-3.5E-2,3.5E-2,-1.6312501E-1,-0E0,-2.0478262E-1,-1.7769231E-1,3.5E-2,1.0125001E-1,-8.100001E-2,-3.5E-2,1.905E-1,1.8166667E-1,-0E0,-1.94E-1,3.5E-2,-3.5E-2,3.5E-2,-2.205E-1,-2.6250001E-2,-1.2333334E-1,3.5E-2,2.1166667E-1,-0E0,-3.5E-2,3.5E-2,3.5E-2,-7.285715E-2,-3.5E-2,3.5E-2],"split_indices":[9,6,0,2147483647,2147483647,1,13,2147483647,2147483647,2147483647,2147483647,14,0,2147483647,2147483647,7,15,2147483647,2147483647,2147483647,2147483647,2,9,2147483647,2147483647,2147483647,2147483647,2147483647,2147483647,2147483647,2147483647,2,12,2147483647,2147483647,2147483647,2147483647,2147483647,2147483647,2147483647,2147483647,2147483647,2147483647,2147483647,2147483647,2147483647,2147483647,2147483647,2147483647,2147483647,2147483647,2147483647,2147483647,2147483647,2147483647,2147483647,2147483647,2147483647,2147483647,2147483647,2147483647,2147483647,2147483647,2147483647,2147483647,2147483647,2147483647,2147483647,2147483647,2147483647,2147483647,2147483647,2147483647,2147483647,2147483647,2147483647,2147483647,2147483647,2147483647,2147483647,2147483647,2147483647,2147483647,2147483647,2147483647,2147483647,2147483647,2147483647,2147483647,2147483647,2147483647,2147483647,2147483647,2147483647,2147483647],"split_type":[0,0,0,0,0,0,0,0,0,0,0,0,0,0,0,0,0,0,0,0,0,0,0,0,0,0,0,0,0,0,0,0,0,0,0,0,0,0,0,0,0,0,0,0,0,0,0,0,0,0,0,0,0,0,0,0,0,0,0,0,0,0,0,0,0,0,0,0,0,0,0,0,0,0,0,0,0,0,0,0,0,0,0,0,0,0,0,0,0,0,0,0,0,0,0],"sum_hessian":[2.47E2,5.5E1,1.92E2,6E0,4.9E1,1.7E2,2.2E1,3E0,3E0,1E0,4.8E1,1.63E2,7E0,1.9E1,3E0,2.6E1,1.37E2,1.8E1,1E0,9E0,1.7E1,7.6E1,6.1E1,2E0,1.6E1,7E0,2E0,2E0,1.5E1,5.6E1,2E1,2.5E1,3.6E1,1E0,1E0,6E0,1E0,2E0,1.3E1,5.3E1,3E0,5E0,1.5E1,3E0,2.2E1,1.2E1,2.4E1,1E0,1E0,1.1E1,2E0,1E0,5.2E1,2E0,1E0,3E0,1.2E1,2E0,2E1,3E0,9E0,8E0,1.6E1,1E0,1E0,5.1E1,1E0,1E0,1.1E1,2E0,1.8E1,8E0,1E0,3E0,5E0,1E0,1.5E1,4.9E1,2E0,1E1,1E0,1E0,1E0,1.5E1,3E0,4E0,1E0,1.3E1,2E0,1E0,1E0,1E0,2E0,1E0,1E0],"tree_param":{"num_deleted":"82","num_feature":"16","num_nodes":"95","size_leaf_vector":"0"}}]},"name":"gbtree"},"learner_model_param":{"base_score":"5E-1","boost_from_average":"1","num_class":"0","num_feature":"16","num_target":"1"},"objective":{"name":"binary:hinge"}},"version":[1,7,2]}