{"learner":{"attributes":{"best_iteration":"12","best_ntree_limit":"13","best_score":"0.04141291108404385"},"feature_names":[],"feature_types":[],"gradient_booster":{"model":{"gbtree_model_param":{"num_parallel_tree":"1","num_trees":"16","size_leaf_vector":"0"},"tree_info":[0,0,0,0,0,0,0,0,0,0,0,0,0,0,0,0],"trees":[{"base_weights":[-7.3270184E-1,-9.1027427E-1,6.438849E-1,-9.5363593E-1,-3.883495E-2,-8.82353E-2,7.4285716E-1,2.5E-1,-9.6502465E-1,3.28125E-1,-6.25E-1,-4.2307693E-1,8.888889E-1,9.385965E-1,5.681818E-1,5.625E-1,-8E-1,-9.688889E-1,5E-1,6.486486E-1,-1.0714286E-1,7.5E-1,-7.567568E-1,7.5E-1,-6.086956E-1,9.9038464E-1,3.6363637E-1,-4E-1,6.864407E-1,-0E0,9E-1,-9.8373556E-1,-7.25E-1,8E-1,-5E-1,-0E0,7.741935E-1,1.904762E-1,-8.75E-1,-8.055556E-1,5E-1,-9.285714E-1,-1E-1,-6.666667E-1,6.666667E-1,1.25E-1,-8.75E-1,4.7142857E-1,9.7959185E-1,7.5E-1,-7.5E-1,-9.902968E-1,-9.032258E-1,5E-2,-8.712871E-1,7.5E-1,-7.5E-1,8.9285713E-1,-2.5E-1,8.75E-1,-2.1428572E-1,-2.857143E-1,-9E-1,5E-1,-8E-1,-0E0,8.5714287E-1,-7.5E-1,8E-1,7.4E-1,-1.904762E-1,-9.6428573E-1,-3.125E-1,8.5714287E-1,-3.5714287E-1,-9.2783505E-1,4E-1,9.6153843E-1,-0E0,5E-1,-6.666667E-1,-5.4545456E-1,7.5E-1,-7.5E-1,2.5E-1,-2.5E-1,-9.62963E-1,-5E-1,8E-1,5E-1,-5E-1,-6.666667E-1,8.125E-1,4.1666666E-1,-9E-1,-0E0,-9.782609E-1,4E-1,-5.833333E-1,-5.833333E-1,6.666667E-1,-2.857143E-1,-9.6703297E-1,-5E-1,7.5E-1,-5E-1,5E-1,-7E-1,5E-1,6.666667E-1,-5E-1,-6.666667E-1,5E-1,8.5106385E-1,-5E-1,8.75E-1,-4E-1,-5E-1,5E-1,-0E0,-9.9264705E-1,-5E-1,7.5E-1,5E-1,-7.2727275E-1,-0E0,-8.75E-1,-8E-1,6.666667E-1,-6.25E-1,-9.880952E-1,-2.5E-1,-8.5714287E-1,8.888889E-1,-0E0,5E-1,-7.5E-1,5E-1,-5E-1,-0E0,-8.888889E-1,6.666667E-1,-6.666667E-1,-8.5714287E-1,5E-1,-6.666667E-1,5E-1,-0E0,9.302326E-1,-5E-1,5E-1,5E-1,-5E-1,-5E-1,5E-1],"categories":[],"categories_nodes":[],"categories_segments":[],"categories_sizes":[],"default_left":[1,1,1,1,1,1,1,1,1,1,1,1,0,1,1,1,0,1,1,1,1,0,1,1,1,1,1,1,1,1,1,1,1,1,1,1,1,1,1,1,1,1,1,1,1,1,1,1,0,1,1,1,1,1,1,1,1,1,1,1,1,1,1,1,1,1,1,1,1,1,1,1,1,1,1,1,1,1,1,1,1,1,1,1,1,1,1,1,1,1,1,1,1,1,0,1,1,1,1,1,1,1,1,1,1,1,1,1,1,1,1,1,1,1,1,1,1,1,1,1,1,1,1,1,1,1,1,1,1,1,1,1,1,1,1,1,1,1,1,1,1,1,1,1,1,1,1,1,1,1,1,1,1,1,1],"id":0,"left_children":[1,3,5,7,9,11,13,15,17,19,21,-1,-1,-1,27,-1,-1,31,-1,-1,-1,-1,-1,-1,-1,-1,-1,-1,47,-1,-1,-1,53,-1,-1,-1,-1,-1,-1,-1,-1,-1,-1,-1,-1,-1,-1,69,-1,-1,-1,-1,-1,-1,75,-1,-1,-1,-1,-1,-1,-1,-1,-1,-1,-1,-1,-1,-1,-1,93,-1,-1,-1,-1,-1,-1,-1,-1,-1,-1,-1,-1,-1,-1,-1,-1,-1,-1,-1,-1,-1,-1,-1,-1,-1,-1,-1,-1,-1,-1,-1,-1,-1,-1,-1,-1,-1,-1,-1,-1,-1,-1,-1,-1,-1,-1,-1,-1,-1,-1,-1,-1,-1,-1,-1,-1,-1,-1,-1,-1,-1,-1,-1,-1,-1,-1,-1,-1,-1,-1,-1,-1,-1,-1,-1,-1,-1,-1,-1,-1,-1,-1,-1,-1],"loss_changes":[5.940958E2,8.124292E1,2.0209312E1,2.8328735E1,2.2360285E1,1.1500252E1,7.84346E0,7.0125E0,1.1976685E1,8.998371E0,7.81419E0,6.1178927E0,0E0,3.0343323E0,1.5388062E1,3.0375004E0,0E0,6.6191406E0,2.2E0,3.0130768E0,6.565476E0,0E0,2.6719208E0,0E0,3.6496897E0,0E0,3.878788E0,3.85E0,6.975857E0,4.5E0,0E0,1.1242676E-1,1.3648266E1,0E0,0E0,4.5E0,3.9907837E0,6.0059524E0,0E0,1.5103168E0,0E0,0E0,4.6E0,0E0,1.1428571E0,5.325E0,0E0,1.2584762E1,0E0,0E0,0E0,0E0,5.289459E0,6.878571E0,7.631897E0,0E0,0E0,1.7170334E0,1.5833334E0,0E0,4.87987E0,1.9285715E0,9.8703766E-1,2.2E0,0E0,1E0,0E0,0E0,0E0,5.640833E0,9.421429E0,1.8866425E0,3.3208337E0,0E0,3.6309528E0,2.1651688E0,1.95E0,0E0,1E0,0E0,0E0,2.1272728E0,0E0,0E0,1.5833334E0,1.5833334E0,0E0,0E0,0E0,0E0,0E0,0E0,2.855053E0,4.841667E0,0E0,1E0,1.9421387E0,1.95E0,2.2348485E0,2.0416665E0,0E0,3.9619048E0,3.8002014E-2,0E0,0E0,0E0,0E0,4.9285698E-1,0E0,0E0,0E0,0E0,0E0,1.5130043E0,0E0,0E0,1.95E0,0E0,0E0,1E0,0E0,0E0,0E0,0E0,1.2929292E0,2.6666667E0,0E0,0E0,0E0,2.517857E0,0E0,1.5833334E0,0E0,1.6537437E0,1E0,0E0,0E0,0E0,0E0,1E0,0E0,0E0,0E0,0E0,0E0,0E0,0E0,1E0,0E0,0E0,0E0,0E0,0E0,0E0,0E0],"parents":[2147483647,0,0,1,1,2,2,3,3,4,4,5,5,6,6,7,7,8,8,9,9,10,10,11,11,13,13,14,14,15,15,17,17,18,18,19,19,20,20,22,22,24,24,26,26,27,27,28,28,29,29,31,31,32,32,35,35,36,36,37,37,39,39,42,42,44,44,45,45,47,47,52,52,53,53,54,54,57,57,58,58,60,60,61,61,62,62,63,63,65,65,69,69,70,70,71,71,72,72,74,74,75,75,76,76,78,78,81,81,84,84,85,85,92,92,93,93,95,95,96,96,97,97,98,98,99,99,101,101,102,102,107,107,113,113,116,116,119,119,124,124,125,125,129,129,131,131,133,133,134,134,139,139,147,147],"right_children":[2,4,6,8,10,12,14,16,18,20,22,-1,-1,-1,28,-1,-1,32,-1,-1,-1,-1,-1,-1,-1,-1,-1,-1,48,-1,-1,-1,54,-1,-1,-1,-1,-1,-1,-1,-1,-1,-1,-1,-1,-1,-1,70,-1,-1,-1,-1,-1,-1,76,-1,-1,-1,-1,-1,-1,-1,-1,-1,-1,-1,-1,-1,-1,-1,94,-1,-1,-1,-1,-1,-1,-1,-1,-1,-1,-1,-1,-1,-1,-1,-1,-1,-1,-1,-1,-1,-1,-1,-1,-1,-1,-1,-1,-1,-1,-1,-1,-1,-1,-1,-1,-1,-1,-1,-1,-1,-1,-1,-1,-1,-1,-1,-1,-1,-1,-1,-1,-1,-1,-1,-1,-1,-1,-1,-1,-1,-1,-1,-1,-1,-1,-1,-1,-1,-1,-1,-1,-1,-1,-1,-1,-1,-1,-1,-1,-1,-1,-1,-1],"split_conditions":[4.2982456E-1,2.4418604E-1,4.473684E-1,1.5004262E-1,8.681171E-2,3.604651E-1,1.5558398E-1,5.7738096E-1,3.3290708E-1,4.3860644E-1,1.707161E-1,-1.2692308E-1,2.6666668E-1,2.8157896E-1,2.4418604E-1,1.6875E-1,-2.4000001E-1,1.744186E-1,1.5E-1,1.9459459E-1,-3.214286E-2,2.2500001E-1,-2.2702704E-1,2.2500001E-1,-1.826087E-1,2.9711542E-1,1.0909092E-1,-1.20000005E-1,8.123821E-1,-0E0,2.7E-1,-2.951207E-1,9.661825E-3,2.4000001E-1,-1.5E-1,-0E0,2.3225807E-1,5.714286E-2,-2.6250002E-1,-2.4166669E-1,1.5E-1,-2.7857143E-1,-3.0000001E-2,-2.0000002E-1,2.0000002E-1,3.75E-2,-2.6250002E-1,1.6101439E-2,2.9387757E-1,2.2500001E-1,-2.2500001E-1,-2.9708904E-1,-2.7096775E-1,1.5000001E-2,6.35477E-1,2.2500001E-1,-2.2500001E-1,2.6785716E-1,-7.5E-2,2.6250002E-1,-6.428572E-2,-8.5714296E-2,-2.7E-1,1.5E-1,-2.4000001E-1,-0E0,2.5714287E-1,-2.2500001E-1,2.4000001E-1,2.2200002E-1,5E-1,-2.8928572E-1,-9.375E-2,2.5714287E-1,-1.07142866E-1,-2.7835053E-1,1.20000005E-1,2.8846154E-1,-0E0,1.5E-1,-2.0000002E-1,-1.6363637E-1,2.2500001E-1,-2.2500001E-1,7.5E-2,-7.5E-2,-2.888889E-1,-1.5E-1,2.4000001E-1,1.5E-1,-1.5E-1,-2.0000002E-1,2.4375E-1,1.25E-1,-2.7E-1,-0E0,-2.9347828E-1,1.20000005E-1,-1.75E-1,-1.75E-1,2.0000002E-1,-8.5714296E-2,-2.901099E-1,-1.5E-1,2.2500001E-1,-1.5E-1,1.5E-1,-2.1000001E-1,1.5E-1,2.0000002E-1,-1.5E-1,-2.0000002E-1,1.5E-1,2.5531918E-1,-1.5E-1,2.6250002E-1,-1.20000005E-1,-1.5E-1,1.5E-1,-0E0,-2.9779413E-1,-1.5E-1,2.2500001E-1,1.5E-1,-2.1818183E-1,-0E0,-2.6250002E-1,-2.4000001E-1,2.0000002E-1,-1.875E-1,-2.964286E-1,-7.5E-2,-2.5714287E-1,2.6666668E-1,-0E0,1.5E-1,-2.2500001E-1,1.5E-1,-1.5E-1,-0E0,-2.6666668E-1,2.0000002E-1,-2.0000002E-1,-2.5714287E-1,1.5E-1,-2.0000002E-1,1.5E-1,-0E0,2.7906978E-1,-1.5E-1,1.5E-1,1.5E-1,-1.5E-1,-1.5E-1,1.5E-1],"split_indices":[12,13,12,6,4,13,6,14,6,2,6,0,0,9,13,9,0,13,0,13,1,0,1,2147483647,2147483647,2147483647,2147483647,9,14,2147483647,2147483647,13,5,2147483647,2147483647,2147483647,2147483647,2147483647,2147483647,2147483647,2147483647,2147483647,2147483647,2147483647,2147483647,2147483647,2147483647,5,0,2147483647,2147483647,2147483647,2147483647,4,2,2147483647,2147483647,2147483647,2147483647,2147483647,2147483647,2147483647,2147483647,2147483647,2147483647,2147483647,2147483647,2147483647,2147483647,4,12,2147483647,2147483647,2147483647,2147483647,4,3,2147483647,2147483647,2147483647,2147483647,2147483647,2147483647,2147483647,2147483647,2147483647,2147483647,2147483647,2147483647,2147483647,2147483647,2147483647,2147483647,7,0,2147483647,2147483647,2147483647,2147483647,2147483647,2147483647,2147483647,2147483647,2147483647,2147483647,2147483647,2147483647,2147483647,2147483647,2147483647,2147483647,2147483647,2147483647,2147483647,2147483647,2147483647,2147483647,2147483647,2147483647,2147483647,2147483647,2147483647,2147483647,2147483647,2147483647,2147483647,2147483647,2147483647,2147483647,2147483647,2147483647,2147483647,2147483647,2147483647,2147483647,2147483647,2147483647,2147483647,2147483647,2147483647,2147483647,2147483647,2147483647,2147483647,2147483647,2147483647,2147483647,2147483647,2147483647,2147483647,2147483647,2147483647,2147483647,2147483647,2147483647],"split_type":[0,0,0,0,0,0,0,0,0,0,0,0,0,0,0,0,0,0,0,0,0,0,0,0,0,0,0,0,0,0,0,0,0,0,0,0,0,0,0,0,0,0,0,0,0,0,0,0,0,0,0,0,0,0,0,0,0,0,0,0,0,0,0,0,0,0,0,0,0,0,0,0,0,0,0,0,0,0,0,0,0,0,0,0,0,0,0,0,0,0,0,0,0,0,0,0,0,0,0,0,0,0,0,0,0,0,0,0,0,0,0,0,0,0,0,0,0,0,0,0,0,0,0,0,0,0,0,0,0,0,0,0,0,0,0,0,0,0,0,0,0,0,0,0,0,0,0,0,0,0,0,0,0,0,0],"sum_hessian":[2.427E3,2.15E3,2.77E2,2.048E3,1.02E2,3.3E1,2.44E2,1.9E1,2.029E3,6.3E1,3.9E1,2.5E1,8E0,1.13E2,1.31E2,1.5E1,4E0,2.024E3,5E0,3.6E1,2.7E1,3E0,3.6E1,3E0,2.2E1,1.03E2,1E1,1.4E1,1.17E2,6E0,9E0,1.905E3,1.19E2,4E0,1E0,6E0,3E1,2E1,7E0,3.5E1,1E0,1.3E1,9E0,2E0,8E0,7E0,7E0,6.9E1,4.8E1,3E0,3E0,1.751E3,1.54E2,1.9E1,1E2,3E0,3E0,2.7E1,3E0,7E0,1.3E1,6E0,2.9E1,5E0,4E0,2E0,6E0,3E0,4E0,4.9E1,2E1,1.39E2,1.5E1,6E0,1.3E1,9.6E1,4E0,2.5E1,2E0,1E0,2E0,1E1,3E0,3E0,3E0,3E0,2.6E1,1E0,4E0,1E0,1E0,2E0,4.7E1,1.1E1,9E0,2E0,1.37E2,4E0,1.1E1,1.1E1,2E0,6E0,9E1,1E0,3E0,1E0,1E0,9E0,1E0,2E0,1E0,2E0,1E0,4.6E1,1E0,7E0,4E0,1E0,1E0,2E0,1.35E2,1E0,3E0,1E0,1E1,4E0,7E0,4E0,2E0,7E0,8.3E1,3E0,6E0,4.4E1,2E0,1E0,3E0,1E0,1E0,2E0,8E0,2E0,2E0,6E0,1E0,2E0,1E0,2E0,4.2E1,1E0,1E0,1E0,1E0,1E0,1E0],"tree_param":{"num_deleted":"118","num_feature":"16","num_nodes":"155","size_leaf_vector":"0"}},{"base_weights":[-7.2832847E-1,-9.480969E-1,4.1645244E-1,-9.6624684E-1,-0E0,-1.438849E-1,7.250996E-1,6.25E-2,-9.741117E-1,6.666667E-1,-4E-1,-4.4859812E-1,8.484849E-1,9.4067794E-1,5.298507E-1,-3.6363637E-1,8.333333E-1,-9.828393E-1,-6.041667E-1,9.166667E-1,-2.5E-1,7.5E-1,-5.9090906E-1,3.2142857E-1,-7.125E-1,9.677419E-1,-6.666667E-1,9.734513E-1,1.6666667E-1,-6.1538464E-1,6.47541E-1,-6.25E-1,2.5E-1,-9.83871E-1,5E-1,-0E0,-9.6666664E-1,5E-1,-6.666667E-1,-7.5E-1,6.666667E-1,-2.1428572E-1,8E-1,1.25E-1,-7.9452056E-1,9.908257E-1,4E-1,-6.666667E-1,7.5E-1,-7.5E-1,5E-1,2.6666668E-1,8.5897434E-1,5E-1,-8.5714287E-1,6.666667E-1,-5E-1,-9.946269E-1,-9.072581E-1,-3.5714287E-1,8.333333E-1,-8.4210527E-1,5E-1,8E-1,-7E-1,9.230769E-1,-0E0,-7.5E-1,8E-1,-9.705882E-1,-6.25E-1,7.5E-1,-5E-1,-9E-1,-0E0,5E-1,-8.75E-1,9.041096E-1,1.6666667E-1,-0E0,-9.2975205E-1,-5.833333E-1,6.666667E-1,-9.444444E-1,5E-1,-8.888889E-1,5E-1,-5E-1,5E-1,-9.4736844E-1,-3.181818E-1,-5E-1,5E-1,9.4736844E-1,5E-2,9.5454544E-1,3.75E-1,-6.666667E-1,7.5E-1,4E-1,-6.666667E-1,-5.5E-1,-9.596413E-1,2.5E-1,-8.888889E-1,2.857143E-1,-5.625E-1,-5.4545456E-1,7E-1,-6.666667E-1,8.333333E-1,-5E-1,7.5E-1,-9.285714E-1,2.857143E-1,-9.8571426E-1,-5E-1,6.666667E-1,-5E-1,8E-1,-6.666667E-1,-7.8571427E-1,6.666667E-1,6.666667E-1,-8.888889E-1,8.75E-1,-0E0,-6.666667E-1,8E-1,-7.2727275E-1,2.5E-1,5E-1,-9.230769E-1,5E-1,-5E-1,-9E-1,5E-1,6.666667E-1,-5E-1],"categories":[],"categories_nodes":[],"categories_segments":[],"categories_sizes":[],"default_left":[1,1,1,1,1,1,1,1,1,1,1,1,1,1,1,1,1,1,1,1,1,1,1,1,1,1,1,1,1,1,1,1,1,1,1,1,0,1,1,1,1,1,1,1,1,1,1,1,1,1,1,1,1,1,1,1,1,1,1,1,1,1,1,0,1,1,1,1,1,1,1,1,1,1,1,1,0,1,1,1,1,1,1,1,1,1,1,1,1,1,1,1,1,0,1,1,1,1,1,1,1,1,1,1,1,1,1,1,1,1,1,1,1,1,1,1,1,1,1,1,1,1,1,1,1,1,1,1,1,1,1,1,1,1,1,1,1,1,1],"id":1,"left_children":[1,3,5,7,9,11,13,-1,17,-1,-1,23,-1,-1,29,-1,-1,-1,35,-1,-1,-1,-1,41,-1,-1,-1,-1,-1,-1,51,-1,-1,-1,-1,-1,-1,-1,-1,-1,-1,63,-1,-1,-1,-1,-1,-1,-1,-1,-1,75,-1,-1,-1,-1,-1,-1,-1,-1,-1,-1,-1,-1,-1,-1,-1,-1,-1,-1,-1,-1,-1,-1,-1,93,-1,-1,-1,-1,-1,-1,-1,-1,-1,-1,-1,-1,-1,-1,-1,-1,-1,-1,107,-1,-1,-1,-1,-1,-1,-1,-1,-1,-1,-1,-1,-1,-1,-1,-1,-1,-1,-1,-1,-1,-1,-1,-1,-1,-1,-1,-1,-1,-1,-1,-1,-1,-1,-1,-1,-1,-1,-1,-1,-1,-1,-1,-1],"loss_changes":[6.0697034E2,3.4811646E1,6.738053E1,1.6121338E1,1.0666666E1,4.241259E1,1.0066528E1,5.558712E0,5.7668457E0,3.6666665E0,5.931818E0,2.1972645E1,6.608017E0,2.8310547E0,1.8459412E1,1.9204545E0,0E0,3.4337158E0,1.0512499E1,0E0,1.5833334E0,0E0,4.901515E0,7.350001E0,5.594692E0,0E0,0E0,7.2953033E-1,3.4166667E0,2.326923E0,9.595543E0,2.517857E0,1.5833334E0,6.813965E-1,0E0,5.9523807E0,0E0,0E0,0E0,2.7236843E0,0E0,7.4571433E0,1.476923E0,5.325E0,1.5722198E0,0E0,1.95E0,0E0,0E0,1.3500004E0,0E0,1.2425E1,2.286621E0,0E0,0E0,0E0,0E0,0E0,5.061142E0,3.6309528E0,0E0,3.081871E0,0E0,0E0,2.711111E0,0E0,1E0,0E0,0E0,0E0,3.6549034E0,0E0,0E0,0E0,1E0,7.6026306E0,0E0,1.5901299E0,3.4166667E0,2.1333334E0,2.2190247E0,3.2777777E0,0E0,0E0,0E0,0E0,0E0,0E0,0E0,0E0,3.406656E0,0E0,0E0,0E0,8.122727E0,0E0,4.375E0,0E0,0E0,1.95E0,0E0,6.5928564E0,2.1796265E0,1.5833334E0,0E0,3.9619048E0,4.9136906E0,5.1717176E0,1.2249999E0,0E0,0E0,0E0,0E0,0E0,3.9619048E0,0E0,2.568182E0,0E0,0E0,0E0,0E0,2.9340658E0,0E0,0E0,0E0,0E0,1E0,0E0,0E0,2.7818184E0,1.5833334E0,0E0,0E0,0E0,0E0,0E0,0E0,0E0,0E0],"parents":[2147483647,0,0,1,1,2,2,3,3,4,4,5,5,6,6,7,7,8,8,9,9,10,10,11,11,12,12,13,13,14,14,15,15,17,17,18,18,20,20,22,22,23,23,24,24,27,27,28,28,29,29,30,30,31,31,32,32,33,33,35,35,39,39,41,41,42,42,43,43,44,44,46,46,49,49,51,51,52,52,58,58,59,59,61,61,64,64,66,66,70,70,74,74,75,75,77,77,78,78,79,79,80,80,81,81,90,90,94,94,96,96,99,99,101,101,102,102,103,103,105,105,106,106,107,107,108,108,114,114,116,116,121,121,126,126,129,129,130,130],"right_children":[2,4,6,8,10,12,14,-1,18,-1,-1,24,-1,-1,30,-1,-1,-1,36,-1,-1,-1,-1,42,-1,-1,-1,-1,-1,-1,52,-1,-1,-1,-1,-1,-1,-1,-1,-1,-1,64,-1,-1,-1,-1,-1,-1,-1,-1,-1,76,-1,-1,-1,-1,-1,-1,-1,-1,-1,-1,-1,-1,-1,-1,-1,-1,-1,-1,-1,-1,-1,-1,-1,94,-1,-1,-1,-1,-1,-1,-1,-1,-1,-1,-1,-1,-1,-1,-1,-1,-1,-1,108,-1,-1,-1,-1,-1,-1,-1,-1,-1,-1,-1,-1,-1,-1,-1,-1,-1,-1,-1,-1,-1,-1,-1,-1,-1,-1,-1,-1,-1,-1,-1,-1,-1,-1,-1,-1,-1,-1,-1,-1,-1,-1,-1,-1],"split_conditions":[3.7719297E-1,3.7884438E-1,4.473684E-1,1.4876387E-1,4.1058116E-2,4.6944445E-1,1.5473145E-1,1.875E-2,2.2093023E-1,2.0000002E-1,-1.20000005E-1,1.6943735E-1,2.5454548E-1,2.822034E-1,2.4418604E-1,-1.0909092E-1,2.5E-1,-2.948518E-1,1.3704802E-2,2.75E-1,-7.5E-2,2.2500001E-1,-1.7727272E-1,1.2916666E-1,-2.1375E-1,2.9032257E-1,-2.0000002E-1,2.920354E-1,5.0000004E-2,-1.846154E-1,7.467949E-1,-1.875E-1,7.5E-2,-2.951613E-1,1.5E-1,-0E0,-2.9E-1,1.5E-1,-2.0000002E-1,-2.2500001E-1,2.0000002E-1,1.4450127E-1,2.4000001E-1,3.75E-2,-2.3835617E-1,2.9724774E-1,1.20000005E-1,-2.0000002E-1,2.2500001E-1,-2.2500001E-1,1.5E-1,1.9863597E-1,2.576923E-1,1.5E-1,-2.5714287E-1,2.0000002E-1,-1.5E-1,-2.9838806E-1,-2.7217743E-1,-1.07142866E-1,2.5E-1,-2.526316E-1,1.5E-1,2.4000001E-1,-2.1000001E-1,2.769231E-1,-0E0,-2.2500001E-1,2.4000001E-1,-2.9117647E-1,-1.875E-1,2.2500001E-1,-1.5E-1,-2.7E-1,-0E0,1.1528902E-1,-2.6250002E-1,2.712329E-1,5.0000004E-2,-0E0,-2.7892563E-1,-1.75E-1,2.0000002E-1,-2.8333333E-1,1.5E-1,-2.6666668E-1,1.5E-1,-1.5E-1,1.5E-1,-2.8421053E-1,-9.545455E-2,-1.5E-1,1.5E-1,2.8421053E-1,6.774083E-2,2.8636363E-1,1.12500004E-1,-2.0000002E-1,2.2500001E-1,1.20000005E-1,-2.0000002E-1,-1.65E-1,-2.878924E-1,7.5E-2,-2.6666668E-1,8.5714296E-2,-1.6875E-1,-1.6363637E-1,2.1000001E-1,-2.0000002E-1,2.5E-1,-1.5E-1,2.2500001E-1,-2.7857143E-1,8.5714296E-2,-2.957143E-1,-1.5E-1,2.0000002E-1,-1.5E-1,2.4000001E-1,-2.0000002E-1,-2.3571429E-1,2.0000002E-1,2.0000002E-1,-2.6666668E-1,2.6250002E-1,-0E0,-2.0000002E-1,2.4000001E-1,-2.1818183E-1,7.5E-2,1.5E-1,-2.769231E-1,1.5E-1,-1.5E-1,-2.7E-1,1.5E-1,2.0000002E-1,-1.5E-1],"split_indices":[12,15,12,6,4,15,6,8,13,1,15,6,4,5,13,2147483647,2147483647,6,5,2147483647,2147483647,2147483647,2147483647,15,4,2147483647,2147483647,2147483647,2147483647,12,14,2147483647,2147483647,2147483647,2147483647,15,0,2147483647,2147483647,2147483647,2147483647,6,7,2147483647,2147483647,2147483647,2147483647,2147483647,2147483647,2147483647,2147483647,6,7,2147483647,2147483647,2147483647,2147483647,2147483647,2147483647,2147483647,2147483647,2147483647,2147483647,0,6,2147483647,2147483647,2147483647,2147483647,2147483647,2147483647,2147483647,2147483647,2147483647,2147483647,1,0,2147483647,2147483647,2147483647,2147483647,2147483647,2147483647,2147483647,2147483647,2147483647,2147483647,2147483647,2147483647,2147483647,2147483647,2147483647,2147483647,0,8,2147483647,2147483647,2147483647,2147483647,2147483647,2147483647,2147483647,2147483647,2147483647,2147483647,2147483647,2147483647,5,14,2147483647,2147483647,2147483647,2147483647,2147483647,2147483647,2147483647,2147483647,2147483647,2147483647,2147483647,2147483647,2147483647,2147483647,2147483647,2147483647,2147483647,2147483647,2147483647,2147483647,2147483647,2147483647,2147483647,2147483647,2147483647,2147483647,2147483647,2147483647,2147483647,2147483647],"split_type":[0,0,0,0,0,0,0,0,0,0,0,0,0,0,0,0,0,0,0,0,0,0,0,0,0,0,0,0,0,0,0,0,0,0,0,0,0,0,0,0,0,0,0,0,0,0,0,0,0,0,0,0,0,0,0,0,0,0,0,0,0,0,0,0,0,0,0,0,0,0,0,0,0,0,0,0,0,0,0,0,0,0,0,0,0,0,0,0,0,0,0,0,0,0,0,0,0,0,0,0,0,0,0,0,0,0,0,0,0,0,0,0,0,0,0,0,0,0,0,0,0,0,0,0,0,0,0,0,0,0,0,0,0,0,0,0,0,0,0],"sum_hessian":[2.41E3,2.022E3,3.88E2,1.984E3,3.8E1,1.38E2,2.5E2,1.5E1,1.969E3,1.4E1,2.4E1,1.06E2,3.2E1,1.17E2,1.33E2,1E1,5E0,1.922E3,4.7E1,1.1E1,3E0,3E0,2.1E1,2.7E1,7.9E1,3E1,2E0,1.12E2,5E0,1.2E1,1.21E2,7E0,3E0,1.921E3,1E0,1.8E1,2.9E1,1E0,2E0,1.9E1,2E0,1.3E1,1.4E1,7E0,7.2E1,1.08E2,4E0,2E0,3E0,1.1E1,1E0,4.4E1,7.7E1,1E0,6E0,2E0,1E0,1.674E3,2.47E2,1.3E1,5E0,1.8E1,1E0,4E0,9E0,1.2E1,2E0,3E0,4E0,3.3E1,3.9E1,3E0,1E0,9E0,2E0,3.7E1,7E0,7.2E1,5E0,6E0,2.41E2,1.1E1,2E0,1.7E1,1E0,8E0,1E0,1E0,1E0,1.8E1,2.1E1,1E0,1E0,1.8E1,1.9E1,6.5E1,7E0,2E0,3E0,4E0,2E0,1.9E1,2.22E2,3E0,8E0,6E0,1.5E1,1E1,9E0,2E0,5E0,1E0,3E0,1.3E1,6E0,2.09E2,1.3E1,2E0,1E0,4E0,2E0,1.3E1,2E0,2E0,8E0,7E0,2E0,2E0,4E0,1E1,3E0,1E0,1.2E1,1E0,1E0,9E0,1E0,2E0,1E0],"tree_param":{"num_deleted":"104","num_feature":"16","num_nodes":"139","size_leaf_vector":"0"}},{"base_weights":[-8.6745405E-1,-9.3726766E-1,2.5185186E-1,4.347826E-1,-9.5164317E-1,4.8421052E-1,-2.9268292E-1,-3E-1,9.285714E-1,-9.6070075E-1,1.0526316E-1,5.8426964E-1,-8.5714287E-1,2.6086956E-1,-9.4736844E-1,-8.333333E-1,4E-1,-9.831461E-1,-6.7096776E-1,4.6153846E-1,-5.714286E-1,-1.0526316E-1,7.605634E-1,5.882353E-1,-5.714286E-1,-5E-1,7.5E-1,-9.841594E-1,5E-1,1E-1,-8.492063E-1,7.2727275E-1,-6.666667E-1,-8.333333E-1,5E-1,8E-1,-4E-1,-6.666667E-1,8.115942E-1,-4E-1,9.230769E-1,-8.333333E-1,5E-1,-9.916295E-1,-8.9759034E-1,8.888889E-1,-2.2727273E-1,-1.0526316E-1,-9.722222E-1,9E-1,-5E-1,6.666667E-1,-6.1538464E-1,4.5833334E-1,9.782609E-1,5E-1,-7.5E-1,5E-1,-9.4409937E-1,-4.2105263E-1,7.5E-1,-5.833333E-1,6.25E-1,-7.5E-1,5E-1,8E-1,-1E-1,8E-1,-5E-1,-9.681529E-1,-0E0,-5.882353E-1,6.666667E-1,-9E-1,6.666667E-1,8.5714287E-1,-5E-1,-8.888889E-1,-2.5E-1,-0E0,9.230769E-1,7.5E-1,-5.714286E-1,-0E0,-9.806452E-1,-6.666667E-1,6.666667E-1,-0E0,-9.0909094E-1,-6.666667E-1,5E-1,-5E-1,5E-1,-8.333333E-1,5E-1,5E-1,-5E-1,-4E-1,6.666667E-1,-7.5E-1,5E-1],"categories":[],"categories_nodes":[],"categories_segments":[],"categories_sizes":[],"default_left":[1,1,1,1,1,1,1,1,0,1,1,1,0,1,0,1,1,1,1,1,1,1,1,1,1,1,1,1,0,1,1,1,1,1,1,1,1,1,1,1,1,1,1,0,1,0,1,1,0,1,1,1,1,1,1,1,1,1,1,1,1,1,1,1,1,1,1,1,1,1,1,1,1,1,1,1,1,1,1,1,1,1,1,1,1,1,1,1,1,1,1,1,1,1,1,1,1,1,1,1,1],"id":2,"left_children":[1,3,5,7,9,11,13,-1,-1,17,-1,21,-1,-1,-1,-1,-1,27,29,-1,-1,-1,-1,-1,-1,-1,-1,43,-1,45,47,-1,-1,-1,-1,-1,-1,-1,-1,-1,-1,-1,-1,-1,57,-1,-1,-1,-1,-1,-1,-1,-1,-1,-1,-1,-1,-1,-1,-1,-1,-1,-1,-1,-1,-1,-1,-1,-1,-1,-1,-1,-1,-1,-1,-1,-1,-1,-1,-1,-1,-1,-1,-1,-1,-1,-1,-1,-1,-1,-1,-1,-1,-1,-1,-1,-1,-1,-1,-1,-1],"loss_changes":[1.7887048E2,4.285962E1,1.7222916E1,8.623602E0,2.04917E1,1.3251196E1,1.5105654E1,4.0666666E0,0E0,1.3074951E1,4.8444185E0,1.0898926E1,0E0,6.6028495E0,0E0,0E0,1.95E0,3.4349365E0,2.1384438E1,4.3822846E0,2.3809521E0,5.389474E0,5.712185E0,5.9945707E0,2.3809521E0,0E0,0E0,3.7548828E-1,0E0,7.9474745E0,1.142878E1,2.7818184E0,0E0,0E0,0E0,0E0,3.8564105E0,0E0,3.614132E0,1.95E0,0E0,0E0,0E0,0E0,1.1262146E1,0E0,4.4820576E0,6.997807E0,0E0,0E0,0E0,0E0,2.326923E0,4.6583343E0,0E0,0E0,0E0,2.2E0,3.656128E0,3.8472652E0,0E0,5.35E0,2.517857E0,6.1111116E-1,0E0,1.476923E0,4.4357142E0,0E0,0E0,1.898819E0,2.6666667E0,3.2085562E0,0E0,0E0,0E0,0E0,0E0,0E0,1.5833334E0,1E0,0E0,0E0,2.3809521E0,1E0,0E0,0E0,0E0,2.1333334E0,0E0,0E0,0E0,0E0,0E0,0E0,0E0,0E0,0E0,1.95E0,0E0,0E0,0E0],"parents":[2147483647,0,0,1,1,2,2,3,3,4,4,5,5,6,6,7,7,9,9,10,10,11,11,13,13,16,16,17,17,18,18,19,19,20,20,21,21,22,22,23,23,24,24,27,27,29,29,30,30,31,31,36,36,38,38,39,39,44,44,46,46,47,47,52,52,53,53,57,57,58,58,59,59,61,61,62,62,63,63,65,65,66,66,69,69,70,70,71,71,78,78,79,79,82,82,83,83,87,87,97,97],"right_children":[2,4,6,8,10,12,14,-1,-1,18,-1,22,-1,-1,-1,-1,-1,28,30,-1,-1,-1,-1,-1,-1,-1,-1,44,-1,46,48,-1,-1,-1,-1,-1,-1,-1,-1,-1,-1,-1,-1,-1,58,-1,-1,-1,-1,-1,-1,-1,-1,-1,-1,-1,-1,-1,-1,-1,-1,-1,-1,-1,-1,-1,-1,-1,-1,-1,-1,-1,-1,-1,-1,-1,-1,-1,-1,-1,-1,-1,-1,-1,-1,-1,-1,-1,-1,-1,-1,-1,-1,-1,-1,-1,-1,-1,-1,-1,-1],"split_conditions":[2.906977E-1,1.4876387E-1,9.294228E-2,2.7192983E-1,3.7715518E-1,6.052631E-1,2.1227622E-1,-9E-2,2.7857143E-1,1.744186E-1,3.157895E-2,6.578398E-1,-2.5714287E-1,7.826087E-2,-2.8421053E-1,-2.5E-1,1.20000005E-1,5.877193E-1,9.748191E-3,1.3846155E-1,-1.7142859E-1,-3.157895E-2,2.2816902E-1,1.7647061E-1,-1.7142859E-1,-1.5E-1,2.2500001E-1,1.2790698E-1,1.5E-1,4.4352937E-2,3.233518E-2,2.1818183E-1,-2.0000002E-1,-2.5E-1,1.5E-1,2.4000001E-1,-1.20000005E-1,-2.0000002E-1,2.4347827E-1,-1.20000005E-1,2.769231E-1,-2.5E-1,1.5E-1,-2.9748887E-1,5.6352774E-3,2.6666668E-1,-6.818182E-2,-3.157895E-2,-2.916667E-1,2.7E-1,-1.5E-1,2.0000002E-1,-1.846154E-1,1.375E-1,2.9347828E-1,1.5E-1,-2.2500001E-1,1.5E-1,-2.8322983E-1,-1.263158E-1,2.2500001E-1,-1.75E-1,1.875E-1,-2.2500001E-1,1.5E-1,2.4000001E-1,-3.0000001E-2,2.4000001E-1,-1.5E-1,-2.9044586E-1,-0E0,-1.7647061E-1,2.0000002E-1,-2.7E-1,2.0000002E-1,2.5714287E-1,-1.5E-1,-2.6666668E-1,-7.5E-2,-0E0,2.769231E-1,2.2500001E-1,-1.7142859E-1,-0E0,-2.9419357E-1,-2.0000002E-1,2.0000002E-1,-0E0,-2.7272728E-1,-2.0000002E-1,1.5E-1,-1.5E-1,1.5E-1,-2.5E-1,1.5E-1,1.5E-1,-1.5E-1,-1.20000005E-1,2.0000002E-1,-2.2500001E-1,1.5E-1],"split_indices":[13,6,4,12,15,12,6,3,0,13,4,14,0,0,0,2147483647,2147483647,12,5,2147483647,2147483647,1,7,2147483647,2147483647,2147483647,2147483647,13,0,4,4,2147483647,2147483647,2147483647,2147483647,2147483647,2147483647,2147483647,2147483647,2147483647,2147483647,2147483647,2147483647,0,5,0,5,0,0,2147483647,2147483647,2147483647,2147483647,2147483647,2147483647,2147483647,2147483647,0,2,2147483647,2147483647,2147483647,2147483647,2147483647,2147483647,2147483647,2147483647,2147483647,2147483647,2147483647,2147483647,2147483647,2147483647,2147483647,2147483647,2147483647,2147483647,2147483647,2147483647,2147483647,2147483647,2147483647,2147483647,2147483647,2147483647,2147483647,2147483647,2147483647,2147483647,2147483647,2147483647,2147483647,2147483647,2147483647,2147483647,2147483647,2147483647,2147483647,2147483647,2147483647,2147483647],"split_type":[0,0,0,0,0,0,0,0,0,0,0,0,0,0,0,0,0,0,0,0,0,0,0,0,0,0,0,0,0,0,0,0,0,0,0,0,0,0,0,0,0,0,0,0,0,0,0,0,0,0,0,0,0,0,0,0,0,0,0,0,0,0,0,0,0,0,0,0,0,0,0,0,0,0,0,0,0,0,0,0,0,0,0,0,0,0,0,0,0,0,0,0,0,0,0,0,0,0,0,0,0],"sum_hessian":[2.285E3,2.151E3,1.34E2,2.2E1,2.129E3,9.4E1,4E1,9E0,1.3E1,2.111E3,1.8E1,8.8E1,6E0,2.2E1,1.8E1,5E0,4E0,1.957E3,1.54E2,1.2E1,6E0,1.8E1,7E1,1.6E1,6E0,1E0,3E0,1.956E3,1E0,2.9E1,1.25E2,1E1,2E0,5E0,1E0,4E0,1.4E1,2E0,6.8E1,4E0,1.2E1,5E0,1E0,1.791E3,1.65E2,8E0,2.1E1,1.8E1,1.07E2,9E0,1E0,2E0,1.2E1,2.3E1,4.5E1,1E0,3E0,5E0,1.6E2,1.8E1,3E0,1.1E1,7E0,1.1E1,1E0,1.4E1,9E0,4E0,1E0,1.56E2,4E0,1.6E1,2E0,9E0,2E0,6E0,1E0,8E0,3E0,2E0,1.2E1,3E0,6E0,2E0,1.54E2,2E0,2E0,6E0,1E1,2E0,1E0,1E0,1E0,5E0,1E0,1E0,1E0,4E0,2E0,3E0,1E0],"tree_param":{"num_deleted":"70","num_feature":"16","num_nodes":"101","size_leaf_vector":"0"}},{"base_weights":[-8.8715434E-1,-9.467484E-1,1.6528925E-1,-9.762146E-1,-5.442177E-1,7.6785713E-1,-3.4848484E-1,1E-1,-9.811896E-1,2.6086956E-1,-6.88E-1,9.74359E-1,2.777778E-1,-6.666667E-1,1.0714286E-1,7.5E-1,-2.857143E-1,-9.8219734E-1,5E-1,-7.5E-1,4.5E-1,1.1764706E-1,-8.0733943E-1,6.4285713E-1,-8E-1,-8.4375E-1,1.25E-1,-8E-1,2.9166666E-1,6.666667E-1,-8E-1,-9.927455E-1,-8.685714E-1,6.875E-1,-4E-1,8.5714287E-1,-3.6363637E-1,-4.0625E-1,-9.6153843E-1,7.692308E-1,-5E-1,5E-1,-9.032258E-1,7.5E-1,-4E-1,6.4285713E-1,-1.8181819E-1,-9.101796E-1,-0E0,8E-1,-5E-1,-7.5E-1,5E-1,-6.666667E-1,6.666667E-1,-6.956522E-1,3E-1,-9.861111E-1,-5.714286E-1,-5E-1,9.166667E-1,-7.5E-1,5E-1,9.166667E-1,-6.666667E-1,-8E-1,2.857143E-1,-7.887324E-1,-9.896907E-1,-7.5E-1,5E-1,-0E0,9.230769E-1,-8.75E-1,5E-1,5E-1,-7.7272725E-1,-4E-1,8.333333E-1,5E-1,-8.333333E-1,-2.5E-1,7.5E-1,4E-1,-8.6567163E-1,8E-1,-5E-1,5E-1,-5E-1,-8.5714287E-1,5E-1,5E-1,-7.5E-1,5E-1,-6.666667E-1,7.5E-1,-5E-1,-8.939394E-1,5E-1,-2.5E-1,-9.444444E-1,-9.7619045E-1,-7.2E-1,5E-1,-6.666667E-1,2.5E-1,-8.636364E-1,6.666667E-1,-5E-1,-0E0,-9.5E-1,-5E-1,5E-1],"categories":[],"categories_nodes":[],"categories_segments":[],"categories_sizes":[],"default_left":[1,1,1,1,1,1,1,1,1,1,1,0,1,1,1,1,1,1,1,1,1,1,1,1,0,1,1,1,1,1,1,1,1,1,1,1,1,1,1,1,1,1,1,1,1,1,1,1,1,1,1,1,1,1,1,1,1,1,1,1,1,1,1,1,1,1,1,1,1,1,1,1,1,1,1,1,1,1,1,1,1,1,1,1,1,1,1,1,1,1,1,1,1,1,1,1,1,1,1,1,1,1,1,1,1,1,1,1,1,1,1,1,1],"id":3,"left_children":[1,3,5,7,9,11,13,-1,-1,-1,21,-1,23,-1,-1,-1,-1,-1,-1,-1,-1,-1,-1,-1,-1,-1,-1,-1,-1,-1,-1,-1,-1,-1,-1,-1,-1,-1,-1,-1,-1,-1,-1,-1,-1,-1,-1,-1,-1,-1,-1,-1,-1,-1,-1,-1,-1,-1,-1,-1,-1,-1,-1,-1,-1,-1,-1,-1,-1,-1,-1,-1,-1,-1,-1,-1,-1,-1,-1,-1,-1,-1,-1,-1,-1,-1,-1,-1,-1,-1,-1,-1,-1,-1,-1,-1,-1,-1,-1,-1,-1,-1,-1,-1,-1,-1,-1,-1,-1,-1,-1,-1,-1],"loss_changes":[1.4077332E2,2.4637817E1,3.7727222E1,1.06779785E1,1.71958E1,5.396675E0,9.63961E0,2.7214286E0,3.427124E0,4.7347827E0,1.2113159E1,0E0,7.596825E0,5.572916E0,4.920238E0,0E0,3.9619048E0,1.4941406E0,0E0,0E0,4.3125E0,6.362108E0,6.350769E0,2.4065933E0,0E0,3.0090733E0,2.925E0,0E0,4.107684E0,0E0,0E0,0E0,6.3244476E0,2.5375004E0,1.95E0,0E0,3.878788E0,6.7491846E0,1.8421173E-1,2.8910255E0,0E0,0E0,0E0,0E0,1.95E0,5.630952E0,3.407792E0,8.32016E-1,3.75E0,1.476923E0,0E0,0E0,0E0,2.625E0,0E0,2.505929E0,4.0666666E0,0E0,2.3809521E0,0E0,0E0,0E0,0E0,0E0,0E0,0E0,1.9285715E0,6.839939E0,0E0,0E0,2.2E0,1E0,0E0,0E0,0E0,0E0,2.7922077E0,1.95E0,0E0,0E0,0E0,1.5833334E0,0E0,1.95E0,3.0334702E0,0E0,0E0,0E0,0E0,8.7698364E-1,0E0,0E0,0E0,0E0,0E0,0E0,0E0,2.4138641E-1,0E0,1.5833334E0,0E0,0E0,3.69909E0,0E0,0E0,1.5833334E0,1.6409092E0,0E0,0E0,1E0,0E0,0E0,0E0],"parents":[2147483647,0,0,1,1,2,2,3,3,4,4,5,5,6,6,7,7,8,8,9,9,10,10,12,12,13,13,14,14,16,16,17,17,20,20,21,21,22,22,23,23,25,25,26,26,28,28,32,32,33,33,34,34,36,36,37,37,38,38,39,39,44,44,45,45,46,46,47,47,48,48,49,49,53,53,55,55,56,56,58,58,66,66,67,67,70,70,71,71,76,76,77,77,81,81,83,83,84,84,89,89,97,97,99,99,102,102,105,105,106,106,109,109],"right_children":[2,4,6,8,10,12,14,-1,-1,-1,22,-1,24,-1,-1,-1,-1,-1,-1,-1,-1,-1,-1,-1,-1,-1,-1,-1,-1,-1,-1,-1,-1,-1,-1,-1,-1,-1,-1,-1,-1,-1,-1,-1,-1,-1,-1,-1,-1,-1,-1,-1,-1,-1,-1,-1,-1,-1,-1,-1,-1,-1,-1,-1,-1,-1,-1,-1,-1,-1,-1,-1,-1,-1,-1,-1,-1,-1,-1,-1,-1,-1,-1,-1,-1,-1,-1,-1,-1,-1,-1,-1,-1,-1,-1,-1,-1,-1,-1,-1,-1,-1,-1,-1,-1,-1,-1,-1,-1,-1,-1,-1,-1],"split_conditions":[2.906977E-1,2.3746867E-1,1.4399167E-2,1.4876387E-1,9.561073E-3,1.713555E-1,5.053191E-1,3.0000001E-2,-2.9435688E-1,7.826087E-2,2.5824177E-1,2.923077E-1,1.682682E-1,-2.0000002E-1,3.214286E-2,2.2500001E-1,-8.5714296E-2,-2.9465923E-1,1.5E-1,-2.2500001E-1,1.35E-1,3.529412E-2,-2.4220183E-1,1.9285715E-1,-2.4000001E-1,-2.53125E-1,3.75E-2,-2.4000001E-1,8.75E-2,2.0000002E-1,-2.4000001E-1,-2.9782367E-1,-2.6057142E-1,2.0625001E-1,-1.20000005E-1,2.5714287E-1,-1.0909092E-1,-1.21875E-1,-2.8846154E-1,2.3076925E-1,-1.5E-1,1.5E-1,-2.7096775E-1,2.2500001E-1,-1.20000005E-1,1.9285715E-1,-5.454546E-2,-2.7305388E-1,-0E0,2.4000001E-1,-1.5E-1,-2.2500001E-1,1.5E-1,-2.0000002E-1,2.0000002E-1,-2.0869567E-1,9E-2,-2.9583335E-1,-1.7142859E-1,-1.5E-1,2.75E-1,-2.2500001E-1,1.5E-1,2.75E-1,-2.0000002E-1,-2.4000001E-1,8.5714296E-2,-2.3661973E-1,-2.9690722E-1,-2.2500001E-1,1.5E-1,-0E0,2.769231E-1,-2.6250002E-1,1.5E-1,1.5E-1,-2.3181818E-1,-1.20000005E-1,2.5E-1,1.5E-1,-2.5E-1,-7.5E-2,2.2500001E-1,1.20000005E-1,-2.597015E-1,2.4000001E-1,-1.5E-1,1.5E-1,-1.5E-1,-2.5714287E-1,1.5E-1,1.5E-1,-2.2500001E-1,1.5E-1,-2.0000002E-1,2.2500001E-1,-1.5E-1,-2.6818183E-1,1.5E-1,-7.5E-2,-2.8333333E-1,-2.9285714E-1,-2.1600002E-1,1.5E-1,-2.0000002E-1,7.5E-2,-2.5909093E-1,2.0000002E-1,-1.5E-1,-0E0,-2.85E-1,-1.5E-1,1.5E-1],"split_indices":[13,15,5,6,5,6,15,4,12,5,7,0,1,9,6,2147483647,2147483647,2147483647,2147483647,2147483647,2147483647,4,5,0,0,2147483647,2147483647,2147483647,2147483647,2147483647,2147483647,2147483647,2147483647,2147483647,2147483647,2147483647,2147483647,2147483647,2147483647,2147483647,2147483647,2147483647,2147483647,2147483647,2147483647,2147483647,2147483647,2147483647,2147483647,2147483647,2147483647,2147483647,2147483647,2147483647,2147483647,2147483647,2147483647,2147483647,2147483647,2147483647,2147483647,2147483647,2147483647,2147483647,2147483647,2147483647,2147483647,2147483647,2147483647,2147483647,2147483647,2147483647,2147483647,2147483647,2147483647,2147483647,2147483647,2147483647,2147483647,2147483647,2147483647,2147483647,2147483647,2147483647,2147483647,2147483647,2147483647,2147483647,2147483647,2147483647,2147483647,2147483647,2147483647,2147483647,2147483647,2147483647,2147483647,2147483647,2147483647,2147483647,2147483647,2147483647,2147483647,2147483647,2147483647,2147483647,2147483647,2147483647,2147483647,2147483647,2147483647,2147483647,2147483647],"split_type":[0,0,0,0,0,0,0,0,0,0,0,0,0,0,0,0,0,0,0,0,0,0,0,0,0,0,0,0,0,0,0,0,0,0,0,0,0,0,0,0,0,0,0,0,0,0,0,0,0,0,0,0,0,0,0,0,0,0,0,0,0,0,0,0,0,0,0,0,0,0,0,0,0,0,0,0,0,0,0,0,0,0,0,0,0,0,0,0,0,0,0,0,0,0,0,0,0,0,0,0,0,0,0,0,0,0,0,0,0,0,0,0,0],"sum_hessian":[2.241E3,2.121E3,1.2E2,1.975E3,1.46E2,5.5E1,6.5E1,9E0,1.966E3,2.2E1,1.24E2,3.8E1,1.7E1,3.8E1,2.7E1,3E0,6E0,1.965E3,1E0,3E0,1.9E1,1.6E1,1.08E2,1.3E1,4E0,3.1E1,7E0,4E0,2.3E1,2E0,4E0,1.791E3,1.74E2,1.5E1,4E0,6E0,1E1,3.1E1,7.7E1,1.2E1,1E0,1E0,3E1,3E0,4E0,1.3E1,1E1,1.66E2,8E0,1.4E1,1E0,3E0,1E0,8E0,2E0,2.2E1,9E0,7.1E1,6E0,1E0,1.1E1,3E0,1E0,1.1E1,2E0,4E0,6E0,7E1,9.6E1,3E0,5E0,2E0,1.2E1,7E0,1E0,1E0,2.1E1,4E0,5E0,1E0,5E0,3E0,3E0,4E0,6.6E1,4E0,1E0,1E0,1E0,2E1,1E0,1E0,3E0,1E0,2E0,3E0,1E0,6.5E1,1E0,3E0,1.7E1,4.1E1,2.4E1,1E0,2E0,3E0,2.1E1,2E0,1E0,2E0,1.9E1,1E0,1E0],"tree_param":{"num_deleted":"94","num_feature":"16","num_nodes":"113","size_leaf_vector":"0"}},{"base_weights":[-9.0655446E-1,-9.5486933E-1,-2.4025974E-1,3.125E-1,-9.6411484E-1,1.1363637E-2,-5.671642E-1,-5E-1,7.2727275E-1,-9.8316324E-1,-6.7175573E-1,-4.0625E-1,2.4561404E-1,3.5714287E-1,-7.962963E-1,5E-1,-8E-1,9E-1,-5E-1,-9.841756E-1,5E-1,6.451613E-2,-8.910891E-1,7.5E-1,-5.5172414E-1,4.5238096E-1,-3.125E-1,-5E-1,8.888889E-1,-5.217391E-1,-9.6875E-1,-9.928375E-1,-8.689655E-1,4.2105263E-1,-4.6153846E-1,-5.6E-1,-9.87013E-1,-7.083333E-1,1.6666667E-1,9.375E-1,1.4814815E-1,-7.5E-1,8E-1,5E-1,-8E-1,-8.235294E-1,2.857143E-1,-0E0,-9.064748E-1,5.882353E-1,-6.666667E-1,6.666667E-1,-7.2727275E-1,-9.166667E-1,-2.1428572E-1,2.5E-1,-8.5714287E-1,-6.666667E-1,7.5E-1,-8.333333E-1,4.090909E-1,5E-1,-9.0909094E-1,-9.3333334E-1,-0E0,8E-1,-6.666667E-1,-7.5E-1,7.5E-1,-8.0597013E-1,-9.8630136E-1,-5E-1,6.875E-1,-9E-1,5E-1,2.857143E-1,-6.25E-1,-5E-1,6.666667E-1,-9.5E-1,5E-1,-2.857143E-1,6.875E-1,5E-1,-5E-1,-8.77193E-1,-3.6363637E-1,8E-1,-5E-1,-6.666667E-1,8E-1,5E-1,-8.5714287E-1,2.5E-1,-7.5E-1,9.230769E-1,-2.5E-1,-9.074074E-1,-2.5E-1,1.6666667E-1,-8.333333E-1,9.230769E-1,-0E0,-5E-1,6.666667E-1,5E-1,-6.666667E-1,-9.375E-1,-5.714286E-1,5E-1,-6.666667E-1,-6.666667E-1,7.5E-1,-5E-1,5E-1,-9.7619045E-1,-5.714286E-1,5E-1,-8.333333E-1,5E-1,-8.333333E-1],"categories":[],"categories_nodes":[],"categories_segments":[],"categories_sizes":[],"default_left":[1,1,1,1,1,1,1,1,1,1,1,1,1,1,1,1,1,1,1,1,1,1,1,1,1,1,1,1,1,1,1,1,1,1,1,1,1,1,1,0,1,1,0,1,1,1,1,1,1,1,1,1,1,1,1,1,1,1,1,0,1,1,1,1,1,1,1,1,1,1,1,1,1,1,1,1,1,1,1,1,1,1,1,1,1,1,1,1,1,1,1,1,1,1,1,1,1,1,1,1,1,1,1,1,1,1,1,1,1,1,1,1,1,1,1,1,1,1,1,1,1],"id":4,"left_children":[1,3,5,-1,9,11,13,-1,-1,-1,21,-1,25,-1,-1,-1,-1,-1,-1,-1,-1,-1,-1,-1,-1,39,41,-1,-1,-1,-1,-1,-1,-1,-1,-1,-1,-1,-1,-1,59,-1,-1,-1,-1,-1,-1,-1,-1,-1,-1,-1,-1,-1,-1,-1,-1,-1,-1,-1,-1,-1,-1,-1,-1,-1,-1,-1,-1,-1,-1,-1,-1,-1,-1,-1,-1,-1,-1,-1,-1,-1,-1,-1,-1,-1,-1,-1,-1,-1,-1,-1,-1,-1,-1,-1,-1,-1,-1,-1,-1,-1,-1,-1,-1,-1,-1,-1,-1,-1,-1,-1,-1,-1,-1,-1,-1,-1,-1,-1,-1],"loss_changes":[7.245996E1,2.4966553E1,1.2673992E1,5.755682E0,1.097876E1,8.708483E0,1.4474216E1,2.2E0,2.7818184E0,3.4349365E0,2.1212555E1,5.796336E0,6.719141E0,6.8253965E0,2.0513763E0,0E0,0E0,0E0,0E0,1.0921631E0,0E0,6.00862E0,2.6549606E0,0E0,3.3807478E0,6.0598545E0,8.3875E0,2.2E0,0E0,5.83997E0,0E0,0E0,4.7261734E0,3.8472652E0,4.3822846E0,2.8861904E0,0E0,3.6369047E0,3.4166667E0,0E0,7.2558923E0,2.840909E0,0E0,0E0,0E0,1.5372553E0,3.9619048E0,4.5E0,3.202591E-1,2.1801472E0,0E0,0E0,2.7818184E0,0E0,3.0535715E0,1.5833334E0,3.1214275E0,0E0,0E0,0E0,4.4521103E0,0E0,0E0,0E0,1E0,0E0,0E0,0E0,0E0,1.7918053E0,0E0,0E0,2.5375004E0,0E0,0E0,3.9619048E0,2.517857E0,0E0,0E0,0E0,0E0,1.9285715E0,3.7644234E0,0E0,0E0,8.5331345E-1,2.8787875E0,1.476923E0,0E0,0E0,0E0,0E0,0E0,1.5833334E0,0E0,0E0,1.5833334E0,1.0250092E-2,1.5833334E0,3.4166667E0,0E0,0E0,1E0,0E0,0E0,0E0,0E0,1.22024536E-1,2.3809521E0,0E0,0E0,0E0,0E0,0E0,0E0,0E0,2.3809521E0,0E0,0E0,0E0,0E0],"parents":[2147483647,0,0,1,1,2,2,3,3,4,4,5,5,6,6,7,7,8,8,9,9,10,10,11,11,12,12,13,13,14,14,19,19,21,21,22,22,24,24,25,25,26,26,27,27,29,29,32,32,33,33,34,34,35,35,37,37,38,38,40,40,41,41,45,45,46,46,47,47,48,48,49,49,52,52,54,54,55,55,56,56,60,60,64,64,69,69,72,72,75,75,76,76,81,81,82,82,85,85,86,86,87,87,93,93,96,96,97,97,98,98,99,99,102,102,107,107,108,108,116,116],"right_children":[2,4,6,-1,10,12,14,-1,-1,-1,22,-1,26,-1,-1,-1,-1,-1,-1,-1,-1,-1,-1,-1,-1,40,42,-1,-1,-1,-1,-1,-1,-1,-1,-1,-1,-1,-1,-1,60,-1,-1,-1,-1,-1,-1,-1,-1,-1,-1,-1,-1,-1,-1,-1,-1,-1,-1,-1,-1,-1,-1,-1,-1,-1,-1,-1,-1,-1,-1,-1,-1,-1,-1,-1,-1,-1,-1,-1,-1,-1,-1,-1,-1,-1,-1,-1,-1,-1,-1,-1,-1,-1,-1,-1,-1,-1,-1,-1,-1,-1,-1,-1,-1,-1,-1,-1,-1,-1,-1,-1,-1,-1,-1,-1,-1,-1,-1,-1,-1],"split_conditions":[3.0930737E-1,1.5068202E-1,7.605596E-2,9.375E-2,1.744186E-1,7.777443E-2,1.8861893E-1,-1.5E-1,2.1818183E-1,-2.94949E-1,9.761468E-3,-1.21875E-1,2.1937978E-1,1.07142866E-1,-2.388889E-1,1.5E-1,-2.4000001E-1,2.7E-1,-1.5E-1,-2.952527E-1,1.5E-1,1.9354839E-2,-2.6732674E-1,2.2500001E-1,-1.6551724E-1,3.466092E-2,6.124699E-1,-1.5E-1,2.6666668E-1,-1.5652174E-1,-2.90625E-1,-2.9785126E-1,-2.6068968E-1,1.263158E-1,-1.3846155E-1,-1.6800001E-1,-2.961039E-1,-2.125E-1,5.0000004E-2,2.8125E-1,3.792627E-1,-2.2500001E-1,2.4000001E-1,1.5E-1,-2.4000001E-1,-2.4705884E-1,8.5714296E-2,-0E0,-2.7194247E-1,1.7647061E-1,-2.0000002E-1,2.0000002E-1,-2.1818183E-1,-2.75E-1,-6.428572E-2,7.5E-2,-2.5714287E-1,-2.0000002E-1,2.2500001E-1,-2.5E-1,1.22727275E-1,1.5E-1,-2.7272728E-1,-2.8E-1,-0E0,2.4000001E-1,-2.0000002E-1,-2.2500001E-1,2.2500001E-1,-2.4179105E-1,-2.9589042E-1,-1.5E-1,2.0625001E-1,-2.7E-1,1.5E-1,8.5714296E-2,-1.875E-1,-1.5E-1,2.0000002E-1,-2.85E-1,1.5E-1,-8.5714296E-2,2.0625001E-1,1.5E-1,-1.5E-1,-2.631579E-1,-1.0909092E-1,2.4000001E-1,-1.5E-1,-2.0000002E-1,2.4000001E-1,1.5E-1,-2.5714287E-1,7.5E-2,-2.2500001E-1,2.769231E-1,-7.5E-2,-2.7222222E-1,-7.5E-2,5.0000004E-2,-2.5E-1,2.769231E-1,-0E0,-1.5E-1,2.0000002E-1,1.5E-1,-2.0000002E-1,-2.8125E-1,-1.7142859E-1,1.5E-1,-2.0000002E-1,-2.0000002E-1,2.2500001E-1,-1.5E-1,1.5E-1,-2.9285714E-1,-1.7142859E-1,1.5E-1,-2.5E-1,1.5E-1,-2.5E-1],"split_indices":[15,6,4,8,13,8,6,2147483647,2147483647,12,5,15,1,7,6,2147483647,2147483647,2147483647,2147483647,2147483647,2147483647,3,5,2147483647,2147483647,4,0,2147483647,2147483647,2147483647,2147483647,2147483647,2147483647,2147483647,2147483647,2147483647,2147483647,2147483647,2147483647,0,15,4,0,2147483647,2147483647,2147483647,2147483647,2147483647,2147483647,2147483647,2147483647,2147483647,2147483647,2147483647,2147483647,2147483647,2147483647,2147483647,2147483647,0,14,2147483647,2147483647,2147483647,2147483647,2147483647,2147483647,2147483647,2147483647,2147483647,2147483647,2147483647,2147483647,2147483647,2147483647,2147483647,2147483647,2147483647,2147483647,2147483647,2147483647,2147483647,2147483647,2147483647,2147483647,2147483647,2147483647,2147483647,2147483647,2147483647,2147483647,2147483647,2147483647,2147483647,2147483647,2147483647,2147483647,2147483647,2147483647,2147483647,2147483647,2147483647,2147483647,2147483647,2147483647,2147483647,2147483647,2147483647,2147483647,2147483647,2147483647,2147483647,2147483647,2147483647,2147483647,2147483647,2147483647,2147483647,2147483647,2147483647,2147483647],"split_type":[0,0,0,0,0,0,0,0,0,0,0,0,0,0,0,0,0,0,0,0,0,0,0,0,0,0,0,0,0,0,0,0,0,0,0,0,0,0,0,0,0,0,0,0,0,0,0,0,0,0,0,0,0,0,0,0,0,0,0,0,0,0,0,0,0,0,0,0,0,0,0,0,0,0,0,0,0,0,0,0,0,0,0,0,0,0,0,0,0,0,0,0,0,0,0,0,0,0,0,0,0,0,0,0,0,0,0,0,0,0,0,0,0,0,0,0,0,0,0,0,0],"sum_hessian":[2.257E3,2.104E3,1.53E2,1.5E1,2.089E3,8.7E1,6.6E1,5E0,1E1,1.959E3,1.3E2,3.1E1,5.6E1,1.3E1,5.3E1,1E0,4E0,9E0,1E0,1.958E3,1E0,3E1,1E2,3E0,2.8E1,4.1E1,1.5E1,5E0,8E0,2.2E1,3.1E1,1.814E3,1.44E2,1.8E1,1.2E1,2.4E1,7.6E1,2.3E1,5E0,1.5E1,2.6E1,1.1E1,4E0,1E0,4E0,1.6E1,6E0,6E0,1.38E2,1.6E1,2E0,2E0,1E1,1.1E1,1.3E1,3E0,2E1,2E0,3E0,5E0,2.1E1,1E0,1E1,1.4E1,2E0,4E0,2E0,3E0,3E0,6.6E1,7.2E1,1E0,1.5E1,9E0,1E0,6E0,7E0,1E0,2E0,1.9E1,1E0,6E0,1.5E1,1E0,1E0,5.6E1,1E1,1.4E1,1E0,2E0,4E0,1E0,6E0,3E0,3E0,1.2E1,3E0,5.3E1,3E0,5E0,5E0,1.2E1,2E0,1E0,2E0,1E0,2E0,4.7E1,6E0,1E0,2E0,2E0,3E0,1E0,1E0,4.1E1,6E0,1E0,5E0,1E0,5E0],"tree_param":{"num_deleted":"98","num_feature":"16","num_nodes":"121","size_leaf_vector":"0"}},{"base_weights":[-9.032399E-1,-9.5628166E-1,1.3392857E-1,-9.7973305E-1,-6.357616E-1,6.2E-1,-2.5396827E-1,5E-1,-9.807122E-1,1.0526316E-1,-7.368421E-1,7.173913E-1,-4E-1,-5.75E-1,2.9166666E-1,-9.8169225E-1,5E-1,4.6153846E-1,-5.714286E-1,-2.0689656E-1,-8.761905E-1,-6.666667E-1,7.9545456E-1,5E-1,-7.5E-1,4E-1,-6.944444E-1,-6.25E-1,7.058824E-1,-9.939759E-1,-8.622449E-1,-4E-1,8.888889E-1,-8.333333E-1,5E-1,-5E-1,6.25E-1,2.5E-1,-9.117647E-1,8.372093E-1,-5E-1,-5E-1,7.5E-1,1.6666667E-1,-8.3870965E-1,5E-1,-8.5714287E-1,9.285714E-1,-2.5E-1,-9.950604E-1,-4E-1,4E-1,-8.90625E-1,5E-1,-7.5E-1,6.666667E-1,-6.5E-1,-5E-1,8.5714287E-1,6.666667E-1,-5E-1,-9.6666664E-1,-4.6153846E-1,8.8095236E-1,-5E-1,7.5E-1,-6.666667E-1,-8.965517E-1,-0E0,5E-1,-6.666667E-1,5E-1,-7.5E-1,7.5E-1,-5E-1,-9.197861E-1,1.6666667E-1,-7.368421E-1,5E-1,-9.886364E-1,-0E0,4E-1,-8.888889E-1,9.268293E-1,-5E-1,-2.5E-1,-9.6153843E-1,5E-1,-5E-1,-2.5E-1,-9.293478E-1,-6.666667E-1,7.5E-1,-0E0,-9.3333334E-1,-5E-1,5E-1,7.5E-1,-5E-1,5E-1,9.722222E-1,-6.666667E-1,5E-1,-6.666667E-1,5E-1,-7.8333336E-1,-9.92E-1,2.5E-1,-5E-1,8E-1,-5E-1,-8.135593E-1,5E-1,-5E-1,6.666667E-1,-9E-1,-3E-1,-9.3877554E-1,5E-1,4E-1,-8.333333E-1,-2.5E-1,-9.782609E-1,-5E-1,7.5E-1,-6.666667E-1,5E-1],"categories":[],"categories_nodes":[],"categories_segments":[],"categories_sizes":[],"default_left":[1,1,1,1,1,1,1,0,1,1,1,1,1,1,1,1,0,1,1,1,1,1,1,1,1,1,1,1,1,1,1,1,1,1,1,1,1,1,1,1,1,1,1,1,1,1,1,1,1,1,1,1,1,1,1,1,1,1,1,1,1,1,1,1,1,1,1,1,1,1,1,1,1,1,1,1,1,1,1,1,1,1,1,1,1,1,1,1,1,1,1,1,1,1,1,1,1,1,1,1,1,1,1,1,1,1,1,1,1,1,1,1,1,1,1,1,1,1,1,1,1,1,1,1,1,1,1],"id":5,"left_children":[1,3,5,7,9,-1,13,-1,15,-1,19,-1,-1,-1,27,29,-1,-1,-1,35,-1,-1,-1,-1,-1,-1,-1,-1,-1,-1,51,-1,-1,-1,-1,-1,-1,-1,-1,-1,-1,-1,-1,-1,-1,-1,-1,-1,-1,-1,-1,-1,-1,-1,-1,-1,-1,-1,-1,-1,-1,-1,-1,-1,-1,-1,-1,-1,-1,-1,-1,-1,-1,-1,-1,-1,-1,-1,-1,-1,-1,-1,-1,-1,-1,-1,-1,-1,-1,-1,-1,-1,-1,-1,-1,-1,-1,-1,-1,-1,-1,-1,-1,-1,-1,-1,-1,-1,-1,-1,-1,-1,-1,-1,-1,-1,-1,-1,-1,-1,-1,-1,-1,-1,-1,-1,-1],"loss_changes":[1.25778076E2,1.5710815E1,2.1274563E1,3.4212646E0,1.1387939E1,5.253914E0,1.1203175E1,0E0,3.425171E0,4.8444185E0,9.640381E0,5.50033E0,1.95E0,4.9361095E0,9.553922E0,2.1082764E0,0E0,5.1418805E0,2.3809521E0,7.3836207E0,4.434593E0,0E0,2.798624E0,0E0,0E0,1.95E0,4.612007E0,2.517857E0,3.8508396E0,7.7819824E-1,7.377487E0,1.95E0,0E0,0E0,0E0,4.283333E0,2.517857E0,1.5833334E0,2.0751114E0,2.9557037E0,0E0,0E0,0E0,3.4166667E0,1.5038929E0,0E0,0E0,0E0,1.5833334E0,0E0,1.95E0,1.95E0,6.072998E0,0E0,0E0,0E0,2.3657894E0,0E0,0E0,0E0,0E0,1.9113617E0,5.1418805E0,3.1242752E0,0E0,0E0,0E0,9.78117E-1,1E0,0E0,0E0,0E0,0E0,0E0,0E0,9.65271E-1,3.4166667E0,2.7508774E0,0E0,0E0,1E0,1.95E0,0E0,3.082657E-1,0E0,1.5833334E0,0E0,0E0,0E0,1.5833334E0,9.062042E-1,0E0,0E0,7.5E-1,0E0,0E0,0E0,0E0,0E0,2.2E0,0E0,0E0,0E0,0E0,0E0,2.7341805E0,0E0,1.5833334E0,0E0,0E0,0E0,2.3491554E0,0E0,0E0,0E0,3.1836739E0,4.0666666E0,1.0880661E0,0E0,1.95E0,0E0,1.5833334E0,0E0,0E0,0E0,0E0,0E0],"parents":[2147483647,0,0,1,1,2,2,3,3,4,4,5,5,6,6,8,8,9,9,10,10,11,11,12,12,13,13,14,14,15,15,17,17,18,18,19,19,20,20,22,22,25,25,26,26,27,27,28,28,29,29,30,30,31,31,35,35,36,36,37,37,38,38,39,39,43,43,44,44,48,48,50,50,51,51,52,52,56,56,61,61,62,62,63,63,67,67,68,68,75,75,76,76,77,77,80,80,81,81,83,83,85,85,89,89,90,90,93,93,99,99,105,105,107,107,111,111,115,115,116,116,117,117,119,119,121,121],"right_children":[2,4,6,8,10,-1,14,-1,16,-1,20,-1,-1,-1,28,30,-1,-1,-1,36,-1,-1,-1,-1,-1,-1,-1,-1,-1,-1,52,-1,-1,-1,-1,-1,-1,-1,-1,-1,-1,-1,-1,-1,-1,-1,-1,-1,-1,-1,-1,-1,-1,-1,-1,-1,-1,-1,-1,-1,-1,-1,-1,-1,-1,-1,-1,-1,-1,-1,-1,-1,-1,-1,-1,-1,-1,-1,-1,-1,-1,-1,-1,-1,-1,-1,-1,-1,-1,-1,-1,-1,-1,-1,-1,-1,-1,-1,-1,-1,-1,-1,-1,-1,-1,-1,-1,-1,-1,-1,-1,-1,-1,-1,-1,-1,-1,-1,-1,-1,-1,-1,-1,-1,-1,-1,-1],"split_conditions":[2.906977E-1,2.3746867E-1,1.5088845E-2,6.8394444E-4,3.143202E-2,1.86E-1,5.3137255E-1,1.5E-1,6.403509E-1,3.157895E-2,1.0924863E-2,2.152174E-1,-1.20000005E-1,-1.725E-1,4.122807E-1,1.2790698E-1,1.5E-1,1.3846155E-1,-1.7142859E-1,2.5704537E-2,-2.6285717E-1,-2.0000002E-1,2.3863637E-1,1.5E-1,-2.2500001E-1,1.20000005E-1,-2.0833333E-1,-1.875E-1,2.1176472E-1,-2.9819277E-1,5.7079406E-3,-1.20000005E-1,2.6666668E-1,-2.5E-1,1.5E-1,-1.5E-1,1.875E-1,7.5E-2,-2.735294E-1,2.511628E-1,-1.5E-1,-1.5E-1,2.2500001E-1,5.0000004E-2,-2.516129E-1,1.5E-1,-2.5714287E-1,2.7857143E-1,-7.5E-2,-2.9851812E-1,-1.20000005E-1,1.20000005E-1,-2.671875E-1,1.5E-1,-2.2500001E-1,2.0000002E-1,-1.9500001E-1,-1.5E-1,2.5714287E-1,2.0000002E-1,-1.5E-1,-2.9E-1,-1.3846155E-1,2.642857E-1,-1.5E-1,2.2500001E-1,-2.0000002E-1,-2.6896554E-1,-0E0,1.5E-1,-2.0000002E-1,1.5E-1,-2.2500001E-1,2.2500001E-1,-1.5E-1,-2.7593583E-1,5.0000004E-2,-2.2105263E-1,1.5E-1,-2.9659092E-1,-0E0,1.20000005E-1,-2.6666668E-1,2.7804878E-1,-1.5E-1,-7.5E-2,-2.8846154E-1,1.5E-1,-1.5E-1,-7.5E-2,-2.7880436E-1,-2.0000002E-1,2.2500001E-1,-0E0,-2.8E-1,-1.5E-1,1.5E-1,2.2500001E-1,-1.5E-1,1.5E-1,2.916667E-1,-2.0000002E-1,1.5E-1,-2.0000002E-1,1.5E-1,-2.3500001E-1,-2.976E-1,7.5E-2,-1.5E-1,2.4000001E-1,-1.5E-1,-2.440678E-1,1.5E-1,-1.5E-1,2.0000002E-1,-2.7E-1,-9E-2,-2.8163266E-1,1.5E-1,1.20000005E-1,-2.5E-1,-7.5E-2,-2.9347828E-1,-1.5E-1,2.2500001E-1,-2.0000002E-1,1.5E-1],"split_indices":[13,15,5,5,4,4,15,0,12,9,5,2147483647,2147483647,6,12,13,0,2147483647,2147483647,9,7,2147483647,2147483647,2147483647,2147483647,2147483647,2147483647,1,8,7,5,2147483647,2147483647,2147483647,2147483647,15,5,2147483647,2147483647,2147483647,2147483647,2147483647,2147483647,2147483647,2147483647,2147483647,2147483647,2147483647,2147483647,2147483647,2147483647,0,2,2147483647,2147483647,2147483647,2147483647,2147483647,2147483647,2147483647,2147483647,2147483647,2147483647,2147483647,2147483647,2147483647,2147483647,2147483647,2147483647,2147483647,2147483647,2147483647,2147483647,2147483647,2147483647,2147483647,2147483647,2147483647,2147483647,2147483647,2147483647,2147483647,2147483647,2147483647,2147483647,2147483647,2147483647,2147483647,2147483647,2147483647,2147483647,2147483647,2147483647,2147483647,2147483647,2147483647,2147483647,2147483647,2147483647,2147483647,2147483647,2147483647,2147483647,2147483647,2147483647,2147483647,2147483647,2147483647,2147483647,2147483647,2147483647,2147483647,2147483647,2147483647,2147483647,2147483647,2147483647,2147483647,2147483647,2147483647,2147483647,2147483647,2147483647,2147483647,2147483647,2147483647,2147483647],"split_type":[0,0,0,0,0,0,0,0,0,0,0,0,0,0,0,0,0,0,0,0,0,0,0,0,0,0,0,0,0,0,0,0,0,0,0,0,0,0,0,0,0,0,0,0,0,0,0,0,0,0,0,0,0,0,0,0,0,0,0,0,0,0,0,0,0,0,0,0,0,0,0,0,0,0,0,0,0,0,0,0,0,0,0,0,0,0,0,0,0,0,0,0,0,0,0,0,0,0,0,0,0,0,0,0,0,0,0,0,0,0,0,0,0,0,0,0,0,0,0,0,0,0,0,0,0,0,0],"sum_hessian":[2.283E3,2.172E3,1.11E2,2.022E3,1.5E2,4.9E1,6.2E1,1E0,2.021E3,1.8E1,1.32E2,4.5E1,4E0,3.9E1,2.3E1,2.02E3,1E0,1.2E1,6E0,2.8E1,1.04E2,2E0,4.3E1,1E0,3E0,4E0,3.5E1,7E0,1.6E1,1.825E3,1.95E2,4E0,8E0,5E0,1E0,2.1E1,7E0,3E0,1.01E2,4.2E1,1E0,1E0,3E0,5E0,3E1,1E0,6E0,1.3E1,3E0,1.821E3,4E0,4E0,1.91E2,1E0,3E0,2E0,1.9E1,1E0,6E0,2E0,1E0,8.9E1,1.2E1,4.1E1,1E0,3E0,2E0,2.8E1,2E0,1E0,2E0,1E0,3E0,3E0,1E0,1.86E2,5E0,1.8E1,1E0,8.7E1,2E0,4E0,8E0,4E1,1E0,3E0,2.5E1,1E0,1E0,3E0,1.83E2,2E0,3E0,4E0,1.4E1,1E0,1E0,3E0,1E0,5E0,3.5E1,2E0,1E0,2E0,1E0,5.9E1,1.24E2,3E0,1E0,4E0,1E0,5.8E1,1E0,1E0,2E0,4.9E1,9E0,4.8E1,1E0,4E0,5E0,3E0,4.5E1,1E0,3E0,2E0,1E0],"tree_param":{"num_deleted":"102","num_feature":"16","num_nodes":"127","size_leaf_vector":"0"}},{"base_weights":[-1.3551402E-1,2.4242423E-2,-6.6E-1,4.7272727E-1,-1.981982E-1,-7.659575E-1,7.5E-1,5.9574467E-1,-2.2222222E-1,-5E-1,4.8387095E-2,-8.043478E-1,5E-1,9.5E-1,3.2142857E-1,6.666667E-1,-5.714286E-1,3E-1,-6.8292683E-1,-1.9512194E-1,5E-1,-8.4444445E-1,5E-1,-2.2222222E-1,5.5E-1,-8.333333E-1,5E-1,8.333333E-1,-4E-1,-8.3870965E-1,-1.8181819E-1,-3.8235295E-1,6.25E-1,9.285714E-1,-2.2222222E-1,5E-1,-8.863636E-1,-8E-1,4E-1,-6.666667E-1,7.222222E-1,-7.5E-1,5E-1,-0E0,-8.965517E-1,-6.25E-1,7.5E-1,-5.925926E-1,3.75E-1,8.5714287E-1,-5E-1,6.666667E-1,-5.714286E-1,-2.5E-1,-9.268293E-1,7.5E-1,-5E-1,8.235294E-1,-5E-1,5E-1,-5E-1,-9.583333E-1,-5E-1,-8.5714287E-1,5E-1,5E-1,-6.5384614E-1,-6.666667E-1,8.333333E-1,5E-1,-8.333333E-1,5E-1,-6.666667E-1,2.5E-1,9.285714E-1,5E-1,-8E-1,-7.2E-1,5E-1,6.666667E-1,-5E-1,-8.5E-1,-1.6666667E-1,-9.444444E-1,-0E0,-7.5E-1,6.666667E-1,5E-1,-5E-1],"categories":[],"categories_nodes":[],"categories_segments":[],"categories_sizes":[],"default_left":[1,1,1,1,1,1,0,1,1,1,1,1,1,1,1,1,1,1,1,1,1,1,1,1,1,1,1,1,1,1,1,1,1,0,1,1,1,1,1,1,1,1,1,1,1,1,1,1,1,1,1,1,1,1,1,1,1,1,1,1,1,1,1,1,1,1,1,1,1,1,1,1,1,1,1,1,1,1,1,1,1,1,1,1,1,1,1,1,1],"id":6,"left_children":[1,3,5,-1,9,-1,-1,-1,-1,17,19,-1,-1,-1,-1,-1,-1,-1,-1,-1,33,-1,-1,-1,-1,-1,-1,-1,-1,-1,-1,-1,-1,-1,-1,-1,-1,-1,-1,-1,-1,-1,-1,-1,-1,-1,-1,-1,-1,-1,-1,-1,-1,-1,-1,-1,-1,-1,-1,-1,-1,-1,-1,-1,-1,-1,-1,-1,-1,-1,-1,-1,-1,-1,-1,-1,-1,-1,-1,-1,-1,-1,-1,-1,-1,-1,-1,-1,-1],"loss_changes":[1.7947063E1,1.6554298E1,8.044468E0,4.834387E0,8.2848015E0,2.6864014E0,0E0,4.262005E0,3.1746032E0,7.5219517E0,6.9158144E0,2.82802E0,0E0,0E0,3.6015878E0,0E0,2.3809521E0,4.0666666E0,3.0481358E0,6.534613E0,7.015873E0,2.97929E0,0E0,3.5555556E0,4.672222E0,0E0,0E0,0E0,1.95E0,1.5038929E0,5.0113635E0,5.6358933E0,2.517857E0,0E0,3.1746032E0,0E0,9.0133286E-1,0E0,1.95E0,0E0,2.640522E0,0E0,0E0,1E0,2.3132133E-1,2.517857E0,0E0,2.1339035E0,4.375E0,0E0,0E0,0E0,2.3809521E0,1.5833334E0,0E0,0E0,0E0,7.92017E-1,0E0,0E0,0E0,0E0,2.2E0,0E0,0E0,0E0,2.344615E0,0E0,0E0,0E0,0E0,0E0,0E0,1.5833334E0,0E0,0E0,0E0,1.6566668E0,0E0,0E0,0E0,1.6055555E0,3.4166667E0,0E0,1E0,0E0,0E0,0E0,0E0],"parents":[2147483647,0,0,1,1,2,2,3,3,4,4,5,5,7,7,8,8,9,9,10,10,11,11,14,14,16,16,17,17,18,18,19,19,20,20,21,21,23,23,24,24,28,28,29,29,30,30,31,31,32,32,34,34,36,36,38,38,40,40,43,43,44,44,45,45,47,47,48,48,52,52,53,53,57,57,62,62,66,66,73,73,77,77,81,81,82,82,84,84],"right_children":[2,4,6,-1,10,-1,-1,-1,-1,18,20,-1,-1,-1,-1,-1,-1,-1,-1,-1,34,-1,-1,-1,-1,-1,-1,-1,-1,-1,-1,-1,-1,-1,-1,-1,-1,-1,-1,-1,-1,-1,-1,-1,-1,-1,-1,-1,-1,-1,-1,-1,-1,-1,-1,-1,-1,-1,-1,-1,-1,-1,-1,-1,-1,-1,-1,-1,-1,-1,-1,-1,-1,-1,-1,-1,-1,-1,-1,-1,-1,-1,-1,-1,-1,-1,-1,-1,-1],"split_conditions":[1.0839309E-1,8.171195E-3,5.526316E-1,1.4181818E-1,8.028304E-2,-2.2978725E-1,2.2500001E-1,1.7872341E-1,-6.666667E-2,1.6261722E-1,6.1916995E-1,-2.4130435E-1,1.5E-1,2.85E-1,9.642857E-2,2.0000002E-1,-1.7142859E-1,9E-2,-2.0487806E-1,-5.8536585E-2,2.5021312E-1,-2.5333336E-1,1.5E-1,-6.666667E-2,1.65E-1,-2.5E-1,1.5E-1,2.5E-1,-1.20000005E-1,-2.516129E-1,-5.454546E-2,-1.1470589E-1,1.875E-1,2.7857143E-1,-6.666667E-2,1.5E-1,-2.659091E-1,-2.4000001E-1,1.20000005E-1,-2.0000002E-1,2.1666667E-1,-2.2500001E-1,1.5E-1,-0E0,-2.6896554E-1,-1.875E-1,2.2500001E-1,-1.7777778E-1,1.12500004E-1,2.5714287E-1,-1.5E-1,2.0000002E-1,-1.7142859E-1,-7.5E-2,-2.7804878E-1,2.2500001E-1,-1.5E-1,2.4705884E-1,-1.5E-1,1.5E-1,-1.5E-1,-2.875E-1,-1.5E-1,-2.5714287E-1,1.5E-1,1.5E-1,-1.9615385E-1,-2.0000002E-1,2.5E-1,1.5E-1,-2.5E-1,1.5E-1,-2.0000002E-1,7.5E-2,2.7857143E-1,1.5E-1,-2.4000001E-1,-2.1600002E-1,1.5E-1,2.0000002E-1,-1.5E-1,-2.5500003E-1,-5.0000004E-2,-2.8333333E-1,-0E0,-2.2500001E-1,2.0000002E-1,1.5E-1,-1.5E-1],"split_indices":[4,11,12,3,8,1,0,2147483647,2147483647,6,0,2147483647,2147483647,2147483647,2147483647,2147483647,2147483647,14,0,3,6,2147483647,2147483647,2147483647,2147483647,2147483647,2147483647,2147483647,2147483647,2147483647,2147483647,2147483647,2147483647,0,1,2147483647,2147483647,2147483647,2147483647,2147483647,2147483647,2147483647,2147483647,2147483647,2147483647,2147483647,2147483647,2147483647,2147483647,2147483647,2147483647,2147483647,2147483647,2147483647,2147483647,2147483647,2147483647,2147483647,2147483647,2147483647,2147483647,2147483647,2147483647,2147483647,2147483647,2147483647,2147483647,2147483647,2147483647,2147483647,2147483647,2147483647,2147483647,2147483647,2147483647,2147483647,2147483647,2147483647,2147483647,2147483647,2147483647,2147483647,2147483647,2147483647,2147483647,2147483647,2147483647,2147483647,2147483647],"split_type":[0,0,0,0,0,0,0,0,0,0,0,0,0,0,0,0,0,0,0,0,0,0,0,0,0,0,0,0,0,0,0,0,0,0,0,0,0,0,0,0,0,0,0,0,0,0,0,0,0,0,0,0,0,0,0,0,0,0,0,0,0,0,0,0,0,0,0,0,0,0,0,0,0,0,0,0,0,0,0,0,0,0,0,0,0,0,0,0,0],"sum_hessian":[2.13E2,1.64E2,4.9E1,5.4E1,1.1E2,4.6E1,3E0,4.6E1,8E0,4.9E1,6.1E1,4.5E1,1E0,1.9E1,2.7E1,2E0,6E0,9E0,4E1,4E1,2.1E1,4.4E1,1E0,8E0,1.9E1,5E0,1E0,5E0,4E0,3E1,1E1,3.3E1,7E0,1.3E1,8E0,1E0,4.3E1,4E0,4E0,2E0,1.7E1,3E0,1E0,2E0,2.8E1,7E0,3E0,2.6E1,7E0,6E0,1E0,2E0,6E0,3E0,4E1,3E0,1E0,1.6E1,1E0,1E0,1E0,2.3E1,5E0,6E0,1E0,1E0,2.5E1,2E0,5E0,1E0,5E0,1E0,2E0,3E0,1.3E1,1E0,4E0,2.4E1,1E0,2E0,1E0,1.9E1,5E0,1.7E1,2E0,3E0,2E0,1E0,1E0],"tree_param":{"num_deleted":"74","num_feature":"16","num_nodes":"89","size_leaf_vector":"0"}},{"base_weights":[-2.576923E-1,1.0810811E-1,-5.2666664E-1,2.3E-1,-9.166667E-1,2.777778E-1,-6.315789E-1,5.192308E-1,-8.163265E-2,9E-1,-4.4444445E-1,-6.771653E-1,2.857143E-1,-2.857143E-1,6.304348E-1,-2.8947368E-1,5.833333E-1,6.666667E-1,-8.5714287E-1,-7.3504275E-1,-0E0,8E-1,-6.666667E-1,-7.5E-1,2.5E-1,-0E0,7.25E-1,-9E-1,-6.896552E-2,8.888889E-1,-2.5E-1,-8.210526E-1,-3.478261E-1,8E-1,-5.714286E-1,-5E-1,6.666667E-1,6.666667E-1,-4E-1,7.692308E-1,-5E-1,-5.3333336E-1,4E-1,5E-1,-6.666667E-1,-8.3870965E-1,-0E0,6.666667E-1,-4.7619048E-1,5E-1,-8.333333E-1,5E-1,-7.5E-1,8.484849E-1,2.857143E-1,-0E0,-8.888889E-1,7.2727275E-1,-4E-1,-8.815789E-1,-6.111111E-1,5E-1,-5E-1,-6.315789E-1,6.666667E-1,4E-1,8.965517E-1,-6.666667E-1,8E-1,-4E-1,6.666667E-1,9E-1,-5E-1,-7.5E-1,5E-1,-4E-1,-9.027778E-1,1.6666667E-1,-9.230769E-1,5E-1,-7.222222E-1,-5E-1,7.5E-1,-7.5E-1,5E-1,5E-1,-7.5E-1,-5E-1,-9.2537314E-1,7.5E-1,-6.666667E-1,-9.166667E-1,-2.857143E-1,5E-1,-8E-1,-8E-1,6.666667E-1],"categories":[],"categories_nodes":[],"categories_segments":[],"categories_sizes":[],"default_left":[1,1,1,1,0,1,1,1,1,0,1,1,1,1,1,1,1,1,1,1,1,1,1,1,1,1,1,1,1,1,1,1,1,1,1,1,1,1,1,1,1,1,1,1,1,1,1,1,1,1,1,1,1,1,1,1,1,1,1,1,1,1,1,1,1,1,1,1,1,1,1,1,1,1,1,1,1,1,1,1,1,1,1,1,1,1,1,1,1,1,1,1,1,1,1,1,1],"id":7,"left_children":[1,3,5,7,-1,9,-1,-1,-1,-1,-1,-1,-1,-1,-1,-1,-1,-1,-1,-1,-1,-1,-1,-1,-1,-1,-1,-1,-1,-1,-1,-1,-1,-1,-1,-1,-1,-1,-1,-1,-1,-1,-1,-1,-1,-1,-1,-1,-1,-1,-1,-1,-1,-1,-1,-1,-1,-1,-1,-1,-1,-1,-1,-1,-1,-1,-1,-1,-1,-1,-1,-1,-1,-1,-1,-1,-1,-1,-1,-1,-1,-1,-1,-1,-1,-1,-1,-1,-1,-1,-1,-1,-1,-1,-1,-1,-1],"loss_changes":[2.563858E1,1.40760355E1,1.2834854E1,9.055761E0,0E0,8.48889E0,5.75502E0,4.8348055E0,6.9410133E0,0E0,4.698413E0,4.977455E0,3.9619048E0,1.9285715E0,2.7423916E0,5.0537205E0,3.2777777E0,0E0,0E0,3.6110382E0,5.4857144E0,0E0,0E0,0E0,1.5833334E0,2.1333334E0,2.5519238E0,0E0,6.528736E0,0E0,1.5833334E0,1.3772507E0,3.3126295E0,0E0,2.3809521E0,0E0,0E0,0E0,1.95E0,1.2520809E0,0E0,2.8444443E0,4.218182E0,0E0,0E0,3.6865234E-1,1E0,0E0,4.1503763E0,0E0,0E0,0E0,0E0,3.5276794E-1,3.9619048E0,2.1333334E0,0E0,2.7818184E0,1.95E0,4.1476822E-1,4.521368E0,0E0,0E0,2.3099418E0,0E0,1.95E0,0E0,0E0,0E0,1.95E0,0E0,0E0,0E0,0E0,0E0,1.95E0,1.9257736E-1,3.4166667E0,0E0,0E0,1.265872E0,0E0,0E0,0E0,0E0,0E0,0E0,2.2E0,0E0,0E0,0E0,0E0,3.9619048E0,0E0,0E0,0E0,0E0],"parents":[2147483647,0,0,1,1,2,2,3,3,5,5,6,6,7,7,8,8,10,10,11,11,12,12,13,13,14,14,15,15,16,16,19,19,20,20,24,24,25,25,26,26,28,28,30,30,31,31,32,32,34,34,38,38,39,39,41,41,42,42,45,45,46,46,48,48,53,53,54,54,55,55,57,57,58,58,59,59,60,60,63,63,65,65,69,69,75,75,76,76,77,77,80,80,87,87,92,92],"right_children":[2,4,6,8,-1,10,-1,-1,-1,-1,-1,-1,-1,-1,-1,-1,-1,-1,-1,-1,-1,-1,-1,-1,-1,-1,-1,-1,-1,-1,-1,-1,-1,-1,-1,-1,-1,-1,-1,-1,-1,-1,-1,-1,-1,-1,-1,-1,-1,-1,-1,-1,-1,-1,-1,-1,-1,-1,-1,-1,-1,-1,-1,-1,-1,-1,-1,-1,-1,-1,-1,-1,-1,-1,-1,-1,-1,-1,-1,-1,-1,-1,-1,-1,-1,-1,-1,-1,-1,-1,-1,-1,-1,-1,-1,-1,-1],"split_conditions":[2.0311168E-1,8.052368E-1,3.1933837E-2,1.1154343E-1,-2.75E-1,6.818182E-2,-1.8947369E-1,1.5576924E-1,-2.4489796E-2,2.7E-1,-1.3333334E-1,-2.031496E-1,8.5714296E-2,-8.5714296E-2,1.8913046E-1,-8.6842105E-2,1.75E-1,2.0000002E-1,-2.5714287E-1,-2.2051284E-1,-0E0,2.4000001E-1,-2.0000002E-1,-2.2500001E-1,7.5E-2,-0E0,2.1750002E-1,-2.7E-1,-2.0689655E-2,2.6666668E-1,-7.5E-2,-2.4631579E-1,-1.0434783E-1,2.4000001E-1,-1.7142859E-1,-1.5E-1,2.0000002E-1,2.0000002E-1,-1.20000005E-1,2.3076925E-1,-1.5E-1,-1.6000001E-1,1.20000005E-1,1.5E-1,-2.0000002E-1,-2.516129E-1,-0E0,2.0000002E-1,-1.4285715E-1,1.5E-1,-2.5E-1,1.5E-1,-2.2500001E-1,2.5454548E-1,8.5714296E-2,-0E0,-2.6666668E-1,2.1818183E-1,-1.20000005E-1,-2.6447368E-1,-1.8333334E-1,1.5E-1,-1.5E-1,-1.8947369E-1,2.0000002E-1,1.20000005E-1,2.6896554E-1,-2.0000002E-1,2.4000001E-1,-1.20000005E-1,2.0000002E-1,2.7E-1,-1.5E-1,-2.2500001E-1,1.5E-1,-1.20000005E-1,-2.7083334E-1,5.0000004E-2,-2.769231E-1,1.5E-1,-2.1666667E-1,-1.5E-1,2.2500001E-1,-2.2500001E-1,1.5E-1,1.5E-1,-2.2500001E-1,-1.5E-1,-2.7761194E-1,2.2500001E-1,-2.0000002E-1,-2.75E-1,-8.5714296E-2,1.5E-1,-2.4000001E-1,-2.4000001E-1,2.0000002E-1],"split_indices":[6,0,4,1,0,3,6,7,8,0,6,2147483647,2147483647,2147483647,2147483647,2147483647,2147483647,2147483647,2147483647,2147483647,2147483647,2147483647,2147483647,2147483647,2147483647,2147483647,2147483647,2147483647,2147483647,2147483647,2147483647,2147483647,2147483647,2147483647,2147483647,2147483647,2147483647,2147483647,2147483647,2147483647,2147483647,2147483647,2147483647,2147483647,2147483647,2147483647,2147483647,2147483647,2147483647,2147483647,2147483647,2147483647,2147483647,2147483647,2147483647,2147483647,2147483647,2147483647,2147483647,2147483647,2147483647,2147483647,2147483647,2147483647,2147483647,2147483647,2147483647,2147483647,2147483647,2147483647,2147483647,2147483647,2147483647,2147483647,2147483647,2147483647,2147483647,2147483647,2147483647,2147483647,2147483647,2147483647,2147483647,2147483647,2147483647,2147483647,2147483647,2147483647,2147483647,2147483647,2147483647,2147483647,2147483647,2147483647,2147483647,2147483647,2147483647],"split_type":[0,0,0,0,0,0,0,0,0,0,0,0,0,0,0,0,0,0,0,0,0,0,0,0,0,0,0,0,0,0,0,0,0,0,0,0,0,0,0,0,0,0,0,0,0,0,0,0,0,0,0,0,0,0,0,0,0,0,0,0,0,0,0,0,0,0,0,0,0,0,0,0,0,0,0,0,0,0,0,0,0,0,0,0,0,0,0,0,0,0,0,0,0,0,0,0,0],"sum_hessian":[2.59E2,1.1E2,1.49E2,9.9E1,1.1E1,1.7E1,1.32E2,5.1E1,4.8E1,9E0,8E0,1.26E2,6E0,6E0,4.5E1,3.7E1,1.1E1,2E0,6E0,1.16E2,1E1,4E0,2E0,3E0,3E0,6E0,3.9E1,9E0,2.8E1,8E0,3E0,9.4E1,2.2E1,4E0,6E0,1E0,2E0,2E0,4E0,3.8E1,1E0,1.4E1,1.4E1,1E0,2E0,9.2E1,2E0,2E0,2E1,1E0,5E0,1E0,3E0,3.2E1,6E0,6E0,8E0,1E1,4E0,7.5E1,1.7E1,1E0,1E0,1.8E1,2E0,4E0,2.8E1,2E0,4E0,4E0,2E0,9E0,1E0,3E0,1E0,4E0,7.1E1,5E0,1.2E1,1E0,1.7E1,1E0,3E0,3E0,1E0,1E0,3E0,5E0,6.6E1,3E0,2E0,1.1E1,6E0,1E0,4E0,4E0,2E0],"tree_param":{"num_deleted":"86","num_feature":"16","num_nodes":"97","size_leaf_vector":"0"}},{"base_weights":[-6.5384614E-1,-9.5714283E-1,-1.1167513E-1,-9.740634E-1,7.5E-1,7.920792E-2,-3.0927834E-1,-9.7947216E-1,-5.714286E-1,8.235294E-1,-7.058824E-2,-6.451613E-1,-1.4925373E-1,-8.333333E-1,5E-1,9.375E-1,-5E-1,-1.6666667E-1,8.75E-1,1.25E-1,-8.75E-1,-6.666667E-1,-0E0,6.25E-1,-2.535211E-1,-7.5E-1,8E-1,-9.5454544E-1,-0E0,5E-1,-7.8571427E-1,-2.962963E-1,2.962963E-1,8.5714287E-1,-5E-1,-3.0882353E-1,7.5E-1,-5E-1,5E-1,-9.230769E-1,5E-1,7.5E-1,-4.5833334E-1,7.222222E-1,-5E-1,-4.3636364E-1,2.1428572E-1,-7.368421E-1,5E-1,-0E0,9.285714E-1,6.666667E-1,-8.75E-1,-5.5813956E-1,-0E0,5.4545456E-1,-7.5E-1,5E-1,-8.333333E-1,-5E-1,8E-1,-6.666667E-1,6.666667E-1,4E-1,-6.666667E-1,-6.25E-1,8.333333E-1,-2.5E-1,8.75E-1,-2.5E-1,-9.3333334E-1,-5E-1,7.5E-1,-8.333333E-1,-1E-1,-8.5714287E-1,5E-1,5E-1,-6.666667E-1,5E-1,-6.666667E-1,-2.857143E-1,-9.583333E-1,5E-1,-8E-1,6.666667E-1,-8E-1,-5E-1,8E-1],"categories":[],"categories_nodes":[],"categories_segments":[],"categories_sizes":[],"default_left":[1,1,1,1,0,1,1,1,1,1,1,1,1,1,1,1,1,1,0,1,1,1,1,1,1,1,1,1,1,1,1,1,1,1,1,1,0,1,1,1,1,1,1,1,1,1,1,1,1,1,1,1,1,1,1,1,1,1,1,1,1,1,1,1,1,1,0,1,1,1,1,1,1,1,1,1,1,1,1,1,1,1,1,1,1,1,1,1,1],"id":8,"left_children":[1,3,5,-1,-1,9,11,-1,-1,-1,17,-1,21,-1,-1,-1,-1,23,-1,-1,-1,-1,31,-1,35,-1,-1,-1,-1,-1,-1,-1,43,-1,-1,45,-1,-1,-1,-1,-1,-1,-1,-1,-1,53,-1,-1,-1,-1,-1,-1,-1,-1,65,-1,-1,-1,-1,-1,-1,-1,-1,-1,-1,-1,-1,-1,-1,-1,-1,-1,-1,-1,-1,-1,-1,-1,-1,-1,-1,-1,-1,-1,-1,-1,-1,-1,-1],"loss_changes":[8.967662E1,1.0840576E1,7.455161E0,1.9598389E-1,0E0,1.1319278E1,5.1174126E0,0E0,2.3809521E0,3.0330887E0,7.8681374E0,5.596774E0,5.1741295E0,0E0,0E0,0E0,0E0,5.5217133E0,0E0,5.325E0,1.670454E0,2.476191E0,4.740741E0,2.517857E0,4.171914E0,0E0,0E0,0E0,1E0,0E0,2.9340658E0,4.921296E0,9.518518E0,0E0,0E0,4.63029E0,0E0,0E0,0E0,0E0,0E0,0E0,6.7741227E0,2.682539E0,4.9583335E0,2.9226217E0,4.87987E0,2.6842108E0,2.2E0,2.6666667E0,0E0,0E0,0E0,4.7379847E0,7.2916665E0,3.1022727E0,0E0,0E0,8.166666E-1,0E0,0E0,0E0,0E0,1.95E0,3.6000004E0,2.517857E0,0E0,1.5833334E0,0E0,1.5833334E0,0E0,0E0,0E0,1.7797604E0,4.6E0,0E0,0E0,0E0,0E0,0E0,0E0,3.9619048E0,0E0,2.2E0,0E0,0E0,0E0,0E0,0E0],"parents":[2147483647,0,0,1,1,2,2,3,3,5,5,6,6,8,8,9,9,10,10,11,11,12,12,17,17,19,19,20,20,21,21,22,22,23,23,24,24,28,28,30,30,31,31,32,32,35,35,42,42,43,43,44,44,45,45,46,46,47,47,48,48,49,49,53,53,54,54,55,55,58,58,63,63,64,64,65,65,67,67,69,69,73,73,74,74,81,81,83,83],"right_children":[2,4,6,-1,-1,10,12,-1,-1,-1,18,-1,22,-1,-1,-1,-1,24,-1,-1,-1,-1,32,-1,36,-1,-1,-1,-1,-1,-1,-1,44,-1,-1,46,-1,-1,-1,-1,-1,-1,-1,-1,-1,54,-1,-1,-1,-1,-1,-1,-1,-1,66,-1,-1,-1,-1,-1,-1,-1,-1,-1,-1,-1,-1,-1,-1,-1,-1,-1,-1,-1,-1,-1,-1,-1,-1,-1,-1,-1,-1,-1,-1,-1,-1,-1,-1],"split_conditions":[1.3245615E-1,1.312847E-1,5.718913E-2,-2.9221904E-1,2.2500001E-1,6.726914E-2,5.5257094E-1,-2.9384166E-1,-1.7142859E-1,2.4705884E-1,2.936914E-1,-1.935484E-1,2.2093023E-1,-2.5E-1,1.5E-1,2.8125E-1,-1.5E-1,7.094846E-3,2.6250002E-1,3.75E-2,-2.6250002E-1,-2.0000002E-1,8.082115E-2,1.875E-1,5.4501932E-2,-2.2500001E-1,2.4000001E-1,-2.8636363E-1,-0E0,1.5E-1,-2.3571429E-1,-8.888889E-2,2.5021312E-1,2.5714287E-1,-1.5E-1,6.0845554E-1,2.2500001E-1,-1.5E-1,1.5E-1,-2.769231E-1,1.5E-1,2.2500001E-1,-1.375E-1,2.1666667E-1,-1.5E-1,6.357761E-1,6.428572E-2,-2.2105263E-1,1.5E-1,-0E0,2.7857143E-1,2.0000002E-1,-2.6250002E-1,-1.6744187E-1,3.1165272E-1,1.6363637E-1,-2.2500001E-1,1.5E-1,-2.5E-1,-1.5E-1,2.4000001E-1,-2.0000002E-1,2.0000002E-1,1.20000005E-1,-2.0000002E-1,-1.875E-1,2.5E-1,-7.5E-2,2.6250002E-1,-7.5E-2,-2.8E-1,-1.5E-1,2.2500001E-1,-2.5E-1,-3.0000001E-2,-2.5714287E-1,1.5E-1,1.5E-1,-2.0000002E-1,1.5E-1,-2.0000002E-1,-8.5714296E-2,-2.875E-1,1.5E-1,-2.4000001E-1,2.0000002E-1,-2.4000001E-1,-1.5E-1,2.4000001E-1],"split_indices":[15,4,4,15,0,1,0,2147483647,2147483647,13,6,6,13,2147483647,2147483647,2147483647,2147483647,10,0,2147483647,2147483647,0,8,3,4,2147483647,2147483647,2147483647,2147483647,2147483647,2147483647,5,6,2147483647,2147483647,0,0,2147483647,2147483647,2147483647,2147483647,2147483647,2147483647,1,12,2,6,2147483647,2147483647,2147483647,2147483647,2147483647,2147483647,5,0,2147483647,2147483647,2147483647,2147483647,2147483647,2147483647,2147483647,2147483647,2147483647,2147483647,1,0,2147483647,2147483647,2147483647,2147483647,2147483647,2147483647,2147483647,2147483647,2147483647,2147483647,2147483647,2147483647,2147483647,2147483647,2147483647,2147483647,2147483647,2147483647,2147483647,2147483647,2147483647,2147483647],"split_type":[0,0,0,0,0,0,0,0,0,0,0,0,0,0,0,0,0,0,0,0,0,0,0,0,0,0,0,0,0,0,0,0,0,0,0,0,0,0,0,0,0,0,0,0,0,0,0,0,0,0,0,0,0,0,0,0,0,0,0,0,0,0,0,0,0,0,0,0,0,0,0,0,0,0,0,0,0,0,0,0,0,0,0,0,0,0,0,0,0],"sum_hessian":[5.45E2,3.49E2,1.96E2,3.46E2,3E0,1E2,9.6E1,3.4E2,6E0,1.6E1,8.4E1,3E1,6.6E1,5E0,1E0,1.5E1,1E0,7.7E1,7E0,7E0,2.3E1,1.4E1,5.2E1,7E0,7E1,3E0,4E0,2.1E1,2E0,1E0,1.3E1,2.6E1,2.6E1,6E0,1E0,6.7E1,3E0,1E0,1E0,1.2E1,1E0,3E0,2.3E1,1.7E1,9E0,5.4E1,1.3E1,1.8E1,5E0,4E0,1.3E1,2E0,7E0,4.2E1,1.2E1,1E1,3E0,1E0,1.7E1,1E0,4E0,2E0,2E0,4E0,3.8E1,7E0,5E0,3E0,7E0,3E0,1.4E1,1E0,3E0,2.9E1,9E0,6E0,1E0,1E0,2E0,1E0,2E0,6E0,2.3E1,5E0,4E0,2E0,4E0,1E0,4E0],"tree_param":{"num_deleted":"60","num_feature":"16","num_nodes":"89","size_leaf_vector":"0"}},{"base_weights":[-5.076142E-2,4.848485E-1,-1.5757576E-1,-3E-1,7.916667E-1,-1.9375E-1,8.333333E-1,6.666667E-1,-6.25E-1,8.695652E-1,-5E-1,-0E0,-3.690476E-1,5E-1,-8.5714287E-1,9.5238096E-1,-0E0,-2.264151E-1,4.8E-1,2.1428572E-1,-4.7887325E-1,-5E-1,5E-1,-0E0,-6.315789E-1,-6.666667E-1,6.086956E-1,8.888889E-1,-8.333333E-1,-8.5294116E-1,-1.3157895E-1,1.6666667E-1,-8.333333E-1,-8.235294E-1,6.666667E-1,6.818182E-1,-5E-1,-9.6153843E-1,-4.4444445E-1,1.0714286E-1,-7.2727275E-1,-7.5E-1,2.962963E-1,-0E0,-9.3333334E-1,7.619048E-1,-5E-1,5E-1,-6.25E-1,4.090909E-1,-8.5714287E-1,5E-1,-9E-1,-2.857143E-1,4.7619048E-1,-5E-1,5E-1,-0E0,8.4210527E-1,-8.333333E-1,-0E0,9.0909094E-1,-8.3333336E-2,6.666667E-1,-8E-1,-0E0,9.0909094E-1,5E-1,-5E-1,9.375E-1,2.5E-1,5E-1,-5E-1,7.5E-1,-4.4444445E-1,8E-1,-5.714286E-1,6.666667E-1,-5E-1,6.666667E-1,-8.5714287E-1,-8.333333E-1,5E-1],"categories":[],"categories_nodes":[],"categories_segments":[],"categories_sizes":[],"default_left":[1,1,1,1,1,1,0,1,1,1,1,1,1,1,1,1,1,1,1,1,1,1,1,1,1,1,1,0,0,1,1,1,1,1,1,1,1,1,1,1,1,1,1,1,1,1,1,1,1,1,0,1,1,1,1,1,1,1,1,1,1,1,1,1,1,1,1,1,1,1,1,1,1,1,1,1,1,1,1,1,1,1,1],"id":9,"left_children":[1,3,5,-1,-1,11,-1,-1,-1,-1,-1,17,19,-1,-1,-1,-1,-1,-1,27,29,-1,-1,-1,-1,-1,-1,-1,-1,-1,39,-1,-1,-1,-1,-1,-1,-1,-1,49,-1,-1,-1,-1,-1,-1,-1,-1,-1,-1,-1,-1,-1,-1,-1,-1,-1,-1,-1,-1,-1,-1,-1,-1,-1,-1,-1,-1,-1,-1,-1,-1,-1,-1,-1,-1,-1,-1,-1,-1,-1,-1,-1],"loss_changes":[1.1346931E1,8.184091E0,6.075947E0,3.5583334E0,2.849637E0,5.4342265E0,0E0,0E0,2.517857E0,1.6563148E0,0E0,8.476981E0,5.484071E0,0E0,0E0,0E0,1E0,4.861966E0,4.095072E0,1.063492E1,9.111498E0,0E0,0E0,5E0,5.283797E0,0E0,2.205534E0,0E0,0E0,1.080946E0,5.481716E0,3.7870371E0,0E0,1.5372553E0,0E0,2.4632034E0,0E0,0E0,1.8472222E0,8.503247E0,2.7818184E0,0E0,2.962963E0,1E0,0E0,1.2832079E0,0E0,0E0,1.0416665E0,5.492424E0,0E0,0E0,0E0,3.9619048E0,4.3290043E0,0E0,0E0,1E0,8.388157E-1,0E0,1E0,0E0,3.9444444E0,0E0,0E0,5.4857144E0,0E0,0E0,0E0,0E0,1.5833334E0,0E0,0E0,0E0,4.698413E0,0E0,2.3809521E0,0E0,0E0,0E0,0E0,0E0,0E0],"parents":[2147483647,0,0,1,1,2,2,3,3,4,4,5,5,8,8,9,9,11,11,12,12,16,16,17,17,18,18,19,19,20,20,23,23,24,24,26,26,29,29,30,30,31,31,33,33,35,35,38,38,39,39,40,40,42,42,43,43,45,45,48,48,49,49,53,53,54,54,57,57,58,58,60,60,62,62,65,65,70,70,74,74,76,76],"right_children":[2,4,6,-1,-1,12,-1,-1,-1,-1,-1,18,20,-1,-1,-1,-1,-1,-1,28,30,-1,-1,-1,-1,-1,-1,-1,-1,-1,40,-1,-1,-1,-1,-1,-1,-1,-1,50,-1,-1,-1,-1,-1,-1,-1,-1,-1,-1,-1,-1,-1,-1,-1,-1,-1,-1,-1,-1,-1,-1,-1,-1,-1,-1,-1,-1,-1,-1,-1,-1,-1,-1,-1,-1,-1,-1,-1,-1,-1,-1,-1],"split_conditions":[1.6247642E-1,3.780781E-1,3.409091E-1,-9E-2,2.3750001E-1,1.1771282E-2,2.5E-1,2.0000002E-1,-1.875E-1,2.6086956E-1,-1.5E-1,1.0670826E-2,1.6005968E-1,1.5E-1,-2.5714287E-1,2.857143E-1,-0E0,-6.792453E-2,1.4400001E-1,4.934144E-1,4.577381E-1,-1.5E-1,1.5E-1,-0E0,-1.8947369E-1,-2.0000002E-1,1.826087E-1,2.6666668E-1,-2.5E-1,-2.5588235E-1,4.1208792E-1,5.0000004E-2,-2.5E-1,-2.4705884E-1,2.0000002E-1,2.0454547E-1,-1.5E-1,-2.8846154E-1,-1.3333334E-1,7.67546E-2,-2.1818183E-1,-2.2500001E-1,8.888889E-2,-0E0,-2.8E-1,2.2857144E-1,-1.5E-1,1.5E-1,-1.875E-1,1.22727275E-1,-2.5714287E-1,1.5E-1,-2.7E-1,-8.5714296E-2,1.4285715E-1,-1.5E-1,1.5E-1,-0E0,2.526316E-1,-2.5E-1,-0E0,2.7272728E-1,-2.5000002E-2,2.0000002E-1,-2.4000001E-1,-0E0,2.7272728E-1,1.5E-1,-1.5E-1,2.8125E-1,7.5E-2,1.5E-1,-1.5E-1,2.2500001E-1,-1.3333334E-1,2.4000001E-1,-1.7142859E-1,2.0000002E-1,-1.5E-1,2.0000002E-1,-2.5714287E-1,-2.5E-1,1.5E-1],"split_indices":[15,14,3,0,4,11,0,2147483647,2147483647,2147483647,2147483647,10,6,2147483647,2147483647,2147483647,2147483647,3,5,15,15,2147483647,2147483647,2147483647,2147483647,2147483647,2147483647,0,0,5,7,2147483647,2147483647,2147483647,2147483647,2147483647,2147483647,2147483647,2147483647,9,5,2147483647,2147483647,2147483647,2147483647,2147483647,2147483647,2147483647,2147483647,4,0,2147483647,2147483647,2147483647,2147483647,2147483647,2147483647,2147483647,2147483647,2147483647,2147483647,2147483647,2147483647,2147483647,2147483647,2147483647,2147483647,2147483647,2147483647,2147483647,2147483647,2147483647,2147483647,2147483647,2147483647,2147483647,2147483647,2147483647,2147483647,2147483647,2147483647,2147483647,2147483647],"split_type":[0,0,0,0,0,0,0,0,0,0,0,0,0,0,0,0,0,0,0,0,0,0,0,0,0,0,0,0,0,0,0,0,0,0,0,0,0,0,0,0,0,0,0,0,0,0,0,0,0,0,0,0,0,0,0,0,0,0,0,0,0,0,0,0,0,0,0,0,0,0,0,0,0,0,0,0,0,0,0,0,0,0,0],"sum_hessian":[1.96E2,3.2E1,1.64E2,9E0,2.3E1,1.59E2,5E0,2E0,7E0,2.2E1,1E0,7.6E1,8.3E1,1E0,6E0,2E1,2E0,5.2E1,2.4E1,1.3E1,7E1,1E0,1E0,3.4E1,1.8E1,2E0,2.2E1,8E0,5E0,3.3E1,3.7E1,2.9E1,5E0,1.6E1,2E0,2.1E1,1E0,2.5E1,8E0,2.7E1,1E1,3E0,2.6E1,2E0,1.4E1,2E1,1E0,1E0,7E0,2.1E1,6E0,1E0,9E0,6E0,2E1,1E0,1E0,2E0,1.8E1,5E0,2E0,1E1,1.1E1,2E0,4E0,1E1,1E1,1E0,1E0,1.5E1,3E0,1E0,1E0,3E0,8E0,4E0,6E0,2E0,1E0,2E0,6E0,5E0,1E0],"tree_param":{"num_deleted":"62","num_feature":"16","num_nodes":"83","size_leaf_vector":"0"}},{"base_weights":[-1.5920398E-1,-4.7457626E-1,-2.7972028E-2,8E-1,-5.8181816E-1,2.2058824E-2,-8.75E-1,-1.5E-1,-8.055556E-1,-1.8055555E-1,2.4615385E-1,4.4444445E-1,-5.833333E-1,-8.5714287E-1,5E-1,3.5E-1,-3.773585E-1,-5.714286E-1,3.3898306E-1,-6.666667E-1,8.5714287E-1,-7.2727275E-1,5E-1,-9.032258E-1,-4E-1,6.875E-1,-8E-1,-6.896552E-2,-7.2E-1,-8.333333E-1,5E-1,4.4230768E-1,-3.75E-1,-0E0,-8.888889E-1,5E-1,-7.5E-1,-5E-1,8E-1,8.5714287E-1,-3.478261E-1,-9.4736844E-1,-0E0,9E-1,3.255814E-1,6.666667E-1,-8.333333E-1,-5E-1,5E-1,9.230769E-1,-0E0,6.666667E-1,-4.7619048E-1,-7.5E-1,7.5E-1,-3.75E-1,4.722222E-1,-5E-1,5E-1,-6.315789E-1,6.666667E-1,-8.333333E-1,6.666667E-1,-1.6666667E-1,5.8064514E-1,-7.222222E-1,5E-1,6.666667E-1,-7.5E-1,6.785714E-1,-2.5E-1,-0E0,-8.125E-1,7.407407E-1,-5E-1,5E-1,-6.666667E-1,5E-1,-5E-1,-9.230769E-1,-2.5E-1,5E-1,9.285714E-1,5E-1,-6.666667E-1,9E-1,-4E-1,5E-1,-7.5E-1],"categories":[],"categories_nodes":[],"categories_segments":[],"categories_sizes":[],"default_left":[1,1,1,0,1,1,0,1,1,1,1,1,1,1,1,1,1,1,1,1,1,1,1,1,1,1,0,1,1,1,1,1,1,1,1,1,1,1,1,0,1,1,1,1,1,1,1,1,1,1,1,1,1,1,1,1,1,1,1,1,1,1,1,1,1,1,1,1,1,1,1,1,1,1,1,1,1,1,1,1,1,1,1,1,1,1,1,1,1],"id":10,"left_children":[1,3,5,-1,-1,9,-1,-1,-1,15,-1,-1,-1,-1,-1,25,27,-1,-1,-1,-1,-1,-1,-1,-1,-1,-1,39,-1,-1,-1,-1,-1,-1,-1,-1,-1,-1,-1,-1,-1,-1,-1,-1,-1,-1,-1,-1,-1,-1,-1,-1,-1,-1,-1,-1,-1,-1,-1,-1,-1,-1,-1,-1,-1,-1,-1,-1,-1,-1,-1,-1,-1,-1,-1,-1,-1,-1,-1,-1,-1,-1,-1,-1,-1,-1,-1,-1,-1],"loss_changes":[8.305496E0,8.530046E0,6.0792885E0,0E0,5.19293E0,6.219507E0,0E0,5.4111114E0,2.8531742E0,7.649947E0,5.126914E0,4.698413E0,2.2348485E0,3.760376E-1,0E0,8.3125E0,5.550761E0,2.3809521E0,4.5184155E0,0E0,0E0,1.2929292E0,0E0,0E0,1.95E0,2.5375004E0,0E0,7.7875347E0,4.0926313E0,0E0,0E0,2.4850636E0,4.375E0,1E0,0E0,0E0,0E0,0E0,1.476923E0,0E0,3.3126295E0,0E0,4.5E0,0E0,4.5946383E0,0E0,0E0,0E0,0E0,0E0,1E0,0E0,4.1503763E0,0E0,0E0,4.375E0,2.5905018E0,0E0,0E0,2.3099418E0,0E0,0E0,0E0,3.4166667E0,2.691245E0,1.1736107E0,0E0,0E0,0E0,2.421957E0,1.5833334E0,1E0,7.644234E-1,7.5661373E-1,0E0,0E0,0E0,0E0,0E0,0E0,1.5833334E0,5.4000006E0,0E0,0E0,0E0,0E0,1.95E0,0E0,0E0],"parents":[2147483647,0,0,1,1,2,2,4,4,5,5,7,7,8,8,9,9,10,10,11,11,12,12,13,13,15,15,16,16,17,17,18,18,21,21,24,24,25,25,27,27,28,28,31,31,32,32,33,33,38,38,40,40,42,42,44,44,50,50,52,52,55,55,56,56,59,59,63,63,64,64,65,65,69,69,70,70,71,71,72,72,73,73,80,80,81,81,86,86],"right_children":[2,4,6,-1,-1,10,-1,-1,-1,16,-1,-1,-1,-1,-1,26,28,-1,-1,-1,-1,-1,-1,-1,-1,-1,-1,40,-1,-1,-1,-1,-1,-1,-1,-1,-1,-1,-1,-1,-1,-1,-1,-1,-1,-1,-1,-1,-1,-1,-1,-1,-1,-1,-1,-1,-1,-1,-1,-1,-1,-1,-1,-1,-1,-1,-1,-1,-1,-1,-1,-1,-1,-1,-1,-1,-1,-1,-1,-1,-1,-1,-1,-1,-1,-1,-1,-1,-1],"split_conditions":[1.2790698E-1,3.315649E-3,2.3883706E-1,2.4000001E-1,-1.7454545E-1,5.641867E-1,-2.6250002E-1,-4.5E-2,-2.4166669E-1,1.692242E-1,7.3846154E-2,1.3333334E-1,-1.75E-1,-2.5714287E-1,1.5E-1,5.1042116E-1,3.9473683E-1,-1.7142859E-1,1.0169492E-1,-2.0000002E-1,2.5714287E-1,-2.1818183E-1,1.5E-1,-2.7096775E-1,-1.20000005E-1,2.0625001E-1,-2.4000001E-1,4.243502E-1,-2.1600002E-1,-2.5E-1,1.5E-1,1.326923E-1,-1.12500004E-1,-0E0,-2.6666668E-1,1.5E-1,-2.2500001E-1,-1.5E-1,2.4000001E-1,2.5714287E-1,-1.0434783E-1,-2.8421053E-1,-0E0,2.7E-1,9.767442E-2,2.0000002E-1,-2.5E-1,-1.5E-1,1.5E-1,2.769231E-1,-0E0,2.0000002E-1,-1.4285715E-1,-2.2500001E-1,2.2500001E-1,-1.12500004E-1,1.4166667E-1,-1.5E-1,1.5E-1,-1.8947369E-1,2.0000002E-1,-2.5E-1,2.0000002E-1,-5.0000004E-2,1.7419355E-1,-2.1666667E-1,1.5E-1,2.0000002E-1,-2.2500001E-1,2.0357142E-1,-7.5E-2,-0E0,-2.4375E-1,2.2222222E-1,-1.5E-1,1.5E-1,-2.0000002E-1,1.5E-1,-1.5E-1,-2.769231E-1,-7.5E-2,1.5E-1,2.7857143E-1,1.5E-1,-2.0000002E-1,2.7E-1,-1.20000005E-1,1.5E-1,-2.2500001E-1],"split_indices":[13,10,4,0,0,0,0,2147483647,2147483647,6,8,2147483647,2147483647,2147483647,2147483647,15,12,2147483647,2147483647,2147483647,2147483647,2147483647,2147483647,2147483647,2147483647,7,0,0,15,2147483647,2147483647,2147483647,2147483647,2147483647,2147483647,2147483647,2147483647,2147483647,2147483647,0,2,2147483647,2147483647,2147483647,2147483647,2147483647,2147483647,2147483647,2147483647,2147483647,2147483647,2147483647,2147483647,2147483647,2147483647,2147483647,2147483647,2147483647,2147483647,2147483647,2147483647,2147483647,2147483647,2147483647,2147483647,2147483647,2147483647,2147483647,2147483647,2147483647,2147483647,2147483647,2147483647,2147483647,2147483647,2147483647,2147483647,2147483647,2147483647,2147483647,2147483647,2147483647,2147483647,2147483647,2147483647,2147483647,2147483647,2147483647,2147483647],"split_type":[0,0,0,0,0,0,0,0,0,0,0,0,0,0,0,0,0,0,0,0,0,0,0,0,0,0,0,0,0,0,0,0,0,0,0,0,0,0,0,0,0,0,0,0,0,0,0,0,0,0,0,0,0,0,0,0,0,0,0,0,0,0,0,0,0,0,0,0,0,0,0,0,0,0,0,0,0,0,0,0,0,0,0,0,0,0,0,0,0],"sum_hessian":[2E2,5.8E1,1.42E2,4E0,5.4E1,1.35E2,7E0,1.9E1,3.5E1,7.1E1,6.4E1,8E0,1.1E1,3.4E1,1E0,1.9E1,5.2E1,6E0,5.8E1,2E0,6E0,1E1,1E0,3E1,4E0,1.5E1,4E0,2.8E1,2.4E1,5E0,1E0,5.1E1,7E0,2E0,8E0,1E0,3E0,1E0,1.4E1,6E0,2.2E1,1.8E1,6E0,9E0,4.2E1,2E0,5E0,1E0,1E0,1.2E1,2E0,2E0,2E1,3E0,3E0,7E0,3.5E1,1E0,1E0,1.8E1,2E0,5E0,2E0,5E0,3E1,1.7E1,1E0,2E0,3E0,2.7E1,3E0,2E0,1.5E1,2.6E1,1E0,1E0,2E0,1E0,1E0,1.2E1,3E0,1.3E1,1.3E1,1E0,2E0,9E0,4E0,1E0,3E0],"tree_param":{"num_deleted":"72","num_feature":"16","num_nodes":"89","size_leaf_vector":"0"}},{"base_weights":[4.278075E-2,9.883721E-2,-5.625E-1,1.6447368E-1,-3.809524E-1,-8.888889E-1,-1.25E-1,4.4444445E-1,4.6296295E-2,-6.666667E-1,2.857143E-1,-7.5E-1,4E-1,-7.5E-1,5.4761904E-1,-7E-1,1.21212125E-1,-7.8571427E-1,5E-1,-6.666667E-1,8E-1,7.5E-1,-5E-1,8.5E-1,2.6086956E-1,5E-1,-8.888889E-1,-6.25E-1,1.8478261E-1,-2.5E-1,-9.0909094E-1,9.444444E-1,-0E0,5.882353E-1,-5.714286E-1,-0E0,-8.333333E-1,-5.714286E-1,2.4418604E-1,-6.666667E-1,5E-1,5E-1,-5E-1,9.0909094E-1,-0E0,-8.333333E-1,5E-1,-5E-1,5E-1,5E-1,-8.333333E-1,3.2876712E-1,-2.1428572E-1,6.666667E-1,-4E-1,8.888889E-1,2.4615385E-1,-7E-1,8E-1,-7.5E-1,5E-1,-2.1052632E-1,4.2553192E-1,-8.888889E-1,5E-1,2.2222222E-1,-5.4545456E-1,4.888889E-1,-6.666667E-1,-6.666667E-1,5.714286E-1,5E-1,-7E-1,3E-1,8.125E-1,-5E-1,8.333333E-1,5E-1,-8.888889E-1,3.9285713E-1,-6.666667E-1,2.5E-1,9.230769E-1,7.5E-1,1.1764706E-1,6.666667E-1,-5E-1,9.0909094E-1,-5E-1,-1.5384616E-1,8E-1,6.666667E-1,-3.6363637E-1,-6.25E-1,2.5E-1],"categories":[],"categories_nodes":[],"categories_segments":[],"categories_sizes":[],"default_left":[1,1,1,1,1,1,1,1,1,1,1,1,1,1,1,1,1,1,1,1,1,1,1,1,1,1,1,1,1,1,1,1,1,1,1,1,1,1,1,1,1,1,1,1,1,1,1,1,1,1,1,1,1,1,1,1,1,1,0,1,1,1,1,1,1,1,1,1,1,1,1,1,1,1,1,1,1,1,1,1,1,1,1,1,1,1,1,1,1,1,1,1,1,1,1],"id":11,"left_children":[1,3,-1,7,-1,-1,-1,-1,15,-1,-1,-1,-1,-1,-1,-1,27,-1,-1,-1,-1,-1,-1,-1,-1,-1,-1,-1,37,-1,-1,-1,-1,-1,-1,-1,-1,-1,51,-1,-1,-1,-1,-1,-1,-1,-1,-1,-1,-1,-1,-1,57,-1,-1,-1,-1,-1,-1,-1,-1,-1,-1,-1,-1,-1,-1,-1,-1,-1,-1,-1,-1,-1,-1,-1,-1,-1,-1,-1,-1,-1,-1,-1,-1,-1,-1,-1,-1,-1,-1,-1,-1,-1,-1],"loss_changes":[6.4004865E0,5.4792285E0,2.1736112E0,5.0085287E0,4.1904764E0,0E0,2.925E0,5.9563484E0,6.123064E0,2.476191E0,3.9619048E0,0E0,1.95E0,0E0,3.419979E0,2.711111E0,4.8117585E0,6.9805145E-1,0E0,0E0,0E0,0E0,0E0,1.6055555E0,6.6028495E0,0E0,0E0,1.0416665E0,4.272317E0,1.5833334E0,0E0,0E0,1E0,3.2085562E0,2.3809521E0,1E0,0E0,2.3809521E0,3.4053612E0,0E0,0E0,0E0,0E0,0E0,2.1333334E0,0E0,0E0,0E0,0E0,0E0,0E0,3.159162E0,7.4571433E0,0E0,1.95E0,0E0,5.414282E0,2.711111E0,0E0,0E0,0E0,2.8750663E0,3.57825E0,0E0,0E0,3.1746032E0,2.1272728E0,2.5069447E0,0E0,0E0,2.3809521E0,0E0,2.711111E0,2.9547622E0,7.644234E-1,0E0,0E0,0E0,0E0,2.6638656E0,0E0,1.5833334E0,0E0,2.840909E0,3.2723982E0,0E0,0E0,0E0,0E0,2.4801867E0,0E0,0E0,1.9204545E0,0E0,0E0],"parents":[2147483647,0,0,1,1,2,2,3,3,4,4,6,6,7,7,8,8,9,9,10,10,12,12,14,14,15,15,16,16,17,17,23,23,24,24,27,27,28,28,29,29,32,32,33,33,34,34,35,35,37,37,38,38,44,44,51,51,52,52,54,54,56,56,57,57,61,61,62,62,65,65,66,66,67,67,70,70,72,72,73,73,74,74,79,79,81,81,83,83,84,84,89,89,92,92],"right_children":[2,4,-1,8,-1,-1,-1,-1,16,-1,-1,-1,-1,-1,-1,-1,28,-1,-1,-1,-1,-1,-1,-1,-1,-1,-1,-1,38,-1,-1,-1,-1,-1,-1,-1,-1,-1,52,-1,-1,-1,-1,-1,-1,-1,-1,-1,-1,-1,-1,-1,58,-1,-1,-1,-1,-1,-1,-1,-1,-1,-1,-1,-1,-1,-1,-1,-1,-1,-1,-1,-1,-1,-1,-1,-1,-1,-1,-1,-1,-1,-1,-1,-1,-1,-1,-1,-1,-1,-1,-1,-1,-1,-1],"split_conditions":[3.2236546E-1,1.20299965E-1,-1.6875E-1,1.7327365E-1,-1.1428572E-1,-2.6666668E-1,-3.75E-2,1.3333334E-1,7.0711225E-2,-2.0000002E-1,8.5714296E-2,-2.2500001E-1,1.20000005E-1,-2.2500001E-1,1.6428572E-1,-2.1000001E-1,2.1682894E-1,-2.3571429E-1,1.5E-1,-2.0000002E-1,2.4000001E-1,2.2500001E-1,-1.5E-1,2.5500003E-1,7.826087E-2,1.5E-1,-2.6666668E-1,-1.875E-1,3.505491E-1,-7.5E-2,-2.7272728E-1,2.8333333E-1,-0E0,1.7647061E-1,-1.7142859E-1,-0E0,-2.5E-1,-1.7142859E-1,2.529838E-1,-2.0000002E-1,1.5E-1,1.5E-1,-1.5E-1,2.7272728E-1,-0E0,-2.5E-1,1.5E-1,-1.5E-1,1.5E-1,1.5E-1,-2.5E-1,9.863014E-2,2.936914E-1,2.0000002E-1,-1.20000005E-1,2.6666668E-1,7.3846154E-2,-2.1000001E-1,2.4000001E-1,-2.2500001E-1,1.5E-1,-6.31579E-2,1.2765959E-1,-2.6666668E-1,1.5E-1,6.666667E-2,-1.6363637E-1,1.4666668E-1,-2.0000002E-1,-2.0000002E-1,1.7142859E-1,1.5E-1,-2.1000001E-1,9E-2,2.4375E-1,-1.5E-1,2.5E-1,1.5E-1,-2.6666668E-1,1.1785714E-1,-2.0000002E-1,7.5E-2,2.769231E-1,2.2500001E-1,3.529412E-2,2.0000002E-1,-1.5E-1,2.7272728E-1,-1.5E-1,-4.615385E-2,2.4000001E-1,2.0000002E-1,-1.0909092E-1,-1.875E-1,7.5E-2],"split_indices":[1,4,6,6,12,2147483647,2147483647,7,8,2147483647,2147483647,2147483647,2147483647,2147483647,2147483647,0,2,2147483647,2147483647,2147483647,2147483647,2147483647,2147483647,2147483647,2147483647,2147483647,2147483647,1,0,2147483647,2147483647,2147483647,2147483647,2147483647,2147483647,2147483647,2147483647,1,6,2147483647,2147483647,2147483647,2147483647,2147483647,2147483647,2147483647,2147483647,2147483647,2147483647,2147483647,2147483647,2,6,2147483647,2147483647,2147483647,2147483647,13,0,2147483647,2147483647,2147483647,2147483647,2147483647,2147483647,2147483647,2147483647,2147483647,2147483647,2147483647,2147483647,2147483647,2147483647,2147483647,2147483647,2147483647,2147483647,2147483647,2147483647,2147483647,2147483647,2147483647,2147483647,2147483647,2147483647,2147483647,2147483647,2147483647,2147483647,2147483647,2147483647,2147483647,2147483647,2147483647,2147483647],"split_type":[0,0,0,0,0,0,0,0,0,0,0,0,0,0,0,0,0,0,0,0,0,0,0,0,0,0,0,0,0,0,0,0,0,0,0,0,0,0,0,0,0,0,0,0,0,0,0,0,0,0,0,0,0,0,0,0,0,0,0,0,0,0,0,0,0,0,0,0,0,0,0,0,0,0,0,0,0,0,0,0,0,0,0,0,0,0,0,0,0,0,0,0,0,0,0],"sum_hessian":[1.86E2,1.71E2,1.5E1,1.51E2,2E1,8E0,7E0,4.4E1,1.07E2,1.4E1,6E0,3E0,4E0,3E0,4.1E1,9E0,9.8E1,1.3E1,1E0,2E0,4E0,3E0,1E0,1.9E1,2.2E1,1E0,8E0,7E0,9.1E1,3E0,1E1,1.7E1,2E0,1.6E1,6E0,2E0,5E0,6E0,8.5E1,2E0,1E0,1E0,1E0,1E1,6E0,5E0,1E0,1E0,1E0,1E0,5E0,7.2E1,1.3E1,2E0,4E0,8E0,6.4E1,9E0,4E0,3E0,1E0,1.8E1,4.6E1,8E0,1E0,8E0,1E1,4.4E1,2E0,2E0,6E0,1E0,9E0,2.9E1,1.5E1,1E0,5E0,1E0,8E0,2.7E1,2E0,3E0,1.2E1,1.1E1,1.6E1,2E0,1E0,1E1,1E0,1.2E1,4E0,2E0,1E1,7E0,3E0],"tree_param":{"num_deleted":"78","num_feature":"16","num_nodes":"95","size_leaf_vector":"0"}},{"base_weights":[-2.5700936E-1,-9.736842E-1,-1.0169491E-1,-2.9591838E-1,1.375E-1,-3.7362638E-1,6.25E-1,-3.5714287E-1,2.3880596E-1,-7.826087E-1,-2.3188406E-1,8.5714287E-1,-5E-1,2.857143E-1,-8.75E-1,-3.6363637E-1,3.508772E-1,-0E0,-9.4736844E-1,-6.666667E-1,-4.0816326E-2,-6.666667E-1,8E-1,-8.333333E-1,1.6666667E-1,9.230769E-1,1.7777778E-1,-6.666667E-1,6.666667E-1,-7.5E-1,5E-1,9.756097E-2,-6.666667E-1,-6.666667E-1,7.5E-1,-6.25E-1,3.4210527E-1,-9.285714E-1,-2.857143E-1,-1.904762E-1,3.809524E-1,5E-1,-8.75E-1,5E-1,-8.5714287E-1,-3E-1,5.5172414E-1,2.5E-1,-7.5E-1,3.75E-1,-5E-1,6.666667E-1,-2.857143E-1,4E-1,-8.333333E-1,8.5E-1,-1E-1,6.666667E-1,-5E-1,-6.666667E-1,8.333333E-1,4E-1,-9E-1,9.166667E-1,-2.5E-1,-8E-1,6.666667E-1,7.5E-1,-5E-1,9.4736844E-1,-5E-1,8E-1,-8.333333E-1,7.5E-1,-5E-1,5E-1,-6.666667E-1],"categories":[],"categories_nodes":[],"categories_segments":[],"categories_sizes":[],"default_left":[1,0,1,1,1,1,1,1,1,1,1,1,1,1,1,1,1,1,1,1,1,1,1,1,1,0,1,1,1,1,1,1,1,1,1,1,1,1,1,1,1,1,1,1,1,1,1,1,1,1,1,1,1,1,1,1,1,1,1,1,1,1,1,1,1,1,1,1,1,1,1,0,0,1,1,1,1],"id":12,"left_children":[1,-1,3,5,7,-1,-1,-1,15,-1,-1,-1,-1,-1,-1,-1,25,-1,-1,-1,-1,-1,-1,-1,-1,-1,35,-1,-1,-1,-1,-1,-1,-1,-1,-1,45,-1,-1,-1,-1,-1,-1,-1,-1,-1,55,-1,-1,-1,-1,-1,-1,-1,-1,-1,71,-1,-1,-1,-1,-1,-1,-1,-1,-1,-1,-1,-1,-1,-1,-1,-1,-1,-1,-1,-1],"loss_changes":[2.3721313E1,0E0,8.263624E0,7.246664E0,4.0941095E0,5.0938053E0,2.517857E0,4.9107146E0,4.6511946E0,2.9656744E0,5.7048206E0,0E0,0E0,3.9619048E0,0E0,2.8787875E0,5.4816017E0,2.6666667E0,0E0,2.416667E0,4.3086114E0,0E0,0E0,0E0,3.4166667E0,0E0,6.1501465E0,0E0,0E0,1.3928566E0,0E0,3.41928E0,2.625E0,0E0,0E0,2.517857E0,5.280217E0,0E0,1.9285715E0,3.8630953E0,4.1904764E0,0E0,0E0,0E0,0E0,4.0666666E0,5.722414E0,1.5833334E0,0E0,4.375E0,5.4000006E0,3.6666665E0,3.9619048E0,1.95E0,0E0,3.1026316E0,7.266667E0,0E0,0E0,0E0,0E0,1.95E0,0E0,0E0,1.5833334E0,0E0,0E0,0E0,0E0,0E0,0E0,0E0,0E0,0E0,0E0,0E0,0E0],"parents":[2147483647,0,0,2,2,3,3,4,4,5,5,6,6,7,7,8,8,9,9,10,10,13,13,15,15,16,16,17,17,19,19,20,20,24,24,26,26,29,29,31,31,32,32,35,35,36,36,38,38,39,39,40,40,45,45,46,46,47,47,49,49,50,50,51,51,52,52,53,53,55,55,56,56,61,61,64,64],"right_children":[2,-1,4,6,8,-1,-1,-1,16,-1,-1,-1,-1,-1,-1,-1,26,-1,-1,-1,-1,-1,-1,-1,-1,-1,36,-1,-1,-1,-1,-1,-1,-1,-1,-1,46,-1,-1,-1,-1,-1,-1,-1,-1,-1,56,-1,-1,-1,-1,-1,-1,-1,-1,-1,72,-1,-1,-1,-1,-1,-1,-1,-1,-1,-1,-1,-1,-1,-1,-1,-1,-1,-1,-1,-1],"split_conditions":[2.5978409E-2,-2.9210526E-1,6.419414E-1,5.7692313E-1,5.5597566E-2,-1.1208792E-1,1.875E-1,-1.07142866E-1,6.506936E-2,-2.3478262E-1,-6.956522E-2,2.5714287E-1,-1.5E-1,8.5714296E-2,-2.6250002E-1,-1.0909092E-1,1.8307757E-1,-0E0,-2.8421053E-1,-2.0000002E-1,-1.2244898E-2,-2.0000002E-1,2.4000001E-1,-2.5E-1,5.0000004E-2,2.769231E-1,2.574059E-2,-2.0000002E-1,2.0000002E-1,-2.2500001E-1,1.5E-1,2.9268293E-2,-2.0000002E-1,-2.0000002E-1,2.2500001E-1,-1.875E-1,7.770854E-2,-2.7857143E-1,-8.5714296E-2,-5.714286E-2,1.1428572E-1,1.5E-1,-2.6250002E-1,1.5E-1,-2.5714287E-1,-9E-2,9.614301E-2,7.5E-2,-2.2500001E-1,1.12500004E-1,-1.5E-1,2.0000002E-1,-8.5714296E-2,1.20000005E-1,-2.5E-1,2.5500003E-1,1.6402721E-1,2.0000002E-1,-1.5E-1,-2.0000002E-1,2.5E-1,1.20000005E-1,-2.7E-1,2.75E-1,-7.5E-2,-2.4000001E-1,2.0000002E-1,2.2500001E-1,-1.5E-1,2.8421053E-1,-1.5E-1,2.4000001E-1,-2.5E-1,2.2500001E-1,-1.5E-1,1.5E-1,-2.0000002E-1],"split_indices":[15,0,14,7,1,8,4,1,8,2147483647,2147483647,2147483647,2147483647,2147483647,2147483647,4,6,2147483647,2147483647,2147483647,2147483647,2147483647,2147483647,2147483647,2147483647,0,9,2147483647,2147483647,2147483647,2147483647,2147483647,2147483647,2147483647,2147483647,9,8,2147483647,2147483647,2147483647,2147483647,2147483647,2147483647,2147483647,2147483647,5,8,2147483647,2147483647,2147483647,2147483647,2147483647,2147483647,2147483647,2147483647,5,1,2147483647,2147483647,2147483647,2147483647,2147483647,2147483647,2147483647,2147483647,2147483647,2147483647,2147483647,2147483647,2147483647,2147483647,0,0,2147483647,2147483647,2147483647,2147483647],"split_type":[0,0,0,0,0,0,0,0,0,0,0,0,0,0,0,0,0,0,0,0,0,0,0,0,0,0,0,0,0,0,0,0,0,0,0,0,0,0,0,0,0,0,0,0,0,0,0,0,0,0,0,0,0,0,0,0,0,0,0,0,0,0,0,0,0,0,0,0,0,0,0,0,0,0,0,0,0],"sum_hessian":[2.13E2,3.7E1,1.76E2,9.7E1,7.9E1,9E1,7E0,1.3E1,6.6E1,2.2E1,6.8E1,6E0,1E0,6E0,7E0,1E1,5.6E1,4E0,1.8E1,2E1,4.8E1,2E0,4E0,5E0,5E0,1.2E1,4.4E1,2E0,2E0,1.9E1,1E0,4E1,8E0,2E0,3E0,7E0,3.7E1,1.3E1,6E0,2E1,2E1,1E0,7E0,1E0,6E0,9E0,2.8E1,3E0,3E0,7E0,1.3E1,1.4E1,6E0,4E0,5E0,1.9E1,9E0,2E0,1E0,2E0,5E0,4E0,9E0,1.1E1,3E0,4E0,2E0,3E0,1E0,1.8E1,1E0,4E0,5E0,3E0,1E0,1E0,2E0],"tree_param":{"num_deleted":"56","num_feature":"16","num_nodes":"77","size_leaf_vector":"0"}},{"base_weights":[-5.0314464E-2,1.4864865E-1,-2.2093023E-1,3.1578946E-1,-3.888889E-1,-5.9375E-1,-0E0,4.7727272E-1,-2.1428572E-1,-8.75E-1,-0E0,-7.586207E-1,7.5E-1,-1.04166664E-1,6.25E-1,2.6923078E-1,7.368421E-1,3.75E-1,-8.5714287E-1,3.75E-1,-7.5E-1,-9.5E-1,-3E-1,2.5E-1,-3.448276E-1,8.5714287E-1,-5E-1,4.347826E-1,-7.5E-1,-0E0,8.235294E-1,5.714286E-1,-5E-1,-2.5E-1,8E-1,4E-1,-8.333333E-1,8.75E-1,-1.5384616E-1,-9E-1,-5E-2,5.714286E-1,-6.666667E-1,5E-1,-5E-1,9.3333334E-1,-0E0,-5E-1,8.333333E-1,5E-1,-6.666667E-1,-5E-1,7.5E-1,-5.714286E-1,2.857143E-1,4.1666666E-1,-6.666667E-1,-2.5E-1,7.222222E-1,-5E-1,5E-1,-8.333333E-1,5E-1,-2.5E-1,7.5E-1,8.75E-1,-4E-1,-8.75E-1,5E-1,5E-1,-6.666667E-1,9.285714E-1,-0E0,5E-1,-6.666667E-1,5E-1,-7.5E-1,6.666667E-1,-6.666667E-1],"categories":[],"categories_nodes":[],"categories_segments":[],"categories_sizes":[],"default_left":[1,1,1,1,1,1,1,1,1,1,1,1,0,1,1,1,1,1,1,1,1,1,1,1,1,1,1,1,1,1,1,1,1,1,1,1,1,1,1,1,1,1,1,1,1,1,1,1,1,1,1,1,1,1,1,1,1,1,1,1,1,1,1,1,1,1,1,1,1,1,1,1,1,1,1,1,1,1,1],"id":13,"left_children":[1,-1,5,-1,-1,11,-1,-1,-1,-1,-1,-1,-1,-1,-1,-1,-1,-1,-1,-1,-1,-1,-1,-1,-1,-1,-1,-1,-1,-1,-1,-1,-1,-1,-1,-1,-1,-1,-1,-1,-1,-1,-1,-1,-1,-1,-1,-1,-1,-1,-1,-1,-1,-1,-1,-1,-1,-1,-1,-1,-1,-1,-1,-1,-1,-1,-1,-1,-1,-1,-1,-1,-1,-1,-1,-1,-1,-1,-1],"loss_changes":[5.4302936E0,6.771298E0,7.0835757E0,4.9813743E0,3.4027777E0,7.6584053E0,3.6458333E0,2.177678E0,5.625E0,0E0,3.375E0,2.2603436E0,0E0,4.177442E0,2.517857E0,4.7132106E0,1.2136221E0,1.6607144E0,0E0,2.325E0,0E0,0E0,4.0666666E0,5.1826925E0,4.701725E0,0E0,0E0,3.8426504E0,0E0,1E0,1.5372553E0,2.3809521E0,0E0,1.5833334E0,0E0,1.95E0,0E0,0E0,2.5494506E0,0E0,6.033333E0,2.7817464E0,0E0,0E0,0E0,0E0,1E0,0E0,0E0,0E0,0E0,0E0,0E0,2.3809521E0,1.9285715E0,4.841667E0,2.625E0,1.5833334E0,2.682539E0,0E0,0E0,0E0,0E0,1.5833334E0,0E0,0E0,1.95E0,0E0,0E0,0E0,0E0,0E0,2.6666667E0,0E0,0E0,0E0,0E0,0E0,0E0],"parents":[2147483647,0,0,1,1,2,2,3,3,4,4,5,5,6,6,7,7,8,8,10,10,11,11,13,13,14,14,15,15,16,16,17,17,19,19,22,22,23,23,24,24,27,27,29,29,30,30,31,31,33,33,35,35,38,38,40,40,41,41,46,46,53,53,54,54,55,55,56,56,57,57,58,58,63,63,66,66,72,72],"right_children":[2,-1,6,-1,-1,12,-1,-1,-1,-1,-1,-1,-1,-1,-1,-1,-1,-1,-1,-1,-1,-1,-1,-1,-1,-1,-1,-1,-1,-1,-1,-1,-1,-1,-1,-1,-1,-1,-1,-1,-1,-1,-1,-1,-1,-1,-1,-1,-1,-1,-1,-1,-1,-1,-1,-1,-1,-1,-1,-1,-1,-1,-1,-1,-1,-1,-1,-1,-1,-1,-1,-1,-1,-1,-1,-1,-1,-1,-1],"split_conditions":[2.8989813E-1,4.4594597E-2,1.8968457E-1,9.4736844E-2,-1.16666675E-1,5.7692313E-1,-0E0,1.4318182E-1,-6.428572E-2,-2.6250002E-1,-0E0,-2.2758621E-1,2.2500001E-1,-3.125E-2,1.875E-1,8.076924E-2,2.2105263E-1,1.12500004E-1,-2.5714287E-1,1.12500004E-1,-2.2500001E-1,-2.85E-1,-9E-2,7.5E-2,-1.0344828E-1,2.5714287E-1,-1.5E-1,1.3043478E-1,-2.2500001E-1,-0E0,2.4705884E-1,1.7142859E-1,-1.5E-1,-7.5E-2,2.4000001E-1,1.20000005E-1,-2.5E-1,2.6250002E-1,-4.615385E-2,-2.7E-1,-1.5000001E-2,1.7142859E-1,-2.0000002E-1,1.5E-1,-1.5E-1,2.8E-1,-0E0,-1.5E-1,2.5E-1,1.5E-1,-2.0000002E-1,-1.5E-1,2.2500001E-1,-1.7142859E-1,8.5714296E-2,1.25E-1,-2.0000002E-1,-7.5E-2,2.1666667E-1,-1.5E-1,1.5E-1,-2.5E-1,1.5E-1,-7.5E-2,2.2500001E-1,2.6250002E-1,-1.20000005E-1,-2.6250002E-1,1.5E-1,1.5E-1,-2.0000002E-1,2.7857143E-1,-0E0,1.5E-1,-2.0000002E-1,1.5E-1,-2.2500001E-1,2.0000002E-1,-2.0000002E-1],"split_indices":[15,4,6,2147483647,2147483647,7,8,2147483647,2147483647,2147483647,2147483647,12,0,2147483647,2147483647,2147483647,2147483647,2147483647,2147483647,2147483647,2147483647,2147483647,2147483647,2147483647,2147483647,2147483647,2147483647,2147483647,2147483647,2147483647,2147483647,2147483647,2147483647,2147483647,2147483647,2147483647,2147483647,2147483647,2147483647,2147483647,2147483647,2147483647,2147483647,2147483647,2147483647,2147483647,2147483647,2147483647,2147483647,2147483647,2147483647,2147483647,2147483647,2147483647,2147483647,2147483647,2147483647,2147483647,2147483647,2147483647,2147483647,2147483647,2147483647,2147483647,2147483647,2147483647,2147483647,2147483647,2147483647,2147483647,2147483647,2147483647,2147483647,2147483647,2147483647,2147483647,2147483647,2147483647,2147483647],"split_type":[0,0,0,0,0,0,0,0,0,0,0,0,0,0,0,0,0,0,0,0,0,0,0,0,0,0,0,0,0,0,0,0,0,0,0,0,0,0,0,0,0,0,0,0,0,0,0,0,0,0,0,0,0,0,0,0,0,0,0,0,0,0,0,0,0,0,0,0,0,0,0,0,0,0,0,0,0,0,0],"sum_hessian":[1.58E2,7.3E1,8.5E1,5.6E1,1.7E1,3.1E1,5.4E1,4.3E1,1.3E1,7E0,1E1,2.8E1,3E0,4.7E1,7E0,2.5E1,1.8E1,7E0,6E0,7E0,3E0,1.9E1,9E0,1.9E1,2.8E1,6E0,1E0,2.2E1,3E0,2E0,1.6E1,6E0,1E0,3E0,4E0,4E0,5E0,7E0,1.2E1,9E0,1.9E1,2E1,2E0,1E0,1E0,1.4E1,2E0,1E0,5E0,1E0,2E0,1E0,3E0,6E0,6E0,1.1E1,8E0,3E0,1.7E1,1E0,1E0,5E0,1E0,3E0,3E0,7E0,4E0,7E0,1E0,1E0,2E0,1.3E1,4E0,1E0,2E0,1E0,3E0,2E0,2E0],"tree_param":{"num_deleted":"72","num_feature":"16","num_nodes":"79","size_leaf_vector":"0"}},{"base_weights":[5.8441557E-2,-4.5801528E-2,6.25E-1,2.4390244E-1,-1.7582418E-1,-6.666667E-1,7.7272725E-1,6.25E-1,-2.777778E-1,-8.888889E-1,-9.638554E-2,8.5714287E-1,-5E-1,6.956522E-1,-5E-1,3.75E-1,-7.2727275E-1,1.25E-1,-2.9545453E-1,9.5E-1,-5E-1,-0E0,8.4210527E-1,-6.666667E-1,8.333333E-1,-9E-1,5E-1,6.111111E-1,-2.6086956E-1,5E-1,-4.1025642E-1,-6.666667E-1,6.666667E-1,-0E0,9.411765E-1,-5E-1,7.058824E-1,-7E-1,7.1428575E-2,8E-1,-5E-1,-6.086956E-1,-1.1764706E-1,5E-1,-5E-1,-0E0,9.230769E-1,-8.75E-1,-0E0,-3.75E-1,5.714286E-1,2.5E-1,-7.5E-1,7.5E-1,-3.5714287E-1,6.666667E-1,-6.666667E-1,5E-1,-5E-1,2.5E-1,-8E-1,8.333333E-1,-5E-1,6.666667E-1,-5E-1,-9.375E-1,-0E0,4E-1,-7E-1,6.666667E-1,-5E-1,6.666667E-1,-6.666667E-1,7.5E-1,-5E-1,5E-1,-8.888889E-1],"categories":[],"categories_nodes":[],"categories_segments":[],"categories_sizes":[],"default_left":[1,1,1,1,1,1,1,1,1,0,1,1,1,1,1,1,1,1,1,1,1,1,1,1,1,1,1,1,1,1,1,1,1,1,1,1,1,1,1,1,1,1,1,1,1,1,1,1,1,1,1,1,1,1,1,1,1,1,1,1,1,1,1,1,1,1,1,1,1,1,1,1,1,1,1,1,1],"id":14,"left_children":[1,3,-1,7,9,-1,-1,-1,-1,-1,17,-1,-1,-1,-1,-1,-1,27,-1,-1,-1,-1,-1,-1,-1,-1,-1,-1,-1,-1,-1,-1,-1,-1,-1,-1,-1,-1,-1,-1,-1,-1,-1,-1,-1,-1,-1,-1,-1,-1,-1,-1,-1,-1,-1,-1,-1,-1,-1,-1,-1,-1,-1,-1,-1,-1,-1,-1,-1,-1,-1,-1,-1,-1,-1,-1,-1],"loss_changes":[9.123835E0,4.977402E0,5.094697E0,8.324865E0,5.069009E0,0E0,2.7922077E0,2.255435E0,5.554293E0,0E0,3.6948247E0,3.1214275E0,0E0,2.3432493E0,0E0,4.375E0,2.7818184E0,7.6624393E0,4.223193E0,0E0,0E0,2.6666667E0,1.5851393E0,0E0,0E0,0E0,0E0,2.2483664E0,3.4062114E0,2.2E0,2.1929307E0,0E0,0E0,1E0,0E0,0E0,2.6063347E0,1.2249999E0,3.3392859E0,0E0,0E0,2.978261E0,3.80042E0,0E0,0E0,2.6666667E0,0E0,0E0,1E0,2.325E0,2.3809521E0,1.5833334E0,2.8125E0,0E0,3.9142861E0,0E0,0E0,0E0,0E0,1.5833334E0,0E0,0E0,0E0,0E0,0E0,0E0,2.6666667E0,1.95E0,2.711111E0,0E0,0E0,0E0,0E0,0E0,0E0,0E0,0E0],"parents":[2147483647,0,0,1,1,2,2,3,3,4,4,6,6,7,7,8,8,10,10,11,11,13,13,15,15,16,16,17,17,18,18,21,21,22,22,27,27,28,28,29,29,30,30,33,33,36,36,37,37,38,38,41,41,42,42,45,45,48,48,49,49,50,50,51,51,52,52,54,54,59,59,66,66,67,67,68,68],"right_children":[2,4,-1,8,10,-1,-1,-1,-1,-1,18,-1,-1,-1,-1,-1,-1,28,-1,-1,-1,-1,-1,-1,-1,-1,-1,-1,-1,-1,-1,-1,-1,-1,-1,-1,-1,-1,-1,-1,-1,-1,-1,-1,-1,-1,-1,-1,-1,-1,-1,-1,-1,-1,-1,-1,-1,-1,-1,-1,-1,-1,-1,-1,-1,-1,-1,-1,-1,-1,-1,-1,-1,-1,-1,-1,-1],"split_conditions":[4.5348838E-1,4.442832E-2,1.875E-1,1.9817615E-1,5.009786E-2,-2.0000002E-1,2.3181818E-1,1.875E-1,-8.333334E-2,-2.6666668E-1,7.171115E-2,2.5714287E-1,-1.5E-1,2.0869567E-1,-1.5E-1,1.12500004E-1,-2.1818183E-1,2.639319E-1,-8.863636E-2,2.85E-1,-1.5E-1,-0E0,2.526316E-1,-2.0000002E-1,2.5E-1,-2.7E-1,1.5E-1,1.8333334E-1,-7.826087E-2,1.5E-1,-1.2307693E-1,-2.0000002E-1,2.0000002E-1,-0E0,2.8235295E-1,-1.5E-1,2.1176472E-1,-2.1000001E-1,2.1428574E-2,2.4000001E-1,-1.5E-1,-1.826087E-1,-3.529412E-2,1.5E-1,-1.5E-1,-0E0,2.769231E-1,-2.6250002E-1,-0E0,-1.12500004E-1,1.7142859E-1,7.5E-2,-2.2500001E-1,2.2500001E-1,-1.07142866E-1,2.0000002E-1,-2.0000002E-1,1.5E-1,-1.5E-1,7.5E-2,-2.4000001E-1,2.5E-1,-1.5E-1,2.0000002E-1,-1.5E-1,-2.8125E-1,-0E0,1.20000005E-1,-2.1000001E-1,2.0000002E-1,-1.5E-1,2.0000002E-1,-2.0000002E-1,2.2500001E-1,-1.5E-1,1.5E-1,-2.6666668E-1],"split_indices":[13,4,0,1,4,2147483647,2147483647,3,5,0,4,2147483647,2147483647,2147483647,2147483647,2147483647,2147483647,15,2,2147483647,2147483647,2147483647,2147483647,2147483647,2147483647,2147483647,2147483647,7,1,2147483647,2147483647,2147483647,2147483647,2147483647,2147483647,2147483647,2147483647,2147483647,2147483647,2147483647,2147483647,2147483647,2147483647,2147483647,2147483647,2147483647,2147483647,2147483647,2147483647,2147483647,2147483647,2147483647,2147483647,2147483647,2147483647,2147483647,2147483647,2147483647,2147483647,2147483647,2147483647,2147483647,2147483647,2147483647,2147483647,2147483647,2147483647,2147483647,2147483647,2147483647,2147483647,2147483647,2147483647,2147483647,2147483647,2147483647,2147483647],"split_type":[0,0,0,0,0,0,0,0,0,0,0,0,0,0,0,0,0,0,0,0,0,0,0,0,0,0,0,0,0,0,0,0,0,0,0,0,0,0,0,0,0,0,0,0,0,0,0,0,0,0,0,0,0,0,0,0,0,0,0,0,0,0,0,0,0,0,0,0,0,0,0,0,0,0,0,0,0],"sum_hessian":[1.53E2,1.3E2,2.3E1,4E1,9E1,2E0,2.1E1,2.3E1,1.7E1,8E0,8.2E1,2E1,1E0,2.2E1,1E0,7E0,1E1,3.9E1,4.3E1,1.9E1,1E0,4E0,1.8E1,2E0,5E0,9E0,1E0,1.7E1,2.2E1,5E0,3.8E1,2E0,2E0,2E0,1.6E1,1E0,1.6E1,9E0,1.3E1,4E0,1E0,2.2E1,1.6E1,1E0,1E0,4E0,1.2E1,7E0,2E0,7E0,6E0,3E0,1.9E1,3E0,1.3E1,2E0,2E0,1E0,1E0,3E0,4E0,5E0,1E0,2E0,1E0,1.5E1,4E0,4E0,9E0,2E0,1E0,2E0,2E0,3E0,1E0,1E0,8E0],"tree_param":{"num_deleted":"64","num_feature":"16","num_nodes":"77","size_leaf_vector":"0"}},{"base_weights":[-2.7403846E-1,-8.4210527E-1,-5.9210528E-2,-9.0909094E-1,6.666667E-1,6.481481E-2,-3.5555556E-1,5E-1,-9.444444E-1,-9.876543E-2,5.3571427E-1,-8E-1,-1.2903225E-1,-5.714286E-1,-9.791667E-1,-0E0,-7.2727275E-1,-8E-1,7.916667E-1,-9.285714E-1,5E-1,8E-1,-2.962963E-1,-8.333333E-1,5E-1,1.3114753E-1,-7.2727275E-1,5E-1,-9E-1,9.411765E-1,3.75E-1,-6.4285713E-1,7.1428575E-2,-1.02564104E-1,5.217391E-1,-9E-1,5E-1,-6.666667E-1,8.333333E-1,-1.6666667E-1,-8.888889E-1,5E-1,-8E-1,-7E-1,1E-1,9E-1,2.1428572E-1,-7.5E-1,6.666667E-1,6.666667E-1,-5E-1,-8.888889E-1,5E-1,3.809524E-1,-5E-1,8.333333E-1,-2.2222222E-1,8.75E-1,-5E-1,5.263158E-1,-6.666667E-1,-8.5714287E-1,2.5E-1,-8E-1,4E-1,-1.6666667E-1,7.8571427E-1,-5E-1,6.666667E-1,-5E-1,7.5E-1,-7.5E-1,6.666667E-1,9.230769E-1,-5E-1],"categories":[],"categories_nodes":[],"categories_segments":[],"categories_sizes":[],"default_left":[1,1,1,1,1,1,1,1,1,1,1,1,1,1,1,1,1,0,1,1,1,1,1,1,1,1,1,1,1,1,1,1,1,1,1,1,1,1,1,1,1,1,1,1,1,1,1,1,1,1,1,1,1,1,1,1,1,1,1,1,1,1,1,1,1,1,1,1,1,1,1,1,1,1,1],"id":15,"left_children":[1,-1,5,-1,-1,9,-1,-1,-1,-1,17,-1,-1,-1,-1,-1,-1,-1,-1,-1,-1,-1,-1,-1,-1,-1,-1,-1,-1,-1,-1,-1,-1,-1,-1,-1,-1,-1,-1,-1,-1,-1,-1,-1,-1,-1,-1,-1,-1,-1,-1,-1,-1,-1,-1,-1,-1,-1,-1,-1,-1,-1,-1,-1,-1,-1,-1,-1,-1,-1,-1,-1,-1,-1,-1],"loss_changes":[2.5333752E1,6.366825E0,5.6096983E0,3.2121239E0,0E0,8.372134E0,4.42724E0,0E0,1.3987732E-1,5.0280585E0,1.0205953E1,2.971428E0,5.0542417E0,2.3809521E0,0E0,6.867362E0,2.7818184E0,0E0,1.1421556E0,0E0,0E0,0E0,3.4867725E0,0E0,0E0,5.6219454E0,2.7818184E0,0E0,0E0,0E0,4.375E0,1.4920635E0,5.628571E0,4.789744E0,2.4819884E0,0E0,0E0,0E0,0E0,3.4166667E0,0E0,2E0,0E0,2.711111E0,5.2476187E0,0E0,3.968254E0,0E0,0E0,2.625E0,0E0,0E0,0E0,3.5488722E0,2.892857E0,0E0,3.5555556E0,0E0,0E0,3.5463667E0,0E0,0E0,1.5833334E0,0E0,1.95E0,3.4166667E0,2.9340658E0,0E0,0E0,0E0,0E0,0E0,0E0,0E0,0E0],"parents":[2147483647,0,0,1,1,2,2,3,3,5,5,6,6,8,8,9,9,10,10,11,11,12,12,13,13,15,15,16,16,18,18,22,22,25,25,26,26,30,30,31,31,32,32,33,33,34,34,39,39,41,41,43,43,44,44,46,46,49,49,53,53,54,54,56,56,59,59,62,62,64,64,65,65,66,66],"right_children":[2,-1,6,-1,-1,10,-1,-1,-1,-1,18,-1,-1,-1,-1,-1,-1,-1,-1,-1,-1,-1,-1,-1,-1,-1,-1,-1,-1,-1,-1,-1,-1,-1,-1,-1,-1,-1,-1,-1,-1,-1,-1,-1,-1,-1,-1,-1,-1,-1,-1,-1,-1,-1,-1,-1,-1,-1,-1,-1,-1,-1,-1,-1,-1,-1,-1,-1,-1,-1,-1,-1,-1,-1,-1],"split_conditions":[1.1611055E-1,-2.526316E-1,1.6203858E-2,-2.7272728E-1,2.0000002E-1,3.7884438E-1,-1.0666668E-1,1.5E-1,-2.8333333E-1,-2.9629631E-2,3.2999374E-2,-2.4000001E-1,-3.8709678E-2,-1.7142859E-1,-2.9375002E-1,-0E0,-2.1818183E-1,-2.4000001E-1,2.3750001E-1,-2.7857143E-1,1.5E-1,2.4000001E-1,-8.888889E-2,-2.5E-1,1.5E-1,3.9344262E-2,-2.1818183E-1,1.5E-1,-2.7E-1,2.8235295E-1,1.12500004E-1,-1.9285715E-1,2.1428574E-2,-3.0769233E-2,1.5652174E-1,-2.7E-1,1.5E-1,-2.0000002E-1,2.5E-1,-5.0000004E-2,-2.6666668E-1,1.5E-1,-2.4000001E-1,-2.1000001E-1,3.0000001E-2,2.7E-1,6.428572E-2,-2.2500001E-1,2.0000002E-1,2.0000002E-1,-1.5E-1,-2.6666668E-1,1.5E-1,1.1428572E-1,-1.5E-1,2.5E-1,-6.666667E-2,2.6250002E-1,-1.5E-1,1.5789475E-1,-2.0000002E-1,-2.5714287E-1,7.5E-2,-2.4000001E-1,1.20000005E-1,-5.0000004E-2,2.3571429E-1,-1.5E-1,2.0000002E-1,-1.5E-1,2.2500001E-1,-2.2500001E-1,2.0000002E-1,2.769231E-1,-1.5E-1],"split_indices":[15,2,5,2147483647,2147483647,15,4,2147483647,2147483647,6,4,2147483647,2147483647,2147483647,2147483647,2147483647,2147483647,0,6,2147483647,2147483647,2147483647,2147483647,2147483647,2147483647,2147483647,2147483647,2147483647,2147483647,2147483647,2147483647,2147483647,2147483647,2147483647,2147483647,2147483647,2147483647,2147483647,2147483647,2147483647,2147483647,2147483647,2147483647,2147483647,2147483647,2147483647,2147483647,2147483647,2147483647,2147483647,2147483647,2147483647,2147483647,2147483647,2147483647,2147483647,2147483647,2147483647,2147483647,2147483647,2147483647,2147483647,2147483647,2147483647,2147483647,2147483647,2147483647,2147483647,2147483647,2147483647,2147483647,2147483647,2147483647,2147483647,2147483647],"split_type":[0,0,0,0,0,0,0,0,0,0,0,0,0,0,0,0,0,0,0,0,0,0,0,0,0,0,0,0,0,0,0,0,0,0,0,0,0,0,0,0,0,0,0,0,0,0,0,0,0,0,0,0,0,0,0,0,0,0,0,0,0,0,0,0,0,0,0,0,0,0,0,0,0,0,0],"sum_hessian":[2.07E2,5.6E1,1.51E2,5.4E1,2E0,1.07E2,4.4E1,1E0,5.3E1,8E1,2.7E1,1.4E1,3E1,6E0,4.7E1,7E1,1E1,4E0,2.3E1,1.3E1,1E0,4E0,2.6E1,5E0,1E0,6E1,1E1,1E0,9E0,1.6E1,7E0,1.3E1,1.3E1,3.8E1,2.2E1,9E0,1E0,2E0,5E0,5E0,8E0,9E0,4E0,9E0,2.9E1,9E0,1.3E1,3E0,2E0,8E0,1E0,8E0,1E0,2E1,9E0,5E0,8E0,7E0,1E0,1.8E1,2E0,6E0,3E0,4E0,4E0,5E0,1.3E1,1E0,2E0,1E0,3E0,3E0,2E0,1.2E1,1E0],"tree_param":{"num_deleted":"66","num_feature":"16","num_nodes":"75","size_leaf_vector":"0"}}]},"name":"gbtree"},"learner_model_param":{"base_score":"5E-1","boost_from_average":"1","num_class":"0","num_feature":"16","num_target":"1"},"objective":{"name":"binary:hinge"}},"version":[1,7,2]}