{"learner":{"attributes":{"best_iteration":"20","best_ntree_limit":"21","best_score":"0.0505789152955515"},"feature_names":[],"feature_types":[],"gradient_booster":{"model":{"gbtree_model_param":{"num_parallel_tree":"1","num_trees":"25","size_leaf_vector":"0"},"tree_info":[0,0,0,0,0,0,0,0,0,0,0,0,0,0,0,0,0,0,0,0,0,0,0,0,0],"trees":[{"base_weights":[-7.45329E-1,8.442623E-1,-8.2785136E-1,-4.4444445E-1,9.385965E-1,-9.3251234E-1,-1.4423077E-1,2.5E-1,-8.333333E-1,9.557522E-1,-5E-1,-6.866953E-1,-9.638487E-1,3.9252338E-1,-4.223301E-1,-5E-1,6.666667E-1,9.9038464E-1,5E-1,-9.6236557E-1,3.9583334E-1,-3.5714287E-1,-9.680672E-1,6.329114E-1,-2.7586207E-1,2.264151E-1,-6.4285713E-1,8.5714287E-1,-2.5E-1,-9.9358976E-1,-7.741935E-1,-8.5714287E-1,5.952381E-1,4E-1,-7E-1,-9.797297E-1,-8.4177214E-1,8.8372093E-1,3.243243E-1,-5.5E-1,3E-1,-2.3333333E-1,7.916667E-1,-9.21875E-1,-4.3956044E-1,5E-1,-6.666667E-1,-8.9285713E-1,2.5E-1,9.5E-1,2.6086956E-1,-5E-1,7.5E-1,-8.888889E-1,5E-1,-1.3333334E-1,-9.097222E-1,-5E-1,9.285714E-1,-5E-2,7.222222E-1,-0E0,-9.166667E-1,8.5714287E-1,-7.5E-1,7.5E-1,-3.7037036E-1,8.695652E-1,-5E-1,2.5E-1,-9.836066E-1,-1.2244898E-1,-7.906977E-1,-5E-1,6.666667E-1,4.5E-1,-7.5E-1,3E-1,-8.333333E-1,-0E0,-9.357143E-1,9.74359E-1,2.5E-1,3.0769232E-1,-6.25E-1,9.375E-1,-6.666667E-1,8E-1,-8E-1,6.666667E-1,-4.8E-1,9.5454544E-1,-5E-1,6.666667E-1,-5E-1,-7.5E-1,7.8947365E-2,4E-1,-9.230769E-1,6.875E-1,-4E-1,8.333333E-1,-4E-1,-6.666667E-1,6.666667E-1,-4.4444445E-1,-9.621212E-1,6.666667E-1,-5E-1,-6.666667E-1,5.4545456E-1,-8.5714287E-1,5E-1,-6.086956E-1,6.666667E-1,5E-1,-9.0909094E-1,4.7619048E-1,-3.888889E-1,7.5E-1,-5E-1,9E-1,2.857143E-1,5E-1,-7.5E-1,-7.5E-1,5E-1,2.5E-1,-8.333333E-1,-4E-1,-9.765625E-1,8.5714287E-1,-0E0,-7.5E-1,2.5E-1,7.222222E-1,-7.5E-1,-6.666667E-1,7.5E-1,-6.666667E-1,8E-1,-5E-1,6.666667E-1,5E-1,-7.5E-1,-9.917355E-1,-6.25E-1,-6.666667E-1,6.666667E-1,5E-1,-8.4210527E-1,-5E-1,6.666667E-1,8.235294E-1,-5E-1,5E-1,-7.8571427E-1],"categories":[],"categories_nodes":[],"categories_segments":[],"categories_sizes":[],"default_left":[1,1,1,1,1,1,1,1,1,1,1,1,1,1,1,1,1,1,1,1,1,1,1,1,1,1,1,1,1,1,1,0,1,1,1,0,1,1,1,1,1,1,1,1,1,1,1,1,1,1,1,1,1,1,1,1,1,1,1,1,1,1,1,1,1,1,1,1,1,1,1,1,1,1,1,1,1,1,1,1,1,1,1,1,1,1,1,1,1,1,1,1,1,1,1,1,1,1,0,1,1,1,1,1,1,1,1,1,1,1,1,1,1,1,1,1,1,1,1,1,1,1,1,1,1,1,1,1,1,1,1,1,1,1,1,1,1,1,1,1,1,1,1,1,1,1,1,1,1,1,1,1,1,1,1,1,1],"id":0,"left_children":[1,3,5,-1,-1,11,13,-1,-1,-1,-1,19,21,23,25,-1,-1,-1,-1,-1,31,-1,35,-1,-1,41,43,-1,-1,-1,-1,-1,-1,-1,-1,-1,55,-1,-1,-1,-1,-1,-1,-1,71,-1,-1,-1,-1,-1,-1,-1,-1,-1,-1,-1,-1,-1,-1,-1,-1,-1,-1,-1,-1,-1,-1,-1,-1,-1,-1,95,97,-1,-1,-1,-1,-1,-1,-1,-1,-1,-1,-1,-1,-1,-1,-1,-1,-1,-1,-1,-1,-1,-1,-1,117,-1,-1,-1,-1,-1,-1,-1,-1,-1,-1,-1,-1,-1,-1,-1,-1,-1,-1,-1,-1,-1,-1,-1,-1,-1,-1,-1,-1,-1,-1,-1,-1,-1,-1,-1,-1,-1,-1,-1,-1,-1,-1,-1,-1,-1,-1,-1,-1,-1,-1,-1,-1,-1,-1,-1,-1,-1,-1,-1,-1],"loss_changes":[3.2365613E2,1.5248589E1,1.6736035E2,2.6388888E0,3.2914124E0,1.497522E1,4.6738316E1,1.5833334E0,0E0,1.2883759E0,0E0,6.9913025E1,4.2561035E0,1.7366486E1,2.9617123E1,0E0,0E0,0E0,2.892857E0,3.236084E-1,1.2502975E1,3.9142861E0,1.8044434E0,5.827717E0,4.743104E0,1.395802E1,8.330189E0,0E0,1.5833334E0,0E0,3.9907837E0,0E0,4.7342644E0,1.95E0,2.711111E0,0E0,7.4845886E0,3.1328926E0,5.5469975E0,4.033333E0,6.492857E0,4.3203707E0,2.849637E0,4.8757668E0,1.00359955E1,0E0,0E0,0E0,1.5833334E0,0E0,4.7347827E0,0E0,0E0,0E0,0E0,4.7999997E0,3.4049606E0,0E0,1.0613556E0,4.305769E0,6.0069437E0,6.4E0,0E0,0E0,0E0,0E0,3.38963E0,3.15415E0,0E0,1.5833334E0,0E0,6.252148E0,7.147049E0,0E0,0E0,4.3125E0,0E0,4.0666666E0,0E0,2.6666667E0,1.3885956E0,0E0,1.5833334E0,3.3752913E0,2.517857E0,0E0,0E0,0E0,0E0,0E0,4.095072E0,0E0,0E0,0E0,0E0,2.840909E0,7.247285E0,1.95E0,0E0,1.1089287E0,1.95E0,0E0,1.95E0,0E0,0E0,2.6388888E0,6.8092346E-1,0E0,0E0,0E0,1.8701298E0,0E0,0E0,2.978261E0,0E0,0E0,0E0,6.8769846E0,6.1944437E0,0E0,0E0,0E0,3.9619048E0,0E0,0E0,0E0,0E0,1.5833334E0,0E0,1.95E0,6.2950134E-2,0E0,2.6666667E0,2.7236843E0,1.5833334E0,2.640522E0,0E0,2.476191E0,0E0,0E0,0E0,0E0,0E0,0E0,0E0,0E0,0E0,0E0,0E0,0E0,0E0,0E0,0E0,0E0,0E0,0E0,0E0],"parents":[2147483647,0,0,1,1,2,2,3,3,4,4,5,5,6,6,7,7,9,9,11,11,12,12,13,13,14,14,18,18,19,19,20,20,21,21,22,22,23,23,24,24,25,25,26,26,28,28,30,30,32,32,33,33,34,34,36,36,37,37,38,38,39,39,40,40,41,41,42,42,43,43,44,44,48,48,50,50,55,55,56,56,58,58,59,59,60,60,61,61,66,66,67,67,69,69,71,71,72,72,75,75,77,77,79,79,80,80,82,82,83,83,84,84,90,90,95,95,96,96,97,97,99,99,100,100,102,102,105,105,106,106,110,110,113,113,117,117,118,118,122,122,127,127,129,129,130,130,132,132,133,133,134,134,135,135,137,137],"right_children":[2,4,6,-1,-1,12,14,-1,-1,-1,-1,20,22,24,26,-1,-1,-1,-1,-1,32,-1,36,-1,-1,42,44,-1,-1,-1,-1,-1,-1,-1,-1,-1,56,-1,-1,-1,-1,-1,-1,-1,72,-1,-1,-1,-1,-1,-1,-1,-1,-1,-1,-1,-1,-1,-1,-1,-1,-1,-1,-1,-1,-1,-1,-1,-1,-1,-1,96,98,-1,-1,-1,-1,-1,-1,-1,-1,-1,-1,-1,-1,-1,-1,-1,-1,-1,-1,-1,-1,-1,-1,-1,118,-1,-1,-1,-1,-1,-1,-1,-1,-1,-1,-1,-1,-1,-1,-1,-1,-1,-1,-1,-1,-1,-1,-1,-1,-1,-1,-1,-1,-1,-1,-1,-1,-1,-1,-1,-1,-1,-1,-1,-1,-1,-1,-1,-1,-1,-1,-1,-1,-1,-1,-1,-1,-1,-1,-1,-1,-1,-1,-1,-1],"split_conditions":[1.7775E2,2.25E1,6.250264E1,-4.9382716E-2,1.04288496E-1,2.0525E2,2.3925E2,2.7777778E-2,-9.259259E-2,1.0619469E-1,-5.5555556E-2,3.7324913E1,4.1487344E-2,8.31752E1,3.8044228E1,-5.5555556E-2,7.4074075E-2,1.10042736E-1,5.5555556E-2,-1.0692951E-1,1.812887E2,-3.968254E-2,5.251683E1,7.032349E-2,-3.065134E-2,9.13846E1,7.756868E1,9.52381E-2,-2.7777778E-2,-1.10398866E-1,-8.6021505E-2,-9.52381E-2,6.613757E-2,4.4444446E-2,-7.777778E-2,-1.0885886E-1,1.280353E2,9.819122E-2,3.6036033E-2,-6.111111E-2,3.3333335E-2,-2.5925927E-2,8.796296E-2,-1.0243056E-1,8.025751E1,5.5555556E-2,-7.4074075E-2,-9.920635E-2,2.7777778E-2,1.0555556E-1,2.8985508E-2,-5.5555556E-2,8.3333336E-2,-9.876543E-2,5.5555556E-2,-1.48148155E-2,-1.01080246E-1,-5.5555556E-2,1.03174604E-1,-5.5555557E-3,8.024691E-2,-0E0,-1.0185186E-1,9.52381E-2,-8.3333336E-2,8.3333336E-2,-4.115226E-2,9.6618354E-2,-5.5555556E-2,2.7777778E-2,-1.09289624E-1,2.5332124E2,2.4575E2,-5.5555556E-2,7.4074075E-2,5E-2,-8.3333336E-2,3.3333335E-2,-9.259259E-2,-0E0,-1.03968255E-1,1.0826211E-1,2.7777778E-2,3.4188036E-2,-6.944445E-2,1.04166664E-1,-7.4074075E-2,8.888889E-2,-8.888889E-2,7.4074075E-2,-5.333333E-2,1.060606E-1,-5.5555556E-2,7.4074075E-2,-5.5555556E-2,-8.3333336E-2,3.085E2,4.4444446E-2,-1.02564104E-1,7.638889E-2,-4.4444446E-2,9.259259E-2,-4.4444446E-2,-7.4074075E-2,7.4074075E-2,-4.9382716E-2,-1.0690235E-1,7.4074075E-2,-5.5555556E-2,-7.4074075E-2,6.0606062E-2,-9.52381E-2,5.5555556E-2,-6.763285E-2,7.4074075E-2,5.5555556E-2,-1.0101011E-1,5.2910052E-2,-4.3209877E-2,8.3333336E-2,-5.5555556E-2,1E-1,3.1746034E-2,5.5555556E-2,-8.3333336E-2,-8.3333336E-2,5.5555556E-2,2.7777778E-2,-9.259259E-2,-4.4444446E-2,-1.0850695E-1,9.52381E-2,-0E0,-8.3333336E-2,2.7777778E-2,8.024691E-2,-8.3333336E-2,-7.4074075E-2,8.3333336E-2,-7.4074075E-2,8.888889E-2,-5.5555556E-2,7.4074075E-2,5.5555556E-2,-8.3333336E-2,-1.10192835E-1,-6.944445E-2,-7.4074075E-2,7.4074075E-2,5.5555556E-2,-9.356725E-2,-5.5555556E-2,7.4074075E-2,9.150327E-2,-5.5555556E-2,5.5555556E-2,-8.730159E-2],"split_indices":[5,6,9,0,6,5,5,2147483647,2147483647,2147483647,2147483647,9,2,3,3,2147483647,2147483647,2147483647,2147483647,9,8,5,9,1,8,9,9,2147483647,2147483647,2147483647,2147483647,0,6,2147483647,2147483647,0,4,2147483647,2147483647,2147483647,2147483647,4,1,4,3,2147483647,2147483647,2147483647,2147483647,2147483647,2147483647,2147483647,2147483647,2147483647,2147483647,3,3,2147483647,2147483647,2147483647,2147483647,2147483647,2147483647,2147483647,2147483647,2147483647,2147483647,2147483647,2147483647,2147483647,2147483647,8,5,2147483647,2147483647,2147483647,2147483647,2147483647,2147483647,2147483647,2147483647,2147483647,2147483647,2147483647,2147483647,2147483647,2147483647,2147483647,2147483647,2147483647,2147483647,2147483647,2147483647,2147483647,2147483647,5,5,4,0,2147483647,2147483647,2147483647,2147483647,2147483647,2147483647,2147483647,2147483647,2147483647,2147483647,2147483647,2147483647,2147483647,2147483647,2147483647,2147483647,2147483647,2147483647,4,5,2147483647,2147483647,2147483647,2147483647,2147483647,2147483647,2147483647,2147483647,2147483647,2147483647,2147483647,2147483647,2147483647,2147483647,2147483647,2147483647,2147483647,2147483647,2147483647,2147483647,2147483647,2147483647,2147483647,2147483647,2147483647,2147483647,2147483647,2147483647,2147483647,2147483647,2147483647,2147483647,2147483647,2147483647,2147483647,2147483647,2147483647,2147483647],"split_type":[0,0,0,0,0,0,0,0,0,0,0,0,0,0,0,0,0,0,0,0,0,0,0,0,0,0,0,0,0,0,0,0,0,0,0,0,0,0,0,0,0,0,0,0,0,0,0,0,0,0,0,0,0,0,0,0,0,0,0,0,0,0,0,0,0,0,0,0,0,0,0,0,0,0,0,0,0,0,0,0,0,0,0,0,0,0,0,0,0,0,0,0,0,0,0,0,0,0,0,0,0,0,0,0,0,0,0,0,0,0,0,0,0,0,0,0,0,0,0,0,0,0,0,0,0,0,0,0,0,0,0,0,0,0,0,0,0,0,0,0,0,0,0,0,0,0,0,0,0,0,0,0,0,0,0,0,0],"sum_hessian":[2.461E3,1.21E2,2.34E3,8E0,1.13E2,2.029E3,3.11E2,3E0,5E0,1.12E2,1E0,2.32E2,1.797E3,1.06E2,2.05E2,1E0,2E0,1.03E2,9E0,1.85E2,4.7E1,1.3E1,1.784E3,7.8E1,2.8E1,5.2E1,1.53E2,6E0,3E0,1.55E2,3E1,6E0,4.1E1,4E0,9E0,1.627E3,1.57E2,4.2E1,3.6E1,1.9E1,9E0,2.9E1,2.3E1,6.3E1,9E1,1E0,2E0,2.7E1,3E0,1.9E1,2.2E1,1E0,3E0,8E0,1E0,1.4E1,1.43E2,1E0,4.1E1,1.9E1,1.7E1,8E0,1.1E1,6E0,3E0,3E0,2.6E1,2.2E1,1E0,3E0,6E1,4.8E1,4.2E1,1E0,2E0,1.9E1,3E0,9E0,5E0,4E0,1.39E2,3.8E1,3E0,1.2E1,7E0,1.5E1,2E0,4E0,4E0,2E0,2.4E1,2.1E1,1E0,2E0,1E0,1.1E1,3.7E1,4E0,3.8E1,1.5E1,4E0,5E0,4E0,2E0,2E0,8E0,1.31E2,2E0,1E0,2E0,1E1,6E0,1E0,2.2E1,2E0,1E0,1E1,2E1,1.7E1,3E0,1E0,9E0,6E0,1E0,3E0,3E0,1E0,3E0,5E0,4E0,1.27E2,6E0,4E0,1.9E1,3E0,1.7E1,3E0,1.4E1,3E0,2E0,4E0,1E0,2E0,1E0,3E0,1.2E2,7E0,2E0,2E0,1E0,1.8E1,1E0,2E0,1.6E1,1E0,1E0,1.3E1],"tree_param":{"num_deleted":"120","num_feature":"10","num_nodes":"157","size_leaf_vector":"0"}},{"base_weights":[-7.45329E-1,8.442623E-1,-8.2785136E-1,-4.4444445E-1,9.385965E-1,-9.3251234E-1,-1.4423077E-1,2.5E-1,-8.333333E-1,9.557522E-1,-5E-1,-6.866953E-1,-9.638487E-1,3.9252338E-1,-4.223301E-1,-5E-1,6.666667E-1,9.9038464E-1,5E-1,-9.6236557E-1,3.9583334E-1,-3.5714287E-1,-9.680672E-1,6.329114E-1,-2.7586207E-1,2.264151E-1,-6.4285713E-1,8.5714287E-1,-2.5E-1,-9.9358976E-1,-7.741935E-1,-8.5714287E-1,5.952381E-1,4E-1,-7E-1,-9.797297E-1,-8.4177214E-1,8.8372093E-1,3.243243E-1,-5.5E-1,3E-1,-2.3333333E-1,7.916667E-1,-9.21875E-1,-4.3956044E-1,5E-1,-6.666667E-1,-8.9285713E-1,2.5E-1,9.5E-1,2.6086956E-1,-5E-1,7.5E-1,-8.888889E-1,5E-1,-1.3333334E-1,-9.097222E-1,-5E-1,9.285714E-1,-5E-2,7.222222E-1,-0E0,-9.166667E-1,8.5714287E-1,-7.5E-1,7.5E-1,-3.7037036E-1,8.695652E-1,-5E-1,2.5E-1,-9.836066E-1,-1.2244898E-1,-7.906977E-1,-5E-1,6.666667E-1,4.5E-1,-7.5E-1,3E-1,-8.333333E-1,-0E0,-9.357143E-1,9.74359E-1,2.5E-1,3.0769232E-1,-6.25E-1,9.375E-1,-6.666667E-1,8E-1,-8E-1,6.666667E-1,-4.8E-1,9.5454544E-1,-5E-1,6.666667E-1,-5E-1,-7.5E-1,7.8947365E-2,4E-1,-9.230769E-1,6.875E-1,-4E-1,8.333333E-1,-4E-1,-6.666667E-1,6.666667E-1,-4.4444445E-1,-9.621212E-1,6.666667E-1,-5E-1,-6.666667E-1,5.4545456E-1,-8.5714287E-1,5E-1,-6.086956E-1,6.666667E-1,5E-1,-9.0909094E-1,4.7619048E-1,-3.888889E-1,7.5E-1,-5E-1,9E-1,2.857143E-1,5E-1,-7.5E-1,-7.5E-1,5E-1,2.5E-1,-8.333333E-1,-4E-1,-9.765625E-1,8.5714287E-1,-0E0,-7.5E-1,2.5E-1,7.222222E-1,-7.5E-1,-6.666667E-1,7.5E-1,-6.666667E-1,8E-1,-5E-1,6.666667E-1,5E-1,-7.5E-1,-9.917355E-1,-6.25E-1,-6.666667E-1,6.666667E-1,5E-1,-8.4210527E-1,-5E-1,6.666667E-1,8.235294E-1,-5E-1,5E-1,-7.8571427E-1],"categories":[],"categories_nodes":[],"categories_segments":[],"categories_sizes":[],"default_left":[1,1,1,1,1,1,1,1,1,1,1,1,1,1,1,1,1,1,1,1,1,1,1,1,1,1,1,1,1,1,1,0,1,1,1,0,1,1,1,1,1,1,1,1,1,1,1,1,1,1,1,1,1,1,1,1,1,1,1,1,1,1,1,1,1,1,1,1,1,1,1,1,1,1,1,1,1,1,1,1,1,1,1,1,1,1,1,1,1,1,1,1,1,1,1,1,1,1,0,1,1,1,1,1,1,1,1,1,1,1,1,1,1,1,1,1,1,1,1,1,1,1,1,1,1,1,1,1,1,1,1,1,1,1,1,1,1,1,1,1,1,1,1,1,1,1,1,1,1,1,1,1,1,1,1,1,1],"id":1,"left_children":[1,3,5,-1,-1,11,13,-1,-1,-1,-1,19,21,23,25,-1,-1,-1,-1,-1,31,-1,35,-1,-1,41,43,-1,-1,-1,-1,-1,-1,-1,-1,-1,55,-1,-1,-1,-1,-1,-1,-1,71,-1,-1,-1,-1,-1,-1,-1,-1,-1,-1,-1,-1,-1,-1,-1,-1,-1,-1,-1,-1,-1,-1,-1,-1,-1,-1,95,97,-1,-1,-1,-1,-1,-1,-1,-1,-1,-1,-1,-1,-1,-1,-1,-1,-1,-1,-1,-1,-1,-1,-1,117,-1,-1,-1,-1,-1,-1,-1,-1,-1,-1,-1,-1,-1,-1,-1,-1,-1,-1,-1,-1,-1,-1,-1,-1,-1,-1,-1,-1,-1,-1,-1,-1,-1,-1,-1,-1,-1,-1,-1,-1,-1,-1,-1,-1,-1,-1,-1,-1,-1,-1,-1,-1,-1,-1,-1,-1,-1,-1,-1,-1],"loss_changes":[3.2365613E2,1.5248589E1,1.6736035E2,2.6388888E0,3.2914124E0,1.497522E1,4.6738316E1,1.5833334E0,0E0,1.2883759E0,0E0,6.9913025E1,4.2561035E0,1.7366486E1,2.9617123E1,0E0,0E0,0E0,2.892857E0,3.236084E-1,1.2502975E1,3.9142861E0,1.8044434E0,5.827717E0,4.743104E0,1.395802E1,8.330189E0,0E0,1.5833334E0,0E0,3.9907837E0,0E0,4.7342644E0,1.95E0,2.711111E0,0E0,7.4845886E0,3.1328926E0,5.5469975E0,4.033333E0,6.492857E0,4.3203707E0,2.849637E0,4.8757668E0,1.00359955E1,0E0,0E0,0E0,1.5833334E0,0E0,4.7347827E0,0E0,0E0,0E0,0E0,4.7999997E0,3.4049606E0,0E0,1.0613556E0,4.305769E0,6.0069437E0,6.4E0,0E0,0E0,0E0,0E0,3.38963E0,3.15415E0,0E0,1.5833334E0,0E0,6.252148E0,7.147049E0,0E0,0E0,4.3125E0,0E0,4.0666666E0,0E0,2.6666667E0,1.3885956E0,0E0,1.5833334E0,3.3752913E0,2.517857E0,0E0,0E0,0E0,0E0,0E0,4.095072E0,0E0,0E0,0E0,0E0,2.840909E0,7.247285E0,1.95E0,0E0,1.1089287E0,1.95E0,0E0,1.95E0,0E0,0E0,2.6388888E0,6.8092346E-1,0E0,0E0,0E0,1.8701298E0,0E0,0E0,2.978261E0,0E0,0E0,0E0,6.8769846E0,6.1944437E0,0E0,0E0,0E0,3.9619048E0,0E0,0E0,0E0,0E0,1.5833334E0,0E0,1.95E0,6.2950134E-2,0E0,2.6666667E0,2.7236843E0,1.5833334E0,2.640522E0,0E0,2.476191E0,0E0,0E0,0E0,0E0,0E0,0E0,0E0,0E0,0E0,0E0,0E0,0E0,0E0,0E0,0E0,0E0,0E0,0E0,0E0],"parents":[2147483647,0,0,1,1,2,2,3,3,4,4,5,5,6,6,7,7,9,9,11,11,12,12,13,13,14,14,18,18,19,19,20,20,21,21,22,22,23,23,24,24,25,25,26,26,28,28,30,30,32,32,33,33,34,34,36,36,37,37,38,38,39,39,40,40,41,41,42,42,43,43,44,44,48,48,50,50,55,55,56,56,58,58,59,59,60,60,61,61,66,66,67,67,69,69,71,71,72,72,75,75,77,77,79,79,80,80,82,82,83,83,84,84,90,90,95,95,96,96,97,97,99,99,100,100,102,102,105,105,106,106,110,110,113,113,117,117,118,118,122,122,127,127,129,129,130,130,132,132,133,133,134,134,135,135,137,137],"right_children":[2,4,6,-1,-1,12,14,-1,-1,-1,-1,20,22,24,26,-1,-1,-1,-1,-1,32,-1,36,-1,-1,42,44,-1,-1,-1,-1,-1,-1,-1,-1,-1,56,-1,-1,-1,-1,-1,-1,-1,72,-1,-1,-1,-1,-1,-1,-1,-1,-1,-1,-1,-1,-1,-1,-1,-1,-1,-1,-1,-1,-1,-1,-1,-1,-1,-1,96,98,-1,-1,-1,-1,-1,-1,-1,-1,-1,-1,-1,-1,-1,-1,-1,-1,-1,-1,-1,-1,-1,-1,-1,118,-1,-1,-1,-1,-1,-1,-1,-1,-1,-1,-1,-1,-1,-1,-1,-1,-1,-1,-1,-1,-1,-1,-1,-1,-1,-1,-1,-1,-1,-1,-1,-1,-1,-1,-1,-1,-1,-1,-1,-1,-1,-1,-1,-1,-1,-1,-1,-1,-1,-1,-1,-1,-1,-1,-1,-1,-1,-1,-1,-1],"split_conditions":[1.7775E2,2.25E1,6.250264E1,-4.9382716E-2,1.04288496E-1,2.0525E2,2.3925E2,2.7777778E-2,-9.259259E-2,1.0619469E-1,-5.5555556E-2,3.7324913E1,4.1487344E-2,8.31752E1,3.8044228E1,-5.5555556E-2,7.4074075E-2,1.10042736E-1,5.5555556E-2,-1.0692951E-1,1.812887E2,-3.968254E-2,5.251683E1,7.032349E-2,-3.065134E-2,9.13846E1,7.756868E1,9.52381E-2,-2.7777778E-2,-1.10398866E-1,-8.6021505E-2,-9.52381E-2,6.613757E-2,4.4444446E-2,-7.777778E-2,-1.0885886E-1,1.280353E2,9.819122E-2,3.6036033E-2,-6.111111E-2,3.3333335E-2,-2.5925927E-2,8.796296E-2,-1.0243056E-1,8.025751E1,5.5555556E-2,-7.4074075E-2,-9.920635E-2,2.7777778E-2,1.0555556E-1,2.8985508E-2,-5.5555556E-2,8.3333336E-2,-9.876543E-2,5.5555556E-2,-1.48148155E-2,-1.01080246E-1,-5.5555556E-2,1.03174604E-1,-5.5555557E-3,8.024691E-2,-0E0,-1.0185186E-1,9.52381E-2,-8.3333336E-2,8.3333336E-2,-4.115226E-2,9.6618354E-2,-5.5555556E-2,2.7777778E-2,-1.09289624E-1,2.5332124E2,2.4575E2,-5.5555556E-2,7.4074075E-2,5E-2,-8.3333336E-2,3.3333335E-2,-9.259259E-2,-0E0,-1.03968255E-1,1.0826211E-1,2.7777778E-2,3.4188036E-2,-6.944445E-2,1.04166664E-1,-7.4074075E-2,8.888889E-2,-8.888889E-2,7.4074075E-2,-5.333333E-2,1.060606E-1,-5.5555556E-2,7.4074075E-2,-5.5555556E-2,-8.3333336E-2,3.085E2,4.4444446E-2,-1.02564104E-1,7.638889E-2,-4.4444446E-2,9.259259E-2,-4.4444446E-2,-7.4074075E-2,7.4074075E-2,-4.9382716E-2,-1.0690235E-1,7.4074075E-2,-5.5555556E-2,-7.4074075E-2,6.0606062E-2,-9.52381E-2,5.5555556E-2,-6.763285E-2,7.4074075E-2,5.5555556E-2,-1.0101011E-1,5.2910052E-2,-4.3209877E-2,8.3333336E-2,-5.5555556E-2,1E-1,3.1746034E-2,5.5555556E-2,-8.3333336E-2,-8.3333336E-2,5.5555556E-2,2.7777778E-2,-9.259259E-2,-4.4444446E-2,-1.0850695E-1,9.52381E-2,-0E0,-8.3333336E-2,2.7777778E-2,8.024691E-2,-8.3333336E-2,-7.4074075E-2,8.3333336E-2,-7.4074075E-2,8.888889E-2,-5.5555556E-2,7.4074075E-2,5.5555556E-2,-8.3333336E-2,-1.10192835E-1,-6.944445E-2,-7.4074075E-2,7.4074075E-2,5.5555556E-2,-9.356725E-2,-5.5555556E-2,7.4074075E-2,9.150327E-2,-5.5555556E-2,5.5555556E-2,-8.730159E-2],"split_indices":[5,6,9,0,6,5,5,2147483647,2147483647,2147483647,2147483647,9,2,3,3,2147483647,2147483647,2147483647,2147483647,9,8,5,9,1,8,9,9,2147483647,2147483647,2147483647,2147483647,0,6,2147483647,2147483647,0,4,2147483647,2147483647,2147483647,2147483647,4,1,4,3,2147483647,2147483647,2147483647,2147483647,2147483647,2147483647,2147483647,2147483647,2147483647,2147483647,3,3,2147483647,2147483647,2147483647,2147483647,2147483647,2147483647,2147483647,2147483647,2147483647,2147483647,2147483647,2147483647,2147483647,2147483647,8,5,2147483647,2147483647,2147483647,2147483647,2147483647,2147483647,2147483647,2147483647,2147483647,2147483647,2147483647,2147483647,2147483647,2147483647,2147483647,2147483647,2147483647,2147483647,2147483647,2147483647,2147483647,2147483647,5,5,4,0,2147483647,2147483647,2147483647,2147483647,2147483647,2147483647,2147483647,2147483647,2147483647,2147483647,2147483647,2147483647,2147483647,2147483647,2147483647,2147483647,2147483647,2147483647,4,5,2147483647,2147483647,2147483647,2147483647,2147483647,2147483647,2147483647,2147483647,2147483647,2147483647,2147483647,2147483647,2147483647,2147483647,2147483647,2147483647,2147483647,2147483647,2147483647,2147483647,2147483647,2147483647,2147483647,2147483647,2147483647,2147483647,2147483647,2147483647,2147483647,2147483647,2147483647,2147483647,2147483647,2147483647,2147483647,2147483647,2147483647,2147483647],"split_type":[0,0,0,0,0,0,0,0,0,0,0,0,0,0,0,0,0,0,0,0,0,0,0,0,0,0,0,0,0,0,0,0,0,0,0,0,0,0,0,0,0,0,0,0,0,0,0,0,0,0,0,0,0,0,0,0,0,0,0,0,0,0,0,0,0,0,0,0,0,0,0,0,0,0,0,0,0,0,0,0,0,0,0,0,0,0,0,0,0,0,0,0,0,0,0,0,0,0,0,0,0,0,0,0,0,0,0,0,0,0,0,0,0,0,0,0,0,0,0,0,0,0,0,0,0,0,0,0,0,0,0,0,0,0,0,0,0,0,0,0,0,0,0,0,0,0,0,0,0,0,0,0,0,0,0,0,0],"sum_hessian":[2.461E3,1.21E2,2.34E3,8E0,1.13E2,2.029E3,3.11E2,3E0,5E0,1.12E2,1E0,2.32E2,1.797E3,1.06E2,2.05E2,1E0,2E0,1.03E2,9E0,1.85E2,4.7E1,1.3E1,1.784E3,7.8E1,2.8E1,5.2E1,1.53E2,6E0,3E0,1.55E2,3E1,6E0,4.1E1,4E0,9E0,1.627E3,1.57E2,4.2E1,3.6E1,1.9E1,9E0,2.9E1,2.3E1,6.3E1,9E1,1E0,2E0,2.7E1,3E0,1.9E1,2.2E1,1E0,3E0,8E0,1E0,1.4E1,1.43E2,1E0,4.1E1,1.9E1,1.7E1,8E0,1.1E1,6E0,3E0,3E0,2.6E1,2.2E1,1E0,3E0,6E1,4.8E1,4.2E1,1E0,2E0,1.9E1,3E0,9E0,5E0,4E0,1.39E2,3.8E1,3E0,1.2E1,7E0,1.5E1,2E0,4E0,4E0,2E0,2.4E1,2.1E1,1E0,2E0,1E0,1.1E1,3.7E1,4E0,3.8E1,1.5E1,4E0,5E0,4E0,2E0,2E0,8E0,1.31E2,2E0,1E0,2E0,1E1,6E0,1E0,2.2E1,2E0,1E0,1E1,2E1,1.7E1,3E0,1E0,9E0,6E0,1E0,3E0,3E0,1E0,3E0,5E0,4E0,1.27E2,6E0,4E0,1.9E1,3E0,1.7E1,3E0,1.4E1,3E0,2E0,4E0,1E0,2E0,1E0,3E0,1.2E2,7E0,2E0,2E0,1E0,1.8E1,1E0,2E0,1.6E1,1E0,1E0,1.3E1],"tree_param":{"num_deleted":"120","num_feature":"10","num_nodes":"157","size_leaf_vector":"0"}},{"base_weights":[-7.45329E-1,8.442623E-1,-8.2785136E-1,-4.4444445E-1,9.385965E-1,-9.3251234E-1,-1.4423077E-1,2.5E-1,-8.333333E-1,9.557522E-1,-5E-1,-6.866953E-1,-9.638487E-1,3.9252338E-1,-4.223301E-1,-5E-1,6.666667E-1,9.9038464E-1,5E-1,-9.6236557E-1,3.9583334E-1,-3.5714287E-1,-9.680672E-1,6.329114E-1,-2.7586207E-1,2.264151E-1,-6.4285713E-1,8.5714287E-1,-2.5E-1,-9.9358976E-1,-7.741935E-1,-8.5714287E-1,5.952381E-1,4E-1,-7E-1,-9.797297E-1,-8.4177214E-1,8.8372093E-1,3.243243E-1,-5.5E-1,3E-1,-2.3333333E-1,7.916667E-1,-9.21875E-1,-4.3956044E-1,5E-1,-6.666667E-1,-8.9285713E-1,2.5E-1,9.5E-1,2.6086956E-1,-5E-1,7.5E-1,-8.888889E-1,5E-1,-1.3333334E-1,-9.097222E-1,-5E-1,9.285714E-1,-5E-2,7.222222E-1,-0E0,-9.166667E-1,8.5714287E-1,-7.5E-1,7.5E-1,-3.7037036E-1,8.695652E-1,-5E-1,2.5E-1,-9.836066E-1,-1.2244898E-1,-7.906977E-1,-5E-1,6.666667E-1,4.5E-1,-7.5E-1,3E-1,-8.333333E-1,-0E0,-9.357143E-1,9.74359E-1,2.5E-1,3.0769232E-1,-6.25E-1,9.375E-1,-6.666667E-1,8E-1,-8E-1,6.666667E-1,-4.8E-1,9.5454544E-1,-5E-1,6.666667E-1,-5E-1,-7.5E-1,7.8947365E-2,4E-1,-9.230769E-1,6.875E-1,-4E-1,8.333333E-1,-4E-1,-6.666667E-1,6.666667E-1,-4.4444445E-1,-9.621212E-1,6.666667E-1,-5E-1,-6.666667E-1,5.4545456E-1,-8.5714287E-1,5E-1,-6.086956E-1,6.666667E-1,5E-1,-9.0909094E-1,4.7619048E-1,-3.888889E-1,7.5E-1,-5E-1,9E-1,2.857143E-1,5E-1,-7.5E-1,-7.5E-1,5E-1,2.5E-1,-8.333333E-1,-4E-1,-9.765625E-1,8.5714287E-1,-0E0,-7.5E-1,2.5E-1,7.222222E-1,-7.5E-1,-6.666667E-1,7.5E-1,-6.666667E-1,8E-1,-5E-1,6.666667E-1,5E-1,-7.5E-1,-9.917355E-1,-6.25E-1,-6.666667E-1,6.666667E-1,5E-1,-8.4210527E-1,-5E-1,6.666667E-1,8.235294E-1,-5E-1,5E-1,-7.8571427E-1],"categories":[],"categories_nodes":[],"categories_segments":[],"categories_sizes":[],"default_left":[1,1,1,1,1,1,1,1,1,1,1,1,1,1,1,1,1,1,1,1,1,1,1,1,1,1,1,1,1,1,1,0,1,1,1,0,1,1,1,1,1,1,1,1,1,1,1,1,1,1,1,1,1,1,1,1,1,1,1,1,1,1,1,1,1,1,1,1,1,1,1,1,1,1,1,1,1,1,1,1,1,1,1,1,1,1,1,1,1,1,1,1,1,1,1,1,1,1,0,1,1,1,1,1,1,1,1,1,1,1,1,1,1,1,1,1,1,1,1,1,1,1,1,1,1,1,1,1,1,1,1,1,1,1,1,1,1,1,1,1,1,1,1,1,1,1,1,1,1,1,1,1,1,1,1,1,1],"id":2,"left_children":[1,3,5,-1,-1,11,13,-1,-1,-1,-1,19,21,23,25,-1,-1,-1,-1,-1,31,-1,35,-1,-1,41,43,-1,-1,-1,-1,-1,-1,-1,-1,-1,55,-1,-1,-1,-1,-1,-1,-1,71,-1,-1,-1,-1,-1,-1,-1,-1,-1,-1,-1,-1,-1,-1,-1,-1,-1,-1,-1,-1,-1,-1,-1,-1,-1,-1,95,97,-1,-1,-1,-1,-1,-1,-1,-1,-1,-1,-1,-1,-1,-1,-1,-1,-1,-1,-1,-1,-1,-1,-1,117,-1,-1,-1,-1,-1,-1,-1,-1,-1,-1,-1,-1,-1,-1,-1,-1,-1,-1,-1,-1,-1,-1,-1,-1,-1,-1,-1,-1,-1,-1,-1,-1,-1,-1,-1,-1,-1,-1,-1,-1,-1,-1,-1,-1,-1,-1,-1,-1,-1,-1,-1,-1,-1,-1,-1,-1,-1,-1,-1,-1],"loss_changes":[3.2365613E2,1.5248589E1,1.6736035E2,2.6388888E0,3.2914124E0,1.497522E1,4.6738316E1,1.5833334E0,0E0,1.2883759E0,0E0,6.9913025E1,4.2561035E0,1.7366486E1,2.9617123E1,0E0,0E0,0E0,2.892857E0,3.236084E-1,1.2502975E1,3.9142861E0,1.8044434E0,5.827717E0,4.743104E0,1.395802E1,8.330189E0,0E0,1.5833334E0,0E0,3.9907837E0,0E0,4.7342644E0,1.95E0,2.711111E0,0E0,7.4845886E0,3.1328926E0,5.5469975E0,4.033333E0,6.492857E0,4.3203707E0,2.849637E0,4.8757668E0,1.00359955E1,0E0,0E0,0E0,1.5833334E0,0E0,4.7347827E0,0E0,0E0,0E0,0E0,4.7999997E0,3.4049606E0,0E0,1.0613556E0,4.305769E0,6.0069437E0,6.4E0,0E0,0E0,0E0,0E0,3.38963E0,3.15415E0,0E0,1.5833334E0,0E0,6.252148E0,7.147049E0,0E0,0E0,4.3125E0,0E0,4.0666666E0,0E0,2.6666667E0,1.3885956E0,0E0,1.5833334E0,3.3752913E0,2.517857E0,0E0,0E0,0E0,0E0,0E0,4.095072E0,0E0,0E0,0E0,0E0,2.840909E0,7.247285E0,1.95E0,0E0,1.1089287E0,1.95E0,0E0,1.95E0,0E0,0E0,2.6388888E0,6.8092346E-1,0E0,0E0,0E0,1.8701298E0,0E0,0E0,2.978261E0,0E0,0E0,0E0,6.8769846E0,6.1944437E0,0E0,0E0,0E0,3.9619048E0,0E0,0E0,0E0,0E0,1.5833334E0,0E0,1.95E0,6.2950134E-2,0E0,2.6666667E0,2.7236843E0,1.5833334E0,2.640522E0,0E0,2.476191E0,0E0,0E0,0E0,0E0,0E0,0E0,0E0,0E0,0E0,0E0,0E0,0E0,0E0,0E0,0E0,0E0,0E0,0E0,0E0],"parents":[2147483647,0,0,1,1,2,2,3,3,4,4,5,5,6,6,7,7,9,9,11,11,12,12,13,13,14,14,18,18,19,19,20,20,21,21,22,22,23,23,24,24,25,25,26,26,28,28,30,30,32,32,33,33,34,34,36,36,37,37,38,38,39,39,40,40,41,41,42,42,43,43,44,44,48,48,50,50,55,55,56,56,58,58,59,59,60,60,61,61,66,66,67,67,69,69,71,71,72,72,75,75,77,77,79,79,80,80,82,82,83,83,84,84,90,90,95,95,96,96,97,97,99,99,100,100,102,102,105,105,106,106,110,110,113,113,117,117,118,118,122,122,127,127,129,129,130,130,132,132,133,133,134,134,135,135,137,137],"right_children":[2,4,6,-1,-1,12,14,-1,-1,-1,-1,20,22,24,26,-1,-1,-1,-1,-1,32,-1,36,-1,-1,42,44,-1,-1,-1,-1,-1,-1,-1,-1,-1,56,-1,-1,-1,-1,-1,-1,-1,72,-1,-1,-1,-1,-1,-1,-1,-1,-1,-1,-1,-1,-1,-1,-1,-1,-1,-1,-1,-1,-1,-1,-1,-1,-1,-1,96,98,-1,-1,-1,-1,-1,-1,-1,-1,-1,-1,-1,-1,-1,-1,-1,-1,-1,-1,-1,-1,-1,-1,-1,118,-1,-1,-1,-1,-1,-1,-1,-1,-1,-1,-1,-1,-1,-1,-1,-1,-1,-1,-1,-1,-1,-1,-1,-1,-1,-1,-1,-1,-1,-1,-1,-1,-1,-1,-1,-1,-1,-1,-1,-1,-1,-1,-1,-1,-1,-1,-1,-1,-1,-1,-1,-1,-1,-1,-1,-1,-1,-1,-1,-1],"split_conditions":[1.7775E2,2.25E1,6.250264E1,-4.9382716E-2,1.04288496E-1,2.0525E2,2.3925E2,2.7777778E-2,-9.259259E-2,1.0619469E-1,-5.5555556E-2,3.7324913E1,4.1487344E-2,8.31752E1,3.8044228E1,-5.5555556E-2,7.4074075E-2,1.10042736E-1,5.5555556E-2,-1.0692951E-1,1.812887E2,-3.968254E-2,5.251683E1,7.032349E-2,-3.065134E-2,9.13846E1,7.756868E1,9.52381E-2,-2.7777778E-2,-1.10398866E-1,-8.6021505E-2,-9.52381E-2,6.613757E-2,4.4444446E-2,-7.777778E-2,-1.0885886E-1,1.280353E2,9.819122E-2,3.6036033E-2,-6.111111E-2,3.3333335E-2,-2.5925927E-2,8.796296E-2,-1.0243056E-1,8.025751E1,5.5555556E-2,-7.4074075E-2,-9.920635E-2,2.7777778E-2,1.0555556E-1,2.8985508E-2,-5.5555556E-2,8.3333336E-2,-9.876543E-2,5.5555556E-2,-1.48148155E-2,-1.01080246E-1,-5.5555556E-2,1.03174604E-1,-5.5555557E-3,8.024691E-2,-0E0,-1.0185186E-1,9.52381E-2,-8.3333336E-2,8.3333336E-2,-4.115226E-2,9.6618354E-2,-5.5555556E-2,2.7777778E-2,-1.09289624E-1,2.5332124E2,2.4575E2,-5.5555556E-2,7.4074075E-2,5E-2,-8.3333336E-2,3.3333335E-2,-9.259259E-2,-0E0,-1.03968255E-1,1.0826211E-1,2.7777778E-2,3.4188036E-2,-6.944445E-2,1.04166664E-1,-7.4074075E-2,8.888889E-2,-8.888889E-2,7.4074075E-2,-5.333333E-2,1.060606E-1,-5.5555556E-2,7.4074075E-2,-5.5555556E-2,-8.3333336E-2,3.085E2,4.4444446E-2,-1.02564104E-1,7.638889E-2,-4.4444446E-2,9.259259E-2,-4.4444446E-2,-7.4074075E-2,7.4074075E-2,-4.9382716E-2,-1.0690235E-1,7.4074075E-2,-5.5555556E-2,-7.4074075E-2,6.0606062E-2,-9.52381E-2,5.5555556E-2,-6.763285E-2,7.4074075E-2,5.5555556E-2,-1.0101011E-1,5.2910052E-2,-4.3209877E-2,8.3333336E-2,-5.5555556E-2,1E-1,3.1746034E-2,5.5555556E-2,-8.3333336E-2,-8.3333336E-2,5.5555556E-2,2.7777778E-2,-9.259259E-2,-4.4444446E-2,-1.0850695E-1,9.52381E-2,-0E0,-8.3333336E-2,2.7777778E-2,8.024691E-2,-8.3333336E-2,-7.4074075E-2,8.3333336E-2,-7.4074075E-2,8.888889E-2,-5.5555556E-2,7.4074075E-2,5.5555556E-2,-8.3333336E-2,-1.10192835E-1,-6.944445E-2,-7.4074075E-2,7.4074075E-2,5.5555556E-2,-9.356725E-2,-5.5555556E-2,7.4074075E-2,9.150327E-2,-5.5555556E-2,5.5555556E-2,-8.730159E-2],"split_indices":[5,6,9,0,6,5,5,2147483647,2147483647,2147483647,2147483647,9,2,3,3,2147483647,2147483647,2147483647,2147483647,9,8,5,9,1,8,9,9,2147483647,2147483647,2147483647,2147483647,0,6,2147483647,2147483647,0,4,2147483647,2147483647,2147483647,2147483647,4,1,4,3,2147483647,2147483647,2147483647,2147483647,2147483647,2147483647,2147483647,2147483647,2147483647,2147483647,3,3,2147483647,2147483647,2147483647,2147483647,2147483647,2147483647,2147483647,2147483647,2147483647,2147483647,2147483647,2147483647,2147483647,2147483647,8,5,2147483647,2147483647,2147483647,2147483647,2147483647,2147483647,2147483647,2147483647,2147483647,2147483647,2147483647,2147483647,2147483647,2147483647,2147483647,2147483647,2147483647,2147483647,2147483647,2147483647,2147483647,2147483647,5,5,4,0,2147483647,2147483647,2147483647,2147483647,2147483647,2147483647,2147483647,2147483647,2147483647,2147483647,2147483647,2147483647,2147483647,2147483647,2147483647,2147483647,2147483647,2147483647,4,5,2147483647,2147483647,2147483647,2147483647,2147483647,2147483647,2147483647,2147483647,2147483647,2147483647,2147483647,2147483647,2147483647,2147483647,2147483647,2147483647,2147483647,2147483647,2147483647,2147483647,2147483647,2147483647,2147483647,2147483647,2147483647,2147483647,2147483647,2147483647,2147483647,2147483647,2147483647,2147483647,2147483647,2147483647,2147483647,2147483647,2147483647,2147483647],"split_type":[0,0,0,0,0,0,0,0,0,0,0,0,0,0,0,0,0,0,0,0,0,0,0,0,0,0,0,0,0,0,0,0,0,0,0,0,0,0,0,0,0,0,0,0,0,0,0,0,0,0,0,0,0,0,0,0,0,0,0,0,0,0,0,0,0,0,0,0,0,0,0,0,0,0,0,0,0,0,0,0,0,0,0,0,0,0,0,0,0,0,0,0,0,0,0,0,0,0,0,0,0,0,0,0,0,0,0,0,0,0,0,0,0,0,0,0,0,0,0,0,0,0,0,0,0,0,0,0,0,0,0,0,0,0,0,0,0,0,0,0,0,0,0,0,0,0,0,0,0,0,0,0,0,0,0,0,0],"sum_hessian":[2.461E3,1.21E2,2.34E3,8E0,1.13E2,2.029E3,3.11E2,3E0,5E0,1.12E2,1E0,2.32E2,1.797E3,1.06E2,2.05E2,1E0,2E0,1.03E2,9E0,1.85E2,4.7E1,1.3E1,1.784E3,7.8E1,2.8E1,5.2E1,1.53E2,6E0,3E0,1.55E2,3E1,6E0,4.1E1,4E0,9E0,1.627E3,1.57E2,4.2E1,3.6E1,1.9E1,9E0,2.9E1,2.3E1,6.3E1,9E1,1E0,2E0,2.7E1,3E0,1.9E1,2.2E1,1E0,3E0,8E0,1E0,1.4E1,1.43E2,1E0,4.1E1,1.9E1,1.7E1,8E0,1.1E1,6E0,3E0,3E0,2.6E1,2.2E1,1E0,3E0,6E1,4.8E1,4.2E1,1E0,2E0,1.9E1,3E0,9E0,5E0,4E0,1.39E2,3.8E1,3E0,1.2E1,7E0,1.5E1,2E0,4E0,4E0,2E0,2.4E1,2.1E1,1E0,2E0,1E0,1.1E1,3.7E1,4E0,3.8E1,1.5E1,4E0,5E0,4E0,2E0,2E0,8E0,1.31E2,2E0,1E0,2E0,1E1,6E0,1E0,2.2E1,2E0,1E0,1E1,2E1,1.7E1,3E0,1E0,9E0,6E0,1E0,3E0,3E0,1E0,3E0,5E0,4E0,1.27E2,6E0,4E0,1.9E1,3E0,1.7E1,3E0,1.4E1,3E0,2E0,4E0,1E0,2E0,1E0,3E0,1.2E2,7E0,2E0,2E0,1E0,1.8E1,1E0,2E0,1.6E1,1E0,1E0,1.3E1],"tree_param":{"num_deleted":"120","num_feature":"10","num_nodes":"157","size_leaf_vector":"0"}},{"base_weights":[-7.45329E-1,8.442623E-1,-8.2785136E-1,-4.4444445E-1,9.385965E-1,-9.3251234E-1,-1.4423077E-1,2.5E-1,-8.333333E-1,9.557522E-1,-5E-1,-6.866953E-1,-9.638487E-1,3.9252338E-1,-4.223301E-1,-5E-1,6.666667E-1,9.9038464E-1,5E-1,-9.6236557E-1,3.9583334E-1,-3.5714287E-1,-9.680672E-1,6.329114E-1,-2.7586207E-1,2.264151E-1,-6.4285713E-1,8.5714287E-1,-2.5E-1,-9.9358976E-1,-7.741935E-1,-8.5714287E-1,5.952381E-1,4E-1,-7E-1,-9.797297E-1,-8.4177214E-1,8.8372093E-1,3.243243E-1,-5.5E-1,3E-1,-2.3333333E-1,7.916667E-1,-9.21875E-1,-4.3956044E-1,5E-1,-6.666667E-1,-8.9285713E-1,2.5E-1,9.5E-1,2.6086956E-1,-5E-1,7.5E-1,-8.888889E-1,5E-1,-1.3333334E-1,-9.097222E-1,-5E-1,9.285714E-1,-5E-2,7.222222E-1,-0E0,-9.166667E-1,8.5714287E-1,-7.5E-1,7.5E-1,-3.7037036E-1,8.695652E-1,-5E-1,2.5E-1,-9.836066E-1,-1.2244898E-1,-7.906977E-1,-5E-1,6.666667E-1,4.5E-1,-7.5E-1,3E-1,-8.333333E-1,-0E0,-9.357143E-1,9.74359E-1,2.5E-1,3.0769232E-1,-6.25E-1,9.375E-1,-6.666667E-1,8E-1,-8E-1,6.666667E-1,-4.8E-1,9.5454544E-1,-5E-1,6.666667E-1,-5E-1,-7.5E-1,7.8947365E-2,4E-1,-9.230769E-1,6.875E-1,-4E-1,8.333333E-1,-4E-1,-6.666667E-1,6.666667E-1,-4.4444445E-1,-9.621212E-1,6.666667E-1,-5E-1,-6.666667E-1,5.4545456E-1,-8.5714287E-1,5E-1,-6.086956E-1,6.666667E-1,5E-1,-9.0909094E-1,4.7619048E-1,-3.888889E-1,7.5E-1,-5E-1,9E-1,2.857143E-1,5E-1,-7.5E-1,-7.5E-1,5E-1,2.5E-1,-8.333333E-1,-4E-1,-9.765625E-1,8.5714287E-1,-0E0,-7.5E-1,2.5E-1,7.222222E-1,-7.5E-1,-6.666667E-1,7.5E-1,-6.666667E-1,8E-1,-5E-1,6.666667E-1,5E-1,-7.5E-1,-9.917355E-1,-6.25E-1,-6.666667E-1,6.666667E-1,5E-1,-8.4210527E-1,-5E-1,6.666667E-1,8.235294E-1,-5E-1,5E-1,-7.8571427E-1],"categories":[],"categories_nodes":[],"categories_segments":[],"categories_sizes":[],"default_left":[1,1,1,1,1,1,1,1,1,1,1,1,1,1,1,1,1,1,1,1,1,1,1,1,1,1,1,1,1,1,1,0,1,1,1,0,1,1,1,1,1,1,1,1,1,1,1,1,1,1,1,1,1,1,1,1,1,1,1,1,1,1,1,1,1,1,1,1,1,1,1,1,1,1,1,1,1,1,1,1,1,1,1,1,1,1,1,1,1,1,1,1,1,1,1,1,1,1,0,1,1,1,1,1,1,1,1,1,1,1,1,1,1,1,1,1,1,1,1,1,1,1,1,1,1,1,1,1,1,1,1,1,1,1,1,1,1,1,1,1,1,1,1,1,1,1,1,1,1,1,1,1,1,1,1,1,1],"id":3,"left_children":[1,3,5,-1,-1,11,13,-1,-1,-1,-1,19,21,23,25,-1,-1,-1,-1,-1,31,-1,35,-1,-1,41,43,-1,-1,-1,-1,-1,-1,-1,-1,-1,55,-1,-1,-1,-1,-1,-1,-1,71,-1,-1,-1,-1,-1,-1,-1,-1,-1,-1,-1,-1,-1,-1,-1,-1,-1,-1,-1,-1,-1,-1,-1,-1,-1,-1,95,97,-1,-1,-1,-1,-1,-1,-1,-1,-1,-1,-1,-1,-1,-1,-1,-1,-1,-1,-1,-1,-1,-1,-1,117,-1,-1,-1,-1,-1,-1,-1,-1,-1,-1,-1,-1,-1,-1,-1,-1,-1,-1,-1,-1,-1,-1,-1,-1,-1,-1,-1,-1,-1,-1,-1,-1,-1,-1,-1,-1,-1,-1,-1,-1,-1,-1,-1,-1,-1,-1,-1,-1,-1,-1,-1,-1,-1,-1,-1,-1,-1,-1,-1,-1],"loss_changes":[3.2365613E2,1.5248589E1,1.6736035E2,2.6388888E0,3.2914124E0,1.497522E1,4.6738316E1,1.5833334E0,0E0,1.2883759E0,0E0,6.9913025E1,4.2561035E0,1.7366486E1,2.9617123E1,0E0,0E0,0E0,2.892857E0,3.236084E-1,1.2502975E1,3.9142861E0,1.8044434E0,5.827717E0,4.743104E0,1.395802E1,8.330189E0,0E0,1.5833334E0,0E0,3.9907837E0,0E0,4.7342644E0,1.95E0,2.711111E0,0E0,7.4845886E0,3.1328926E0,5.5469975E0,4.033333E0,6.492857E0,4.3203707E0,2.849637E0,4.8757668E0,1.00359955E1,0E0,0E0,0E0,1.5833334E0,0E0,4.7347827E0,0E0,0E0,0E0,0E0,4.7999997E0,3.4049606E0,0E0,1.0613556E0,4.305769E0,6.0069437E0,6.4E0,0E0,0E0,0E0,0E0,3.38963E0,3.15415E0,0E0,1.5833334E0,0E0,6.252148E0,7.147049E0,0E0,0E0,4.3125E0,0E0,4.0666666E0,0E0,2.6666667E0,1.3885956E0,0E0,1.5833334E0,3.3752913E0,2.517857E0,0E0,0E0,0E0,0E0,0E0,4.095072E0,0E0,0E0,0E0,0E0,2.840909E0,7.247285E0,1.95E0,0E0,1.1089287E0,1.95E0,0E0,1.95E0,0E0,0E0,2.6388888E0,6.8092346E-1,0E0,0E0,0E0,1.8701298E0,0E0,0E0,2.978261E0,0E0,0E0,0E0,6.8769846E0,6.1944437E0,0E0,0E0,0E0,3.9619048E0,0E0,0E0,0E0,0E0,1.5833334E0,0E0,1.95E0,6.2950134E-2,0E0,2.6666667E0,2.7236843E0,1.5833334E0,2.640522E0,0E0,2.476191E0,0E0,0E0,0E0,0E0,0E0,0E0,0E0,0E0,0E0,0E0,0E0,0E0,0E0,0E0,0E0,0E0,0E0,0E0,0E0],"parents":[2147483647,0,0,1,1,2,2,3,3,4,4,5,5,6,6,7,7,9,9,11,11,12,12,13,13,14,14,18,18,19,19,20,20,21,21,22,22,23,23,24,24,25,25,26,26,28,28,30,30,32,32,33,33,34,34,36,36,37,37,38,38,39,39,40,40,41,41,42,42,43,43,44,44,48,48,50,50,55,55,56,56,58,58,59,59,60,60,61,61,66,66,67,67,69,69,71,71,72,72,75,75,77,77,79,79,80,80,82,82,83,83,84,84,90,90,95,95,96,96,97,97,99,99,100,100,102,102,105,105,106,106,110,110,113,113,117,117,118,118,122,122,127,127,129,129,130,130,132,132,133,133,134,134,135,135,137,137],"right_children":[2,4,6,-1,-1,12,14,-1,-1,-1,-1,20,22,24,26,-1,-1,-1,-1,-1,32,-1,36,-1,-1,42,44,-1,-1,-1,-1,-1,-1,-1,-1,-1,56,-1,-1,-1,-1,-1,-1,-1,72,-1,-1,-1,-1,-1,-1,-1,-1,-1,-1,-1,-1,-1,-1,-1,-1,-1,-1,-1,-1,-1,-1,-1,-1,-1,-1,96,98,-1,-1,-1,-1,-1,-1,-1,-1,-1,-1,-1,-1,-1,-1,-1,-1,-1,-1,-1,-1,-1,-1,-1,118,-1,-1,-1,-1,-1,-1,-1,-1,-1,-1,-1,-1,-1,-1,-1,-1,-1,-1,-1,-1,-1,-1,-1,-1,-1,-1,-1,-1,-1,-1,-1,-1,-1,-1,-1,-1,-1,-1,-1,-1,-1,-1,-1,-1,-1,-1,-1,-1,-1,-1,-1,-1,-1,-1,-1,-1,-1,-1,-1,-1],"split_conditions":[1.7775E2,2.25E1,6.250264E1,-4.9382716E-2,1.04288496E-1,2.0525E2,2.3925E2,2.7777778E-2,-9.259259E-2,1.0619469E-1,-5.5555556E-2,3.7324913E1,4.1487344E-2,8.31752E1,3.8044228E1,-5.5555556E-2,7.4074075E-2,1.10042736E-1,5.5555556E-2,-1.0692951E-1,1.812887E2,-3.968254E-2,5.251683E1,7.032349E-2,-3.065134E-2,9.13846E1,7.756868E1,9.52381E-2,-2.7777778E-2,-1.10398866E-1,-8.6021505E-2,-9.52381E-2,6.613757E-2,4.4444446E-2,-7.777778E-2,-1.0885886E-1,1.280353E2,9.819122E-2,3.6036033E-2,-6.111111E-2,3.3333335E-2,-2.5925927E-2,8.796296E-2,-1.0243056E-1,8.025751E1,5.5555556E-2,-7.4074075E-2,-9.920635E-2,2.7777778E-2,1.0555556E-1,2.8985508E-2,-5.5555556E-2,8.3333336E-2,-9.876543E-2,5.5555556E-2,-1.48148155E-2,-1.01080246E-1,-5.5555556E-2,1.03174604E-1,-5.5555557E-3,8.024691E-2,-0E0,-1.0185186E-1,9.52381E-2,-8.3333336E-2,8.3333336E-2,-4.115226E-2,9.6618354E-2,-5.5555556E-2,2.7777778E-2,-1.09289624E-1,2.5332124E2,2.4575E2,-5.5555556E-2,7.4074075E-2,5E-2,-8.3333336E-2,3.3333335E-2,-9.259259E-2,-0E0,-1.03968255E-1,1.0826211E-1,2.7777778E-2,3.4188036E-2,-6.944445E-2,1.04166664E-1,-7.4074075E-2,8.888889E-2,-8.888889E-2,7.4074075E-2,-5.333333E-2,1.060606E-1,-5.5555556E-2,7.4074075E-2,-5.5555556E-2,-8.3333336E-2,3.085E2,4.4444446E-2,-1.02564104E-1,7.638889E-2,-4.4444446E-2,9.259259E-2,-4.4444446E-2,-7.4074075E-2,7.4074075E-2,-4.9382716E-2,-1.0690235E-1,7.4074075E-2,-5.5555556E-2,-7.4074075E-2,6.0606062E-2,-9.52381E-2,5.5555556E-2,-6.763285E-2,7.4074075E-2,5.5555556E-2,-1.0101011E-1,5.2910052E-2,-4.3209877E-2,8.3333336E-2,-5.5555556E-2,1E-1,3.1746034E-2,5.5555556E-2,-8.3333336E-2,-8.3333336E-2,5.5555556E-2,2.7777778E-2,-9.259259E-2,-4.4444446E-2,-1.0850695E-1,9.52381E-2,-0E0,-8.3333336E-2,2.7777778E-2,8.024691E-2,-8.3333336E-2,-7.4074075E-2,8.3333336E-2,-7.4074075E-2,8.888889E-2,-5.5555556E-2,7.4074075E-2,5.5555556E-2,-8.3333336E-2,-1.10192835E-1,-6.944445E-2,-7.4074075E-2,7.4074075E-2,5.5555556E-2,-9.356725E-2,-5.5555556E-2,7.4074075E-2,9.150327E-2,-5.5555556E-2,5.5555556E-2,-8.730159E-2],"split_indices":[5,6,9,0,6,5,5,2147483647,2147483647,2147483647,2147483647,9,2,3,3,2147483647,2147483647,2147483647,2147483647,9,8,5,9,1,8,9,9,2147483647,2147483647,2147483647,2147483647,0,6,2147483647,2147483647,0,4,2147483647,2147483647,2147483647,2147483647,4,1,4,3,2147483647,2147483647,2147483647,2147483647,2147483647,2147483647,2147483647,2147483647,2147483647,2147483647,3,3,2147483647,2147483647,2147483647,2147483647,2147483647,2147483647,2147483647,2147483647,2147483647,2147483647,2147483647,2147483647,2147483647,2147483647,8,5,2147483647,2147483647,2147483647,2147483647,2147483647,2147483647,2147483647,2147483647,2147483647,2147483647,2147483647,2147483647,2147483647,2147483647,2147483647,2147483647,2147483647,2147483647,2147483647,2147483647,2147483647,2147483647,5,5,4,0,2147483647,2147483647,2147483647,2147483647,2147483647,2147483647,2147483647,2147483647,2147483647,2147483647,2147483647,2147483647,2147483647,2147483647,2147483647,2147483647,2147483647,2147483647,4,5,2147483647,2147483647,2147483647,2147483647,2147483647,2147483647,2147483647,2147483647,2147483647,2147483647,2147483647,2147483647,2147483647,2147483647,2147483647,2147483647,2147483647,2147483647,2147483647,2147483647,2147483647,2147483647,2147483647,2147483647,2147483647,2147483647,2147483647,2147483647,2147483647,2147483647,2147483647,2147483647,2147483647,2147483647,2147483647,2147483647,2147483647,2147483647],"split_type":[0,0,0,0,0,0,0,0,0,0,0,0,0,0,0,0,0,0,0,0,0,0,0,0,0,0,0,0,0,0,0,0,0,0,0,0,0,0,0,0,0,0,0,0,0,0,0,0,0,0,0,0,0,0,0,0,0,0,0,0,0,0,0,0,0,0,0,0,0,0,0,0,0,0,0,0,0,0,0,0,0,0,0,0,0,0,0,0,0,0,0,0,0,0,0,0,0,0,0,0,0,0,0,0,0,0,0,0,0,0,0,0,0,0,0,0,0,0,0,0,0,0,0,0,0,0,0,0,0,0,0,0,0,0,0,0,0,0,0,0,0,0,0,0,0,0,0,0,0,0,0,0,0,0,0,0,0],"sum_hessian":[2.461E3,1.21E2,2.34E3,8E0,1.13E2,2.029E3,3.11E2,3E0,5E0,1.12E2,1E0,2.32E2,1.797E3,1.06E2,2.05E2,1E0,2E0,1.03E2,9E0,1.85E2,4.7E1,1.3E1,1.784E3,7.8E1,2.8E1,5.2E1,1.53E2,6E0,3E0,1.55E2,3E1,6E0,4.1E1,4E0,9E0,1.627E3,1.57E2,4.2E1,3.6E1,1.9E1,9E0,2.9E1,2.3E1,6.3E1,9E1,1E0,2E0,2.7E1,3E0,1.9E1,2.2E1,1E0,3E0,8E0,1E0,1.4E1,1.43E2,1E0,4.1E1,1.9E1,1.7E1,8E0,1.1E1,6E0,3E0,3E0,2.6E1,2.2E1,1E0,3E0,6E1,4.8E1,4.2E1,1E0,2E0,1.9E1,3E0,9E0,5E0,4E0,1.39E2,3.8E1,3E0,1.2E1,7E0,1.5E1,2E0,4E0,4E0,2E0,2.4E1,2.1E1,1E0,2E0,1E0,1.1E1,3.7E1,4E0,3.8E1,1.5E1,4E0,5E0,4E0,2E0,2E0,8E0,1.31E2,2E0,1E0,2E0,1E1,6E0,1E0,2.2E1,2E0,1E0,1E1,2E1,1.7E1,3E0,1E0,9E0,6E0,1E0,3E0,3E0,1E0,3E0,5E0,4E0,1.27E2,6E0,4E0,1.9E1,3E0,1.7E1,3E0,1.4E1,3E0,2E0,4E0,1E0,2E0,1E0,3E0,1.2E2,7E0,2E0,2E0,1E0,1.8E1,1E0,2E0,1.6E1,1E0,1E0,1.3E1],"tree_param":{"num_deleted":"120","num_feature":"10","num_nodes":"157","size_leaf_vector":"0"}},{"base_weights":[-7.45329E-1,8.442623E-1,-8.2785136E-1,-4.4444445E-1,9.385965E-1,-9.3251234E-1,-1.4423077E-1,2.5E-1,-8.333333E-1,9.557522E-1,-5E-1,-6.866953E-1,-9.638487E-1,3.9252338E-1,-4.223301E-1,-5E-1,6.666667E-1,9.9038464E-1,5E-1,-9.6236557E-1,3.9583334E-1,-3.5714287E-1,-9.680672E-1,6.329114E-1,-2.7586207E-1,2.264151E-1,-6.4285713E-1,8.5714287E-1,-2.5E-1,-9.9358976E-1,-7.741935E-1,-8.5714287E-1,5.952381E-1,4E-1,-7E-1,-9.797297E-1,-8.4177214E-1,8.8372093E-1,3.243243E-1,-5.5E-1,3E-1,-2.3333333E-1,7.916667E-1,-9.21875E-1,-4.3956044E-1,5E-1,-6.666667E-1,-8.9285713E-1,2.5E-1,9.5E-1,2.6086956E-1,-5E-1,7.5E-1,-8.888889E-1,5E-1,-1.3333334E-1,-9.097222E-1,-5E-1,9.285714E-1,-5E-2,7.222222E-1,-0E0,-9.166667E-1,8.5714287E-1,-7.5E-1,7.5E-1,-3.7037036E-1,8.695652E-1,-5E-1,2.5E-1,-9.836066E-1,-1.2244898E-1,-7.906977E-1,-5E-1,6.666667E-1,4.5E-1,-7.5E-1,3E-1,-8.333333E-1,-0E0,-9.357143E-1,9.74359E-1,2.5E-1,3.0769232E-1,-6.25E-1,9.375E-1,-6.666667E-1,8E-1,-8E-1,6.666667E-1,-4.8E-1,9.5454544E-1,-5E-1,6.666667E-1,-5E-1,-7.5E-1,7.8947365E-2,4E-1,-9.230769E-1,6.875E-1,-4E-1,8.333333E-1,-4E-1,-6.666667E-1,6.666667E-1,-4.4444445E-1,-9.621212E-1,6.666667E-1,-5E-1,-6.666667E-1,5.4545456E-1,-8.5714287E-1,5E-1,-6.086956E-1,6.666667E-1,5E-1,-9.0909094E-1,4.7619048E-1,-3.888889E-1,7.5E-1,-5E-1,9E-1,2.857143E-1,5E-1,-7.5E-1,-7.5E-1,5E-1,2.5E-1,-8.333333E-1,-4E-1,-9.765625E-1,8.5714287E-1,-0E0,-7.5E-1,2.5E-1,7.222222E-1,-7.5E-1,-6.666667E-1,7.5E-1,-6.666667E-1,8E-1,-5E-1,6.666667E-1,5E-1,-7.5E-1,-9.917355E-1,-6.25E-1,-6.666667E-1,6.666667E-1,5E-1,-8.4210527E-1,-5E-1,6.666667E-1,8.235294E-1,-5E-1,5E-1,-7.8571427E-1],"categories":[],"categories_nodes":[],"categories_segments":[],"categories_sizes":[],"default_left":[1,1,1,1,1,1,1,1,1,1,1,1,1,1,1,1,1,1,1,1,1,1,1,1,1,1,1,1,1,1,1,0,1,1,1,0,1,1,1,1,1,1,1,1,1,1,1,1,1,1,1,1,1,1,1,1,1,1,1,1,1,1,1,1,1,1,1,1,1,1,1,1,1,1,1,1,1,1,1,1,1,1,1,1,1,1,1,1,1,1,1,1,1,1,1,1,1,1,0,1,1,1,1,1,1,1,1,1,1,1,1,1,1,1,1,1,1,1,1,1,1,1,1,1,1,1,1,1,1,1,1,1,1,1,1,1,1,1,1,1,1,1,1,1,1,1,1,1,1,1,1,1,1,1,1,1,1],"id":4,"left_children":[1,3,5,-1,-1,11,13,-1,-1,-1,-1,19,21,23,25,-1,-1,-1,-1,-1,31,-1,35,-1,-1,41,43,-1,-1,-1,-1,-1,-1,-1,-1,-1,55,-1,-1,-1,-1,-1,-1,-1,71,-1,-1,-1,-1,-1,-1,-1,-1,-1,-1,-1,-1,-1,-1,-1,-1,-1,-1,-1,-1,-1,-1,-1,-1,-1,-1,95,97,-1,-1,-1,-1,-1,-1,-1,-1,-1,-1,-1,-1,-1,-1,-1,-1,-1,-1,-1,-1,-1,-1,-1,117,-1,-1,-1,-1,-1,-1,-1,-1,-1,-1,-1,-1,-1,-1,-1,-1,-1,-1,-1,-1,-1,-1,-1,-1,-1,-1,-1,-1,-1,-1,-1,-1,-1,-1,-1,-1,-1,-1,-1,-1,-1,-1,-1,-1,-1,-1,-1,-1,-1,-1,-1,-1,-1,-1,-1,-1,-1,-1,-1,-1],"loss_changes":[3.2365613E2,1.5248589E1,1.6736035E2,2.6388888E0,3.2914124E0,1.497522E1,4.6738316E1,1.5833334E0,0E0,1.2883759E0,0E0,6.9913025E1,4.2561035E0,1.7366486E1,2.9617123E1,0E0,0E0,0E0,2.892857E0,3.236084E-1,1.2502975E1,3.9142861E0,1.8044434E0,5.827717E0,4.743104E0,1.395802E1,8.330189E0,0E0,1.5833334E0,0E0,3.9907837E0,0E0,4.7342644E0,1.95E0,2.711111E0,0E0,7.4845886E0,3.1328926E0,5.5469975E0,4.033333E0,6.492857E0,4.3203707E0,2.849637E0,4.8757668E0,1.00359955E1,0E0,0E0,0E0,1.5833334E0,0E0,4.7347827E0,0E0,0E0,0E0,0E0,4.7999997E0,3.4049606E0,0E0,1.0613556E0,4.305769E0,6.0069437E0,6.4E0,0E0,0E0,0E0,0E0,3.38963E0,3.15415E0,0E0,1.5833334E0,0E0,6.252148E0,7.147049E0,0E0,0E0,4.3125E0,0E0,4.0666666E0,0E0,2.6666667E0,1.3885956E0,0E0,1.5833334E0,3.3752913E0,2.517857E0,0E0,0E0,0E0,0E0,0E0,4.095072E0,0E0,0E0,0E0,0E0,2.840909E0,7.247285E0,1.95E0,0E0,1.1089287E0,1.95E0,0E0,1.95E0,0E0,0E0,2.6388888E0,6.8092346E-1,0E0,0E0,0E0,1.8701298E0,0E0,0E0,2.978261E0,0E0,0E0,0E0,6.8769846E0,6.1944437E0,0E0,0E0,0E0,3.9619048E0,0E0,0E0,0E0,0E0,1.5833334E0,0E0,1.95E0,6.2950134E-2,0E0,2.6666667E0,2.7236843E0,1.5833334E0,2.640522E0,0E0,2.476191E0,0E0,0E0,0E0,0E0,0E0,0E0,0E0,0E0,0E0,0E0,0E0,0E0,0E0,0E0,0E0,0E0,0E0,0E0,0E0],"parents":[2147483647,0,0,1,1,2,2,3,3,4,4,5,5,6,6,7,7,9,9,11,11,12,12,13,13,14,14,18,18,19,19,20,20,21,21,22,22,23,23,24,24,25,25,26,26,28,28,30,30,32,32,33,33,34,34,36,36,37,37,38,38,39,39,40,40,41,41,42,42,43,43,44,44,48,48,50,50,55,55,56,56,58,58,59,59,60,60,61,61,66,66,67,67,69,69,71,71,72,72,75,75,77,77,79,79,80,80,82,82,83,83,84,84,90,90,95,95,96,96,97,97,99,99,100,100,102,102,105,105,106,106,110,110,113,113,117,117,118,118,122,122,127,127,129,129,130,130,132,132,133,133,134,134,135,135,137,137],"right_children":[2,4,6,-1,-1,12,14,-1,-1,-1,-1,20,22,24,26,-1,-1,-1,-1,-1,32,-1,36,-1,-1,42,44,-1,-1,-1,-1,-1,-1,-1,-1,-1,56,-1,-1,-1,-1,-1,-1,-1,72,-1,-1,-1,-1,-1,-1,-1,-1,-1,-1,-1,-1,-1,-1,-1,-1,-1,-1,-1,-1,-1,-1,-1,-1,-1,-1,96,98,-1,-1,-1,-1,-1,-1,-1,-1,-1,-1,-1,-1,-1,-1,-1,-1,-1,-1,-1,-1,-1,-1,-1,118,-1,-1,-1,-1,-1,-1,-1,-1,-1,-1,-1,-1,-1,-1,-1,-1,-1,-1,-1,-1,-1,-1,-1,-1,-1,-1,-1,-1,-1,-1,-1,-1,-1,-1,-1,-1,-1,-1,-1,-1,-1,-1,-1,-1,-1,-1,-1,-1,-1,-1,-1,-1,-1,-1,-1,-1,-1,-1,-1,-1],"split_conditions":[1.7775E2,2.25E1,6.250264E1,-4.9382716E-2,1.04288496E-1,2.0525E2,2.3925E2,2.7777778E-2,-9.259259E-2,1.0619469E-1,-5.5555556E-2,3.7324913E1,4.1487344E-2,8.31752E1,3.8044228E1,-5.5555556E-2,7.4074075E-2,1.10042736E-1,5.5555556E-2,-1.0692951E-1,1.812887E2,-3.968254E-2,5.251683E1,7.032349E-2,-3.065134E-2,9.13846E1,7.756868E1,9.52381E-2,-2.7777778E-2,-1.10398866E-1,-8.6021505E-2,-9.52381E-2,6.613757E-2,4.4444446E-2,-7.777778E-2,-1.0885886E-1,1.280353E2,9.819122E-2,3.6036033E-2,-6.111111E-2,3.3333335E-2,-2.5925927E-2,8.796296E-2,-1.0243056E-1,8.025751E1,5.5555556E-2,-7.4074075E-2,-9.920635E-2,2.7777778E-2,1.0555556E-1,2.8985508E-2,-5.5555556E-2,8.3333336E-2,-9.876543E-2,5.5555556E-2,-1.48148155E-2,-1.01080246E-1,-5.5555556E-2,1.03174604E-1,-5.5555557E-3,8.024691E-2,-0E0,-1.0185186E-1,9.52381E-2,-8.3333336E-2,8.3333336E-2,-4.115226E-2,9.6618354E-2,-5.5555556E-2,2.7777778E-2,-1.09289624E-1,2.5332124E2,2.4575E2,-5.5555556E-2,7.4074075E-2,5E-2,-8.3333336E-2,3.3333335E-2,-9.259259E-2,-0E0,-1.03968255E-1,1.0826211E-1,2.7777778E-2,3.4188036E-2,-6.944445E-2,1.04166664E-1,-7.4074075E-2,8.888889E-2,-8.888889E-2,7.4074075E-2,-5.333333E-2,1.060606E-1,-5.5555556E-2,7.4074075E-2,-5.5555556E-2,-8.3333336E-2,3.085E2,4.4444446E-2,-1.02564104E-1,7.638889E-2,-4.4444446E-2,9.259259E-2,-4.4444446E-2,-7.4074075E-2,7.4074075E-2,-4.9382716E-2,-1.0690235E-1,7.4074075E-2,-5.5555556E-2,-7.4074075E-2,6.0606062E-2,-9.52381E-2,5.5555556E-2,-6.763285E-2,7.4074075E-2,5.5555556E-2,-1.0101011E-1,5.2910052E-2,-4.3209877E-2,8.3333336E-2,-5.5555556E-2,1E-1,3.1746034E-2,5.5555556E-2,-8.3333336E-2,-8.3333336E-2,5.5555556E-2,2.7777778E-2,-9.259259E-2,-4.4444446E-2,-1.0850695E-1,9.52381E-2,-0E0,-8.3333336E-2,2.7777778E-2,8.024691E-2,-8.3333336E-2,-7.4074075E-2,8.3333336E-2,-7.4074075E-2,8.888889E-2,-5.5555556E-2,7.4074075E-2,5.5555556E-2,-8.3333336E-2,-1.10192835E-1,-6.944445E-2,-7.4074075E-2,7.4074075E-2,5.5555556E-2,-9.356725E-2,-5.5555556E-2,7.4074075E-2,9.150327E-2,-5.5555556E-2,5.5555556E-2,-8.730159E-2],"split_indices":[5,6,9,0,6,5,5,2147483647,2147483647,2147483647,2147483647,9,2,3,3,2147483647,2147483647,2147483647,2147483647,9,8,5,9,1,8,9,9,2147483647,2147483647,2147483647,2147483647,0,6,2147483647,2147483647,0,4,2147483647,2147483647,2147483647,2147483647,4,1,4,3,2147483647,2147483647,2147483647,2147483647,2147483647,2147483647,2147483647,2147483647,2147483647,2147483647,3,3,2147483647,2147483647,2147483647,2147483647,2147483647,2147483647,2147483647,2147483647,2147483647,2147483647,2147483647,2147483647,2147483647,2147483647,8,5,2147483647,2147483647,2147483647,2147483647,2147483647,2147483647,2147483647,2147483647,2147483647,2147483647,2147483647,2147483647,2147483647,2147483647,2147483647,2147483647,2147483647,2147483647,2147483647,2147483647,2147483647,2147483647,5,5,4,0,2147483647,2147483647,2147483647,2147483647,2147483647,2147483647,2147483647,2147483647,2147483647,2147483647,2147483647,2147483647,2147483647,2147483647,2147483647,2147483647,2147483647,2147483647,4,5,2147483647,2147483647,2147483647,2147483647,2147483647,2147483647,2147483647,2147483647,2147483647,2147483647,2147483647,2147483647,2147483647,2147483647,2147483647,2147483647,2147483647,2147483647,2147483647,2147483647,2147483647,2147483647,2147483647,2147483647,2147483647,2147483647,2147483647,2147483647,2147483647,2147483647,2147483647,2147483647,2147483647,2147483647,2147483647,2147483647,2147483647,2147483647],"split_type":[0,0,0,0,0,0,0,0,0,0,0,0,0,0,0,0,0,0,0,0,0,0,0,0,0,0,0,0,0,0,0,0,0,0,0,0,0,0,0,0,0,0,0,0,0,0,0,0,0,0,0,0,0,0,0,0,0,0,0,0,0,0,0,0,0,0,0,0,0,0,0,0,0,0,0,0,0,0,0,0,0,0,0,0,0,0,0,0,0,0,0,0,0,0,0,0,0,0,0,0,0,0,0,0,0,0,0,0,0,0,0,0,0,0,0,0,0,0,0,0,0,0,0,0,0,0,0,0,0,0,0,0,0,0,0,0,0,0,0,0,0,0,0,0,0,0,0,0,0,0,0,0,0,0,0,0,0],"sum_hessian":[2.461E3,1.21E2,2.34E3,8E0,1.13E2,2.029E3,3.11E2,3E0,5E0,1.12E2,1E0,2.32E2,1.797E3,1.06E2,2.05E2,1E0,2E0,1.03E2,9E0,1.85E2,4.7E1,1.3E1,1.784E3,7.8E1,2.8E1,5.2E1,1.53E2,6E0,3E0,1.55E2,3E1,6E0,4.1E1,4E0,9E0,1.627E3,1.57E2,4.2E1,3.6E1,1.9E1,9E0,2.9E1,2.3E1,6.3E1,9E1,1E0,2E0,2.7E1,3E0,1.9E1,2.2E1,1E0,3E0,8E0,1E0,1.4E1,1.43E2,1E0,4.1E1,1.9E1,1.7E1,8E0,1.1E1,6E0,3E0,3E0,2.6E1,2.2E1,1E0,3E0,6E1,4.8E1,4.2E1,1E0,2E0,1.9E1,3E0,9E0,5E0,4E0,1.39E2,3.8E1,3E0,1.2E1,7E0,1.5E1,2E0,4E0,4E0,2E0,2.4E1,2.1E1,1E0,2E0,1E0,1.1E1,3.7E1,4E0,3.8E1,1.5E1,4E0,5E0,4E0,2E0,2E0,8E0,1.31E2,2E0,1E0,2E0,1E1,6E0,1E0,2.2E1,2E0,1E0,1E1,2E1,1.7E1,3E0,1E0,9E0,6E0,1E0,3E0,3E0,1E0,3E0,5E0,4E0,1.27E2,6E0,4E0,1.9E1,3E0,1.7E1,3E0,1.4E1,3E0,2E0,4E0,1E0,2E0,1E0,3E0,1.2E2,7E0,2E0,2E0,1E0,1.8E1,1E0,2E0,1.6E1,1E0,1E0,1.3E1],"tree_param":{"num_deleted":"120","num_feature":"10","num_nodes":"157","size_leaf_vector":"0"}},{"base_weights":[-8.269558E-1,-9.3169534E-1,-1.5408805E-1,-6.8487394E-1,-9.638487E-1,2.3841059E-1,-5.0595236E-1,-9.6276593E-1,3.529412E-1,-3.5714287E-1,-9.680672E-1,6.166667E-1,-1.0869565E-2,-0E0,-7.589286E-1,-9.936709E-1,-7.741935E-1,-8.888889E-1,6.0465115E-1,4E-1,-7E-1,-9.797297E-1,-8.4177214E-1,-7.5E-1,7.017544E-1,-3.2692307E-1,3.902439E-1,1.7021276E-1,-7.2727275E-1,-8.3495146E-1,1E-1,-8.9285713E-1,2.5E-1,9.5238096E-1,2.6086956E-1,-5E-1,7.5E-1,-8.888889E-1,5E-1,-1.3333334E-1,-9.097222E-1,8.2E-1,-1.25E-1,8E-1,-4.375E-1,-8.333333E-1,5.833333E-1,-2.2222222E-1,6.666667E-1,-0E0,-8.888889E-1,5E-1,-8.5294116E-1,-8E-1,8.333333E-1,-5E-1,6.666667E-1,4.5E-1,-7.5E-1,3E-1,-8.333333E-1,-0E0,-9.357143E-1,1.25E-1,9.302326E-1,7.5E-1,-8E-1,-1.15384616E-1,-7.826087E-1,8.695652E-1,7.1428575E-2,5E-1,-6.111111E-1,-6.666667E-1,8.4210527E-1,-5E-1,5E-1,-9.1764706E-1,-5E-1,6.875E-1,-4E-1,8.333333E-1,-4E-1,-6.666667E-1,6.666667E-1,-4.4444445E-1,-9.621212E-1,7.5E-1,-4E-1,-5E-1,9.7619045E-1,-7.5E-1,4E-1,-9.5238096E-1,6.666667E-1,9.5454544E-1,-5E-1,8.5714287E-1,-6.25E-1,8.75E-1,-6.666667E-1,2.5E-1,-8E-1,-5E-1,9.444444E-1,-0E0,-9.39759E-1,5E-1,-9.230769E-1,9E-1,2.857143E-1,5E-1,-7.5E-1,-7.5E-1,5E-1,2.5E-1,-8.333333E-1,-4E-1,-9.765625E-1,5E-1,-7.5E-1,5E-1,-9.0909094E-1,7.2727275E-1,-4E-1,-8.5714287E-1,5E-1,6.666667E-1,-5E-1,-9.285714E-1,5E-1,-5E-1,5E-1,-4E-1,-9.6202534E-1,-5E-1,8E-1,-6.666667E-1,8E-1,-5E-1,6.666667E-1,5E-1,-7.5E-1,-9.917355E-1,-6.25E-1,-5E-1,9E-1,5E-1,-7.5E-1,5E-1,-7.5E-1,-8.5714287E-1,5E-1],"categories":[],"categories_nodes":[],"categories_segments":[],"categories_sizes":[],"default_left":[1,1,1,1,1,1,1,1,1,1,1,1,1,1,1,1,1,0,1,1,1,0,1,0,1,1,1,1,1,1,1,1,1,1,1,1,1,1,1,1,1,1,1,0,1,0,1,1,1,1,1,0,1,0,0,1,1,1,1,1,1,1,1,1,1,1,1,1,1,1,1,1,1,1,1,1,1,1,1,1,1,1,1,1,1,1,1,1,1,1,1,1,1,1,1,1,1,0,1,1,1,1,1,1,1,1,1,1,0,1,1,1,1,1,1,1,1,1,1,1,1,1,1,1,1,1,1,1,1,1,1,1,1,1,1,1,1,1,1,1,1,1,1,1,1,1,1,1,1,1,1,1,1],"id":5,"left_children":[1,3,5,7,9,11,13,-1,17,-1,21,23,25,27,29,-1,-1,-1,-1,-1,-1,-1,39,-1,-1,43,45,47,-1,51,53,-1,-1,-1,-1,-1,-1,-1,-1,-1,-1,-1,-1,-1,67,-1,69,71,-1,-1,-1,-1,77,-1,-1,-1,-1,-1,-1,-1,-1,-1,-1,-1,-1,-1,-1,91,-1,-1,97,-1,-1,-1,-1,-1,-1,-1,107,-1,-1,-1,-1,-1,-1,-1,-1,-1,-1,-1,-1,-1,-1,-1,-1,-1,-1,-1,-1,-1,-1,-1,-1,-1,-1,-1,-1,-1,-1,-1,-1,-1,-1,-1,-1,-1,-1,-1,-1,-1,-1,-1,-1,-1,-1,-1,-1,-1,-1,-1,-1,-1,-1,-1,-1,-1,-1,-1,-1,-1,-1,-1,-1,-1,-1,-1,-1,-1,-1,-1,-1,-1,-1],"loss_changes":[1.6561572E2,1.5489868E1,4.4038418E1,6.897912E1,4.2561035E0,1.4244756E1,2.1502975E1,3.2633972E-1,1.64791E1,3.9142861E0,1.8044434E0,7.5035076E0,1.1790725E1,7.179884E0,7.3968964E0,0E0,3.9907837E0,0E0,4.8919067E0,1.95E0,2.711111E0,0E0,7.4845886E0,0E0,5.6748238E0,6.8298073E0,1.0172764E1,9.304964E0,1.2929292E0,2.900055E0,7.266667E0,0E0,1.5833334E0,0E0,4.7347827E0,0E0,0E0,0E0,0E0,4.7999997E0,3.4049606E0,3.714302E0,5.325E0,0E0,5.245611E0,0E0,5.2127323E0,7.888889E0,5.4736843E0,1E0,0E0,0E0,1.8705902E0,0E0,0E0,0E0,0E0,4.3125E0,0E0,4.0666666E0,0E0,2.6666667E0,1.3885956E0,2.925E0,3.3145103E0,0E0,0E0,8.803845E0,6.293996E0,3.15415E0,8.196428E0,4.9583335E0,3.127778E0,0E0,3.081871E0,0E0,0E0,1.7247391E0,8.076923E0,1.1089287E0,1.95E0,0E0,1.95E0,0E0,0E0,2.6388888E0,6.8092346E-1,0E0,1.95E0,0E0,0E0,2.840909E0,4.218182E0,0E0,0E0,0E0,0E0,0E0,2.517857E0,0E0,0E0,1.5833334E0,2.971428E0,0E0,0E0,1E0,6.127167E-1,2.2E0,0E0,0E0,3.9619048E0,0E0,0E0,0E0,0E0,1.5833334E0,0E0,1.95E0,6.2950134E-2,0E0,0E0,0E0,0E0,2.7818184E0,1.95E0,0E0,0E0,0E0,0E0,0E0,0E0,0E0,0E0,1.95E0,0E0,0E0,0E0,0E0,0E0,0E0,0E0,0E0,0E0,0E0,2.517857E0,0E0,0E0,0E0,0E0,0E0,0E0,0E0,0E0],"parents":[2147483647,0,0,1,1,2,2,3,3,4,4,5,5,6,6,7,7,8,8,9,9,10,10,11,11,12,12,13,13,14,14,16,16,18,18,19,19,20,20,22,22,24,24,25,25,26,26,27,27,28,28,29,29,30,30,32,32,34,34,39,39,40,40,41,41,42,42,44,44,46,46,47,47,48,48,49,49,52,52,57,57,59,59,61,61,62,62,63,63,64,64,67,67,68,68,69,69,70,70,71,71,72,72,74,74,77,77,78,78,79,79,80,80,82,82,85,85,86,86,88,88,91,91,92,92,98,98,101,101,102,102,105,105,106,106,107,107,110,110,115,115,117,117,118,118,123,123,124,124,133,133,144,144],"right_children":[2,4,6,8,10,12,14,-1,18,-1,22,24,26,28,30,-1,-1,-1,-1,-1,-1,-1,40,-1,-1,44,46,48,-1,52,54,-1,-1,-1,-1,-1,-1,-1,-1,-1,-1,-1,-1,-1,68,-1,70,72,-1,-1,-1,-1,78,-1,-1,-1,-1,-1,-1,-1,-1,-1,-1,-1,-1,-1,-1,92,-1,-1,98,-1,-1,-1,-1,-1,-1,-1,108,-1,-1,-1,-1,-1,-1,-1,-1,-1,-1,-1,-1,-1,-1,-1,-1,-1,-1,-1,-1,-1,-1,-1,-1,-1,-1,-1,-1,-1,-1,-1,-1,-1,-1,-1,-1,-1,-1,-1,-1,-1,-1,-1,-1,-1,-1,-1,-1,-1,-1,-1,-1,-1,-1,-1,-1,-1,-1,-1,-1,-1,-1,-1,-1,-1,-1,-1,-1,-1,-1,-1,-1,-1,-1],"split_conditions":[6.250264E1,2.0525E2,5.209802E1,3.732566E1,4.1487344E-2,2.355E2,2.4575E2,-1.0697399E-1,1.812887E2,-3.968254E-2,5.251683E1,1.77E2,9.13846E1,3.179894E2,4.5258626E-1,-1.10407874E-1,-8.6021505E-2,-9.876543E-2,6.7183465E-2,4.4444446E-2,-7.777778E-2,-1.0885886E-1,1.280353E2,-8.3333336E-2,7.797271E-2,1.5729271E2,2.4697699E2,2.2592435E2,-8.080808E-2,1.4855838E2,4.5504215E-1,-9.920635E-2,2.7777778E-2,1.05820104E-1,2.8985508E-2,-5.5555556E-2,8.3333336E-2,-9.876543E-2,5.5555556E-2,-1.48148155E-2,-1.01080246E-1,9.111111E-2,-1.3888889E-2,8.888889E-2,2.9075E2,-9.259259E-2,5.3711524E-3,2.1483516E-3,7.4074075E-2,-0E0,-9.876543E-2,5.5555556E-2,9.764886E1,-8.888889E-2,9.259259E-2,-5.5555556E-2,7.4074075E-2,5E-2,-8.3333336E-2,3.3333335E-2,-9.259259E-2,-0E0,-1.03968255E-1,1.3888889E-2,1.0335918E-1,8.3333336E-2,-8.888889E-2,2.5145715E2,-8.695652E-2,9.6618354E-2,3.1385107E1,5.5555556E-2,-6.790123E-2,-7.4074075E-2,9.356725E-2,-5.5555556E-2,5.5555556E-2,-1.01960786E-1,2.8834146E2,7.638889E-2,-4.4444446E-2,9.259259E-2,-4.4444446E-2,-7.4074075E-2,7.4074075E-2,-4.9382716E-2,-1.0690235E-1,8.3333336E-2,-4.4444446E-2,-5.5555556E-2,1.08465604E-1,-8.3333336E-2,4.4444446E-2,-1.05820104E-1,7.4074075E-2,1.060606E-1,-5.5555556E-2,9.52381E-2,-6.944445E-2,9.7222224E-2,-7.4074075E-2,2.7777778E-2,-8.888889E-2,-5.5555556E-2,1.0493827E-1,-0E0,-1.0441767E-1,5.5555556E-2,-1.02564104E-1,1E-1,3.1746034E-2,5.5555556E-2,-8.3333336E-2,-8.3333336E-2,5.5555556E-2,2.7777778E-2,-9.259259E-2,-4.4444446E-2,-1.0850695E-1,5.5555556E-2,-8.3333336E-2,5.5555556E-2,-1.0101011E-1,8.080808E-2,-4.4444446E-2,-9.52381E-2,5.5555556E-2,7.4074075E-2,-5.5555556E-2,-1.03174604E-1,5.5555556E-2,-5.5555556E-2,5.5555556E-2,-4.4444446E-2,-1.0689171E-1,-5.5555556E-2,8.888889E-2,-7.4074075E-2,8.888889E-2,-5.5555556E-2,7.4074075E-2,5.5555556E-2,-8.3333336E-2,-1.10192835E-1,-6.944445E-2,-5.5555556E-2,1E-1,5.5555556E-2,-8.3333336E-2,5.5555556E-2,-8.3333336E-2,-9.52381E-2,5.5555556E-2],"split_indices":[9,5,3,9,2,5,5,9,8,5,9,5,9,4,2,2147483647,2147483647,0,6,2147483647,2147483647,0,4,0,9,4,8,8,0,4,0,2147483647,2147483647,2147483647,2147483647,2147483647,2147483647,2147483647,2147483647,3,3,2147483647,2147483647,0,5,0,1,1,4,2147483647,2147483647,0,9,0,0,2147483647,2147483647,2147483647,2147483647,2147483647,2147483647,2147483647,2147483647,2147483647,2147483647,2147483647,2147483647,8,5,7,3,3,5,2147483647,2147483647,2147483647,2147483647,6,4,2147483647,2147483647,2147483647,2147483647,2147483647,2147483647,2147483647,2147483647,2147483647,2147483647,2147483647,2147483647,5,2,2147483647,2147483647,2147483647,2147483647,0,3,2147483647,2147483647,2147483647,2147483647,2147483647,2147483647,2147483647,2147483647,0,0,2147483647,2147483647,2147483647,2147483647,2147483647,2147483647,2147483647,2147483647,2147483647,2147483647,2147483647,2147483647,2147483647,2147483647,2147483647,2147483647,2147483647,2147483647,2147483647,2147483647,2147483647,2147483647,2147483647,2147483647,2147483647,2147483647,2147483647,2147483647,2147483647,2147483647,2147483647,2147483647,2147483647,2147483647,2147483647,2147483647,2147483647,2147483647,2147483647,2147483647,2147483647,2147483647,2147483647,2147483647],"split_type":[0,0,0,0,0,0,0,0,0,0,0,0,0,0,0,0,0,0,0,0,0,0,0,0,0,0,0,0,0,0,0,0,0,0,0,0,0,0,0,0,0,0,0,0,0,0,0,0,0,0,0,0,0,0,0,0,0,0,0,0,0,0,0,0,0,0,0,0,0,0,0,0,0,0,0,0,0,0,0,0,0,0,0,0,0,0,0,0,0,0,0,0,0,0,0,0,0,0,0,0,0,0,0,0,0,0,0,0,0,0,0,0,0,0,0,0,0,0,0,0,0,0,0,0,0,0,0,0,0,0,0,0,0,0,0,0,0,0,0,0,0,0,0,0,0,0,0,0,0,0,0,0,0],"sum_hessian":[2.351E3,2.034E3,3.17E2,2.37E2,1.797E3,1.5E2,1.67E2,1.87E2,5E1,1.3E1,1.784E3,5.9E1,9.1E1,5.6E1,1.11E2,1.57E2,3E1,8E0,4.2E1,4E0,9E0,1.627E3,1.57E2,3E0,5.6E1,5.1E1,4E1,4.6E1,1E1,1.02E2,9E0,2.7E1,3E0,2E1,2.2E1,1E0,3E0,8E0,1E0,1.4E1,1.43E2,4.9E1,7E0,4E0,4.7E1,5E0,3.5E1,2.6E1,2E1,2E0,8E0,1E0,1.01E2,4E0,5E0,1E0,2E0,1.9E1,3E0,9E0,5E0,4E0,1.39E2,7E0,4.2E1,3E0,4E0,2.5E1,2.2E1,2.2E1,1.3E1,9E0,1.7E1,2E0,1.8E1,1E0,1E0,8.4E1,1.7E1,1.5E1,4E0,5E0,4E0,2E0,2E0,8E0,1.31E2,3E0,4E0,1E0,4.1E1,1.1E1,1.4E1,2E1,2E0,2.1E1,1E0,6E0,7E0,7E0,2E0,3E0,1.4E1,1E0,1.7E1,2E0,8.2E1,5E0,1.2E1,9E0,6E0,1E0,3E0,3E0,1E0,3E0,5E0,4E0,1.27E2,1E0,3E0,1E0,1E1,1E1,4E0,6E0,1E0,2E0,1E0,1.3E1,1E0,1E0,1E0,4E0,7.8E1,1E0,4E0,2E0,4E0,1E0,2E0,1E0,3E0,1.2E2,7E0,1E0,9E0,1E0,3E0,1E0,3E0,6E0,1E0],"tree_param":{"num_deleted":"100","num_feature":"10","num_nodes":"153","size_leaf_vector":"0"}},{"base_weights":[-7.6613235E-1,8.333333E-1,-8.4439653E-1,-4.4444445E-1,9.339623E-1,-9.3251234E-1,-2.2680412E-1,2.5E-1,-8.333333E-1,9.5238096E-1,-5E-1,-6.866953E-1,-9.638487E-1,3.9252338E-1,-5.837838E-1,-5E-1,6.666667E-1,9.897959E-1,3.75E-1,-9.6236557E-1,3.9583334E-1,-3.5714287E-1,-9.680672E-1,6.329114E-1,-2.7586207E-1,-4.1025642E-1,-8.695652E-1,-6.666667E-1,8.333333E-1,-9.9358976E-1,-7.741935E-1,-8.5714287E-1,5.952381E-1,4E-1,-7E-1,-9.797297E-1,-8.4177214E-1,8.8372093E-1,3.243243E-1,-5.5E-1,3E-1,-6.885246E-1,-1.0526316E-1,-0E0,-9.230769E-1,-8.9285713E-1,2.5E-1,9.5E-1,2.6086956E-1,-5E-1,7.5E-1,-8.888889E-1,5E-1,-1.3333334E-1,-9.097222E-1,-5E-1,9.285714E-1,-5E-2,7.222222E-1,-0E0,-9.166667E-1,8.5714287E-1,-7.5E-1,6.666667E-1,-7.457627E-1,3.181818E-1,-3.611111E-1,-6.666667E-1,6.666667E-1,5E-1,-9.53125E-1,-5E-1,6.666667E-1,4.5E-1,-7.5E-1,3E-1,-8.333333E-1,-0E0,-9.357143E-1,9.74359E-1,2.5E-1,3.0769232E-1,-6.25E-1,9.375E-1,-6.666667E-1,8E-1,-8E-1,-1.25E-1,-8.269231E-1,-7.1428575E-2,8.888889E-1,-4.848485E-1,7.5E-1,6.875E-1,-4E-1,8.333333E-1,-4E-1,-6.666667E-1,6.666667E-1,-4.4444445E-1,-9.621212E-1,6.666667E-1,-5E-1,-6.666667E-1,5.4545456E-1,-8.5714287E-1,5E-1,7.5E-1,-8E-1,-2.2222222E-1,-9.318182E-1,-5E-1,8E-1,1.25E-1,-6.5384614E-1,9E-1,2.857143E-1,5E-1,-7.5E-1,-7.5E-1,5E-1,2.5E-1,-8.333333E-1,-4E-1,-9.765625E-1,8.5714287E-1,-0E0,-8.333333E-1,7.5E-1,-5E-1,-9.74359E-1,-6.666667E-1,5E-1,-4E-1,7.5E-1,-9.285714E-1,-3.0769232E-1,-6.666667E-1,8E-1,-5E-1,6.666667E-1,5E-1,-7.5E-1,-9.917355E-1,-6.25E-1,-6.666667E-1,6.666667E-1,-8E-1,5E-1,5E-1,-8.75E-1,5E-1,-7.5E-1,-7E-1,7.5E-1],"categories":[],"categories_nodes":[],"categories_segments":[],"categories_sizes":[],"default_left":[1,1,1,1,1,1,1,1,1,1,1,1,1,1,1,1,1,1,1,1,1,1,1,1,1,1,1,1,1,1,1,0,1,1,1,0,1,1,1,1,1,1,1,1,1,1,1,1,1,1,1,1,1,1,1,1,1,1,1,1,1,1,1,1,1,1,1,1,1,1,1,1,1,1,1,1,1,1,1,1,1,1,1,1,1,1,1,1,1,1,1,1,1,1,1,1,1,1,1,1,1,1,1,1,1,1,1,1,1,1,1,1,1,1,1,1,1,1,1,1,1,1,1,1,1,1,1,1,1,1,1,1,1,1,1,1,1,1,1,1,1,1,1,1,1,1,1,1,1,1,1,1,1,1,1],"id":6,"left_children":[1,3,5,-1,-1,11,13,-1,-1,-1,-1,19,21,23,25,-1,-1,-1,-1,-1,31,-1,35,-1,-1,41,-1,-1,-1,-1,-1,-1,-1,-1,-1,-1,53,-1,-1,-1,-1,-1,-1,-1,-1,-1,-1,-1,-1,-1,-1,-1,-1,-1,-1,-1,-1,-1,-1,-1,-1,-1,-1,-1,-1,-1,-1,-1,-1,-1,-1,-1,-1,-1,-1,-1,-1,-1,-1,-1,-1,-1,-1,-1,-1,-1,-1,-1,-1,-1,-1,-1,-1,-1,-1,-1,-1,-1,-1,-1,-1,-1,-1,-1,-1,-1,-1,-1,-1,-1,-1,-1,-1,-1,-1,-1,-1,-1,-1,-1,-1,-1,-1,-1,-1,-1,-1,-1,-1,-1,-1,-1,-1,-1,-1,-1,-1,-1,-1,-1,-1,-1,-1,-1,-1,-1,-1,-1,-1,-1,-1,-1,-1,-1,-1],"loss_changes":[3.052688E2,1.50733795E1,1.26042114E2,2.6388888E0,3.2758331E0,1.497522E1,6.456556E1,1.5833334E0,0E0,1.8971024E0,0E0,6.9913025E1,4.2561035E0,1.7366486E1,8.81757E0,0E0,0E0,0E0,4.375E0,3.236084E-1,1.2502975E1,3.9142861E0,1.8044434E0,5.827717E0,4.743104E0,9.857304E0,3.2107048E0,0E0,0E0,0E0,3.9907837E0,0E0,4.7342644E0,1.95E0,2.711111E0,0E0,7.4845886E0,3.1328926E0,5.5469975E0,4.033333E0,6.492857E0,5.228859E0,6.2901387E0,2.6666667E0,3.2560081E0,0E0,1.5833334E0,0E0,4.7347827E0,0E0,0E0,0E0,0E0,4.7999997E0,3.4049606E0,0E0,1.0613556E0,4.305769E0,6.0069437E0,6.4E0,0E0,0E0,0E0,0E0,2.869133E0,4.955267E0,5.3131313E0,0E0,0E0,0E0,0E0,0E0,0E0,4.3125E0,0E0,4.0666666E0,0E0,2.6666667E0,1.3885956E0,0E0,1.5833334E0,3.3752913E0,2.517857E0,0E0,0E0,0E0,0E0,5.325E0,3.0912933E0,5.628571E0,0E0,3.482809E0,0E0,1.1089287E0,1.95E0,0E0,1.95E0,0E0,0E0,2.6388888E0,6.8092346E-1,0E0,0E0,0E0,1.8701298E0,0E0,0E0,0E0,0E0,5.972222E0,3.2109833E-1,2E0,0E0,2.925E0,2.1868124E0,0E0,3.9619048E0,0E0,0E0,0E0,0E0,1.5833334E0,0E0,1.95E0,6.2950134E-2,0E0,2.6666667E0,0E0,0E0,2.2E0,0E0,2.625E0,0E0,1.95E0,0E0,0E0,5.919231E0,0E0,0E0,0E0,0E0,0E0,0E0,0E0,0E0,0E0,0E0,0E0,0E0,0E0,0E0,0E0,0E0,0E0,0E0],"parents":[2147483647,0,0,1,1,2,2,3,3,4,4,5,5,6,6,7,7,9,9,11,11,12,12,13,13,14,14,18,18,19,19,20,20,21,21,22,22,23,23,24,24,25,25,26,26,30,30,32,32,33,33,34,34,36,36,37,37,38,38,39,39,40,40,41,41,42,42,43,43,44,44,46,46,48,48,53,53,54,54,56,56,57,57,58,58,59,59,64,64,65,65,66,66,73,73,75,75,77,77,78,78,80,80,81,81,82,82,87,87,88,88,89,89,91,91,93,93,94,94,96,96,99,99,100,100,104,104,109,109,110,110,111,111,113,113,114,114,116,116,121,121,123,123,124,124,126,126,129,129,131,131,133,133,136,136],"right_children":[2,4,6,-1,-1,12,14,-1,-1,-1,-1,20,22,24,26,-1,-1,-1,-1,-1,32,-1,36,-1,-1,42,-1,-1,-1,-1,-1,-1,-1,-1,-1,-1,54,-1,-1,-1,-1,-1,-1,-1,-1,-1,-1,-1,-1,-1,-1,-1,-1,-1,-1,-1,-1,-1,-1,-1,-1,-1,-1,-1,-1,-1,-1,-1,-1,-1,-1,-1,-1,-1,-1,-1,-1,-1,-1,-1,-1,-1,-1,-1,-1,-1,-1,-1,-1,-1,-1,-1,-1,-1,-1,-1,-1,-1,-1,-1,-1,-1,-1,-1,-1,-1,-1,-1,-1,-1,-1,-1,-1,-1,-1,-1,-1,-1,-1,-1,-1,-1,-1,-1,-1,-1,-1,-1,-1,-1,-1,-1,-1,-1,-1,-1,-1,-1,-1,-1,-1,-1,-1,-1,-1,-1,-1,-1,-1,-1,-1,-1,-1,-1,-1],"split_conditions":[1.7775E2,2.25E1,6.250264E1,-4.9382716E-2,1.0377359E-1,2.0525E2,2.3925E2,2.7777778E-2,-9.259259E-2,1.05820104E-1,-5.5555556E-2,3.7324913E1,4.1487344E-2,8.31752E1,8.238748E1,-5.5555556E-2,7.4074075E-2,1.0997733E-1,4.1666668E-2,-1.0692951E-1,1.812887E2,-3.968254E-2,5.251683E1,7.032349E-2,-3.065134E-2,8.201759E1,-9.6618354E-2,-7.4074075E-2,9.259259E-2,-1.10398866E-1,-8.6021505E-2,-9.52381E-2,6.613757E-2,4.4444446E-2,-7.777778E-2,-1.0885886E-1,1.280353E2,9.819122E-2,3.6036033E-2,-6.111111E-2,3.3333335E-2,-7.650273E-2,-1.16959065E-2,-0E0,-1.02564104E-1,-9.920635E-2,2.7777778E-2,1.0555556E-1,2.8985508E-2,-5.5555556E-2,8.3333336E-2,-9.876543E-2,5.5555556E-2,-1.48148155E-2,-1.01080246E-1,-5.5555556E-2,1.03174604E-1,-5.5555557E-3,8.024691E-2,-0E0,-1.0185186E-1,9.52381E-2,-8.3333336E-2,7.4074075E-2,-8.2862526E-2,3.5353534E-2,-4.0123455E-2,-7.4074075E-2,7.4074075E-2,5.5555556E-2,-1.05902776E-1,-5.5555556E-2,7.4074075E-2,5E-2,-8.3333336E-2,3.3333335E-2,-9.259259E-2,-0E0,-1.03968255E-1,1.0826211E-1,2.7777778E-2,3.4188036E-2,-6.944445E-2,1.04166664E-1,-7.4074075E-2,8.888889E-2,-8.888889E-2,-1.3888889E-2,-9.1880344E-2,-7.936508E-3,9.876543E-2,-5.3872056E-2,8.3333336E-2,7.638889E-2,-4.4444446E-2,9.259259E-2,-4.4444446E-2,-7.4074075E-2,7.4074075E-2,-4.9382716E-2,-1.0690235E-1,7.4074075E-2,-5.5555556E-2,-7.4074075E-2,6.0606062E-2,-9.52381E-2,5.5555556E-2,8.3333336E-2,-8.888889E-2,-2.4691358E-2,-1.03535354E-1,-5.5555556E-2,8.888889E-2,1.3888889E-2,-7.2649576E-2,1E-1,3.1746034E-2,5.5555556E-2,-8.3333336E-2,-8.3333336E-2,5.5555556E-2,2.7777778E-2,-9.259259E-2,-4.4444446E-2,-1.0850695E-1,9.52381E-2,-0E0,-9.259259E-2,8.3333336E-2,-5.5555556E-2,-1.0826211E-1,-7.4074075E-2,5.5555556E-2,-4.4444446E-2,8.3333336E-2,-1.03174604E-1,-3.4188036E-2,-7.4074075E-2,8.888889E-2,-5.5555556E-2,7.4074075E-2,5.5555556E-2,-8.3333336E-2,-1.10192835E-1,-6.944445E-2,-7.4074075E-2,7.4074075E-2,-8.888889E-2,5.5555556E-2,5.5555556E-2,-9.7222224E-2,5.5555556E-2,-8.3333336E-2,-7.777778E-2,8.3333336E-2],"split_indices":[5,6,9,0,6,5,5,2147483647,2147483647,2147483647,2147483647,9,2,3,3,2147483647,2147483647,2147483647,2147483647,9,8,5,9,1,8,9,5,2147483647,2147483647,2147483647,2147483647,0,6,2147483647,2147483647,0,4,2147483647,2147483647,2147483647,2147483647,4,4,2147483647,2147483647,2147483647,2147483647,2147483647,2147483647,2147483647,2147483647,2147483647,2147483647,3,3,2147483647,2147483647,2147483647,2147483647,2147483647,2147483647,2147483647,2147483647,2147483647,2147483647,2147483647,2147483647,2147483647,2147483647,2147483647,2147483647,2147483647,2147483647,2147483647,2147483647,2147483647,2147483647,2147483647,2147483647,2147483647,2147483647,2147483647,2147483647,2147483647,2147483647,2147483647,2147483647,2147483647,2147483647,2147483647,2147483647,2147483647,2147483647,2147483647,2147483647,2147483647,2147483647,2147483647,2147483647,2147483647,2147483647,2147483647,2147483647,2147483647,2147483647,2147483647,2147483647,2147483647,2147483647,2147483647,2147483647,2147483647,2147483647,2147483647,2147483647,2147483647,2147483647,2147483647,2147483647,2147483647,2147483647,2147483647,2147483647,2147483647,2147483647,2147483647,2147483647,2147483647,2147483647,2147483647,2147483647,2147483647,2147483647,2147483647,2147483647,2147483647,2147483647,2147483647,2147483647,2147483647,2147483647,2147483647,2147483647,2147483647,2147483647,2147483647,2147483647,2147483647,2147483647,2147483647,2147483647,2147483647,2147483647,2147483647,2147483647],"split_type":[0,0,0,0,0,0,0,0,0,0,0,0,0,0,0,0,0,0,0,0,0,0,0,0,0,0,0,0,0,0,0,0,0,0,0,0,0,0,0,0,0,0,0,0,0,0,0,0,0,0,0,0,0,0,0,0,0,0,0,0,0,0,0,0,0,0,0,0,0,0,0,0,0,0,0,0,0,0,0,0,0,0,0,0,0,0,0,0,0,0,0,0,0,0,0,0,0,0,0,0,0,0,0,0,0,0,0,0,0,0,0,0,0,0,0,0,0,0,0,0,0,0,0,0,0,0,0,0,0,0,0,0,0,0,0,0,0,0,0,0,0,0,0,0,0,0,0,0,0,0,0,0,0,0,0],"sum_hessian":[2.432E3,1.13E2,2.319E3,8E0,1.05E2,2.029E3,2.9E2,3E0,5E0,1.04E2,1E0,2.32E2,1.797E3,1.06E2,1.84E2,1E0,2E0,9.7E1,7E0,1.85E2,4.7E1,1.3E1,1.784E3,7.8E1,2.8E1,1.16E2,6.8E1,2E0,5E0,1.55E2,3E1,6E0,4.1E1,4E0,9E0,1.627E3,1.57E2,4.2E1,3.6E1,1.9E1,9E0,6E1,5.6E1,4E0,6.4E1,2.7E1,3E0,1.9E1,2.2E1,1E0,3E0,8E0,1E0,1.4E1,1.43E2,1E0,4.1E1,1.9E1,1.7E1,8E0,1.1E1,6E0,3E0,2E0,5.8E1,2.1E1,3.5E1,2E0,2E0,1E0,6.3E1,1E0,2E0,1.9E1,3E0,9E0,5E0,4E0,1.39E2,3.8E1,3E0,1.2E1,7E0,1.5E1,2E0,4E0,4E0,7E0,5.1E1,1.3E1,8E0,3.2E1,3E0,1.5E1,4E0,5E0,4E0,2E0,2E0,8E0,1.31E2,2E0,1E0,2E0,1E1,6E0,1E0,3E0,4E0,8E0,4.3E1,9E0,4E0,7E0,2.5E1,9E0,6E0,1E0,3E0,3E0,1E0,3E0,5E0,4E0,1.27E2,6E0,4E0,5E0,3E0,5E0,3.8E1,8E0,1E0,4E0,3E0,1.3E1,1.2E1,2E0,4E0,1E0,2E0,1E0,3E0,1.2E2,7E0,2E0,2E0,4E0,1E0,1E0,7E0,1E0,3E0,9E0,3E0],"tree_param":{"num_deleted":"128","num_feature":"10","num_nodes":"155","size_leaf_vector":"0"}},{"base_weights":[-8.4420604E-1,-9.3169534E-1,-2.3986487E-1,-6.8487394E-1,-9.638487E-1,3.6190477E-1,-5.677083E-1,-9.6276593E-1,3.529412E-1,-3.5714287E-1,-9.680672E-1,5.168539E-1,-4.7058824E-1,-6.2777776E-1,3.0769232E-1,-9.936709E-1,-7.741935E-1,-8.888889E-1,6.0465115E-1,4E-1,-7E-1,-9.797297E-1,-8.4177214E-1,2.0408164E-1,8.780488E-1,-9E-1,1.25E-1,-3.472222E-1,-8.0733943E-1,-5E-1,8.75E-1,-8.9285713E-1,2.5E-1,9.5238096E-1,2.6086956E-1,-5E-1,7.5E-1,-8.888889E-1,5E-1,-1.3333334E-1,-9.097222E-1,5.4545456E-1,-4.7058824E-1,-2.5E-1,9.736842E-1,8E-1,-7.5E-1,-4.2647058E-1,8E-1,5E-1,-8.240741E-1,-8E-1,5E-1,-5E-1,6.666667E-1,4.5E-1,-7.5E-1,3E-1,-8.333333E-1,-0E0,-9.357143E-1,7.407407E-1,-2.857143E-1,-1E-1,-8.75E-1,-6.666667E-1,5E-1,-1.5384616E-1,-7.6666665E-1,-2.2222222E-1,-8.7E-1,6.875E-1,-4E-1,8.333333E-1,-4E-1,-6.666667E-1,6.666667E-1,-4.4444445E-1,-9.621212E-1,-5E-1,8.076923E-1,-8E-1,6.666667E-1,5E-1,-8E-1,-7.368421E-1,3.809524E-1,-8.888889E-1,2.5E-1,-7.5E-1,1.6666667E-1,-6.857143E-1,-9.5454544E-1,9E-1,2.857143E-1,5E-1,-7.5E-1,-7.5E-1,5E-1,2.5E-1,-8.333333E-1,-4E-1,-9.765625E-1,-0E0,8.75E-1,-5E-1,8E-1,5E-1,-8.333333E-1,5.263158E-1,-6.666667E-1,-9.5652175E-1,-4E-1,6.666667E-1,-5E-1,6.666667E-1,-2.5E-1,-9.5454544E-1,-2.1428572E-1,-6.666667E-1,8E-1,-5E-1,6.666667E-1,5E-1,-7.5E-1,-9.917355E-1,-6.25E-1,-5E-1,5E-1,9.5238096E-1,2.5E-1,-9.3333334E-1,-2.5E-1,7.8571427E-1,-1.6666667E-1,5E-1,-7.5E-1,5E-1,-6.666667E-1,2.857143E-1,-6.25E-1,-8.5714287E-1,5E-1,6.666667E-1,-5E-1,-6.666667E-1,5E-1,-5E-1,9.230769E-1,6.666667E-1,-7.5E-1,7.5E-1,-2.5E-1,-8.5714287E-1,5E-1],"categories":[],"categories_nodes":[],"categories_segments":[],"categories_sizes":[],"default_left":[1,1,1,1,1,1,1,1,1,1,1,1,1,1,1,1,1,0,1,1,1,0,1,1,1,1,1,1,1,1,1,1,1,1,1,1,1,1,1,1,1,1,1,1,1,1,1,1,0,1,1,1,1,1,1,1,1,1,1,1,1,1,1,1,1,1,1,1,1,1,1,1,1,1,1,1,1,1,1,1,1,1,1,1,1,1,1,1,1,1,1,1,1,1,1,1,1,1,1,1,1,1,1,1,1,1,1,1,1,1,1,1,1,1,1,1,1,1,1,1,1,1,1,1,1,1,1,1,1,1,1,1,1,1,1,1,1,1,1,1,1,1,1,1,1,1,1,1,1,1,1,1,1,1,1],"id":7,"left_children":[1,3,5,7,9,11,13,-1,17,-1,21,23,-1,27,-1,-1,-1,-1,-1,-1,-1,-1,39,41,-1,-1,-1,47,-1,-1,-1,-1,-1,-1,-1,-1,-1,-1,-1,-1,-1,-1,-1,-1,-1,-1,-1,67,-1,-1,-1,-1,-1,-1,-1,-1,-1,-1,-1,-1,-1,-1,-1,-1,-1,-1,-1,85,-1,-1,-1,-1,-1,-1,-1,-1,-1,-1,-1,-1,-1,-1,-1,-1,-1,-1,-1,-1,-1,-1,-1,-1,-1,-1,-1,-1,-1,-1,-1,-1,-1,-1,-1,-1,-1,-1,-1,-1,-1,-1,-1,-1,-1,-1,-1,-1,-1,-1,-1,-1,-1,-1,-1,-1,-1,-1,-1,-1,-1,-1,-1,-1,-1,-1,-1,-1,-1,-1,-1,-1,-1,-1,-1,-1,-1,-1,-1,-1,-1,-1,-1,-1,-1,-1,-1],"loss_changes":[1.2297156E2,1.5489868E1,5.860219E1,6.897912E1,4.2561035E0,1.3787604E1,1.0289448E1,3.2633972E-1,1.64791E1,3.9142861E0,1.8044434E0,9.875294E0,4.4602947E0,8.787537E0,6.394231E0,0E0,3.9907837E0,0E0,4.8919067E0,1.95E0,2.711111E0,0E0,7.4845886E0,1.1542071E1,4.666561E0,0E0,5.325E0,6.8870916E0,2.7967224E0,2.2E0,0E0,0E0,1.5833334E0,0E0,4.7347827E0,0E0,0E0,0E0,0E0,4.7999997E0,3.4049606E0,5.568061E0,2.460294E0,1.5833334E0,0E0,0E0,0E0,6.1887627E0,0E0,0E0,2.7918549E0,0E0,0E0,0E0,0E0,4.3125E0,0E0,4.0666666E0,0E0,2.6666667E0,1.3885956E0,2.6467237E0,3.9619048E0,4.6E0,0E0,0E0,0E0,1.2440331E1,3.9500008E0,1.9722223E0,9.035034E-1,1.1089287E0,1.95E0,0E0,1.95E0,0E0,0E0,2.6388888E0,6.8092346E-1,0E0,1.4134617E0,0E0,0E0,2.2E0,0E0,2.6842108E0,3.5488722E0,5.101433E-1,1.5833334E0,0E0,1.4166667E0,4.231167E0,0E0,0E0,3.9619048E0,0E0,0E0,0E0,0E0,1.5833334E0,0E0,1.95E0,6.2950134E-2,1E0,9.2261887E-1,0E0,0E0,0E0,8.166666E-1,3.5463667E0,0E0,0E0,1.95E0,0E0,0E0,0E0,1.5833334E0,0E0,3.0535715E0,0E0,0E0,0E0,0E0,0E0,0E0,0E0,2.517857E0,0E0,0E0,0E0,1.5833334E0,0E0,1.5833334E0,2.9340658E0,3.4166667E0,0E0,0E0,0E0,0E0,1.9285715E0,2.517857E0,0E0,0E0,0E0,0E0,0E0,0E0,0E0,0E0,0E0,0E0,0E0,0E0,0E0,0E0],"parents":[2147483647,0,0,1,1,2,2,3,3,4,4,5,5,6,6,7,7,8,8,9,9,10,10,11,11,12,12,13,13,14,14,16,16,18,18,19,19,20,20,22,22,23,23,24,24,26,26,27,27,28,28,29,29,32,32,34,34,39,39,40,40,41,41,42,42,43,43,47,47,50,50,55,55,57,57,59,59,60,60,61,61,62,62,63,63,67,67,68,68,69,69,70,70,71,71,72,72,74,74,77,77,78,78,80,80,83,83,85,85,86,86,87,87,88,88,90,90,91,91,94,94,99,99,101,101,102,102,103,103,104,104,108,108,109,109,112,112,116,116,118,118,126,126,130,130,132,132,133,133,134,134,139,139,140,140],"right_children":[2,4,6,8,10,12,14,-1,18,-1,22,24,-1,28,-1,-1,-1,-1,-1,-1,-1,-1,40,42,-1,-1,-1,48,-1,-1,-1,-1,-1,-1,-1,-1,-1,-1,-1,-1,-1,-1,-1,-1,-1,-1,-1,68,-1,-1,-1,-1,-1,-1,-1,-1,-1,-1,-1,-1,-1,-1,-1,-1,-1,-1,-1,86,-1,-1,-1,-1,-1,-1,-1,-1,-1,-1,-1,-1,-1,-1,-1,-1,-1,-1,-1,-1,-1,-1,-1,-1,-1,-1,-1,-1,-1,-1,-1,-1,-1,-1,-1,-1,-1,-1,-1,-1,-1,-1,-1,-1,-1,-1,-1,-1,-1,-1,-1,-1,-1,-1,-1,-1,-1,-1,-1,-1,-1,-1,-1,-1,-1,-1,-1,-1,-1,-1,-1,-1,-1,-1,-1,-1,-1,-1,-1,-1,-1,-1,-1,-1,-1,-1,-1],"split_conditions":[6.250264E1,2.0525E2,2.355E2,3.732566E1,4.1487344E-2,3.1695758E2,4.58986E-1,-1.0697399E-1,1.812887E2,-3.968254E-2,5.251683E1,2.201E2,-5.2287582E-2,5.4997887E1,3.4188036E-2,-1.10407874E-1,-8.6021505E-2,-9.876543E-2,6.7183465E-2,4.4444446E-2,-7.777778E-2,-1.0885886E-1,1.280353E2,2.03835E2,9.756098E-2,-1E-1,1.3888889E-2,3.5525E2,-8.970438E-2,-5.5555556E-2,9.7222224E-2,-9.920635E-2,2.7777778E-2,1.05820104E-1,2.8985508E-2,-5.5555556E-2,8.3333336E-2,-9.876543E-2,5.5555556E-2,-1.48148155E-2,-1.01080246E-1,6.0606062E-2,-5.2287582E-2,-2.7777778E-2,1.0818713E-1,8.888889E-2,-8.3333336E-2,2.9125E2,8.888889E-2,5.5555556E-2,-9.156379E-2,-8.888889E-2,5.5555556E-2,-5.5555556E-2,7.4074075E-2,5E-2,-8.3333336E-2,3.3333335E-2,-9.259259E-2,-0E0,-1.03968255E-1,8.230452E-2,-3.1746034E-2,-1.1111111E-2,-9.7222224E-2,-7.4074075E-2,5.5555556E-2,2.5145715E2,-8.5185185E-2,-2.4691358E-2,-9.666667E-2,7.638889E-2,-4.4444446E-2,9.259259E-2,-4.4444446E-2,-7.4074075E-2,7.4074075E-2,-4.9382716E-2,-1.0690235E-1,-5.5555556E-2,8.974359E-2,-8.888889E-2,7.4074075E-2,5.5555556E-2,-8.888889E-2,-8.1871346E-2,4.2328045E-2,-9.876543E-2,2.7777778E-2,-8.3333336E-2,1.8518519E-2,-7.619048E-2,-1.060606E-1,1E-1,3.1746034E-2,5.5555556E-2,-8.3333336E-2,-8.3333336E-2,5.5555556E-2,2.7777778E-2,-9.259259E-2,-4.4444446E-2,-1.0850695E-1,-0E0,9.7222224E-2,-5.5555556E-2,8.888889E-2,5.5555556E-2,-9.259259E-2,5.8479536E-2,-7.4074075E-2,-1.0628019E-1,-4.4444446E-2,7.4074075E-2,-5.5555556E-2,7.4074075E-2,-2.7777778E-2,-1.060606E-1,-2.3809524E-2,-7.4074075E-2,8.888889E-2,-5.5555556E-2,7.4074075E-2,5.5555556E-2,-8.3333336E-2,-1.10192835E-1,-6.944445E-2,-5.5555556E-2,5.5555556E-2,1.05820104E-1,2.7777778E-2,-1.0370371E-1,-2.7777778E-2,8.730159E-2,-1.8518519E-2,5.5555556E-2,-8.3333336E-2,5.5555556E-2,-7.4074075E-2,3.1746034E-2,-6.944445E-2,-9.52381E-2,5.5555556E-2,7.4074075E-2,-5.5555556E-2,-7.4074075E-2,5.5555556E-2,-5.5555556E-2,1.02564104E-1,7.4074075E-2,-8.3333336E-2,8.3333336E-2,-2.7777778E-2,-9.52381E-2,5.5555556E-2],"split_indices":[9,5,5,9,2,4,2,9,8,5,9,8,7,3,0,2147483647,2147483647,0,6,2147483647,2147483647,0,4,4,4,2147483647,2147483647,5,4,2147483647,2147483647,2147483647,2147483647,2147483647,2147483647,2147483647,2147483647,2147483647,2147483647,3,3,8,3,2147483647,2147483647,2147483647,2147483647,5,0,2147483647,2147483647,2147483647,2147483647,2147483647,2147483647,2147483647,2147483647,2147483647,2147483647,2147483647,2147483647,2147483647,2147483647,2147483647,2147483647,2147483647,2147483647,8,3,2147483647,2147483647,2147483647,2147483647,2147483647,2147483647,2147483647,2147483647,2147483647,2147483647,2147483647,2147483647,2147483647,2147483647,2147483647,2147483647,4,9,2147483647,2147483647,2147483647,2147483647,2147483647,2147483647,2147483647,2147483647,2147483647,2147483647,2147483647,2147483647,2147483647,2147483647,2147483647,2147483647,2147483647,2147483647,2147483647,2147483647,2147483647,2147483647,2147483647,2147483647,2147483647,2147483647,2147483647,2147483647,2147483647,2147483647,2147483647,2147483647,2147483647,2147483647,2147483647,2147483647,2147483647,2147483647,2147483647,2147483647,2147483647,2147483647,2147483647,2147483647,2147483647,2147483647,2147483647,2147483647,2147483647,2147483647,2147483647,2147483647,2147483647,2147483647,2147483647,2147483647,2147483647,2147483647,2147483647,2147483647,2147483647,2147483647,2147483647,2147483647,2147483647,2147483647,2147483647,2147483647],"split_type":[0,0,0,0,0,0,0,0,0,0,0,0,0,0,0,0,0,0,0,0,0,0,0,0,0,0,0,0,0,0,0,0,0,0,0,0,0,0,0,0,0,0,0,0,0,0,0,0,0,0,0,0,0,0,0,0,0,0,0,0,0,0,0,0,0,0,0,0,0,0,0,0,0,0,0,0,0,0,0,0,0,0,0,0,0,0,0,0,0,0,0,0,0,0,0,0,0,0,0,0,0,0,0,0,0,0,0,0,0,0,0,0,0,0,0,0,0,0,0,0,0,0,0,0,0,0,0,0,0,0,0,0,0,0,0,0,0,0,0,0,0,0,0,0,0,0,0,0,0,0,0,0,0,0,0],"sum_hessian":[2.329E3,2.034E3,2.95E2,2.37E2,1.797E3,1.04E2,1.91E2,1.87E2,5E1,1.3E1,1.784E3,8.8E1,1.6E1,1.79E2,1.2E1,1.57E2,3E1,8E0,4.2E1,4E0,9E0,1.627E3,1.57E2,4.8E1,4E1,9E0,7E0,7.1E1,1.08E2,5E0,7E0,2.7E1,3E0,2E1,2.2E1,1E0,3E0,8E0,1E0,1.4E1,1.43E2,3.2E1,1.6E1,3E0,3.7E1,4E0,3E0,6.7E1,4E0,1E0,1.07E2,4E0,1E0,1E0,2E0,1.9E1,3E0,9E0,5E0,4E0,1.39E2,2.6E1,6E0,9E0,7E0,2E0,1E0,3.8E1,2.9E1,8E0,9.9E1,1.5E1,4E0,5E0,4E0,2E0,2E0,8E0,1.31E2,1E0,2.5E1,4E0,2E0,5E0,4E0,1.8E1,2E1,2.6E1,3E0,3E0,5E0,3.4E1,6.5E1,9E0,6E0,1E0,3E0,3E0,1E0,3E0,5E0,4E0,1.27E2,2E0,2.3E1,1E0,4E0,1E0,1.7E1,1.8E1,2E0,2.2E1,4E0,2E0,1E0,2E0,3E0,2.1E1,1.3E1,2E0,4E0,1E0,2E0,1E0,3E0,1.2E2,7E0,1E0,1E0,2E1,3E0,1.4E1,3E0,1.3E1,5E0,1E0,3E0,1E0,2E0,6E0,7E0,6E0,1E0,2E0,1E0,2E0,1E0,1E0,1.2E1,2E0,3E0,3E0,3E0,6E0,1E0],"tree_param":{"num_deleted":"122","num_feature":"10","num_nodes":"155","size_leaf_vector":"0"}},{"base_weights":[-8.394692E-1,8.041237E-1,-9.1026783E-1,-4.4444445E-1,9.2134833E-1,-9.5554495E-1,-2.6845637E-1,2.5E-1,-8.333333E-1,9.431818E-1,-5E-1,-9.7546345E-1,-8.108108E-1,-1.1363637E-2,-6.2903225E-1,-5E-1,6.666667E-1,9.878049E-1,2.857143E-1,5E-1,-9.7654116E-1,6.666667E-1,-8.249027E-1,2.826087E-1,-3.255814E-1,-1.25E-1,-9.230769E-1,8E-1,-6.666667E-1,-6.1538464E-1,-9.785832E-1,-4.7727272E-1,-8.9252335E-1,1.0810811E-1,9E-1,-1.4705883E-1,-9E-1,8.5714287E-1,-5E-1,-7.5E-1,5E-1,-7.407407E-1,-5.5555556E-2,-6.3461536E-1,-9.693251E-1,3.448276E-1,-6.666667E-1,-4.4444445E-1,8.75E-1,-9E-1,-0E0,-9.0909094E-1,5E-1,-8.076923E-1,5E-1,7.5E-1,-2.6666668E-1,6.666667E-1,-7E-1,-5.714286E-1,-9.808917E-1,7.058824E-1,-1.5384616E-1,5E-1,-8.75E-1,-5.6E-1,6.666667E-1,5E-1,-7.5E-1,-2.857143E-1,-9.5E-1,2.857143E-1,-6.666667E-1,-7.346939E-1,5E-1,-8.333333E-1,5E-1,-9.9333334E-1,-6.25E-1,-5E-1,8.125E-1,-6.25E-1,5E-1,-7.5E-1,1.6666667E-1,-5E-1,8E-1,-7.5E-1,2.5E-1,7.5E-1,-2.5E-1,5E-1,-8.75E-1,-7.659575E-1,-0E0,-8.5714287E-1,5E-1,2.5E-1,9.230769E-1,-8.5714287E-1,5E-1,-5E-1,8E-1,6.666667E-1,-9.444444E-1,-6.666667E-1,7.5E-1,-5E-1,6.666667E-1,5E-1,-6.666667E-1,-2.857143E-1,-8.292683E-1,5E-1,-5E-1,6.666667E-1,-5E-1],"categories":[],"categories_nodes":[],"categories_segments":[],"categories_sizes":[],"default_left":[1,1,1,1,1,1,1,1,1,1,1,1,1,1,1,1,1,1,1,1,1,1,1,1,1,1,0,1,1,1,1,1,1,1,0,1,0,0,1,1,1,1,1,1,1,1,1,1,0,1,1,1,1,1,1,1,1,1,1,1,1,1,1,1,1,1,1,1,1,1,1,1,1,1,1,1,1,1,1,1,1,1,1,1,1,1,1,1,1,1,1,1,1,1,1,1,1,1,1,1,1,1,1,1,1,1,1,1,1,1,1,1,1,1,1,1,1],"id":8,"left_children":[1,3,5,-1,-1,-1,13,-1,-1,-1,-1,-1,-1,23,25,-1,-1,-1,-1,-1,-1,-1,-1,33,35,37,-1,-1,-1,-1,-1,-1,-1,45,-1,47,-1,-1,-1,-1,-1,-1,-1,-1,-1,-1,-1,-1,-1,-1,-1,-1,-1,-1,-1,-1,-1,-1,-1,-1,-1,-1,-1,-1,-1,-1,-1,-1,-1,-1,-1,-1,-1,-1,-1,-1,-1,-1,-1,-1,-1,-1,-1,-1,-1,-1,-1,-1,-1,-1,-1,-1,-1,-1,-1,-1,-1,-1,-1,-1,-1,-1,-1,-1,-1,-1,-1,-1,-1,-1,-1,-1,-1,-1,-1,-1,-1],"loss_changes":[2.7255872E2,1.4606689E1,6.4836426E1,2.6388888E0,3.2335281E0,5.2401123E0,1.3805367E1,1.5833334E0,0E0,2.29953E0,0E0,3.404663E0,5.942444E0,8.220688E0,9.073511E0,0E0,0E0,0E0,3.9619048E0,0E0,7.495117E-1,0E0,5.6153107E0,4.8585196E0,4.2771554E0,9.267857E0,0E0,0E0,0E0,2.326923E0,0E0,4.847643E0,3.6237183E0,7.015843E0,0E0,1.072304E1,0E0,0E0,3.6000004E0,2.840909E0,0E0,2.6467237E0,3.261111E0,4.8910255E0,1.8966675E-1,5.3300056E0,2.625E0,3.8399997E0,0E0,0E0,3.75E0,0E0,0E0,1.6598892E0,0E0,0E0,3.5047622E0,0E0,2.4489803E0,2.3809521E0,7.434082E-2,2.5919113E0,4.3173075E0,0E0,0E0,3.5766668E0,0E0,2.2E0,0E0,1.9285715E0,0E0,1.9285715E0,2.625E0,1.1254883E0,0E0,0E0,0E0,0E0,2.517857E0,0E0,7.644234E-1,2.517857E0,2.2E0,6.1388893E0,3.4166667E0,0E0,0E0,0E0,1.5833334E0,0E0,1.5833334E0,0E0,0E0,1.1920815E0,1E0,0E0,0E0,1.5833334E0,0E0,0E0,0E0,0E0,0E0,0E0,0E0,0E0,0E0,0E0,0E0,0E0,0E0,0E0,0E0,0E0,0E0,0E0,0E0],"parents":[2147483647,0,0,1,1,2,2,3,3,4,4,5,5,6,6,7,7,9,9,11,11,12,12,13,13,14,14,18,18,20,20,22,22,23,23,24,24,25,25,29,29,31,31,32,32,33,33,35,35,38,38,39,39,41,41,42,42,43,43,44,44,45,45,46,46,47,47,50,50,53,53,56,56,58,58,59,59,60,60,61,61,62,62,65,65,67,67,69,69,71,71,72,72,73,73,78,78,80,80,81,81,82,82,83,83,84,84,88,88,90,90,93,93,94,94,97,97],"right_children":[2,4,6,-1,-1,-1,14,-1,-1,-1,-1,-1,-1,24,26,-1,-1,-1,-1,-1,-1,-1,-1,34,36,38,-1,-1,-1,-1,-1,-1,-1,46,-1,48,-1,-1,-1,-1,-1,-1,-1,-1,-1,-1,-1,-1,-1,-1,-1,-1,-1,-1,-1,-1,-1,-1,-1,-1,-1,-1,-1,-1,-1,-1,-1,-1,-1,-1,-1,-1,-1,-1,-1,-1,-1,-1,-1,-1,-1,-1,-1,-1,-1,-1,-1,-1,-1,-1,-1,-1,-1,-1,-1,-1,-1,-1,-1,-1,-1,-1,-1,-1,-1,-1,-1,-1,-1,-1,-1,-1,-1,-1,-1,-1,-1],"split_conditions":[1.7775E2,2.6E1,7.756868E1,-4.9382716E-2,1.02372035E-1,-1.0617166E-1,8.029438E1,2.7777778E-2,-9.259259E-2,1.0479798E-1,-5.5555556E-2,-1.08384825E-1,-9.009009E-2,3.652285E-3,2.4575E2,-5.5555556E-2,7.4074075E-2,1.097561E-1,3.1746034E-2,5.5555556E-2,-1.0850457E-1,7.4074075E-2,-9.165586E-2,3.178009E2,3.105E2,2.0926486E2,-1.02564104E-1,8.888889E-2,-7.4074075E-2,-6.837607E-2,-1.0873147E-1,-5.30303E-2,-9.916926E-2,3.015E2,1E-1,2.903346E2,-1E-1,9.52381E-2,-5.5555556E-2,-8.3333336E-2,5.5555556E-2,-8.230452E-2,-6.1728396E-3,-7.051282E-2,-1.0770279E-1,3.831418E-2,-7.4074075E-2,-4.9382716E-2,9.7222224E-2,-1E-1,-0E0,-1.0101011E-1,5.5555556E-2,-8.974359E-2,5.5555556E-2,8.3333336E-2,-2.9629631E-2,7.4074075E-2,-7.777778E-2,-6.349207E-2,-1.08987965E-1,7.8431375E-2,-1.7094018E-2,5.5555556E-2,-9.7222224E-2,-6.2222224E-2,7.4074075E-2,5.5555556E-2,-8.3333336E-2,-3.1746034E-2,-1.0555556E-1,3.1746034E-2,-7.4074075E-2,-8.163265E-2,5.5555556E-2,-9.259259E-2,5.5555556E-2,-1.10370375E-1,-6.944445E-2,-5.5555556E-2,9.0277776E-2,-6.944445E-2,5.5555556E-2,-8.3333336E-2,1.8518519E-2,-5.5555556E-2,8.888889E-2,-8.3333336E-2,2.7777778E-2,8.3333336E-2,-2.7777778E-2,5.5555556E-2,-9.7222224E-2,-8.510639E-2,-0E0,-9.52381E-2,5.5555556E-2,2.7777778E-2,1.02564104E-1,-9.52381E-2,5.5555556E-2,-5.5555556E-2,8.888889E-2,7.4074075E-2,-1.0493827E-1,-7.4074075E-2,8.3333336E-2,-5.5555556E-2,7.4074075E-2,5.5555556E-2,-7.4074075E-2,-3.1746034E-2,-9.214092E-2,5.5555556E-2,-5.5555556E-2,7.4074075E-2,-5.5555556E-2],"split_indices":[5,6,9,0,6,9,3,2147483647,2147483647,2147483647,2147483647,2147483647,2147483647,1,5,2147483647,2147483647,2147483647,2147483647,2147483647,2147483647,2147483647,2147483647,8,5,4,0,2147483647,2147483647,2147483647,2147483647,2147483647,2147483647,5,0,8,0,0,5,2147483647,2147483647,2147483647,2147483647,2147483647,2147483647,3,0,0,0,2147483647,2147483647,2147483647,2147483647,2147483647,2147483647,2147483647,2147483647,2147483647,2147483647,2147483647,2147483647,2147483647,2147483647,2147483647,2147483647,2147483647,2147483647,2147483647,2147483647,2147483647,2147483647,2147483647,2147483647,2147483647,2147483647,2147483647,2147483647,2147483647,2147483647,2147483647,2147483647,2147483647,2147483647,2147483647,2147483647,2147483647,2147483647,2147483647,2147483647,2147483647,2147483647,2147483647,2147483647,2147483647,2147483647,2147483647,2147483647,2147483647,2147483647,2147483647,2147483647,2147483647,2147483647,2147483647,2147483647,2147483647,2147483647,2147483647,2147483647,2147483647,2147483647,2147483647,2147483647,2147483647,2147483647,2147483647,2147483647],"split_type":[0,0,0,0,0,0,0,0,0,0,0,0,0,0,0,0,0,0,0,0,0,0,0,0,0,0,0,0,0,0,0,0,0,0,0,0,0,0,0,0,0,0,0,0,0,0,0,0,0,0,0,0,0,0,0,0,0,0,0,0,0,0,0,0,0,0,0,0,0,0,0,0,0,0,0,0,0,0,0,0,0,0,0,0,0,0,0,0,0,0,0,0,0,0,0,0,0,0,0,0,0,0,0,0,0,0,0,0,0,0,0,0,0,0,0,0,0],"sum_hessian":[2.335E3,9.6E1,2.239E3,8E0,8.8E1,2.091E3,1.48E2,3E0,5E0,8.7E1,1E0,1.833E3,2.58E2,8.7E1,6.1E1,1E0,2E0,8.1E1,6E0,1E0,1.832E3,2E0,2.56E2,4.5E1,4.2E1,2.3E1,3.8E1,4E0,2E0,1.2E1,1.82E3,4.3E1,2.13E2,3.6E1,9E0,3.3E1,9E0,6E0,1.7E1,1.1E1,1E0,2.6E1,1.7E1,5.1E1,1.62E2,2.8E1,8E0,2.6E1,7E0,9E0,8E0,1E1,1E0,2.5E1,1E0,3E0,1.4E1,2E0,4.9E1,6E0,1.56E2,1.6E1,1.2E1,1E0,7E0,2.4E1,2E0,5E0,3E0,6E0,1.9E1,6E0,8E0,4.8E1,1E0,5E0,1E0,1.49E2,7E0,1E0,1.5E1,7E0,5E0,1.9E1,5E0,1E0,4E0,3E0,3E0,3E0,3E0,1E0,7E0,4.6E1,2E0,6E0,1E0,3E0,1.2E1,6E0,1E0,1E0,4E0,2E0,1.7E1,2E0,3E0,1E0,2E0,1E0,2E0,6E0,4E1,1E0,1E0,2E0,1E0],"tree_param":{"num_deleted":"94","num_feature":"10","num_nodes":"117","size_leaf_vector":"0"}},{"base_weights":[-8.658272E-1,-9.3169534E-1,-3.6431226E-1,-6.8487394E-1,-9.638487E-1,5.2083332E-2,-5.9195405E-1,-9.6276593E-1,3.529412E-1,-3.5714287E-1,-9.680672E-1,5.945946E-1,-2.8333333E-1,-3.7383178E-1,-9.264706E-1,-9.936709E-1,-7.741935E-1,-8.888889E-1,6.0465115E-1,4E-1,-7E-1,-9.797297E-1,-8.4177214E-1,-7.5E-1,7.352941E-1,-5.1428574E-1,3.846154E-2,-7.4E-1,-5.172414E-2,5E-1,-9.5522386E-1,-8.9285713E-1,2.5E-1,9.5238096E-1,2.6086956E-1,-5E-1,7.5E-1,-8.888889E-1,5E-1,-1.3333334E-1,-9.097222E-1,-2.5E-1,8.3870965E-1,-2.1052632E-1,-8.235294E-1,5E-1,-4.6153846E-1,6.666667E-1,-8.125E-1,2.8125E-1,-4.4444445E-1,-5E-1,6.666667E-1,4.5E-1,-7.5E-1,3E-1,-8.333333E-1,-0E0,-9.357143E-1,5E-1,-6.666667E-1,-5E-1,9E-1,7.5E-1,-4.375E-1,-2.5E-1,-9.285714E-1,-2.5E-1,7.2727275E-1,1.6666667E-1,-8.75E-1,-2.5E-1,-9.72973E-1,5.217391E-1,-3E-1,-1.1764706E-1,-9.0909094E-1,6.875E-1,-4E-1,8.333333E-1,-4E-1,-6.666667E-1,6.666667E-1,-4.4444445E-1,-9.621212E-1,9.6428573E-1,-0E0,4E-1,-7.5E-1,5E-1,-6.666667E-1,-6.666667E-1,5E-1,-5E-1,9E-1,-6.666667E-1,7.5E-1,-6.25E-1,4E-1,2.1428572E-1,9E-1,-8.5714287E-1,7.5E-1,-8.5714287E-1,3.6363637E-1,9E-1,2.857143E-1,5E-1,-7.5E-1,-7.5E-1,5E-1,2.5E-1,-8.333333E-1,-4E-1,-9.765625E-1,-5E-1,5E-1,-5E-1,7.5E-1,5E-1,-9.0909094E-1,5E-1,-8.5714287E-1,7.5E-1,-5E-1,-2.2222222E-1,8.333333E-1,8.5714287E-1,-4E-1,-6.666667E-1,8E-1,-5E-1,6.666667E-1,5E-1,-7.5E-1,-9.917355E-1,-6.25E-1,4E-1,-8E-1,5E-1,-7.5E-1,-8.5714287E-1,5E-1,-5E-1,7.5E-1],"categories":[],"categories_nodes":[],"categories_segments":[],"categories_sizes":[],"default_left":[1,1,1,1,1,1,1,1,1,1,1,1,1,1,1,1,1,0,1,1,1,0,1,0,1,1,1,1,1,1,1,1,1,1,1,1,1,1,1,1,1,1,1,1,1,1,1,1,1,1,1,1,1,1,1,1,1,1,1,1,1,1,1,1,1,1,1,1,1,1,1,1,1,1,1,1,1,1,1,1,1,1,1,1,1,1,1,1,1,1,1,1,1,1,1,1,1,1,1,1,1,1,1,1,1,1,1,1,1,1,1,1,1,1,1,1,1,1,1,1,1,1,1,1,1,1,1,1,1,1,1,1,1,1,1,1,1,1,1,1,1,1,1,1,1],"id":9,"left_children":[1,3,5,7,9,11,13,-1,17,-1,21,23,-1,27,-1,-1,-1,-1,-1,-1,-1,-1,39,-1,-1,-1,-1,-1,49,-1,-1,-1,-1,-1,-1,-1,-1,-1,-1,-1,-1,-1,-1,-1,-1,-1,-1,-1,-1,-1,-1,-1,-1,-1,-1,-1,-1,-1,-1,-1,-1,-1,-1,-1,-1,-1,-1,-1,-1,-1,-1,-1,-1,-1,-1,-1,-1,-1,-1,-1,-1,-1,-1,-1,-1,-1,-1,-1,-1,-1,-1,-1,-1,-1,-1,-1,-1,-1,-1,-1,-1,-1,-1,-1,-1,-1,-1,-1,-1,-1,-1,-1,-1,-1,-1,-1,-1,-1,-1,-1,-1,-1,-1,-1,-1,-1,-1,-1,-1,-1,-1,-1,-1,-1,-1,-1,-1,-1,-1,-1,-1,-1,-1,-1,-1],"loss_changes":[7.573767E1,1.5489868E1,2.552908E1,6.897912E1,4.2561035E0,1.7637331E1,1.2349651E1,3.2633972E-1,1.64791E1,3.9142861E0,1.8044434E0,7.5512714E0,4.478938E0,1.2581901E1,3.2666817E0,0E0,3.9907837E0,0E0,4.8919067E0,1.95E0,2.711111E0,0E0,7.4845886E0,0E0,3.674099E0,3.1143732E0,6.230769E0,5.640833E0,7.709411E0,0E0,0E0,0E0,1.5833334E0,0E0,4.7347827E0,0E0,0E0,0E0,0E0,4.7999997E0,3.4049606E0,1.5833334E0,2.9935474E0,4.4703946E0,7.92017E-1,2.568182E0,3.5224357E0,0E0,4.089527E0,4.6296196E0,3.9928699E0,0E0,0E0,4.3125E0,0E0,4.0666666E0,0E0,2.6666667E0,1.3885956E0,0E0,0E0,0E0,1.7357159E0,0E0,4.4875E0,1.5833334E0,0E0,1.5833334E0,2.7818184E0,3.4166667E0,0E0,3.175E0,0E0,2.4819884E0,6.492857E0,6.362108E0,0E0,1.1089287E0,1.95E0,0E0,1.95E0,0E0,0E0,2.6388888E0,6.8092346E-1,0E0,1E0,1.95E0,2.840909E0,0E0,0E0,0E0,0E0,0E0,0E0,0E0,0E0,2.517857E0,1.95E0,3.968254E0,0E0,0E0,0E0,0E0,4.488312E0,0E0,3.9619048E0,0E0,0E0,0E0,0E0,1.5833334E0,0E0,1.95E0,6.2950134E-2,0E0,0E0,0E0,0E0,0E0,0E0,0E0,0E0,0E0,0E0,3.5555556E0,0E0,0E0,1.95E0,0E0,0E0,0E0,0E0,0E0,0E0,0E0,2.517857E0,1.95E0,0E0,0E0,0E0,0E0,0E0,0E0,0E0],"parents":[2147483647,0,0,1,1,2,2,3,3,4,4,5,5,6,6,7,7,8,8,9,9,10,10,11,11,12,12,13,13,14,14,16,16,18,18,19,19,20,20,22,22,24,24,25,25,26,26,27,27,28,28,32,32,34,34,39,39,40,40,41,41,42,42,43,43,44,44,45,45,46,46,48,48,49,49,50,50,53,53,55,55,57,57,58,58,62,62,64,64,65,65,67,67,68,68,69,69,71,71,73,73,74,74,75,75,77,77,78,78,80,80,83,83,84,84,86,86,87,87,88,88,97,97,98,98,99,99,104,104,106,106,111,111,113,113,114,114,125,125,128,128,136,136,137,137],"right_children":[2,4,6,8,10,12,14,-1,18,-1,22,24,-1,28,-1,-1,-1,-1,-1,-1,-1,-1,40,-1,-1,-1,-1,-1,50,-1,-1,-1,-1,-1,-1,-1,-1,-1,-1,-1,-1,-1,-1,-1,-1,-1,-1,-1,-1,-1,-1,-1,-1,-1,-1,-1,-1,-1,-1,-1,-1,-1,-1,-1,-1,-1,-1,-1,-1,-1,-1,-1,-1,-1,-1,-1,-1,-1,-1,-1,-1,-1,-1,-1,-1,-1,-1,-1,-1,-1,-1,-1,-1,-1,-1,-1,-1,-1,-1,-1,-1,-1,-1,-1,-1,-1,-1,-1,-1,-1,-1,-1,-1,-1,-1,-1,-1,-1,-1,-1,-1,-1,-1,-1,-1,-1,-1,-1,-1,-1,-1,-1,-1,-1,-1,-1,-1,-1,-1,-1,-1,-1,-1,-1,-1],"split_conditions":[6.250264E1,2.0525E2,2.4575E2,3.732566E1,4.1487344E-2,1.8473581E2,8.025751E1,-1.0697399E-1,1.812887E2,-3.968254E-2,5.251683E1,1.3483435E2,-3.1481482E-2,7.787562E1,-1.0294118E-1,-1.10407874E-1,-8.6021505E-2,-9.876543E-2,6.7183465E-2,4.4444446E-2,-7.777778E-2,-1.0885886E-1,1.280353E2,-8.3333336E-2,8.169935E-2,-5.714286E-2,4.2735045E-3,-8.222222E-2,3.7852398E-3,5.5555556E-2,-1.0613599E-1,-9.920635E-2,2.7777778E-2,1.05820104E-1,2.8985508E-2,-5.5555556E-2,8.3333336E-2,-9.876543E-2,5.5555556E-2,-1.48148155E-2,-1.01080246E-1,-2.7777778E-2,9.318996E-2,-2.3391813E-2,-9.150327E-2,5.5555556E-2,-5.1282052E-2,7.4074075E-2,-9.0277776E-2,3.125E-2,-4.9382716E-2,-5.5555556E-2,7.4074075E-2,5E-2,-8.3333336E-2,3.3333335E-2,-9.259259E-2,-0E0,-1.03968255E-1,5.5555556E-2,-7.4074075E-2,-5.5555556E-2,1E-1,8.3333336E-2,-4.8611112E-2,-2.7777778E-2,-1.03174604E-1,-2.7777778E-2,8.080808E-2,1.8518519E-2,-9.7222224E-2,-2.7777778E-2,-1.0810811E-1,5.7971016E-2,-3.3333335E-2,-1.3071896E-2,-1.0101011E-1,7.638889E-2,-4.4444446E-2,9.259259E-2,-4.4444446E-2,-7.4074075E-2,7.4074075E-2,-4.9382716E-2,-1.0690235E-1,1.0714286E-1,-0E0,4.4444446E-2,-8.3333336E-2,5.5555556E-2,-7.4074075E-2,-7.4074075E-2,5.5555556E-2,-5.5555556E-2,1E-1,-7.4074075E-2,8.3333336E-2,-6.944445E-2,4.4444446E-2,2.3809524E-2,1E-1,-9.52381E-2,8.3333336E-2,-9.52381E-2,4.040404E-2,1E-1,3.1746034E-2,5.5555556E-2,-8.3333336E-2,-8.3333336E-2,5.5555556E-2,2.7777778E-2,-9.259259E-2,-4.4444446E-2,-1.0850695E-1,-5.5555556E-2,5.5555556E-2,-5.5555556E-2,8.3333336E-2,5.5555556E-2,-1.0101011E-1,5.5555556E-2,-9.52381E-2,8.3333336E-2,-5.5555556E-2,-2.4691358E-2,9.259259E-2,9.52381E-2,-4.4444446E-2,-7.4074075E-2,8.888889E-2,-5.5555556E-2,7.4074075E-2,5.5555556E-2,-8.3333336E-2,-1.10192835E-1,-6.944445E-2,4.4444446E-2,-8.888889E-2,5.5555556E-2,-8.3333336E-2,-9.52381E-2,5.5555556E-2,-5.5555556E-2,8.3333336E-2],"split_indices":[9,5,5,9,2,4,3,9,8,5,9,4,8,9,4,2147483647,2147483647,0,6,2147483647,2147483647,0,4,0,2,2147483647,2147483647,4,1,2147483647,2147483647,2147483647,2147483647,2147483647,2147483647,2147483647,2147483647,2147483647,2147483647,3,3,2147483647,2147483647,2147483647,2147483647,2147483647,2147483647,2147483647,2147483647,4,5,2147483647,2147483647,2147483647,2147483647,2147483647,2147483647,2147483647,2147483647,2147483647,2147483647,2147483647,2147483647,2147483647,2147483647,2147483647,2147483647,2147483647,2147483647,2147483647,2147483647,2147483647,2147483647,2147483647,2147483647,2147483647,2147483647,2147483647,2147483647,2147483647,2147483647,2147483647,2147483647,2147483647,2147483647,2147483647,2147483647,2147483647,2147483647,2147483647,2147483647,2147483647,2147483647,2147483647,2147483647,2147483647,2147483647,2147483647,2147483647,2147483647,2147483647,2147483647,2147483647,2147483647,2147483647,2147483647,2147483647,2147483647,2147483647,2147483647,2147483647,2147483647,2147483647,2147483647,2147483647,2147483647,2147483647,2147483647,2147483647,2147483647,2147483647,2147483647,2147483647,2147483647,2147483647,2147483647,2147483647,2147483647,2147483647,2147483647,2147483647,2147483647,2147483647,2147483647,2147483647,2147483647,2147483647,2147483647,2147483647,2147483647,2147483647,2147483647,2147483647,2147483647,2147483647],"split_type":[0,0,0,0,0,0,0,0,0,0,0,0,0,0,0,0,0,0,0,0,0,0,0,0,0,0,0,0,0,0,0,0,0,0,0,0,0,0,0,0,0,0,0,0,0,0,0,0,0,0,0,0,0,0,0,0,0,0,0,0,0,0,0,0,0,0,0,0,0,0,0,0,0,0,0,0,0,0,0,0,0,0,0,0,0,0,0,0,0,0,0,0,0,0,0,0,0,0,0,0,0,0,0,0,0,0,0,0,0,0,0,0,0,0,0,0,0,0,0,0,0,0,0,0,0,0,0,0,0,0,0,0,0,0,0,0,0,0,0,0,0,0,0,0,0],"sum_hessian":[2.302E3,2.034E3,2.68E2,2.37E2,1.797E3,9.5E1,1.73E2,1.87E2,5E1,1.3E1,1.784E3,3.6E1,5.9E1,1.06E2,6.7E1,1.57E2,3E1,8E0,4.2E1,4E0,9E0,1.627E3,1.57E2,3E0,3.3E1,3.4E1,2.5E1,4.9E1,5.7E1,1E0,6.6E1,2.7E1,3E0,2E1,2.2E1,1E0,3E0,8E0,1E0,1.4E1,1.43E2,3E0,3E1,1.8E1,1.6E1,1.3E1,1.2E1,2E0,4.7E1,3.1E1,2.6E1,1E0,2E0,1.9E1,3E0,9E0,5E0,4E0,1.39E2,1E0,2E0,1E0,2.9E1,3E0,1.5E1,3E0,1.3E1,3E0,1E1,5E0,7E0,1.1E1,3.6E1,2.2E1,9E0,1.6E1,1E1,1.5E1,4E0,5E0,4E0,2E0,2E0,8E0,1.31E2,2.7E1,2E0,4E0,1.1E1,1E0,2E0,2E0,1E0,1E0,9E0,2E0,3E0,7E0,4E0,1.3E1,9E0,6E0,3E0,6E0,1E1,9E0,6E0,1E0,3E0,3E0,1E0,3E0,5E0,4E0,1.27E2,1E0,1E0,1E0,3E0,1E0,1E1,1E0,6E0,3E0,1E0,8E0,5E0,6E0,4E0,2E0,4E0,1E0,2E0,1E0,3E0,1.2E2,7E0,4E0,4E0,1E0,3E0,6E0,1E0,1E0,3E0],"tree_param":{"num_deleted":"118","num_feature":"10","num_nodes":"145","size_leaf_vector":"0"}},{"base_weights":[-8.138455E-1,7.9569894E-1,-8.7922704E-1,-3.6363637E-1,9.39759E-1,-9.2336625E-1,-2.5165564E-1,4E-1,-8.5714287E-1,9.634146E-1,-5E-1,-9.634215E-1,-7.1794873E-1,1.1111111E-2,-6.2903225E-1,-5E-1,7.5E-1,9.876543E-1,-5E-1,6.666667E-1,-9.656338E-1,5.8064514E-1,-8.411215E-1,-3.4615386E-1,1.5384616E-1,-1.25E-1,-9.230769E-1,-9.67833E-1,2.5E-1,7.307692E-1,-1.6666667E-1,-6.2068963E-1,-9.191489E-1,3.6363637E-1,-8.125E-1,3.902439E-1,-2.4E-1,8.5714287E-1,-5E-1,-9.689441E-1,5E-1,-5E-1,6.666667E-1,9.4736844E-1,1.25E-1,6.666667E-1,-7.5E-1,3.75E-1,-7.125E-1,5E-1,-9.273504E-1,6.25E-1,-2.5E-1,-9.285714E-1,-0E0,5.277778E-1,-5E-1,-5.5E-1,8.333333E-1,-9E-1,-0E0,-8.856209E-1,-9.8567533E-1,8E-1,-7.5E-1,-2.5E-1,8E-1,-7.5641024E-1,6.666667E-1,-7.54717E-1,-9.7252744E-1,8.333333E-1,-0E0,-6.666667E-1,5E-1,-5E-1,5E-1,-0E0,7.307692E-1,-8E-1,5E-1,-8.125E-1,4E-1,5E-1,-7.5E-1,-9.738806E-1,-2.5641027E-1,5E-1,-6.666667E-1,-1.25E-1,-8.169014E-1,-8.235294E-1,6.666667E-1,-5E-1,5E-1,-7.5E-1,3.75E-1,8E-1,-5E-1,-9.230769E-1,-2.5E-1,-5E-1,7.5E-1,-5E-1,8E-1,-9.9561405E-1,-8.292683E-1,2.777778E-1,-6.818182E-1,4E-1,-7.5E-1,-8.428571E-1,5E-1,-9.62963E-1,-6.4E-1,8.333333E-1,-6.666667E-1,3.75E-1,9.444444E-1,-6.666667E-1,5E-1,-9.189189E-1,-0E0,7.2727275E-1,-3.75E-1,-9.375E-1,-0E0,-5E-1,7.5E-1,-4.6153846E-1,-9.137931E-1,6.666667E-1,-7.826087E-1,8.333333E-1,-6.666667E-1],"categories":[],"categories_nodes":[],"categories_segments":[],"categories_sizes":[],"default_left":[1,1,1,1,1,1,1,1,1,1,1,1,1,1,1,1,1,1,1,0,1,1,1,1,1,1,0,1,1,1,1,1,1,1,1,1,1,0,1,1,0,1,1,1,1,1,1,1,1,1,1,1,1,1,1,1,1,1,0,1,1,1,0,1,1,1,1,1,1,1,1,1,1,1,1,1,1,1,1,1,1,1,1,1,1,1,1,1,1,1,1,1,1,1,1,1,1,1,1,1,1,1,1,1,1,1,1,1,1,1,1,1,1,1,1,1,1,1,1,1,1,1,1,1,1,1,1,1,1,1,1,1,1,1,1],"id":10,"left_children":[1,3,5,-1,-1,11,13,-1,-1,-1,-1,19,21,23,25,-1,-1,-1,-1,-1,27,-1,31,33,35,37,-1,39,-1,-1,-1,47,-1,-1,-1,-1,57,-1,-1,61,-1,-1,-1,-1,-1,-1,-1,-1,-1,-1,-1,-1,-1,-1,-1,-1,-1,-1,-1,-1,-1,85,-1,-1,-1,-1,-1,-1,-1,-1,-1,-1,-1,-1,-1,-1,-1,-1,-1,-1,-1,-1,-1,-1,-1,-1,107,-1,-1,-1,-1,-1,-1,-1,-1,-1,-1,-1,-1,-1,-1,-1,-1,-1,-1,-1,-1,-1,-1,-1,-1,-1,-1,-1,-1,-1,-1,-1,-1,-1,-1,-1,-1,-1,-1,-1,-1,-1,-1,-1,-1,-1,-1,-1,-1],"loss_changes":[2.5000012E2,1.5874031E1,6.2841675E1,4.488312E0,3.308548E0,1.6809326E1,1.4980455E1,1.95E0,0E0,3.402588E0,0E0,7.052124E0,5.6631332E1,4.642735E0,9.073511E0,0E0,0E0,0E0,0E0,0E0,4.9871826E0,3.5996695E0,4.9506073E0,8.901661E0,6.1454406E0,9.267857E0,0E0,3.3746338E0,1.5833334E0,3.2930164E0,3.4166667E0,8.220257E0,3.198883E0,1.9204545E0,1.5089283E0,5.2838755E0,8.776667E0,0E0,3.6000004E0,1.5959473E0,0E0,0E0,0E0,0E0,5.325E0,0E0,0E0,2.325E0,5.349037E0,0E0,1.0909882E0,1.0416665E0,1.5833334E0,0E0,1E0,3.8568373E0,2.2E0,5.3125E0,0E0,0E0,3.75E0,1.6743683E1,0E0,0E0,0E0,1.5833334E0,0E0,2.877079E0,0E0,5.7328873E0,0E0,0E0,1E0,0E0,0E0,0E0,0E0,3.375E0,2.615385E0,0E0,0E0,7.644234E-1,1.95E0,2.2E0,0E0,1.6662598E-2,9.052059E0,0E0,0E0,2.925E0,2.8482895E0,6.888046E-1,0E0,0E0,0E0,0E0,4.375E0,1.1805553E0,0E0,0E0,1.5833334E0,0E0,0E0,0E0,0E0,0E0,3.0481224E0,5.554293E0,3.835227E0,1.95E0,0E0,1.4716911E0,0E0,0E0,5.18029E0,0E0,0E0,4.375E0,0E0,0E0,0E0,0E0,0E0,0E0,0E0,0E0,0E0,0E0,0E0,0E0,0E0,0E0,0E0,0E0,0E0],"parents":[2147483647,0,0,1,1,2,2,3,3,4,4,5,5,6,6,7,7,9,9,11,11,12,12,13,13,14,14,20,20,21,21,22,22,23,23,24,24,25,25,27,27,28,28,29,29,30,30,31,31,32,32,33,33,34,34,35,35,36,36,38,38,39,39,44,44,47,47,48,48,50,50,51,51,52,52,54,54,55,55,56,56,57,57,60,60,61,61,65,65,67,67,69,69,72,72,77,77,78,78,81,81,82,82,83,83,85,85,86,86,89,89,90,90,91,91,96,96,97,97,100,100,106,106,107,107,108,108,109,109,111,111,114,114,117,117],"right_children":[2,4,6,-1,-1,12,14,-1,-1,-1,-1,20,22,24,26,-1,-1,-1,-1,-1,28,-1,32,34,36,38,-1,40,-1,-1,-1,48,-1,-1,-1,-1,58,-1,-1,62,-1,-1,-1,-1,-1,-1,-1,-1,-1,-1,-1,-1,-1,-1,-1,-1,-1,-1,-1,-1,-1,86,-1,-1,-1,-1,-1,-1,-1,-1,-1,-1,-1,-1,-1,-1,-1,-1,-1,-1,-1,-1,-1,-1,-1,-1,108,-1,-1,-1,-1,-1,-1,-1,-1,-1,-1,-1,-1,-1,-1,-1,-1,-1,-1,-1,-1,-1,-1,-1,-1,-1,-1,-1,-1,-1,-1,-1,-1,-1,-1,-1,-1,-1,-1,-1,-1,-1,-1,-1,-1,-1,-1,-1,-1],"split_conditions":[1.7775E2,4.95E1,7.756868E1,-4.040404E-2,1.0441767E-1,4.9438835E1,8.029438E1,4.4444446E-2,-9.52381E-2,1.0704607E-1,-5.5555556E-2,2.7491093E-2,2.0675E2,2.4323611E2,2.4575E2,-5.5555556E-2,8.3333336E-2,1.0973937E-1,-5.5555556E-2,7.4074075E-2,3.043393E-2,6.451613E-2,4.5972908E1,2.3225E2,3.075E2,2.0926486E2,-1.02564104E-1,9.271028E-1,2.7777778E-2,8.1196584E-2,-1.8518519E-2,1.280353E2,-1.0212766E-1,4.040404E-2,-9.0277776E-2,4.336043E-2,3.49E2,9.52381E-2,-5.5555556E-2,2.1425E2,5.5555556E-2,-5.5555556E-2,7.4074075E-2,1.0526316E-1,1.3888889E-2,7.4074075E-2,-8.3333336E-2,4.1666668E-2,-7.9166666E-2,5.5555556E-2,-1.0303894E-1,6.944445E-2,-2.7777778E-2,-1.03174604E-1,-0E0,5.8641978E-2,-5.5555556E-2,-6.111111E-2,9.259259E-2,-1E-1,-0E0,3.6651726E1,-1.0951948E-1,8.888889E-2,-8.3333336E-2,-2.7777778E-2,8.888889E-2,-8.404558E-2,7.4074075E-2,-8.385745E-2,-1.0805861E-1,9.259259E-2,-0E0,-7.4074075E-2,5.5555556E-2,-5.5555556E-2,5.5555556E-2,-0E0,8.1196584E-2,-8.888889E-2,5.5555556E-2,-9.0277776E-2,4.4444446E-2,5.5555556E-2,-8.3333336E-2,-1.08208954E-1,2.5E0,5.5555556E-2,-7.4074075E-2,-1.3888889E-2,-9.0766825E-2,-9.150327E-2,7.4074075E-2,-5.5555556E-2,5.5555556E-2,-8.3333336E-2,4.1666668E-2,8.888889E-2,-5.5555556E-2,-1.02564104E-1,-2.7777778E-2,-5.5555556E-2,8.3333336E-2,-5.5555556E-2,8.888889E-2,-1.10623784E-1,-9.214092E-2,3.08642E-2,-7.575758E-2,4.4444446E-2,-8.3333336E-2,-9.3650796E-2,5.5555556E-2,-1.0699589E-1,-7.111111E-2,9.259259E-2,-7.4074075E-2,4.1666668E-2,1.0493827E-1,-7.4074075E-2,5.5555556E-2,-1.021021E-1,-0E0,8.080808E-2,-4.1666668E-2,-1.04166664E-1,-0E0,-5.5555556E-2,8.3333336E-2,-5.1282052E-2,-1.0153256E-1,7.4074075E-2,-8.695652E-2,9.259259E-2,-7.4074075E-2],"split_indices":[5,6,9,0,4,9,3,2147483647,2147483647,2147483647,2147483647,2,5,8,5,2147483647,2147483647,2147483647,2147483647,0,1,2,3,5,5,4,0,0,3,2147483647,2147483647,4,9,9,1,4,5,0,5,5,0,2147483647,2147483647,2147483647,2147483647,2147483647,2147483647,0,3,2147483647,2147483647,2147483647,2147483647,2147483647,2147483647,2147483647,2147483647,2,0,2147483647,2147483647,9,0,2147483647,2147483647,2147483647,2147483647,2147483647,2147483647,2147483647,2147483647,2147483647,2147483647,2147483647,2147483647,2147483647,2147483647,2147483647,2147483647,2147483647,2147483647,2147483647,2147483647,2147483647,2147483647,9,7,2147483647,2147483647,2147483647,2147483647,2147483647,2147483647,2147483647,2147483647,2147483647,2147483647,2147483647,2147483647,2147483647,2147483647,2147483647,2147483647,2147483647,2147483647,2147483647,2147483647,3,8,2147483647,2147483647,2147483647,2147483647,2147483647,2147483647,2147483647,2147483647,2147483647,2147483647,2147483647,2147483647,2147483647,2147483647,2147483647,2147483647,2147483647,2147483647,2147483647,2147483647,2147483647,2147483647,2147483647,2147483647,2147483647,2147483647],"split_type":[0,0,0,0,0,0,0,0,0,0,0,0,0,0,0,0,0,0,0,0,0,0,0,0,0,0,0,0,0,0,0,0,0,0,0,0,0,0,0,0,0,0,0,0,0,0,0,0,0,0,0,0,0,0,0,0,0,0,0,0,0,0,0,0,0,0,0,0,0,0,0,0,0,0,0,0,0,0,0,0,0,0,0,0,0,0,0,0,0,0,0,0,0,0,0,0,0,0,0,0,0,0,0,0,0,0,0,0,0,0,0,0,0,0,0,0,0,0,0,0,0,0,0,0,0,0,0,0,0,0,0,0,0,0,0],"sum_hessian":[2.368E3,9.2E1,2.276E3,1E1,8.2E1,2.126E3,1.5E2,4E0,6E0,8.1E1,1E0,1.776E3,3.5E2,8.9E1,6.1E1,1E0,3E0,8E1,1E0,2E0,1.774E3,3E1,3.2E2,2.5E1,6.4E1,2.3E1,3.8E1,1.771E3,3E0,2.5E1,5E0,8.6E1,2.34E2,1E1,1.5E1,4E1,2.4E1,6E0,1.7E1,1.77E3,1E0,1E0,2E0,1.8E1,7E0,2E0,3E0,7E0,7.9E1,1E0,2.33E2,7E0,3E0,1.3E1,2E0,3.5E1,5E0,1.9E1,5E0,9E0,8E0,3.05E2,1.465E3,4E0,3E0,3E0,4E0,7.7E1,2E0,5.2E1,1.81E2,5E0,2E0,2E0,1E0,1E0,1E0,1E1,2.5E1,4E0,1E0,1.5E1,4E0,5E0,3E0,2.67E2,3.8E1,1E0,2E0,7E0,7E1,5E1,2E0,1E0,1E0,3E0,7E0,2.4E1,1E0,1.2E1,3E0,1E0,3E0,1E0,4E0,2.27E2,4E1,1.7E1,2.1E1,4E0,3E0,6.9E1,1E0,2.6E1,2.4E1,5E0,2E0,7E0,1.7E1,2E0,1E0,3.6E1,4E0,1E1,7E0,1.5E1,6E0,1E0,3E0,1.2E1,5.7E1,2E0,2.2E1,5E0,2E0],"tree_param":{"num_deleted":"94","num_feature":"10","num_nodes":"135","size_leaf_vector":"0"}},{"base_weights":[-9.0132743E-1,-9.625562E-1,-4.224806E-1,-0E0,-9.654482E-1,-3.409091E-2,-6.1988306E-1,7.5E-1,-7.5E-1,-9.779287E-1,-8.6580086E-1,4.642857E-1,-2.6229507E-1,-4.1346154E-1,-9.264706E-1,-4E-1,-9.79013E-1,-4.827586E-1,-9.162561E-1,-3E-1,8.4210527E-1,-5.1282054E-1,1.7391305E-1,-7.4E-1,-1.0909091E-1,5E-1,-9.5522386E-1,-7.5E-1,5E-1,-5E-1,-9.8009104E-1,3.75E-1,-7.7272725E-1,5E-1,-9.2574257E-1,1.6666667E-1,-8E-1,-0E0,9.411765E-1,-1.5E-1,-8.5E-1,7.692308E-1,-5.4545456E-1,6.666667E-1,-8.125E-1,3.809524E-1,-4E-1,5E-1,-8E-1,-2.5E-1,8E-1,-9.4736844E-1,2.5E-1,-2.857143E-1,-9.438776E-1,6.666667E-1,-2.5E-1,-5E-1,5E-1,-5E-1,5.714286E-1,-2.5E-1,-9.411765E-1,-5E-1,9.166667E-1,2.5E-1,-8.75E-1,-2.5E-1,-9.72973E-1,5.263158E-1,-6.666667E-1,-5.3125E-1,7.5E-1,5E-1,-6.666667E-1,6.666667E-1,-5E-1,-8E-1,6.666667E-1,-6.666667E-1,-9.6153843E-1,-6.666667E-1,5E-1,2.5E-1,-7.2727275E-1,-5E-1,8.333333E-1,5E-1,-6.666667E-1,-5E-1,6.666667E-1,-6.25E-1,4E-1,9E-1,1E-1,-2.857143E-1,-9.166667E-1,5E-1,-7.8571427E-1,-5.714286E-1,-9.7159094E-1,6.666667E-1,-5E-1,-9E-1,5E-1,5E-1,-8.5714287E-1,7.5E-1,-5E-1,-5E-1,8E-1,8.3333336E-2,-7E-1,-9.230769E-1,5E-1,5E-1,-8.333333E-1,5E-1,-8E-1,-3.75E-1,8E-1,-0E0,-8.75E-1,-8E-1,2.5E-1,-5E-1,5E-1],"categories":[],"categories_nodes":[],"categories_segments":[],"categories_sizes":[],"default_left":[1,1,1,1,1,1,1,1,1,1,1,1,1,1,1,1,1,1,1,1,1,1,1,1,1,1,1,1,1,1,1,1,1,1,1,1,1,1,1,1,1,1,1,1,1,1,1,1,1,1,1,1,1,1,1,1,1,1,1,1,1,1,1,1,1,1,1,1,1,1,1,1,1,1,1,1,1,1,1,1,1,1,1,1,1,1,1,1,1,1,1,1,1,1,1,1,1,1,1,1,1,1,1,1,1,1,1,1,1,1,1,1,1,1,1,1,1,1,1,1,1,1,1,1,1,1,1],"id":11,"left_children":[1,3,5,-1,9,11,13,-1,-1,-1,17,19,21,23,-1,